0.011399999999999993471888615204079542309045791625977,-0.0098000000000000031530333899354445748031139373779297,0.014899999999999996580513084154517855495214462280273,-0.043300000000000005151434834260726347565650939941406,-0.010399999999999999522604099411182687617838382720947,0.036699999999999996513899702677008463069796562194824,-0.019700000000000002231548279496564646251499652862549,0.019199999999999994848565165739273652434349060058594,0.022399999999999989364063424091000342741608619689941,0.01589999999999999746869150385464308783411979675293,-0.0092000000000000067834626804597064619883894920349121,0.045299999999999993050003865846520056948065757751465,0.0082999999999999948818718564780283486470580101013184,-0.040500000000000001276756478318930021487176418304443,-0.039400000000000004463096558993129292502999305725098,-0.014800000000000007593925488436070736497640609741211,-0.012700000000000002953193245502916397526860237121582,0.026899999999999993360866312741563888266682624816895,0.0078999999999999903632641462536412291228771209716797,-0.020200000000000002675637489346627262420952320098877,-0.021700000000000004007905118896815110929310321807861,-0.002600000000000005084821452783216955140233039855957,-0.021000000000000004773959005888173123821616172790527,-0.026800000000000000904831765069502580445259809494019,-0.0069000000000000033528735343679727520793676376342773,0.010999999999999995892174808886920800432562828063965,-0.046100000000000002087219286295294295996427536010742,0.02999999999999999888977697537484345957636833190918,-0.037299999999999999822364316059974953532218933105469,-0.0029000000000000067390537594747002003714442253112793,0.041599999999999998090416397644730750471353530883789,-0.040800000000000002930988785010413266718387603759766,-0.027500000000000003608224830031758756376802921295166,0.0063999999999999890309965167034533806145191192626953,0.0010999999999999968136599193258007289841771125793457,0.047199999999999991961985301713866647332906723022461,-0.0069000000000000033528735343679727520793676376342773,-0.033500000000000001998401444325281772762537002563477,0.016299999999999995048405310171801829710602760314941,-0.034600000000000005750955267558310879394412040710449,0.032299999999999995381472217559348791837692260742188,-0.0077000000000000054511950509095186134800314903259277,-0.0042000000000000023425705819590803002938628196716309,0.025800000000000003486100297322991536930203437805176,0.0017000000000000001221245327087672194465994834899902,0.0062999999999999931055150170777778839692473411560059,-0.039100000000000002808864252301646047271788120269775,-0.025800000000000003486100297322991536930203437805176,-0.016800000000000002431388423929092823527753353118896,-0.045999999999999999222843882762390421703457832336426,0.0039000000000000006883382752675970550626516342163086,0.011399999999999993471888615204079542309045791625977,0.0012999999999999956035168224843800999224185943603516,-0.032000000000000000666133814775093924254179000854492,-0.030300000000000000544009282066326704807579517364502,-0.020500000000000004329869796038110507652163505554199,0.028999999999999998001598555674718227237462997436523,-0.02650000000000000272004641033163352403789758682251,-0.005400000000000002020605904817784903571009635925293,-0.023200000000000001870725796493388770613819360733032,-0.044300000000000006039613253960851579904556274414062,-0.013900000000000002631228568361621000804007053375244,0.02109999999999999376054660160662024281919002532959,0.013299999999999992383870051071426132693886756896973,0.042499999999999996114219413811952108517289161682129,-0.027900000000000001187938636348917498253285884857178,0.010499999999999995448085599036858184263110160827637,0.020699999999999996180832795289461500942707061767578,0.023800000000000001709743457922741072252392768859863,-0.023300000000000001265654248072678456082940101623535,0.035999999999999990341059685761138098314404487609863,0.041200000000000000510702591327572008594870567321777,-0.045900000000000003297362383136714925058186054229736,0.017000000000000001221245327087672194465994834899902,0.016899999999999998356869923554768320173025131225586,0.040999999999999994781951784261764260008931159973145,-0.026800000000000000904831765069502580445259809494019,-0.037000000000000005107025913275720085948705673217773,-0.034900000000000000466293670342565746977925300598145,0.0062999999999999931055150170777778839692473411560059,-0.033100000000000004418687638008123030886054039001465,-0.045900000000000003297362383136714925058186054229736,0.0027999999999999969357844520345679484307765960693359,-0.046700000000000005395683899678260786458849906921387,-0.028000000000000004052314039881821372546255588531494,-0.042400000000000000188737914186276611872017383575439,0.018000000000000002109423746787797426804900169372559,-0.013900000000000002631228568361621000804007053375244,0.016200000000000006061817714453354710713028907775879,-0.037500000000000005551115123125782702118158340454102,0.048000000000000000999200722162640886381268501281738,0.021899999999999988919974214240937726572155952453613,0.033799999999999996713739847109536640346050262451172,0.019099999999999991984189762206369778141379356384277,-0.0149000000000000035194069880617462331429123878479,0.026200000000000001065814103640150278806686401367188,-0.02370000000000000231481500634345138678327202796936,0.045499999999999998778754672912327805534005165100098,-0.0032000000000000014543921622589550679549574851989746,-0.014800000000000007593925488436070736497640609741211,0.0073999999999999899191749364035786129534244537353516,0.017899999999999999245048343254893552511930465698242,-0.023600000000000002919886554764161701314151287078857,0.046599999999999988653520688330900156870484352111816,-0.015200000000000005173639294753229478374123573303223,-0.021600000000000004612976667317525425460189580917358,-0.027300000000000001348920974919565196614712476730347,0.04320000000000000228705943072782247327268123626709,-0.008700000000000006339373470609643845818936824798584,-0.01230000000000000537347943918575765565037727355957,0.034599999999999991873167459743854124099016189575195,0.043300000000000005151434834260726347565650939941406,0.026899999999999993360866312741563888266682624816895,-0.012600000000000000088817841970012523233890533447266,0.046599999999999988653520688330900156870484352111816,0.048899999999999999023003738329862244427204132080078,0.030100000000000001754152378907747333869338035583496,0.049699999999999994182431350964179728180170059204102,0.020099999999999992872368181906495010480284690856934,-0.0037000000000000018984813721090176841244101524353027,-0.037900000000000003130828929442941443994641304016113,0.018100000000000004973799150320701301097869873046875,-0.031900000000000004740652315149418427608907222747803,0.045799999999999993494093075696582673117518424987793,0.022300000000000000377475828372553223744034767150879,0.038300000000000000710542735760100185871124267578125,-0.042900000000000000632827124036339228041470050811768,0.048500000000000001443289932012703502550721168518066,-0.031000000000000003247402347028582880739122629165649,0.038999999999999993005594944861513795331120491027832,-0.016300000000000001987299214079030207358300685882568,-0.038500000000000006439293542825907934457063674926758,0.042099999999999998534505607494793366640806198120117,0.045199999999999990185628462313616182655096054077148,-0.0068000000000000004884981308350688777863979339599609,0.011999999999999996780353228587046032771468162536621,-0.02650000000000000272004641033163352403789758682251,0.01589999999999999746869150385464308783411979675293,0.0051000000000000003663735981263016583397984504699707,0.014799999999999993716137680621613981202244758605957,-0.011300000000000004485301019485632423311471939086914,-0.010300000000000003597122599785507190972566604614258,0.0079999999999999932276395497865451034158468246459961,-0.034400000000000000022204460492503130808472633361816,-0.037800000000000000266453525910037569701671600341797,0.039699999999999999178434961777384160086512565612793,-0.00040000000000000451860771022438711952418088912963867,0.042200000000000001398881011027697240933775901794434,0.039300000000000001598721155460225418210029602050781,-0.030400000000000003408384685599230579100549221038818,-0.011599999999999999200639422269887290894985198974609,-0.013400000000000002187139358511558384634554386138916,-0.027200000000000001953992523340275511145591735839844,0.041599999999999998090416397644730750471353530883789,0.01750000000000000166533453693773481063544750213623,0.04499999999999999833466546306226518936455249786377,-0.034900000000000000466293670342565746977925300598145,0.024599999999999996869171070557058556005358695983887,-0.02130000000000000642819131257965636905282735824585,-0.016000000000000000333066907387546962127089500427246,0.013499999999999998112620858137233881279826164245605,0.012299999999999998434585535278529278002679347991943,0.030600000000000002198241588757809950038790702819824,0.0055000000000000048849813083506887778639793395996094,0.0073999999999999899191749364035786129534244537353516,-0.026300000000000003930189507173054153099656105041504,0.0027000000000000010103029524088924517855048179626465,0.030800000000000007926992395823617698624730110168457,-0.025300000000000003042011087472928920760750770568848,-0.04230000000000000426325641456060111522674560546875,0.030700000000000005062616992290713824331760406494141,0.013399999999999995248245454604330006986856460571289,-0.0027000000000000079491968563161208294332027435302734,0.023899999999999990696331053641188191249966621398926,0.028899999999999995137223152141814352944493293762207,0.0093999999999999916955317758038290776312351226806641,0.048699999999999993294252931264054495841264724731445,0.013600000000000000976996261670137755572795867919922,0.0015999999999999972577491291758633451536297798156738,0.037999999999999992117416525161388562992215156555176,-0.031700000000000005950795411990839056670665740966797,-0.024900000000000001992850329202155990060418844223022,0.0096999999999999933497640824953123228624463081359863,-0.0089000000000000051292303737682232167571783065795898,-0.033300000000000003208544541166702401824295520782471,-0.02290000000000000021649348980190552538260817527771,0.021199999999999996624922005139524117112159729003906,-0.018300000000000003763656053479280672036111354827881,-0.048400000000000005517808432387028005905449390411377,0.049799999999999997046806754497083602473139762878418,-0.0492000000000000006772360450213454896584153175354,-0.049700000000000001121325254871408105827867984771729,0.011999999999999996780353228587046032771468162536621,-0.033500000000000001998401444325281772762537002563477,0.040900000000000005795364188543317141011357307434082,0.0045000000000000039968028886505635455250740051269531,-0.0098999999999999990785148895611200714483857154846191,-0.0065000000000000057731597280508140102028846740722656,0.020499999999999990452081988223653752356767654418945,0.050000000000000002775557561562891351059079170227051,0.0011999999999999996780353228587046032771468162536621,0.036299999999999998934185896359849721193313598632812,0.013299999999999992383870051071426132693886756896973,-0.016399999999999997912780713704705704003572463989258,0.010099999999999997868371792719699442386627197265625,0.02730000000000000481836792687317938543856143951416,0.042999999999999996558308623662014724686741828918457,0.0087999999999999953259610663280909648165106773376465,-0.0092000000000000067834626804597064619883894920349121,0.029700000000000004174438572590588591992855072021484,0.031899999999999997801758411242190049961209297180176,0.0089999999999999941158179694866703357547521591186523,-0.045299999999999999988897769753748434595763683319092,-0.0085000000000000075495165674510644748806953430175781,0.050000000000000002775557561562891351059079170227051,0.0064999999999999918953719202363572549074888229370117,-0.046300000000000000877076189453873666934669017791748,0.021199999999999996624922005139524117112159729003906,0.038099999999999994981791928694292437285184860229492,-0.0095000000000000014988010832439613295719027519226074,-0.043900000000000001521005543736464460380375385284424,-0.026000000000000002275957200481570907868444919586182,-0.0093000000000000027089441800853819586336612701416016,-0.046700000000000005395683899678260786458849906921387,-0.0095999999999999974242825828696368262171745300292969,0.016700000000000006505906924303417326882481575012207,0.0076999999999999915734072430950618581846356391906738,-0.034300000000000004096722960866827634163200855255127,-0.039800000000000002042810365310288034379482269287109,0.013299999999999992383870051071426132693886756896973,-0.034400000000000000022204460492503130808472633361816,0.046499999999999999666933092612453037872910499572754,-0.00040000000000000451860771022438711952418088912963867,0.028800000000000006150635556423367233946919441223145,0.015200000000000005173639294753229478374123573303223,-0.040400000000000005351274978693254524841904640197754,0.0060000000000000053290705182007513940334320068359375,0.043300000000000005151434834260726347565650939941406,-0.046499999999999999666933092612453037872910499572754,-0.018100000000000004973799150320701301097869873046875,0.02289999999999998980815263394106295891106128692627,0.035299999999999998046007476659724488854408264160156,0.040800000000000002930988785010413266718387603759766,-0.037200000000000003896882816434299456886947154998779,0.011899999999999993915977825054142158478498458862305,-0.024000000000000000499600361081320443190634250640869,0.019199999999999994848565165739273652434349060058594,0.015600000000000002753353101070388220250606536865234,-0.017700000000000000455191440096314181573688983917236,0.042499999999999996114219413811952108517289161682129,-0.0088000000000000022648549702353193424642086029052734,-0.011700000000000002065014825802791165187954902648926,-0.033600000000000004862776847858185647055506706237793,0.031799999999999994937383007709286175668239593505859,-0.0085000000000000075495165674510644748806953430175781,0.006799999999999993549604226927840500138700008392334,0.033599999999999990984989040043728891760110855102539,-0.015600000000000002753353101070388220250606536865234,-0.042400000000000000188737914186276611872017383575439,-0.02110000000000000416888745746746280929073691368103,-0.017200000000000000011102230246251565404236316680908,-0.026900000000000000299760216648792265914380550384521,-0.024700000000000003202993426043576619122177362442017,0.032299999999999995381472217559348791837692260742188,-0.013000000000000004607425552194399642758071422576904,-0.024300000000000002153832667772803688421845436096191,-0.02290000000000000021649348980190552538260817527771,-0.021899999999999999328315070101780293043702840805054,-0.031100000000000002642330798607872566208243370056152,0.015700000000000005617728504603292094543576240539551,0.0098999999999999921396209856538916938006877899169922,0.041800000000000003819167204710538499057292938232422,0.0010000000000000008881784197001252323389053344726562,0.035799999999999998490096686509787105023860931396484,-0.010300000000000003597122599785507190972566604614258,-0.0020000000000000017763568394002504646778106689453125,-0.038300000000000000710542735760100185871124267578125,-0.041200000000000000510702591327572008594870567321777,-0.0013000000000000025424107263916084775701165199279785,0.02910000000000000086597395920762210153043270111084,-0.048800000000000003097522238704186747781932353973389,0.039800000000000002042810365310288034379482269287109,0.0025999999999999981459275488759885774925351142883301,0.0027999999999999969357844520345679484307765960693359,-0.043300000000000005151434834260726347565650939941406,-0.020800000000000005984102102729593752883374691009521,-0.0052999999999999991562305012848810292780399322509766,0.040300000000000002486899575160350650548934936523438,0.013499999999999998112620858137233881279826164245605,0.0022000000000000005662137425588298356160521507263184,-0.030900000000000003852473895449293195270001888275146,0.046299999999999993938182285546645289286971092224121,0.025200000000000000177635683940025046467781066894531,0.029600000000000001310063169057684717699885368347168,-0.036299999999999998934185896359849721193313598632812,-0.0027000000000000079491968563161208294332027435302734,-0.044800000000000006483702463810914196074008941650391,0.025899999999999992472687893041438655927777290344238,0.025300000000000003042011087472928920760750770568848,-0.026000000000000002275957200481570907868444919586182,-0.0084000000000000046851411639181606005877256393432617,0.020299999999999998601118988972302759066224098205566,0.00089999999999999802380301616722135804593563079833984,-0.022300000000000000377475828372553223744034767150879,0.0060000000000000053290705182007513940334320068359375,0.040499999999999994337862574411701643839478492736816,0.025599999999999997757349490257183788344264030456543,-0.047100000000000002975397705995419528335332870483398,-0.015500000000000006827871601444712723605334758758545,0.0094999999999999945599071793367329519242048263549805,0.031899999999999997801758411242190049961209297180176,0.020799999999999999045208198822365375235676765441895,0.034400000000000000022204460492503130808472633361816,-0.015600000000000002753353101070388220250606536865234,-0.02650000000000000272004641033163352403789758682251,0.041099999999999997646327187794668134301900863647461,0.013600000000000000976996261670137755572795867919922,0.018100000000000004973799150320701301097869873046875,-0.033500000000000001998401444325281772762537002563477,0.012199999999999995570210131745625403709709644317627,-0.029800000000000000099920072216264088638126850128174,-0.014500000000000005939693181744587491266429424285889,0.043599999999999999866773237044981215149164199829102,-0.019500000000000003441691376337985275313258171081543,0.00019999999999999878985690315857937093824148178100586,-0.0075000000000000066613381477509392425417900085449219,0.027700000000000002398081733190338127315044403076172,0.0052999999999999991562305012848810292780399322509766,-0.031700000000000005950795411990839056670665740966797,0.038099999999999994981791928694292437285184860229492,-0.035500000000000003774758283725532237440347671508789,0.0097999999999999962141394860282161971554160118103027,0.0082999999999999948818718564780283486470580101013184,0.015299999999999994160226890471676597371697425842285,-0.02740000000000000074384942649885488208383321762085,-0.035700000000000002564615186884111608378589153289795,0.040999999999999994781951784261764260008931159973145,-0.016600000000000003641531520770513452589511871337891,0.0022999999999999964916952421845053322613239288330078,-0.024600000000000003808064974464286933653056621551514,0.042800000000000004707345624410663731396198272705078,-0.01589999999999999746869150385464308783411979675293,-0.018700000000000001343369859796439413912594318389893,0.027099999999999999089617119807371636852622032165527,-0.046300000000000000877076189453873666934669017791748,0.0047999999999999987121412914348184131085872650146484,-0.046700000000000005395683899678260786458849906921387,-0.047600000000000003419486915845482144504785537719727,0.0079999999999999932276395497865451034158468246459961,-0.030300000000000000544009282066326704807579517364502,0.049699999999999994182431350964179728180170059204102,0.0282000000000000028421709430404007434844970703125,0.040400000000000005351274978693254524841904640197754,0.043300000000000005151434834260726347565650939941406,-0.0062000000000000041189274213593307649716734886169434,-0.0095000000000000014988010832439613295719027519226074,-0.014300000000000007149836278586008120328187942504883,0.0066999999999999906852288233949366258457303047180176,-0.019000000000000002997602166487922659143805503845215,0.039099999999999995869970348394417669624090194702148,0.029899999999999996025401571841939585283398628234863,-0.0045999999999999999222843882762390421703457832336426,0.034099999999999991429078249893791507929563522338867,-0.011800000000000004929390229335695039480924606323242,-0.0042000000000000023425705819590803002938628196716309,-0.043400000000000001076916333886401844210922718048096,0.037599999999999994537702718844229821115732192993164,0.021899999999999988919974214240937726572155952453613,-0.010099999999999997868371792719699442386627197265625,-0.010200000000000000732747196252603316679596900939941,-0.017600000000000004529709940470638684928417205810547,0.017799999999999996380672939721989678218960762023926,-0.041000000000000001720845688168992637656629085540771,0.013700000000000003841371665203041629865765571594238,0.030100000000000001754152378907747333869338035583496,-0.037400000000000002686739719592878827825188636779785,0.0035999999999999990341059685761138098314404487609863,0.033299999999999996269650637259474024176597595214844,9.9999999999995925481499625675496645271778106689453e-05,-0.038500000000000006439293542825907934457063674926758,-0.047000000000000000111022302462515654042363166809082,-0.00020000000000000572875080706580774858593940734863281,-0.025200000000000003647082635893639235291630029678345,-0.021500000000000005218048215738235739991068840026855,-0.0070000000000000062172489379008766263723373413085938,0.018600000000000005417888360170763917267322540283203,-0.045900000000000003297362383136714925058186054229736,-0.036200000000000003008704396734174224548041820526123,0.01039999999999999258371019550395430997014045715332,-0.015000000000000006383782391594650107435882091522217,-0.047200000000000005839773109528323402628302574157715,-0.0098000000000000031530333899354445748031139373779297,-0.034500000000000002886579864025407005101442337036133,-0.028000000000000004052314039881821372546255588531494,0.028300000000000005706546346573304617777466773986816,0.046499999999999999666933092612453037872910499572754,-0.021400000000000005823119764158946054521948099136353,-0.049000000000000001887379141862766118720173835754395,-0.046499999999999999666933092612453037872910499572754,-0.046400000000000003741451592986777541227638721466064,-0.0093000000000000027089441800853819586336612701416016,-0.01410000000000000142108547152020037174224853515625,0.021399999999999988475885004390875110402703285217285,-0.00030000000000000165423230669148324523121118545532227,-0.015300000000000008038014698286133352667093276977539,0.001399999999999998467892226017283974215388298034668,0.047399999999999997690736108779674395918846130371094,0.038199999999999997846167332227196311578154563903809,-0.015400000000000003963496197911808849312365055084229,-0.0025000000000000022204460492503130808472633361816406,0.049599999999999991318055947431275853887200355529785,0.022699999999999997957189634689711965620517730712891,0.047199999999999991961985301713866647332906723022461,-0.02560000000000000469624339416441216599196195602417,-0.013700000000000003841371665203041629865765571594238,0.025300000000000003042011087472928920760750770568848,-0.021899999999999999328315070101780293043702840805054,-0.0095999999999999974242825828696368262171745300292969,-0.025800000000000003486100297322991536930203437805176,0.038400000000000003574918139293004060164093971252441,0.025300000000000003042011087472928920760750770568848,0.012099999999999999644728632119949907064437866210938,0.013700000000000003841371665203041629865765571594238,-0.024000000000000000499600361081320443190634250640869,0.034099999999999991429078249893791507929563522338867,0.027200000000000001953992523340275511145591735839844,-0.027600000000000003003153281611048441845923662185669,-0.0022000000000000075051076464660582132637500762939453,0.028099999999999999977795539507496869191527366638184,-0.024200000000000002758904216193514002952724695205688,0.0012999999999999956035168224843800999224185943603516,-0.031200000000000002037259250187162251677364110946655,0.046799999999999994382271495396707905456423759460449,-0.02740000000000000074384942649885488208383321762085,-0.046400000000000003741451592986777541227638721466064,-0.018600000000000005417888360170763917267322540283203,0.023899999999999990696331053641188191249966621398926,-0.049100000000000004751754545395669993013143539428711,0.004700000000000002786659791809142916463315486907959,-0.0063000000000000000444089209850062616169452667236328,0.033499999999999988120613636510825017467141151428223,0.0042999999999999982680520815847557969391345977783203,0.0015000000000000013322676295501878485083580017089844,-0.034200000000000001232347557333923759870231151580811,-0.036200000000000003008704396734174224548041820526123,0.037800000000000000266453525910037569701671600341797,0.040999999999999994781951784261764260008931159973145,0.026999999999999996225241716274467762559652328491211,-0.021899999999999999328315070101780293043702840805054,0.00029999999999999471533840278425486758351325988769531,0.015299999999999994160226890471676597371697425842285,-0.01150000000000000327515792264421179424971342086792,-0.0024000000000000062949645496246375842019915580749512,0.01410000000000000142108547152020037174224853515625,0.014399999999999996136423874304455239325761795043945,-0.01839999999999999968913755310495616868138313293457,-0.0088000000000000022648549702353193424642086029052734,-0.028100000000000003447242491461111058015376329421997,0.029300000000000006594724766273429850116372108459473,-0.030700000000000001593170040337099635507911443710327,0.032899999999999998689936830942315282300114631652832,-0.019500000000000003441691376337985275313258171081543,0.023199999999999998401278844539774581789970397949219,0.029600000000000001310063169057684717699885368347168,0.038300000000000000710542735760100185871124267578125,-0.038100000000000001920685832601520814932882785797119,-0.0037999999999999978239628717346931807696819305419922,0.012099999999999999644728632119949907064437866210938,-0.037299999999999999822364316059974953532218933105469,-0.014000000000000005495603971894524875096976757049561,-0.0091000000000000039190872769268025876954197883605957,-0.018600000000000005417888360170763917267322540283203,-0.024600000000000003808064974464286933653056621551514,0.042400000000000007127631818093504989519715309143066,-0.0029000000000000067390537594747002003714442253112793,-0.010899999999999999966693309261245303787291049957275,0.030100000000000001754152378907747333869338035583496,0.023300000000000001265654248072678456082940101623535,0.0011999999999999996780353228587046032771468162536621,-0.0067000000000000045630166312093933811411261558532715,-0.02650000000000000272004641033163352403789758682251,0.0015999999999999972577491291758633451536297798156738,0.031699999999999992073007604176382301375269889831543,0.020999999999999990896171198073716368526220321655273,-0.034300000000000004096722960866827634163200855255127,0.031299999999999994493293797859223559498786926269531,-0.01230000000000000537347943918575765565037727355957,0.006799999999999993549604226927840500138700008392334,-0.046900000000000004185540802836840157397091388702393,0.002099999999999997701838339025925961323082447052002,-0.038800000000000001154631945610162802040576934814453,-0.028900000000000002076117056049042730592191219329834,-0.032200000000000006394884621840901672840118408203125,-0.030500000000000002803313137178520264569669961929321,-0.01410000000000000142108547152020037174224853515625,-0.04400000000000000438538094726936833467334508895874,-0.018700000000000001343369859796439413912594318389893,-0.032800000000000002764455331316639785654842853546143,-0.046800000000000001321165399303936283104121685028076,0.029200000000000003730349362740525975823402404785156,0.0030999999999999985900167587260511936619877815246582,-0.0059000000000000024646951146678475197404623031616211,-0.039500000000000007327471962526033166795969009399414,0.028499999999999997557509345824655611068010330200195,0.021599999999999994204635811456682858988642692565918,0.042700000000000001842970220877759857103228569030762,0.0027000000000000010103029524088924517855048179626465,0.0015999999999999972577491291758633451536297798156738,0.01589999999999999746869150385464308783411979675293,-0.046100000000000002087219286295294295996427536010742,-0.020000000000000003885780586188047891482710838317871,-0.025400000000000002436939539052218606229871511459351,0.005400000000000002020605904817784903571009635925293,-0.038400000000000003574918139293004060164093971252441,-0.019300000000000004651834473179405904375016689300537,0.020999999999999990896171198073716368526220321655273,0.042800000000000004707345624410663731396198272705078,0.01839999999999999968913755310495616868138313293457,0.012999999999999997668531648287171265110373497009277,-0.018900000000000003602673714908632973674684762954712,0.0056000000000000008104628079763642745092511177062988,-0.040700000000000000066613381477509392425417900085449,0.002099999999999997701838339025925961323082447052002,0.023300000000000001265654248072678456082940101623535,-0.021200000000000003563815909046752494759857654571533,-0.026900000000000000299760216648792265914380550384521,0.029200000000000003730349362740525975823402404785156,0.045199999999999990185628462313616182655096054077148,-0.0098000000000000031530333899354445748031139373779297,-0.032400000000000005184741524999481043778359889984131,-0.040500000000000001276756478318930021487176418304443,0.043300000000000005151434834260726347565650939941406,0.011599999999999999200639422269887290894985198974609,0.0051000000000000003663735981263016583397984504699707,0.021699999999999997069011214989586733281612396240234,0.018299999999999996824762149572052294388413429260254,-0.0022000000000000075051076464660582132637500762939453,0.0094999999999999945599071793367329519242048263549805,0.0050000000000000044408920985006261616945266723632812,-0.036400000000000001798561299892753595486283302307129,0.013299999999999992383870051071426132693886756896973,0.034900000000000000466293670342565746977925300598145,0.023300000000000001265654248072678456082940101623535,0.0039000000000000006883382752675970550626516342163086,0.046399999999999996802557689079549163579940795898438,-0.045999999999999999222843882762390421703457832336426,-0.025200000000000003647082635893639235291630029678345,-0.02560000000000000469624339416441216599196195602417,-0.042500000000000003053113317719180486164987087249756,-0.027100000000000002559064071760985825676470994949341,0.040599999999999997202237977944605518132448196411133,0.012999999999999997668531648287171265110373497009277,-0.017800000000000003319566843629218055866658687591553,0.027800000000000005262457136723242001608014106750488,-0.013700000000000003841371665203041629865765571594238,0.046099999999999988209431478480837540701031684875488,-0.049100000000000004751754545395669993013143539428711,0.00059999999999999636957070947573811281472444534301758,0.041200000000000000510702591327572008594870567321777,-0.0090000000000000079936057773011270910501480102539062,0.018100000000000004973799150320701301097869873046875,-0.049300000000000003541611448554249363951385021209717,-0.01580000000000000154321000422896759118884801864624,0.014799999999999993716137680621613981202244758605957,0.0057000000000000036748382115092681488022208213806152,-0.0090000000000000079936057773011270910501480102539062,0.018200000000000007838174553853605175390839576721191,-0.011400000000000000410782519111307919956743717193604,-0.049500000000000002331468351712828734889626502990723,-0.026900000000000000299760216648792265914380550384521,0.037400000000000002686739719592878827825188636779785,0.048899999999999999023003738329862244427204132080078,-0.042099999999999998534505607494793366640806198120117,0.010599999999999998312461002569762058556079864501953,0.0027000000000000010103029524088924517855048179626465,-0.010500000000000002386979502944086561910808086395264,0.049699999999999994182431350964179728180170059204102,-0.037299999999999999822364316059974953532218933105469,0.049000000000000001887379141862766118720173835754395,-0.042900000000000000632827124036339228041470050811768,0.020699999999999996180832795289461500942707061767578,0.03949999999999999344968415471157641150057315826416,-0.044700000000000003619327060278010321781039237976074,-0.047200000000000005839773109528323402628302574157715,0.017200000000000006949996134153479943051934242248535,0.026700000000000001509903313490212894976139068603516,0.048799999999999996158628334796958370134234428405762,-0.046800000000000001321165399303936283104121685028076,0.012399999999999994360067034904204774647951126098633,-0.02480000000000000259792187762286630459129810333252,-0.0057999999999999996003197111349436454474925994873047,-0.019500000000000003441691376337985275313258171081543,0.010999999999999995892174808886920800432562828063965,-0.036500000000000004662936703425657469779253005981445,-0.019600000000000002836619827917274960782378911972046,-0.03339999999999999913402604079237789846956729888916,0.0045000000000000039968028886505635455250740051269531,0.048599999999999990429877527731150621548295021057129,0.040400000000000005351274978693254524841904640197754,0.040099999999999996758148768094542901962995529174805,0.006799999999999993549604226927840500138700008392334,0.027700000000000002398081733190338127315044403076172,-0.025900000000000002881028748902281222399324178695679,0.014700000000000004729550084903166862204670906066895,0.023399999999999990252241843791125575080513954162598,-0.03800000000000000599520433297584531828761100769043,-0.01070000000000000117683640610266593284904956817627,0.023099999999999995536903441006870707497000694274902,0.0097999999999999962141394860282161971554160118103027,-0.011800000000000004929390229335695039480924606323242,0.030100000000000001754152378907747333869338035583496,-0.019600000000000002836619827917274960782378911972046,0.012799999999999991939780841221363516524434089660645,-0.029500000000000005384581669432009221054613590240479,0.01839999999999999968913755310495616868138313293457,-0.020100000000000003280709037767337576951831579208374,0.047099999999999989097609898180962773039937019348145,0.017100000000000004085620730620576068758964538574219,-0.016899999999999998356869923554768320173025131225586,0.0094999999999999945599071793367329519242048263549805,-0.022600000000000002031708135064036468975245952606201,-0.037600000000000001476596622751458198763430118560791,-0.024900000000000001992850329202155990060418844223022,0.038300000000000000710542735760100185871124267578125,-0.024200000000000002758904216193514002952724695205688,0.040599999999999997202237977944605518132448196411133,-0.0098999999999999990785148895611200714483857154846191,-0.034600000000000005750955267558310879394412040710449,-0.025700000000000004091171845743701851461082696914673,-0.019600000000000002836619827917274960782378911972046,-0.009399999999999998634425679711057455278933048248291,0.031100000000000002642330798607872566208243370056152,-0.042000000000000002609024107869117869995534420013428,0.014700000000000004729550084903166862204670906066895,-0.0042999999999999982680520815847557969391345977783203,0.031299999999999994493293797859223559498786926269531,-0.038200000000000004785061236134424689225852489471436,-0.02990000000000000296429547574916796293109655380249,0.03949999999999999344968415471157641150057315826416,0.021499999999999991340260407923778984695672988891602,0.008199999999999992017496452945124474354088306427002,-0.045200000000000004063416270128072937950491905212402,-0.048199999999999999789057625321220257319509983062744,-0.029100000000000004335420911161236290354281663894653,-0.02480000000000000259792187762286630459129810333252,0.020099999999999992872368181906495010480284690856934,0.035900000000000001354472090042690979316830635070801,0.007499999999999992783550339936482487246394157409668,0.022399999999999989364063424091000342741608619689941,0.0040999999999999994781951784261764260008931159973145,-0.033100000000000004418687638008123030886054039001465,0.049699999999999994182431350964179728180170059204102,0.016399999999999997912780713704705704003572463989258,0.027099999999999999089617119807371636852622032165527,-0.026800000000000000904831765069502580445259809494019,-0.022600000000000002031708135064036468975245952606201,0.017600000000000004529709940470638684928417205810547,0.01320000000000000339728245535297901369631290435791,-0.0073000000000000009325873406851314939558506011962891,-0.02290000000000000021649348980190552538260817527771,0.043499999999999997002397833512077340856194496154785,0.033299999999999996269650637259474024176597595214844,-0.041900000000000006683542608243442373350262641906738,-0.013400000000000002187139358511558384634554386138916,-0.0021000000000000046407322429331543389707803726196289,0.03890000000000000401900734914306667633354663848877,0.0030000000000000026645352591003756970167160034179688,0.0095999999999999974242825828696368262171745300292969,-0.041100000000000004585221091701896511949598789215088,-0.0075000000000000066613381477509392425417900085449219,0.016200000000000006061817714453354710713028907775879,0.017000000000000001221245327087672194465994834899902,-0.0028000000000000038746783559417963260784745216369629,-0.046900000000000004185540802836840157397091388702393,-0.027000000000000003164135620181696140207350254058838,-0.042500000000000003053113317719180486164987087249756,-0.041599999999999998090416397644730750471353530883789,-0.041200000000000000510702591327572008594870567321777,0.014899999999999996580513084154517855495214462280273,0.030700000000000005062616992290713824331760406494141,0.012899999999999994804156244754267390817403793334961,-0.033100000000000004418687638008123030886054039001465,-0.034500000000000002886579864025407005101442337036133,0.014399999999999996136423874304455239325761795043945,0.043899999999999994582111639829236082732677459716797,-0.011400000000000000410782519111307919956743717193604,0.041700000000000000954791801177634624764323234558105,0.046699999999999991517896091863804031163454055786133,-0.048300000000000002653433028854124131612479686737061,-0.015600000000000002753353101070388220250606536865234,-0.026300000000000003930189507173054153099656105041504,-0.019700000000000002231548279496564646251499652862549,-0.032400000000000005184741524999481043778359889984131,0.016899999999999998356869923554768320173025131225586,0.01679999999999999549249452002186444588005542755127,-0.049399999999999999467092948179924860596656799316406,0.0057000000000000036748382115092681488022208213806152,-0.030200000000000001149080830487037019338458776473999,0.045299999999999993050003865846520056948065757751465,0.014499999999999999000799277837359113618731498718262,0.012199999999999995570210131745625403709709644317627,0.046599999999999988653520688330900156870484352111816,0.016600000000000003641531520770513452589511871337891,-0.0055000000000000048849813083506887778639793395996094,0.049599999999999991318055947431275853887200355529785,0.03949999999999999344968415471157641150057315826416,0.0018999999999999989119814358673465903848409652709961,-0.042099999999999998534505607494793366640806198120117,0.048199999999999992850163721413991879671812057495117,0.0020000000000000017763568394002504646778106689453125,0.038499999999999992561505735011451179161667823791504,0.046199999999999991073806882013741414994001388549805,0.018799999999999997268851359422114910557866096496582,-0.010800000000000004041211809635569807142019271850586,0.010599999999999998312461002569762058556079864501953,0.047899999999999998134825318629737012088298797607422,-0.037100000000000001032507412901395582593977451324463,0.0022000000000000005662137425588298356160521507263184,-0.020300000000000005540012892879531136713922023773193,-0.035400000000000000910382880192628363147377967834473,-0.028300000000000002237099394619690428953617811203003,0.038499999999999992561505735011451179161667823791504,0.02999999999999999888977697537484345957636833190918,0.024399999999999991140420263491250807419419288635254,0.0052999999999999991562305012848810292780399322509766,-0.0032000000000000014543921622589550679549574851989746,-0.039900000000000004907185768843191908672451972961426,-0.039100000000000002808864252301646047271788120269775,-0.048300000000000002653433028854124131612479686737061,-0.044700000000000003619327060278010321781039237976074,-0.039500000000000007327471962526033166795969009399414,0.049000000000000001887379141862766118720173835754395,-0.048199999999999999789057625321220257319509983062744,0.026999999999999996225241716274467762559652328491211,-0.0066000000000000016986412276764895068481564521789551,-0.048600000000000004307665335545607376843690872192383,0.016399999999999997912780713704705704003572463989258,-0.019600000000000002836619827917274960782378911972046,-0.0056000000000000008104628079763642745092511177062988,0.049699999999999994182431350964179728180170059204102,-0.03250000000000000111022302462515654042363166809082,-0.017100000000000004085620730620576068758964538574219,0.045899999999999996358468479229486547410488128662109,0.036299999999999998934185896359849721193313598632812,-0.042800000000000004707345624410663731396198272705078,0.041599999999999998090416397644730750471353530883789,-0.030700000000000001593170040337099635507911443710327,-0.030000000000000002359223927328457648400217294692993,0.028899999999999995137223152141814352944493293762207,-0.0011000000000000037525538232330291066318750381469727,0.019699999999999995292654375589336268603801727294922,-0.049399999999999999467092948179924860596656799316406,-0.012700000000000002953193245502916397526860237121582,-0.00030000000000000165423230669148324523121118545532227,-0.039900000000000004907185768843191908672451972961426,-0.022300000000000000377475828372553223744034767150879,-0.01839999999999999968913755310495616868138313293457,-0.029800000000000000099920072216264088638126850128174,-0.01150000000000000327515792264421179424971342086792,-0.016800000000000002431388423929092823527753353118896,-0.024600000000000003808064974464286933653056621551514,-0.0011000000000000037525538232330291066318750381469727,-0.017899999999999999245048343254893552511930465698242,0.012399999999999994360067034904204774647951126098633,0.010999999999999995892174808886920800432562828063965,-0.039400000000000004463096558993129292502999305725098,0.048899999999999999023003738329862244427204132080078,0.012499999999999997224442438437108648940920829772949,-0.0091000000000000039190872769268025876954197883605957,-0.0068000000000000004884981308350688777863979339599609,0.012099999999999999644728632119949907064437866210938,0.0083999999999999908073533561037038452923297882080078,-0.038800000000000001154631945610162802040576934814453,0.043099999999999999422684027194918598979711532592773,0.029800000000000007038813976123492466285824775695801,-0.031700000000000005950795411990839056670665740966797,-0.030200000000000001149080830487037019338458776473999,-0.01580000000000000154321000422896759118884801864624,0.023499999999999993116617247324029449373483657836914,0.048699999999999993294252931264054495841264724731445,-0.031800000000000001876276911616514553315937519073486,0.028300000000000005706546346573304617777466773986816,-0.015600000000000002753353101070388220250606536865234,0.040599999999999997202237977944605518132448196411133,-0.022100000000000001587618925213973852805793285369873,-0.0056000000000000008104628079763642745092511177062988,-0.031800000000000001876276911616514553315937519073486,0.044599999999999986877163848930649692192673683166504,0.014499999999999999000799277837359113618731498718262,0.041800000000000003819167204710538499057292938232422,-0.022300000000000000377475828372553223744034767150879,-0.024900000000000001992850329202155990060418844223022,-0.009399999999999998634425679711057455278933048248291,0.0096999999999999933497640824953123228624463081359863,-0.02740000000000000074384942649885488208383321762085,-0.013300000000000006261657858885882887989282608032227,-0.044600000000000000754951656745106447488069534301758,-0.028600000000000003891331701311173674184828996658325,0.049099999999999990873966737581213237717747688293457,-0.0037000000000000018984813721090176841244101524353027,0.049699999999999994182431350964179728180170059204102,0.011099999999999998756550212419824674725532531738281,-0.010200000000000000732747196252603316679596900939941,-0.039100000000000002808864252301646047271788120269775,0.039400000000000004463096558993129292502999305725098,0.004700000000000002786659791809142916463315486907959,0.014299999999999993272048470771551365032792091369629,-0.040900000000000005795364188543317141011357307434082,-0.026000000000000002275957200481570907868444919586182,0.02289999999999998980815263394106295891106128692627,-0.0071000000000000021427304375265521230176091194152832,-0.0079000000000000042410519540680979844182729721069336,0.0011999999999999996780353228587046032771468162536621,0.027200000000000001953992523340275511145591735839844,-0.017399999999999998800959133404830936342477798461914,-0.035800000000000005428990590417015482671558856964111,0.006799999999999993549604226927840500138700008392334,0.035900000000000001354472090042690979316830635070801,-0.041200000000000000510702591327572008594870567321777,0.0063999999999999890309965167034533806145191192626953,0.027599999999999999533706329657434253022074699401855,-0.013600000000000000976996261670137755572795867919922,-0.03339999999999999913402604079237789846956729888916,0.0032999999999999973798736618846305646002292633056641,-0.018700000000000001343369859796439413912594318389893,-0.010899999999999999966693309261245303787291049957275,0.039900000000000004907185768843191908672451972961426,-0.013400000000000002187139358511558384634554386138916,0.04559999999999998776534226863077492453157901763916,0.03890000000000000401900734914306667633354663848877,-0.032000000000000000666133814775093924254179000854492,0.045299999999999993050003865846520056948065757751465,0.035099999999999992317256669593916740268468856811523,0.042900000000000007571721027943567605689167976379395,-0.008700000000000006339373470609643845818936824798584,0.024399999999999991140420263491250807419419288635254,-0.0025000000000000022204460492503130808472633361816406,-0.0093000000000000027089441800853819586336612701416016,-0.031300000000000001432187701766451937146484851837158,-0.043400000000000001076916333886401844210922718048096,-0.036400000000000001798561299892753595486283302307129,0.011499999999999996336264018736983416602015495300293,-0.0014000000000000054067861299245123518630862236022949,0.014700000000000004729550084903166862204670906066895,0.023899999999999990696331053641188191249966621398926,-0.033700000000000000788258347483861143700778484344482,0.028800000000000006150635556423367233946919441223145,0.015799999999999994604316100321739213541150093078613,-0.047900000000000005073719222536965389735996723175049,0.037499999999999991673327315311325946822762489318848,-0.027900000000000001187938636348917498253285884857178,-0.035200000000000002120525977034048992209136486053467,0.0090999999999999969801933730195742100477218627929688,-0.011300000000000004485301019485632423311471939086914,0.018000000000000002109423746787797426804900169372559,-0.024500000000000000943689570931383059360086917877197,-0.037100000000000001032507412901395582593977451324463,0.0077999999999999944377826466279657324776053428649902,0.011999999999999996780353228587046032771468162536621,-0.0063000000000000000444089209850062616169452667236328,-0.0034000000000000002442490654175344388931989669799805,-0.034800000000000004540812170716890250332653522491455,0.024099999999999996425081860706995939835906028747559,0.016899999999999998356869923554768320173025131225586,-0.042000000000000002609024107869117869995534420013428,0.00050000000000000044408920985006261616945266723632812,-0.0088000000000000022648549702353193424642086029052734,0.040700000000000000066613381477509392425417900085449,0.041099999999999997646327187794668134301900863647461,0.0097999999999999962141394860282161971554160118103027,0.047199999999999991961985301713866647332906723022461,-0.010200000000000000732747196252603316679596900939941,0.0064999999999999918953719202363572549074888229370117,0.030999999999999999777955395074968691915273666381836,-0.045600000000000001643130076445231679826974868774414,-0.019700000000000002231548279496564646251499652862549,0.047199999999999991961985301713866647332906723022461,-0.03160000000000000308642000845793518237769603729248,0.045999999999999999222843882762390421703457832336426,-0.015500000000000006827871601444712723605334758758545,-0.0090000000000000079936057773011270910501480102539062,0.0032000000000000014543921622589550679549574851989746,-0.00080000000000000209832151654154586140066385269165039,-0.014800000000000007593925488436070736497640609741211,-0.022999999999999999611421941381195210851728916168213,-0.032800000000000002764455331316639785654842853546143,0.010599999999999998312461002569762058556079864501953,-0.010099999999999997868371792719699442386627197265625,-0.039900000000000004907185768843191908672451972961426,0.0077999999999999944377826466279657324776053428649902,-0.031300000000000001432187701766451937146484851837158,0.041900000000000006683542608243442373350262641906738,0.02289999999999998980815263394106295891106128692627,0.042700000000000001842970220877759857103228569030762,0.0086999999999999924615856627951870905235409736633301,-0.034000000000000002442490654175344388931989669799805,-0.0069000000000000033528735343679727520793676376342773,-0.015000000000000006383782391594650107435882091522217,-0.043400000000000001076916333886401844210922718048096,-0.01589999999999999746869150385464308783411979675293,-0.020000000000000003885780586188047891482710838317871,-0.046200000000000004951594689828198170289397239685059,-0.040900000000000005795364188543317141011357307434082,0.036400000000000001798561299892753595486283302307129,-0.030100000000000001754152378907747333869338035583496,-0.0014000000000000054067861299245123518630862236022949,0.0017999999999999960476060323344427160918712615966797,-0.033000000000000001554312234475219156593084335327148,0.016899999999999998356869923554768320173025131225586,0.032899999999999998689936830942315282300114631652832,0.036599999999999993649524299144104588776826858520508,-0.0069000000000000033528735343679727520793676376342773,-0.014000000000000005495603971894524875096976757049561,-0.014200000000000004285460875053104246035218238830566,0.0282000000000000028421709430404007434844970703125,0.012999999999999997668531648287171265110373497009277,0.038099999999999994981791928694292437285184860229492,0.023999999999999993560706457174092065542936325073242,-0.012000000000000003719247132494274410419166088104248,-0.01669999999999999956701302039618894923478364944458,-0.018300000000000003763656053479280672036111354827881,0.041800000000000003819167204710538499057292938232422,-0.024900000000000001992850329202155990060418844223022,-0.010300000000000003597122599785507190972566604614258,0.034400000000000000022204460492503130808472633361816,-0.031100000000000002642330798607872566208243370056152,0.0056000000000000008104628079763642745092511177062988,-0.022600000000000002031708135064036468975245952606201,0.0039000000000000006883382752675970550626516342163086,0.012199999999999995570210131745625403709709644317627,0.046599999999999988653520688330900156870484352111816,0.033799999999999996713739847109536640346050262451172,-0.048900000000000005961897642237090622074902057647705,-0.0092000000000000067834626804597064619883894920349121,-0.044700000000000003619327060278010321781039237976074,-0.029100000000000004335420911161236290354281663894653,0.039400000000000004463096558993129292502999305725098,0.0069999999999999923394611300864198710769414901733398,0.022999999999999992672528037473966833204030990600586,0.0062000000000000041189274213593307649716734886169434,-0.010200000000000000732747196252603316679596900939941,0.0095999999999999974242825828696368262171745300292969,-0.015600000000000002753353101070388220250606536865234,0.025700000000000000621724893790087662637233734130859,-0.019500000000000003441691376337985275313258171081543,-0.0022000000000000075051076464660582132637500762939453,0.023800000000000001709743457922741072252392768859863,0.0037000000000000018984813721090176841244101524353027,-0.028300000000000002237099394619690428953617811203003,-0.0031000000000000055289106626332795713096857070922852,0.036900000000000002242650509742816211655735969543457,0.038499999999999992561505735011451179161667823791504,-0.011400000000000000410782519111307919956743717193604,-0.0028000000000000038746783559417963260784745216369629,-0.021899999999999999328315070101780293043702840805054,-0.027100000000000002559064071760985825676470994949341,0.016000000000000000333066907387546962127089500427246,-0.031200000000000002037259250187162251677364110946655,0.035400000000000000910382880192628363147377967834473,0.0050000000000000044408920985006261616945266723632812,-0.033899999999999999578115250642440514639019966125488,-0.032800000000000002764455331316639785654842853546143,-0.011300000000000004485301019485632423311471939086914,0.0022999999999999964916952421845053322613239288330078,0.0078999999999999903632641462536412291228771209716797,0.02910000000000000086597395920762210153043270111084,0.023099999999999995536903441006870707497000694274902,-0.0028000000000000038746783559417963260784745216369629,-0.014000000000000005495603971894524875096976757049561,0.031299999999999994493293797859223559498786926269531,-0.011400000000000000410782519111307919956743717193604,0.025700000000000000621724893790087662637233734130859,0.025999999999999995337063296574342530220746994018555,0.02289999999999998980815263394106295891106128692627,0.036599999999999993649524299144104588776826858520508,-0.043599999999999999866773237044981215149164199829102,0.0057999999999999996003197111349436454474925994873047,0.045499999999999998778754672912327805534005165100098,0.045199999999999990185628462313616182655096054077148,0.027399999999999993804955522591626504436135292053223,-0.0076000000000000025868196473766147391870617866516113,0.031999999999999986788346006960637168958783149719238,-0.049000000000000001887379141862766118720173835754395,0.03089999999999999691357999154206481762230396270752,0.014299999999999993272048470771551365032792091369629,0.014200000000000004285460875053104246035218238830566,-0.011000000000000002831068712794149178080260753631592,-0.019700000000000002231548279496564646251499652862549,0.032999999999999987676524426660762401297688484191895,0.0094999999999999945599071793367329519242048263549805,-0.029600000000000004779510121011298906523734331130981,0.049000000000000001887379141862766118720173835754395,0.026599999999999998645527909957309020683169364929199,0.044299999999999992161825446146394824609160423278809,0.0012999999999999956035168224843800999224185943603516,0.019699999999999995292654375589336268603801727294922,0.023300000000000001265654248072678456082940101623535,0.0094999999999999945599071793367329519242048263549805,0.0020000000000000017763568394002504646778106689453125,-0.040700000000000000066613381477509392425417900085449,0.025899999999999992472687893041438655927777290344238,0.040499999999999994337862574411701643839478492736816,-0.02990000000000000296429547574916796293109655380249,0.0017999999999999960476060323344427160918712615966797,0.048599999999999990429877527731150621548295021057129,-0.0082000000000000058952842607595812296494841575622559,0.043300000000000005151434834260726347565650939941406,0.0042999999999999982680520815847557969391345977783203,-0.012700000000000002953193245502916397526860237121582,0.038400000000000003574918139293004060164093971252441,0.016899999999999998356869923554768320173025131225586,0.029600000000000001310063169057684717699885368347168,-0.044400000000000001965094753586527076549828052520752,0.017799999999999996380672939721989678218960762023926,0.04559999999999998776534226863077492453157901763916,0.019799999999999998157029779122240142896771430969238,-0.018000000000000002109423746787797426804900169372559,-0.015500000000000006827871601444712723605334758758545,-0.014800000000000007593925488436070736497640609741211,9.9999999999995925481499625675496645271778106689453e-05,0.043999999999999997446487043362139957025647163391113,0.0056000000000000008104628079763642745092511177062988,-0.0010000000000000008881784197001252323389053344726562,-0.044300000000000006039613253960851579904556274414062,-0.00020000000000000572875080706580774858593940734863281,-0.014600000000000001865174681370262987911701202392578,-0.039500000000000007327471962526033166795969009399414,0.008199999999999992017496452945124474354088306427002,-0.019900000000000004490852134608758206013590097427368,0.012499999999999997224442438437108648940920829772949,0.017399999999999998800959133404830936342477798461914,-0.04410000000000000031086244689504383131861686706543,0.038099999999999994981791928694292437285184860229492,-0.027300000000000001348920974919565196614712476730347,0.0076999999999999915734072430950618581846356391906738,-0.0282000000000000028421709430404007434844970703125,0.014399999999999996136423874304455239325761795043945,0.03609999999999999320543508929404197260737419128418,-0.038699999999999998290256542077258927747607231140137,-0.048400000000000005517808432387028005905449390411377,0.02449999999999999400479566702415468171238899230957,0.028099999999999999977795539507496869191527366638184,0.031100000000000002642330798607872566208243370056152,-0.034800000000000004540812170716890250332653522491455,0.030999999999999999777955395074968691915273666381836,-0.038100000000000001920685832601520814932882785797119,0.034900000000000000466293670342565746977925300598145,-0.001900000000000005850875339774574968032538890838623,-0.0037000000000000018984813721090176841244101524353027,0.0052999999999999991562305012848810292780399322509766,-0.01669999999999999956701302039618894923478364944458,0.02539999999999999202859868319137603975832462310791,-0.039199999999999998734345751927321543917059898376465,0.032299999999999995381472217559348791837692260742188,-0.033700000000000000788258347483861143700778484344482,0.045699999999999990629717672163678798824548721313477,0.0027999999999999969357844520345679484307765960693359,-0.023300000000000001265654248072678456082940101623535,0.0037999999999999978239628717346931807696819305419922,0.032799999999999995825561427409411408007144927978516,-0.025700000000000004091171845743701851461082696914673,0.0063999999999999890309965167034533806145191192626953,-0.026100000000000005140332604014474782161414623260498,-0.037600000000000001476596622751458198763430118560791,-0.035800000000000005428990590417015482671558856964111,-0.033300000000000003208544541166702401824295520782471,-0.01589999999999999746869150385464308783411979675293,0.028499999999999997557509345824655611068010330200195,-0.047300000000000001765254609153998899273574352264404,0.030499999999999999333866185224906075745820999145508,-0.034700000000000001676436767183986376039683818817139,-0.037700000000000004340972026284362073056399822235107,0.043700000000000002731148640577885089442133903503418,-0.018500000000000002553512956637860042974352836608887,-0.022600000000000002031708135064036468975245952606201,0.024699999999999999733546474089962430298328399658203,-0.0067000000000000045630166312093933811411261558532715,-0.0025000000000000022204460492503130808472633361816406,0.0078999999999999903632641462536412291228771209716797,-0.025200000000000003647082635893639235291630029678345,-0.047300000000000001765254609153998899273574352264404,0.041200000000000000510702591327572008594870567321777,-0.049899999999999999911182158029987476766109466552734,-0.0014000000000000054067861299245123518630862236022949,-0.04140000000000000623945339839337975718080997467041,0.0015000000000000013322676295501878485083580017089844,-0.0057999999999999996003197111349436454474925994873047,0.046499999999999999666933092612453037872910499572754,0.0282000000000000028421709430404007434844970703125,-0.016899999999999998356869923554768320173025131225586,0.029300000000000006594724766273429850116372108459473,-0.01240000000000000129896093881143315229564905166626,-0.025400000000000002436939539052218606229871511459351,-0.011700000000000002065014825802791165187954902648926,-0.00010000000000000286437540353290387429296970367431641,-0.011300000000000004485301019485632423311471939086914,0.0049000000000000015765166949677222874015569686889648,-0.03080000000000000098809849191638932097703218460083,0.0023999999999999993560706457174092065542936325073242,0.007499999999999992783550339936482487246394157409668,0.049599999999999991318055947431275853887200355529785,0.017600000000000004529709940470638684928417205810547,-0.045000000000000005273559366969493567012250423431396,0.043300000000000005151434834260726347565650939941406,0.049000000000000001887379141862766118720173835754395,-0.017700000000000000455191440096314181573688983917236,-0.046900000000000004185540802836840157397091388702393,-0.0077000000000000054511950509095186134800314903259277,0.029700000000000004174438572590588591992855072021484,0.046099999999999988209431478480837540701031684875488,0.017000000000000001221245327087672194465994834899902,-0.03250000000000000111022302462515654042363166809082,-0.027600000000000003003153281611048441845923662185669,-0.047800000000000002209343819004061515443027019500732,0.016000000000000000333066907387546962127089500427246,-0.019100000000000002392530618067212344612926244735718,0.0037000000000000018984813721090176841244101524353027,-0.039900000000000004907185768843191908672451972961426,-0.022600000000000002031708135064036468975245952606201,0.017000000000000001221245327087672194465994834899902,0.028399999999999994693133942291751736775040626525879,-0.0082000000000000058952842607595812296494841575622559,-0.045500000000000005717648576819556183181703090667725,-0.047100000000000002975397705995419528335332870483398,0.02999999999999999888977697537484345957636833190918,0.039599999999999996314059558244480285793542861938477,0.026800000000000004374278717023116769269108772277832,0.019999999999999990007992778373591136187314987182617,-0.041300000000000003375077994860475882887840270996094,0.014299999999999993272048470771551365032792091369629,0.012600000000000000088817841970012523233890533447266,-0.0066000000000000016986412276764895068481564521789551,-0.018200000000000000899280649946376797743141651153564,0.01750000000000000166533453693773481063544750213623,0.021799999999999999933386618522490607574582099914551,-0.019300000000000004651834473179405904375016689300537,-0.015000000000000006383782391594650107435882091522217,-0.040000000000000000832667268468867405317723751068115,-0.041900000000000006683542608243442373350262641906738,-0.00020000000000000572875080706580774858593940734863281,-0.043900000000000001521005543736464460380375385284424,-0.039800000000000002042810365310288034379482269287109,0.017299999999999995936583729871927062049508094787598,-0.021600000000000004612976667317525425460189580917358,-0.037600000000000001476596622751458198763430118560791,-0.016800000000000002431388423929092823527753353118896,0.044499999999999997890576253212202573195099830627441,0.016000000000000000333066907387546962127089500427246,0.028499999999999997557509345824655611068010330200195,0.0069999999999999923394611300864198710769414901733398,0.018100000000000004973799150320701301097869873046875,0.006799999999999993549604226927840500138700008392334,-0.016100000000000003197442310920450836420059204101562,0.022499999999999992228438827623904217034578323364258,0.044799999999999992605914655996457440778613090515137,-0.0010000000000000008881784197001252323389053344726562,0.011999999999999996780353228587046032771468162536621,-0.043300000000000005151434834260726347565650939941406,-0.031100000000000002642330798607872566208243370056152,-0.044200000000000003175237850427947705611586570739746,0.020899999999999988031795794540812494233250617980957,0.031399999999999997357669201392127433791756629943848,-0.00080000000000000209832151654154586140066385269165039,-0.047400000000000004629630012686902773566544055938721,0.034099999999999991429078249893791507929563522338867,-0.029100000000000004335420911161236290354281663894653,0.018500000000000002553512956637860042974352836608887,-0.031000000000000003247402347028582880739122629165649,-0.019100000000000002392530618067212344612926244735718,-0.038300000000000000710542735760100185871124267578125,-0.046100000000000002087219286295294295996427536010742,0.022099999999999994648725021306745475158095359802246,-0.028100000000000003447242491461111058015376329421997,0.02109999999999999376054660160662024281919002532959,-0.014400000000000003075317778211683616973459720611572,-0.01580000000000000154321000422896759118884801864624,-0.04570000000000000450750547997813555411994457244873,-0.020000000000000003885780586188047891482710838317871,-0.014700000000000004729550084903166862204670906066895,0.032699999999999992961186023876507533714175224304199,-0.027900000000000001187938636348917498253285884857178,-0.046700000000000005395683899678260786458849906921387,0.024599999999999996869171070557058556005358695983887,0.0059000000000000024646951146678475197404623031616211,0.025700000000000000621724893790087662637233734130859,0.01929999999999999771294056927217752672731876373291,-0.045200000000000004063416270128072937950491905212402,0.02289999999999998980815263394106295891106128692627,-0.038800000000000001154631945610162802040576934814453,0.0087999999999999953259610663280909648165106773376465,0.028600000000000000421884749357559485360980033874512,0.031999999999999986788346006960637168958783149719238,0.02539999999999999202859868319137603975832462310791,0.012899999999999994804156244754267390817403793334961,-0.030200000000000001149080830487037019338458776473999,0.0093999999999999916955317758038290776312351226806641,0.033799999999999996713739847109536640346050262451172,0.038199999999999997846167332227196311578154563903809,-0.036500000000000004662936703425657469779253005981445,-0.00020000000000000572875080706580774858593940734863281,0.049799999999999997046806754497083602473139762878418,-0.032700000000000006838973831690964289009571075439453,0.0069999999999999923394611300864198710769414901733398,-0.028400000000000001632027846198980114422738552093506,-0.026400000000000003325117958752343838568776845932007,0.042499999999999996114219413811952108517289161682129,0.040900000000000005795364188543317141011357307434082,-0.022200000000000000982547376793263538274914026260376,0.0076999999999999915734072430950618581846356391906738,-0.023900000000000001104671909502030757721513509750366,-0.0044000000000000011324274851176596712321043014526367,-0.035100000000000006195044477408373495563864707946777,0.014499999999999999000799277837359113618731498718262,0.0052999999999999991562305012848810292780399322509766,0.020799999999999999045208198822365375235676765441895,0.02539999999999999202859868319137603975832462310791,-0.025500000000000001831867990631508291698992252349854,-0.039300000000000001598721155460225418210029602050781,-0.0018000000000000029864999362416710937395691871643066,0.020799999999999999045208198822365375235676765441895,0.019499999999999989563903568523528520017862319946289,0.011899999999999993915977825054142158478498458862305,0.0027999999999999969357844520345679484307765960693359,0.02999999999999999888977697537484345957636833190918,-0.025200000000000003647082635893639235291630029678345,0.022499999999999992228438827623904217034578323364258,0.02449999999999999400479566702415468171238899230957,-0.0063000000000000000444089209850062616169452667236328,0.045799999999999993494093075696582673117518424987793,-0.026900000000000000299760216648792265914380550384521,-0.021400000000000005823119764158946054521948099136353,0.045499999999999998778754672912327805534005165100098,-0.0097000000000000002886579864025407005101442337036133,0.035499999999999989896970475911075482144951820373535,0.0022999999999999964916952421845053322613239288330078,0.049000000000000001887379141862766118720173835754395,-0.036900000000000002242650509742816211655735969543457,-0.0069000000000000033528735343679727520793676376342773,0.011899999999999993915977825054142158478498458862305,0.020699999999999996180832795289461500942707061767578,-0.045600000000000001643130076445231679826974868774414,-0.042600000000000005917488721252084360457956790924072,0.035599999999999992761345879443979356437921524047852,0.018799999999999997268851359422114910557866096496582,0.047799999999999995270449915096833137795329093933105,0.041499999999999995226040994111826876178383827209473,0.029300000000000006594724766273429850116372108459473,-0.027700000000000002398081733190338127315044403076172,-0.012700000000000002953193245502916397526860237121582,-0.022600000000000002031708135064036468975245952606201,-0.021800000000000006872280522429718985222280025482178,-0.0081000000000000030309088572266773553565144538879395,-0.025500000000000001831867990631508291698992252349854,0.03089999999999999691357999154206481762230396270752,-0.0282000000000000028421709430404007434844970703125,-0.00080000000000000209832151654154586140066385269165039,0.038499999999999992561505735011451179161667823791504,0.046199999999999991073806882013741414994001388549805,0.042800000000000004707345624410663731396198272705078,0.034199999999999994293453653426695382222533226013184,-0.03080000000000000098809849191638932097703218460083,-0.028700000000000003286260152890463359653949737548828,-0.035100000000000006195044477408373495563864707946777,0.04469999999999998974153925246355356648564338684082,-0.043300000000000005151434834260726347565650939941406,0.017100000000000004085620730620576068758964538574219,-0.021200000000000003563815909046752494759857654571533,0.0049000000000000015765166949677222874015569686889648,-0.004700000000000002786659791809142916463315486907959,0.040700000000000000066613381477509392425417900085449,0.010799999999999997102317905728341429494321346282959,0.034799999999999997601918266809661872684955596923828,-0.016800000000000002431388423929092823527753353118896,0.03149999999999998634425679711057455278933048248291,0.038800000000000001154631945610162802040576934814453,-0.019000000000000002997602166487922659143805503845215,0.02289999999999998980815263394106295891106128692627,0.018000000000000002109423746787797426804900169372559,0.038400000000000003574918139293004060164093971252441,-0.039900000000000004907185768843191908672451972961426,-0.01940000000000000404676292475869558984413743019104,-0.033500000000000001998401444325281772762537002563477,0.0020000000000000017763568394002504646778106689453125,0.0050000000000000044408920985006261616945266723632812,0.047399999999999997690736108779674395918846130371094,-0.041100000000000004585221091701896511949598789215088,-0.01070000000000000117683640610266593284904956817627,-0.02900000000000000494049245958194660488516092300415,-0.0097000000000000002886579864025407005101442337036133,-0.018000000000000002109423746787797426804900169372559,-0.044800000000000006483702463810914196074008941650391,0.0093999999999999916955317758038290776312351226806641,0.038400000000000003574918139293004060164093971252441,-0.030000000000000002359223927328457648400217294692993,0.039199999999999998734345751927321543917059898376465,-0.019800000000000005095923683029468520544469356536865,-0.027800000000000001793010184769627812784165143966675,-0.032000000000000000666133814775093924254179000854492,0.034999999999999989452881266061012865975499153137207,-0.047400000000000004629630012686902773566544055938721,-0.04140000000000000623945339839337975718080997467041,-0.0042999999999999982680520815847557969391345977783203,0.037400000000000002686739719592878827825188636779785,0.026899999999999993360866312741563888266682624816895,-0.02290000000000000021649348980190552538260817527771,-0.038699999999999998290256542077258927747607231140137,-0.042200000000000001398881011027697240933775901794434,-0.0149000000000000035194069880617462331429123878479,0.029200000000000003730349362740525975823402404785156,0.046099999999999988209431478480837540701031684875488,0.030399999999999996469490781692002201452851295471191,-0.0051000000000000003663735981263016583397984504699707,-0.037400000000000002686739719592878827825188636779785,0.01750000000000000166533453693773481063544750213623,-0.015000000000000006383782391594650107435882091522217,-0.0049000000000000015765166949677222874015569686889648,0.026300000000000003930189507173054153099656105041504,0.024199999999999999289457264239899814128875732421875,0.016000000000000000333066907387546962127089500427246,-0.033500000000000001998401444325281772762537002563477,-0.008700000000000006339373470609643845818936824798584,-0.043700000000000002731148640577885089442133903503418,-0.03890000000000000401900734914306667633354663848877,-0.020400000000000004934941344458820822183042764663696,-0.023800000000000001709743457922741072252392768859863,-0.014600000000000001865174681370262987911701202392578,0.0096999999999999933497640824953123228624463081359863,0.033499999999999988120613636510825017467141151428223,0.0032999999999999973798736618846305646002292633056641,-0.0052999999999999991562305012848810292780399322509766,0.03609999999999999320543508929404197260737419128418,0.047000000000000000111022302462515654042363166809082,-0.024500000000000000943689570931383059360086917877197,-0.04140000000000000623945339839337975718080997467041,0.023899999999999990696331053641188191249966621398926,0.037800000000000000266453525910037569701671600341797,-0.030200000000000001149080830487037019338458776473999,-0.033200000000000000344169137633798527531325817108154,-0.027200000000000001953992523340275511145591735839844,-0.01589999999999999746869150385464308783411979675293,-0.037100000000000001032507412901395582593977451324463,-0.046900000000000004185540802836840157397091388702393,0.028999999999999998001598555674718227237462997436523,0.010599999999999998312461002569762058556079864501953,-0.044300000000000006039613253960851579904556274414062,-0.0009000000000000049626969200744497356936335563659668,-0.0092000000000000067834626804597064619883894920349121,0.031999999999999986788346006960637168958783149719238,0.0084999999999999936717287596366077195852994918823242,-0.0081000000000000030309088572266773553565144538879395,-0.016399999999999997912780713704705704003572463989258,0.049699999999999994182431350964179728180170059204102,-0.0018000000000000029864999362416710937395691871643066,0.029800000000000007038813976123492466285824775695801,-0.020700000000000003119726699196689878590404987335205,-0.040500000000000001276756478318930021487176418304443,-0.034800000000000004540812170716890250332653522491455,-0.025900000000000002881028748902281222399324178695679,0.042999999999999996558308623662014724686741828918457,-0.046400000000000003741451592986777541227638721466064,-0.046100000000000002087219286295294295996427536010742,-0.035800000000000005428990590417015482671558856964111,-0.049399999999999999467092948179924860596656799316406,-0.020600000000000003724798247617400193121284246444702,-0.027300000000000001348920974919565196614712476730347,-0.040400000000000005351274978693254524841904640197754,-0.032899999999999998689936830942315282300114631652832,0.027599999999999999533706329657434253022074699401855,-0.02370000000000000231481500634345138678327202796936,0.024999999999999994448884876874217297881841659545898,-0.038400000000000003574918139293004060164093971252441,0.024300000000000002153832667772803688421845436096191,0.028099999999999999977795539507496869191527366638184,-0.024300000000000002153832667772803688421845436096191,0.019999999999999990007992778373591136187314987182617,-0.031100000000000002642330798607872566208243370056152,0.02480000000000000259792187762286630459129810333252,-0.039300000000000001598721155460225418210029602050781,-0.0492000000000000006772360450213454896584153175354,0.01839999999999999968913755310495616868138313293457,0.0025999999999999981459275488759885774925351142883301,0.019599999999999992428278972056432394310832023620605,0.018000000000000002109423746787797426804900169372559,-0.01410000000000000142108547152020037174224853515625,-0.00070000000000000617284001691587036475539207458496094,-0.017600000000000004529709940470638684928417205810547,0.030499999999999999333866185224906075745820999145508,0.049599999999999991318055947431275853887200355529785,0.0064999999999999918953719202363572549074888229370117,0.023399999999999990252241843791125575080513954162598,-0.046800000000000001321165399303936283104121685028076,0.010299999999999996658228695878278813324868679046631,-0.027300000000000001348920974919565196614712476730347,-0.046300000000000000877076189453873666934669017791748,0.039599999999999996314059558244480285793542861938477,0.030499999999999999333866185224906075745820999145508,-0.0016000000000000041966430330830917228013277053833008,-0.0082000000000000058952842607595812296494841575622559,0.0079999999999999932276395497865451034158468246459961,0.024599999999999996869171070557058556005358695983887,-0.033200000000000000344169137633798527531325817108154,0.019599999999999992428278972056432394310832023620605,0.034099999999999991429078249893791507929563522338867,-0.020000000000000003885780586188047891482710838317871,-0.019600000000000002836619827917274960782378911972046,0.004000000000000003552713678800500929355621337890625,-0.0012000000000000066169292267659329809248447418212891,-0.0097000000000000002886579864025407005101442337036133,0.014700000000000004729550084903166862204670906066895,0.034799999999999997601918266809661872684955596923828,-0.04140000000000000623945339839337975718080997467041,0.0023999999999999993560706457174092065542936325073242,0.0042999999999999982680520815847557969391345977783203,0.026599999999999998645527909957309020683169364929199,-0.026600000000000002114974861910923209507018327713013,-0.011300000000000004485301019485632423311471939086914,-0.041100000000000004585221091701896511949598789215088,-0.046200000000000004951594689828198170289397239685059,-0.011700000000000002065014825802791165187954902648926,0.015299999999999994160226890471676597371697425842285,-0.037600000000000001476596622751458198763430118560791,0.026599999999999998645527909957309020683169364929199,0.010799999999999997102317905728341429494321346282959,-0.015000000000000006383782391594650107435882091522217,0.030200000000000004618527782440651208162307739257812,0.035499999999999989896970475911075482144951820373535,-0.034500000000000002886579864025407005101442337036133,0.013700000000000003841371665203041629865765571594238,-0.022700000000000001426636586643326154444366693496704,-0.04140000000000000623945339839337975718080997467041,0.023399999999999990252241843791125575080513954162598,-0.0060000000000000053290705182007513940334320068359375,0.028099999999999999977795539507496869191527366638184,0.0073999999999999899191749364035786129534244537353516,-0.040900000000000005795364188543317141011357307434082,-0.0063000000000000000444089209850062616169452667236328,-0.038600000000000002364775042451583431102335453033447,0.042999999999999996558308623662014724686741828918457,0.033899999999999999578115250642440514639019966125488,-0.038800000000000001154631945610162802040576934814453,0.027700000000000002398081733190338127315044403076172,0.042499999999999996114219413811952108517289161682129,0.013499999999999998112620858137233881279826164245605,0.017100000000000004085620730620576068758964538574219,-0.04580000000000000043298697960381105076521635055542,0.036799999999999999378275106209912337362766265869141,-0.0090000000000000079936057773011270910501480102539062,-0.037000000000000005107025913275720085948705673217773,-0.024300000000000002153832667772803688421845436096191,0.029200000000000003730349362740525975823402404785156,-0.036500000000000004662936703425657469779253005981445,-0.012000000000000003719247132494274410419166088104248,0.040900000000000005795364188543317141011357307434082,0.024199999999999999289457264239899814128875732421875,-0.041800000000000003819167204710538499057292938232422,0.020999999999999990896171198073716368526220321655273,0.0095999999999999974242825828696368262171745300292969,0.0087999999999999953259610663280909648165106773376465,0.019799999999999998157029779122240142896771430969238,-0.028000000000000004052314039881821372546255588531494,0.017299999999999995936583729871927062049508094787598,-0.0069000000000000033528735343679727520793676376342773,-0.048900000000000005961897642237090622074902057647705,0.030600000000000002198241588757809950038790702819824,-0.049500000000000002331468351712828734889626502990723,-0.039900000000000004907185768843191908672451972961426,-0.025800000000000003486100297322991536930203437805176,-0.038200000000000004785061236134424689225852489471436,-0.046900000000000004185540802836840157397091388702393,-0.042000000000000002609024107869117869995534420013428,-0.027100000000000002559064071760985825676470994949341,-0.034100000000000005306866057708248263224959373474121,-0.049600000000000005195843755245732609182596206665039,-0.028500000000000004496403249731883988715708255767822,0.032999999999999987676524426660762401297688484191895,-0.045500000000000005717648576819556183181703090667725,-0.0066000000000000016986412276764895068481564521789551,-0.026100000000000005140332604014474782161414623260498,0.0027000000000000010103029524088924517855048179626465,0.018999999999999989119814358673465903848409652709961,-0.011800000000000004929390229335695039480924606323242,0.016100000000000003197442310920450836420059204101562,-0.0078000000000000013766765505351941101253032684326172,-0.021000000000000004773959005888173123821616172790527,0.02539999999999999202859868319137603975832462310791,0.00029999999999999471533840278425486758351325988769531,-0.0149000000000000035194069880617462331429123878479,0.020099999999999992872368181906495010480284690856934,-0.0057999999999999996003197111349436454474925994873047,-0.045200000000000004063416270128072937950491905212402,0.042099999999999998534505607494793366640806198120117,-0.038600000000000002364775042451583431102335453033447,0.032999999999999987676524426660762401297688484191895,-0.021700000000000004007905118896815110929310321807861,0.041900000000000006683542608243442373350262641906738,0.03339999999999999913402604079237789846956729888916,-0.011599999999999999200639422269887290894985198974609,-0.034000000000000002442490654175344388931989669799805,-0.019700000000000002231548279496564646251499652862549,0.026599999999999998645527909957309020683169364929199,0.0091999999999999929056748726452497066929936408996582,0.038300000000000000710542735760100185871124267578125,0.042400000000000007127631818093504989519715309143066,0.0094999999999999945599071793367329519242048263549805,-0.0051000000000000003663735981263016583397984504699707,-0.039500000000000007327471962526033166795969009399414,0.049199999999999993738342141114117112010717391967773,0.038199999999999997846167332227196311578154563903809,-0.015699999999999998678834600696063716895878314971924,0.03699999999999999122923810546126333065330982208252,0.042400000000000007127631818093504989519715309143066,-0.042400000000000000188737914186276611872017383575439,0.038199999999999997846167332227196311578154563903809,0.019699999999999995292654375589336268603801727294922,0.021699999999999997069011214989586733281612396240234,0.013499999999999998112620858137233881279826164245605,-0.030100000000000001754152378907747333869338035583496,-0.0081000000000000030309088572266773553565144538879395,0.01870000000000000828226376370366779156029224395752,0.049199999999999993738342141114117112010717391967773,0.031799999999999994937383007709286175668239593505859,0.045899999999999996358468479229486547410488128662109,-0.039500000000000007327471962526033166795969009399414,0.014799999999999993716137680621613981202244758605957,-0.025800000000000003486100297322991536930203437805176,-0.01240000000000000129896093881143315229564905166626,0.033299999999999996269650637259474024176597595214844,0.047699999999999992406074511563929263502359390258789,0.038699999999999998290256542077258927747607231140137,-0.036400000000000001798561299892753595486283302307129,0.024199999999999999289457264239899814128875732421875,-0.0022000000000000075051076464660582132637500762939453,-0.013000000000000004607425552194399642758071422576904,0.016500000000000000777156117237609578296542167663574,-0.0075000000000000066613381477509392425417900085449219,0.031899999999999997801758411242190049961209297180176,-0.037800000000000000266453525910037569701671600341797,0.026800000000000004374278717023116769269108772277832,-0.044800000000000006483702463810914196074008941650391,0.031599999999999989208632200643478427082300186157227,0.013700000000000003841371665203041629865765571594238,0.04750000000000000055511151231257827021181583404541,0.039199999999999998734345751927321543917059898376465,0.0017999999999999960476060323344427160918712615966797,0.017100000000000004085620730620576068758964538574219,0.045999999999999999222843882762390421703457832336426,0.00039999999999999757971380631715874187648296356201172,-0.027900000000000001187938636348917498253285884857178,-0.012099999999999999644728632119949907064437866210938,0.0042000000000000023425705819590803002938628196716309,-0.028800000000000002681188604469753045123070478439331,-0.030400000000000003408384685599230579100549221038818,9.9999999999995925481499625675496645271778106689453e-05,0.016899999999999998356869923554768320173025131225586,0.0342999999999999971578290569595992565155029296875,0.024199999999999999289457264239899814128875732421875,-0.010399999999999999522604099411182687617838382720947,0.017600000000000004529709940470638684928417205810547,0.021799999999999999933386618522490607574582099914551,-0.021800000000000006872280522429718985222280025482178,-0.033700000000000000788258347483861143700778484344482,0.031100000000000002642330798607872566208243370056152,0.025999999999999995337063296574342530220746994018555,0.0032000000000000014543921622589550679549574851989746,0.032699999999999992961186023876507533714175224304199,-0.03160000000000000308642000845793518237769603729248,0.02019999999999999573674358543939888477325439453125,0.044799999999999992605914655996457440778613090515137,-0.019700000000000002231548279496564646251499652862549,0.02539999999999999202859868319137603975832462310791,0.026399999999999992916777102891501272097229957580566,0.043899999999999994582111639829236082732677459716797,0.022800000000000000821565038222615839913487434387207,0.015499999999999999888977697537484345957636833190918,0.030800000000000007926992395823617698624730110168457,0.025099999999999997313260280407121172174811363220215,0.011399999999999993471888615204079542309045791625977,-0.018900000000000003602673714908632973674684762954712,0.047099999999999989097609898180962773039937019348145,-0.015600000000000002753353101070388220250606536865234,0.03519999999999999518163207312682061456143856048584,0.0035000000000000031086244689504383131861686706542969,0.004000000000000003552713678800500929355621337890625,0.020399999999999987587706584690749878063797950744629,-0.029700000000000000704991620636974403169006109237671,-0.011800000000000004929390229335695039480924606323242,0.029700000000000004174438572590588591992855072021484,0.0097999999999999962141394860282161971554160118103027,-0.0091000000000000039190872769268025876954197883605957,0.001399999999999998467892226017283974215388298034668,-0.026900000000000000299760216648792265914380550384521,0.0070999999999999952038365336193237453699111938476562,-0.017600000000000004529709940470638684928417205810547,0.049000000000000001887379141862766118720173835754395,-0.0045000000000000039968028886505635455250740051269531,0.00029999999999999471533840278425486758351325988769531,0.0025000000000000022204460492503130808472633361816406,-0.034400000000000000022204460492503130808472633361816,-0.0050000000000000044408920985006261616945266723632812,0.032699999999999992961186023876507533714175224304199,0.0409000552223916166716399800407089060172438621521,-0.02869797399491724396169978206216910621151328086853,-0.038285866342975892473443622066042735241353511810303,0.048900000630541506918547156601562164723873138427734,-0.028099999915353546936502837638727214653044939041138,0.042400000000490656315577098212088458240032196044922,0.023899525098246825194348019749668310396373271942139,-0.031512261089228957300356626092252554371953010559082,0.0086056780646195495804162689523764129262417554855347,-0.043901517849526894288203493488254025578498840332031,0.0028000000021469908899340861552218484575860202312469,0.028999999998498102171673451721289893612265586853027,0.0095000424219971492389991141180871636606752872467041,-0.043299887986382089299919329050680971704423427581787,-0.00069999447085781379192942486255901712866034358739853,-0.035099999103235815511858675108669558539986610412598,0.030100000000620845408416670352380606345832347869873,-0.020999999999840795322780806486662186216562986373901,-0.040199999888665301217560710256293532438576221466064,-0.02910000022991863707910731307038076920434832572937,-0.034499992866383465128787833009482710622251033782959,-0.017099999951659335811759987677760364022105932235718,-0.036799999998481908169978282785450574010610580444336,0.033099757765966256184420046793093206360936164855957,0.017000000407738146551706037712392571847885847091675,0.0086033640900066484652475296002194227185100317001343,-0.016700069611633998334365713844817946664988994598389,0.0047000000092960163983191179681853100191801786422729,0.024100004530988979739580813088650756981223821640015,0.028200000024383366226121694353423663415014743804932,-0.012699999997411146740455833992200496140867471694946,-0.049800164493095745721351619295091950334608554840088,-0.01529998953213410409213146579077147180214524269104,0.034200152134769457035190498572774231433868408203125,0.049000000325689789526517614604017580859363079071045,0.0064997606350268421343541191959047864656895399093628,0.026500000069917272610409142430398787837475538253784,-0.04199999999544193340916820034181000664830207824707,-0.03989761046605194011460682190772786270827054977417,-0.014900020708450152640001107329226215369999408721924,-0.036000234128877879602459444186024484224617481231689,0.012898769250212289289025946459332772064954042434692,-0.035992325240833594746092671812220942229032516479492,0.023500000137398797256382820819453627336770296096802,-0.045299998897230568661864680279904860071837902069092,0.013200002186905894149826501404731970978900790214539,0.03830000000157172262982285815269278828054666519165,-0.030100019779673806846753691957019327674061059951782,-0.022699987346900606793864696442142303567379713058472,-0.016699989318795422504893011250715062487870454788208,-0.0091998377842246528701686258955305675044655799865723,-0.0071940486100693697840702256485201360192149877548218,0.016141517617508326781772254321367654483765363693237,0.0039000018522156801314970664407155709341168403625488,-0.024199999751351043697500386997489840723574161529541,0.018200000001441295899295980120768945198506116867065,-0.0024013950238999277886353667099683661945164203643799,0.044163983050389946094504978191253030672669410705566,-0.027183320685180055453766811979221529327332973480225,0.0067955413170147386733854766305285011185333132743835,0.022300000006306795741206627781139104627072811126709,0.045299999995588181855854514878956251777708530426025,0.0069001246146166272249500295288271445315331220626831,-0.0078996709599973638504799566817382583394646644592285,0.029400016241855186222009521657128061633557081222534,0.041000002634244803179086602540337480604648590087891,-0.016199999998176266985394633479700132738798856735229,0.0058000000004676793147195823507900058757513761520386,0.04890000032704566734764739521779119968414306640625,-0.0062000006753859795635697160776089731371030211448669,0.040800020954998579558736793160278466530144214630127,-0.037099999857999291230647997963387751951813697814941,-0.0081999999955406095014653899966106109786778688430786,-0.010100711562474126367638938006621174281463027000427,-0.028499998802269194131397966884833294898271560668945,0.031709882014394528970679942858623689971864223480225,-0.011700204484174876046198576773349486757069826126099,-0.0050999999726929583221401998116562026552855968475342,-0.048499986690219876184215763714746572077274322509766,0.015500000071626128528290422536883852444589138031006,0.028100000007604767487956465288334584329277276992798,-0.0078004831984687574703007939547205751296132802963257,-0.041799969250643900786634787891671294346451759338379,0.029300446895885300796491534924825828056782484054565,-0.018799999043286247379924702727294061332941055297852,0.019099296865391367922226706355104397516697645187378,-0.0024999997946179956798129495609828154556453227996826,0.02870000001338933459660296421134262345731258392334,0.013207019255972455434866574819352535996586084365845,0.020199939168927680960274884114369342569261789321899,0.020699312246421245481409201261158159468322992324829,0.020696384672498610579616240556788397952914237976074,0.015422544605051349136948246609790658112615346908569,-0.02249999959639101265729266287962673231959342956543,-0.0020999967606147914439551627197033667471259832382202,-0.0052999935759639451790525832564071606611832976341248,0.0037000000046169346026858626430566800991073250770569,0.031599941897208216889936238658265210688114166259766,-0.014299962831520541053920148044653615215793251991272,0.0025000313760384540624770455252701140125282108783722,-0.024599999726566606356170652247783436905592679977417,-0.023575638251305042203398443234618753194808959960938,-0.017680240501262441121799184884366695769131183624268,-0.047700000924467522711580613758997060358524322509766,-0.048500616487142371446861233152958448044955730438232,-0.028100004105502177781383821297822578344494104385376,0.033828889803539055614045594211347633972764015197754,-0.025999379676705430819438902290130499750375747680664,0.016803148977634234373379484850374865345656871795654,-0.029400066848396778917962279820130788721144199371338,-0.044899999995085253245985512648985604755580425262451,-0.021687907163679701061376192683383123949170112609863,0.053687594823187544113007874102549976669251918792725,-0.0014999049689843888585188969031491978967096656560898,-0.025901197246318733574677040110145753715187311172485,-0.021578807805841253297796100696359644643962383270264,0.002699995806935750163046972005531642935238778591156,0.021499999999972315561924673943394736852496862411499,-0.0070999757439832106645227760566285724053159356117249,0.0010997044448051883011596707717671961290761828422546,0.031498593710718947313864646275760605931282043457031,-0.036500000349094112450654137091987649910151958465576,0.0068999926352420835190537573566871287766844034194946,0.011486564356633340369673312864051695214584469795227,0.026199999066311777107252112273272359743714332580566,-0.039212945992767443692539330868385150097310543060303,-0.028014525503541817808006442191981477662920951843262,-0.020200000201973503100028040080360369756817817687988,0.036301065836991316948534347375243669375777244567871,0.0076000208700361506289344681874808884458616375923157,-0.032599999123127249012199513344967272132635116577148,-0.03096136767631804675993123510124860331416130065918,-0.030800030758275139669555287014190980698913335800171,-0.032099874711276586702890512015073909424245357513428,-0.0010000022582648080294448478255731060926336795091629,-0.029400534268450666947058991240737668704241514205933,-0.010300185323172899795607371231653814902529120445251,0.018081857073606325686521145712504221592098474502563,0.045403336848440029038798115834651980549097061157227,-0.043600352558367000410655123232572805136442184448242,0.038631167328335255795046521143376594409346580505371,-0.049600106414760321282830801692398381419479846954346,0.036610360162547379847541861863646772690117359161377,0.036399990971593833288810770909549319185316562652588,0.034000000002704894308536154312605503946542739868164,-0.039600000000406206102088191300936159677803516387939,0.0005999989580701341022883621434402812155894935131073,-0.013312849198018741891935690091486321762204170227051,-0.0330000008041927209156973788140021497383713722229,-0.021300487348930877140595896435115719214081764221191,0.037757461558974046711423255828776746056973934173584,-0.021035822232940482034990736792678944766521453857422,0.057967099018325023151998465209544519893825054168701,-0.0054999015198331077311499903714775427943095564842224,-0.044280661469802799767858658697150531224906444549561,0.0034004279862273863524468886510021548019722104072571,-0.0017121857311325045479522000135830239742062985897064,-0.011225049209683238618517897577930853003636002540588,-0.027639110390116582854913573896737943869084119796753,0.015083249841852556377697069933674356434494256973267,-0.029099976551487924392169759357784641906619071960449,-0.04772415936696987326381957927878829650580883026123,-0.0090329919970750672392201252591803495306521654129028,0.026077708018635643166804882753240235615521669387817,0.038220339190102411985883179568190826103091239929199,-0.049508254865030409952453283040085807442665100097656,-0.019100349462223553675954690334037877619266510009766,-0.021673202658447021651255681717884726822376251220703,0.024469171091684522451048522384553507436066865921021,-0.026376157666586883682180442178832890931516885757446,0.027556616846415339650011588901179493404924869537354,0.043095803976197638585077243078558240085840225219727,0.011800866182390444894534375919192825676873326301575,-0.025567089883969391916895830263456446118652820587158,0.029399848924212768075392432365333661437034606933594,0.0056154655689513921154598641294342087348923087120056,-0.046441963168286866381340161069601890631020069122314,-0.020000653120376663679502726722603256348520517349243,0.043545821283544852708935479768115328624844551086426,0.0039239144220374697763498161862116830889135599136353,0.0086023722267177943345828339261061046272516250610352,-0.09169095641437977062260245020297588780522346496582,0.032600462216595516018458056350937113165855407714844,-0.013965249468929243417680829963956057326868176460266,0.034706652455310821325795700431626755744218826293945,-0.041301354463333973809913146624239743687212467193604,-0.026180882027995185101776343117307987995445728302002,0.019496644412036488736017503242692328058183193206787,0.036193214427887754336410353062092326581478118896484,-0.026169724753953547274898383534491586033254861831665,-0.010316292067045852720585941142417141236364841461182,-0.046345850987199684045680925237320479936897754669189,-0.034535369537488695701465957199616241268813610076904,0.041766554263130098445522264682949753478169441223145,-0.031503153712825686383336432072610477916896343231201,-0.012783073328611603905469173980691266478970646858215,0.043097192077631456263997478117744321934878826141357,-0.0057223234018747900359036506756638118531554937362671,-0.049301446098988163657672600947989849373698234558105,0.012399632518457348942519935519612772623077034950256,-0.038184924425712890583284320200618822127580642700195,0.022180077294408767629718681746453512459993362426758,0.21347405760278215236525056752725504338741302490234,0.022248153972485688878446552507739397697150707244873,0.0076596164574753615797431116618554369779303669929504,0.019995089917377494026506923319175257347524166107178,-0.33823638159037011652330306787916924804449081420898,-0.27290166993039827181277701129147317260503768920898,0.0028769320315220315263660122440114719211123883724213,-0.046463623016910184093664071269813575781881809234619,0.03750049052628323664748677401803433895111083984375,-0.41236219773065208027418293568189255893230438232422,0.12906849924366034509937151142366928979754447937012,0.038720874043001847486511479701221105642616748809814,0.048017602730596048443700851748872082680463790893555,-0.016989079383361159469867374127716175280511379241943,0.043518842658475470619450220510771032422780990600586,-0.025726148886782609914725128419377142563462257385254,0.14088179450889701249671759342163568362593650817871,0.023024271709501484273197036145575111731886863708496,-0.066552782327419957031366948285722173750400543212891,-0.011013497116723563670759311605706898262724280357361,-0.026436550675368885449101341578170831780880689620972,-0.50127227000648766352952634406392462551593780517578,-0.019327826539183995402382265638152603060007095336914,0.035074892109127418782232865623882389627397060394287,-0.15177986697046946806821665632014628499746322631836,-0.026299095544215968928147830752095615025609731674194,0.082053986995619943023427822481608018279075622558594,0.038742650438016612568503660440910607576370239257812,-0.02875415992448885141308245749769412213936448097229,