0.029300000000000006594724766273429850116372108459473,-0.026100000000000005140332604014474782161414623260498,-0.027100000000000002559064071760985825676470994949341,0.0037000000000000018984813721090176841244101524353027,0.0051000000000000003663735981263016583397984504699707,0.021899999999999988919974214240937726572155952453613,0.0072999999999999939936934367779031163081526756286621,-0.048100000000000003863576125695544760674238204956055,0.0079999999999999932276395497865451034158468246459961,0.0017999999999999960476060323344427160918712615966797,-0.0089000000000000051292303737682232167571783065795898,-0.032600000000000003974598428158060414716601371765137,-0.023900000000000001104671909502030757721513509750366,-0.037600000000000001476596622751458198763430118560791,-0.030500000000000002803313137178520264569669961929321,-0.049100000000000004751754545395669993013143539428711,0.022699999999999997957189634689711965620517730712891,-0.036799999999999999378275106209912337362766265869141,-0.040100000000000003697042672001771279610693454742432,0.017000000000000001221245327087672194465994834899902,0.008199999999999992017496452945124474354088306427002,-0.014700000000000004729550084903166862204670906066895,-0.031300000000000001432187701766451937146484851837158,-0.046400000000000003741451592986777541227638721466064,-0.012500000000000004163336342344337026588618755340576,0.044199999999999989297450042613490950316190719604492,0.033799999999999996713739847109536640346050262451172,-0.048700000000000000233146835171282873488962650299072,0.033899999999999999578115250642440514639019966125488,-0.015699999999999998678834600696063716895878314971924,0.03890000000000000401900734914306667633354663848877,0.048299999999999995714539124946895753964781761169434,0.043300000000000005151434834260726347565650939941406,-0.038300000000000000710542735760100185871124267578125,0.0018999999999999989119814358673465903848409652709961,0.033499999999999988120613636510825017467141151428223,0.033599999999999990984989040043728891760110855102539,-0.0057000000000000036748382115092681488022208213806152,0.035400000000000000910382880192628363147377967834473,0.026700000000000001509903313490212894976139068603516,-0.018700000000000001343369859796439413912594318389893,0.011599999999999999200639422269887290894985198974609,0.043999999999999997446487043362139957025647163391113,0.0072999999999999939936934367779031163081526756286621,-0.040800000000000002930988785010413266718387603759766,-0.0014000000000000054067861299245123518630862236022949,0.043300000000000005151434834260726347565650939941406,-0.033000000000000001554312234475219156593084335327148,0.046899999999999997246646898929611779749393463134766,-0.046900000000000004185540802836840157397091388702393,0.033899999999999999578115250642440514639019966125488,0.040199999999999999622524171627446776255965232849121,0.023499999999999993116617247324029449373483657836914,-0.04750000000000000055511151231257827021181583404541,0.04379999999999999171773623629633220843970775604248,-0.039100000000000002808864252301646047271788120269775,-0.018200000000000000899280649946376797743141651153564,-0.037299999999999999822364316059974953532218933105469,-0.002600000000000005084821452783216955140233039855957,-0.034400000000000000022204460492503130808472633361816,0.032099999999999989652721410493541043251752853393555,-0.013800000000000006705747068735945504158735275268555,-0.0010000000000000008881784197001252323389053344726562,0.02539999999999999202859868319137603975832462310791,0.032999999999999987676524426660762401297688484191895,-0.049100000000000004751754545395669993013143539428711,0.043999999999999997446487043362139957025647163391113,-0.048300000000000002653433028854124131612479686737061,0.030300000000000007482903185973555082455277442932129,-0.035500000000000003774758283725532237440347671508789,0.028300000000000005706546346573304617777466773986816,-0.038500000000000006439293542825907934457063674926758,0.026099999999999998201438700107246404513716697692871,-0.042600000000000005917488721252084360457956790924072,-0.046100000000000002087219286295294295996427536010742,-0.029600000000000004779510121011298906523734331130981,0.041099999999999997646327187794668134301900863647461,0.047099999999999989097609898180962773039937019348145,-0.012700000000000002953193245502916397526860237121582,0.037900000000000003130828929442941443994641304016113,-0.014700000000000004729550084903166862204670906066895,-0.028900000000000002076117056049042730592191219329834,0.028099999999999999977795539507496869191527366638184,-0.041200000000000000510702591327572008594870567321777,0.0087999999999999953259610663280909648165106773376465,-0.043000000000000003497202527569243102334439754486084,0.0047999999999999987121412914348184131085872650146484,0.040499999999999994337862574411701643839478492736816,-0.030400000000000003408384685599230579100549221038818,-0.047900000000000005073719222536965389735996723175049,-0.008700000000000006339373470609643845818936824798584,-0.048400000000000005517808432387028005905449390411377,0.023399999999999990252241843791125575080513954162598,-0.024600000000000003808064974464286933653056621551514,0.026899999999999993360866312741563888266682624816895,0.041599999999999998090416397644730750471353530883789,-0.023800000000000001709743457922741072252392768859863,-0.043900000000000001521005543736464460380375385284424,0.04320000000000000228705943072782247327268123626709,-0.0083000000000000018207657603852567262947559356689453,-0.029500000000000005384581669432009221054613590240479,0.021499999999999991340260407923778984695672988891602,0.0030999999999999985900167587260511936619877815246582,0.046499999999999999666933092612453037872910499572754,-0.036000000000000004218847493575594853609800338745117,0.0069999999999999923394611300864198710769414901733398,0.0020000000000000017763568394002504646778106689453125,-0.04490000000000000240918396343658969271928071975708,0.039199999999999998734345751927321543917059898376465,0.039199999999999998734345751927321543917059898376465,0.042900000000000007571721027943567605689167976379395,-0.025500000000000001831867990631508291698992252349854,-0.0045000000000000039968028886505635455250740051269531,-0.043900000000000001521005543736464460380375385284424,-0.016800000000000002431388423929092823527753353118896,-0.04580000000000000043298697960381105076521635055542,-0.037000000000000005107025913275720085948705673217773,-0.026900000000000000299760216648792265914380550384521,-0.020200000000000002675637489346627262420952320098877,-0.01750000000000000166533453693773481063544750213623,0.01039999999999999258371019550395430997014045715332,-0.043800000000000005595524044110788963735103607177734,0.01929999999999999771294056927217752672731876373291,-0.016300000000000001987299214079030207358300685882568,0.01679999999999999549249452002186444588005542755127,0.031299999999999994493293797859223559498786926269531,-0.02480000000000000259792187762286630459129810333252,-0.021899999999999999328315070101780293043702840805054,0.037299999999999999822364316059974953532218933105469,0.0035999999999999990341059685761138098314404487609863,0.019699999999999995292654375589336268603801727294922,-0.042200000000000001398881011027697240933775901794434,-0.025000000000000001387778780781445675529539585113525,-0.027200000000000001953992523340275511145591735839844,-0.010599999999999998312461002569762058556079864501953,0.024099999999999996425081860706995939835906028747559,-0.035100000000000006195044477408373495563864707946777,0.04140000000000000623945339839337975718080997467041,0.02910000000000000086597395920762210153043270111084,-0.045999999999999999222843882762390421703457832336426,-0.034300000000000004096722960866827634163200855255127,-0.042800000000000004707345624410663731396198272705078,0.013600000000000000976996261670137755572795867919922,0.046299999999999993938182285546645289286971092224121,-0.0016000000000000041966430330830917228013277053833008,0.046699999999999991517896091863804031163454055786133,-0.014400000000000003075317778211683616973459720611572,0.011399999999999993471888615204079542309045791625977,0.0050000000000000044408920985006261616945266723632812,-0.049399999999999999467092948179924860596656799316406,-0.021000000000000004773959005888173123821616172790527,-0.034700000000000001676436767183986376039683818817139,-0.043300000000000005151434834260726347565650939941406,-0.016600000000000003641531520770513452589511871337891,-0.0011000000000000037525538232330291066318750381469727,0.023399999999999990252241843791125575080513954162598,-0.035300000000000004984901380566952866502106189727783,-0.040700000000000000066613381477509392425417900085449,-0.013300000000000006261657858885882887989282608032227,-0.048100000000000003863576125695544760674238204956055,0.048000000000000000999200722162640886381268501281738,-0.043700000000000002731148640577885089442133903503418,-0.0052000000000000032307490016592055326327681541442871,-0.027100000000000002559064071760985825676470994949341,-0.021000000000000004773959005888173123821616172790527,-0.030600000000000002198241588757809950038790702819824,-0.017899999999999999245048343254893552511930465698242,0.028999999999999998001598555674718227237462997436523,-0.039300000000000001598721155460225418210029602050781,-0.038800000000000001154631945610162802040576934814453,-0.031800000000000001876276911616514553315937519073486,0.011499999999999996336264018736983416602015495300293,-0.031700000000000005950795411990839056670665740966797,0.031699999999999992073007604176382301375269889831543,0.0077999999999999944377826466279657324776053428649902,-0.048199999999999999789057625321220257319509983062744,-0.036400000000000001798561299892753595486283302307129,0.043300000000000005151434834260726347565650939941406,0.013100000000000000532907051820075139403343200683594,0.018500000000000002553512956637860042974352836608887,0.04379999999999999171773623629633220843970775604248,-0.022700000000000001426636586643326154444366693496704,0.033699999999999993849364443576632766053080558776855,-0.014300000000000007149836278586008120328187942504883,0.010599999999999998312461002569762058556079864501953,0.017700000000000007394085344003542559221386909484863,-0.0057999999999999996003197111349436454474925994873047,-0.039600000000000003252953462151708663441240787506104,-0.037900000000000003130828929442941443994641304016113,0.030800000000000007926992395823617698624730110168457,-0.037700000000000004340972026284362073056399822235107,-0.040000000000000000832667268468867405317723751068115,0.037099999999999994093613508994167204946279525756836,0.042200000000000001398881011027697240933775901794434,0.018000000000000002109423746787797426804900169372559,0.0011999999999999996780353228587046032771468162536621,-0.038500000000000006439293542825907934457063674926758,-0.049899999999999999911182158029987476766109466552734,0.015399999999999997024602294004580471664667129516602,0.0072999999999999939936934367779031163081526756286621,-0.0035999999999999990341059685761138098314404487609863,0.033499999999999988120613636510825017467141151428223,-0.031200000000000002037259250187162251677364110946655,0.049799999999999997046806754497083602473139762878418,-0.049700000000000001121325254871408105827867984771729,-0.038300000000000000710542735760100185871124267578125,-0.048500000000000001443289932012703502550721168518066,-0.036200000000000003008704396734174224548041820526123,-0.045100000000000001199040866595169063657522201538086,0.014600000000000001865174681370262987911701202392578,-0.032600000000000003974598428158060414716601371765137,-0.016100000000000003197442310920450836420059204101562,-0.022999999999999999611421941381195210851728916168213,-0.049000000000000001887379141862766118720173835754395,-0.045299999999999999988897769753748434595763683319092,-0.027300000000000001348920974919565196614712476730347,-0.046100000000000002087219286295294295996427536010742,-0.0012000000000000066169292267659329809248447418212891,-0.016899999999999998356869923554768320173025131225586,0.0010999999999999968136599193258007289841771125793457,0.014799999999999993716137680621613981202244758605957,0.030499999999999999333866185224906075745820999145508,0.011099999999999998756550212419824674725532531738281,0.03699999999999999122923810546126333065330982208252,0.022599999999999995092814231156808091327548027038574,0.014200000000000004285460875053104246035218238830566,0.023300000000000001265654248072678456082940101623535,0.034099999999999991429078249893791507929563522338867,0.014200000000000004285460875053104246035218238830566,-0.011400000000000000410782519111307919956743717193604,0.026499999999999995781152506424405146390199661254883,-0.039500000000000007327471962526033166795969009399414,0.0071999999999999911293180332449992420151829719543457,0.045199999999999990185628462313616182655096054077148,-0.039800000000000002042810365310288034379482269287109,0.042700000000000001842970220877759857103228569030762,-0.00800000000000000710542735760100185871124267578125,-0.038300000000000000710542735760100185871124267578125,-0.043599999999999999866773237044981215149164199829102,-0.0031000000000000055289106626332795713096857070922852,-0.038600000000000002364775042451583431102335453033447,-0.026200000000000004535261055593764467630535364151001,-0.034100000000000005306866057708248263224959373474121,0.023499999999999993116617247324029449373483657836914,0.0098999999999999921396209856538916938006877899169922,-0.029500000000000005384581669432009221054613590240479,0.046099999999999988209431478480837540701031684875488,0.048899999999999999023003738329862244427204132080078,-0.045600000000000001643130076445231679826974868774414,0.014299999999999993272048470771551365032792091369629,0,-0.04570000000000000450750547997813555411994457244873,-0.0052999999999999991562305012848810292780399322509766,-0.039000000000000006883382752675970550626516342163086,-0.023600000000000002919886554764161701314151287078857,0.0025000000000000022204460492503130808472633361816406,0.025099999999999997313260280407121172174811363220215,0.049699999999999994182431350964179728180170059204102,0.021699999999999997069011214989586733281612396240234,0.02449999999999999400479566702415468171238899230957,0.023399999999999990252241843791125575080513954162598,-0.001900000000000005850875339774574968032538890838623,-0.02990000000000000296429547574916796293109655380249,0.015799999999999994604316100321739213541150093078613,0.028499999999999997557509345824655611068010330200195,0.015499999999999999888977697537484345957636833190918,0.0083999999999999908073533561037038452923297882080078,-0.029600000000000004779510121011298906523734331130981,-0.037700000000000004340972026284362073056399822235107,0.049899999999999999911182158029987476766109466552734,-0.047600000000000003419486915845482144504785537719727,0.0087999999999999953259610663280909648165106773376465,-0.026400000000000003325117958752343838568776845932007,-0.031800000000000001876276911616514553315937519073486,-0.017800000000000003319566843629218055866658687591553,-0.031300000000000001432187701766451937146484851837158,0.023800000000000001709743457922741072252392768859863,0.013399999999999995248245454604330006986856460571289,-0.03250000000000000111022302462515654042363166809082,-0.036600000000000000588418203051332966424524784088135,0.012899999999999994804156244754267390817403793334961,0.017399999999999998800959133404830936342477798461914,0.0027999999999999969357844520345679484307765960693359,-0.042500000000000003053113317719180486164987087249756,-0.036500000000000004662936703425657469779253005981445,0.029200000000000003730349362740525975823402404785156,0.045099999999999987321253058780712308362126350402832,0.03859999999999999542588113854435505345463752746582,-0.036000000000000004218847493575594853609800338745117,0.016700000000000006505906924303417326882481575012207,0.048199999999999992850163721413991879671812057495117,0.037299999999999999822364316059974953532218933105469,0,-0.031800000000000001876276911616514553315937519073486,0.038199999999999997846167332227196311578154563903809,-0.021600000000000004612976667317525425460189580917358,-0.031200000000000002037259250187162251677364110946655,-0.0035000000000000031086244689504383131861686706542969,0.033899999999999999578115250642440514639019966125488,-0.019000000000000002997602166487922659143805503845215,-0.0035999999999999990341059685761138098314404487609863,0.036299999999999998934185896359849721193313598632812,0.039699999999999999178434961777384160086512565612793,-0.04490000000000000240918396343658969271928071975708,-0.010399999999999999522604099411182687617838382720947,0.0069999999999999923394611300864198710769414901733398,0.0088999999999999912514425659537664614617824554443359,-0.0014000000000000054067861299245123518630862236022949,-0.029600000000000004779510121011298906523734331130981,0.026399999999999992916777102891501272097229957580566,0.011899999999999993915977825054142158478498458862305,0.033199999999999993405275233726570149883627891540527,0.028899999999999995137223152141814352944493293762207,-0.00020000000000000572875080706580774858593940734863281,-0.024200000000000002758904216193514002952724695205688,0.042400000000000007127631818093504989519715309143066,-0.02110000000000000416888745746746280929073691368103,0.006100000000000001254552017826426890678703784942627,-0.033899999999999999578115250642440514639019966125488,0.027999999999999997113420135974592994898557662963867,0.0078999999999999903632641462536412291228771209716797,-0.035800000000000005428990590417015482671558856964111,-0.049500000000000002331468351712828734889626502990723,-0.042200000000000001398881011027697240933775901794434,0.01750000000000000166533453693773481063544750213623,0.03859999999999999542588113854435505345463752746582,0.021299999999999999489297408672427991405129432678223,0.036299999999999998934185896359849721193313598632812,0.020299999999999998601118988972302759066224098205566,0.0052000000000000032307490016592055326327681541442871,0.0023999999999999993560706457174092065542936325073242,0.0017999999999999960476060323344427160918712615966797,-0.0086000000000000034749980670767399715259671211242676,-0.0079000000000000042410519540680979844182729721069336,0.006799999999999993549604226927840500138700008392334,0.03089999999999999691357999154206481762230396270752,-0.01580000000000000154321000422896759118884801864624,0.00089999999999999802380301616722135804593563079833984,-0.020600000000000003724798247617400193121284246444702,0.0045000000000000039968028886505635455250740051269531,-0.022800000000000000821565038222615839913487434387207,-0.023600000000000002919886554764161701314151287078857,0.022800000000000000821565038222615839913487434387207,-0.0088000000000000022648549702353193424642086029052734,0.026200000000000001065814103640150278806686401367188,-0.016199999999999999122923810546126333065330982208252,-0.016500000000000000777156117237609578296542167663574,-0.0098000000000000031530333899354445748031139373779297,0.039800000000000002042810365310288034379482269287109,-0.00050000000000000044408920985006261616945266723632812,-0.031800000000000001876276911616514553315937519073486,0.032799999999999995825561427409411408007144927978516,0.048799999999999996158628334796958370134234428405762,-0.031400000000000004296563105299355811439454555511475,0.040599999999999997202237977944605518132448196411133,0.016299999999999995048405310171801829710602760314941,-0.0077000000000000054511950509095186134800314903259277,0.011799999999999997990496325428466661833226680755615,0.03769999999999999740207812237713369540870189666748,-0.037500000000000005551115123125782702118158340454102,0.002099999999999997701838339025925961323082447052002,0.025200000000000000177635683940025046467781066894531,0.014200000000000004285460875053104246035218238830566,0.043400000000000008015810237793630221858620643615723,0.0023999999999999993560706457174092065542936325073242,0.0062000000000000041189274213593307649716734886169434,-0.040500000000000001276756478318930021487176418304443,0.036599999999999993649524299144104588776826858520508,-0.043000000000000003497202527569243102334439754486084,0.023999999999999993560706457174092065542936325073242,-0.0090000000000000079936057773011270910501480102539062,0.01929999999999999771294056927217752672731876373291,-0.014400000000000003075317778211683616973459720611572,-0.0010000000000000008881784197001252323389053344726562,-0.039600000000000003252953462151708663441240787506104,-0.0031000000000000055289106626332795713096857070922852,-0.032100000000000003530509218307997798547148704528809,0.02910000000000000086597395920762210153043270111084,0.03699999999999999122923810546126333065330982208252,-0.042400000000000000188737914186276611872017383575439,-0.021500000000000005218048215738235739991068840026855,-0.0097000000000000002886579864025407005101442337036133,0.040300000000000002486899575160350650548934936523438,-0.022700000000000001426636586643326154444366693496704,0.043999999999999997446487043362139957025647163391113,-0.034000000000000002442490654175344388931989669799805,-0.02130000000000000642819131257965636905282735824585,-0.013700000000000003841371665203041629865765571594238,-0.037000000000000005107025913275720085948705673217773,0.0015000000000000013322676295501878485083580017089844,0.033899999999999999578115250642440514639019966125488,0.01499999999999999944488848768742172978818416595459,0.011799999999999997990496325428466661833226680755615,-0.001900000000000005850875339774574968032538890838623,0.043599999999999999866773237044981215149164199829102,-0.035800000000000005428990590417015482671558856964111,-0.010599999999999998312461002569762058556079864501953,-0.047000000000000000111022302462515654042363166809082,-0.049300000000000003541611448554249363951385021209717,0.03149999999999998634425679711057455278933048248291,-0.037900000000000003130828929442941443994641304016113,-0.0084000000000000046851411639181606005877256393432617,0.035900000000000001354472090042690979316830635070801,-0.0024000000000000062949645496246375842019915580749512,-0.024300000000000002153832667772803688421845436096191,0.046199999999999991073806882013741414994001388549805,0.044399999999999995026200849679298698902130126953125,-0.0065000000000000057731597280508140102028846740722656,-0.039600000000000003252953462151708663441240787506104,-0.03339999999999999913402604079237789846956729888916,0.036199999999999996069810492826945846900343894958496,-0.011099999999999998756550212419824674725532531738281,0.041999999999999995670130203961889492347836494445801,-0.038300000000000000710542735760100185871124267578125,-0.048700000000000000233146835171282873488962650299072,-0.028800000000000002681188604469753045123070478439331,-0.022399999999999999772404279951842909213155508041382,0.015100000000000002309263891220325604081153869628906,0.042599999999999998978594817344855982810258865356445,0.025700000000000000621724893790087662637233734130859,0.0017000000000000001221245327087672194465994834899902,0.026399999999999992916777102891501272097229957580566,-0.0093000000000000027089441800853819586336612701416016,-0.036600000000000000588418203051332966424524784088135,0.0095999999999999974242825828696368262171745300292969,-0.01580000000000000154321000422896759118884801864624,-0.022499999999999999167332731531132594682276248931885,-0.01589999999999999746869150385464308783411979675293,0.022300000000000000377475828372553223744034767150879,-0.021899999999999999328315070101780293043702840805054,-0.034500000000000002886579864025407005101442337036133,-0.030500000000000002803313137178520264569669961929321,-0.045100000000000001199040866595169063657522201538086,-0.048700000000000000233146835171282873488962650299072,0.017100000000000004085620730620576068758964538574219,0.015700000000000005617728504603292094543576240539551,-0.017300000000000002875477633779155439697206020355225,0.046599999999999988653520688330900156870484352111816,-0.040800000000000002930988785010413266718387603759766,-0.0070000000000000062172489379008766263723373413085938,-0.0017000000000000070610184366159955970942974090576172,-0.019500000000000003441691376337985275313258171081543,-0.033000000000000001554312234475219156593084335327148,0.025499999999999994892974086724279914051294326782227,-0.0079000000000000042410519540680979844182729721069336,0.0034000000000000002442490654175344388931989669799805,0.046599999999999988653520688330900156870484352111816,-0.045100000000000001199040866595169063657522201538086,-0.03160000000000000308642000845793518237769603729248,0.039099999999999995869970348394417669624090194702148,0.030499999999999999333866185224906075745820999145508,-0.044800000000000006483702463810914196074008941650391,-0.049399999999999999467092948179924860596656799316406,0.0062999999999999931055150170777778839692473411560059,0.0037999999999999978239628717346931807696819305419922,0.045399999999999995914379269379423931241035461425781,-0.024400000000000001548761119352093373890966176986694,0.031200000000000005506706202140776440501213073730469,-0.020600000000000003724798247617400193121284246444702,0.047799999999999995270449915096833137795329093933105,-0.0055000000000000048849813083506887778639793395996094,-0.0051000000000000003663735981263016583397984504699707,-0.032700000000000006838973831690964289009571075439453,0.034499999999999989008792056210950249806046485900879,0.031299999999999994493293797859223559498786926269531,-0.030500000000000002803313137178520264569669961929321,9.9999999999995925481499625675496645271778106689453e-05,-0.036100000000000000144328993201270350255072116851807,0.0011999999999999996780353228587046032771468162536621,0.044399999999999995026200849679298698902130126953125,0.042099999999999998534505607494793366640806198120117,0.049500000000000002331468351712828734889626502990723,0.010099999999999997868371792719699442386627197265625,-0.041000000000000001720845688168992637656629085540771,-0.039900000000000004907185768843191908672451972961426,-0.047900000000000005073719222536965389735996723175049,0.012399999999999994360067034904204774647951126098633,-0.043400000000000001076916333886401844210922718048096,-0.043099999999999999422684027194918598979711532592773,-0.034100000000000005306866057708248263224959373474121,-0.019200000000000001787459069646502030082046985626221,-0.02740000000000000074384942649885488208383321762085,0.0062999999999999931055150170777778839692473411560059,-0.018700000000000001343369859796439413912594318389893,0.028800000000000006150635556423367233946919441223145,-0.040000000000000000832667268468867405317723751068115,0.011799999999999997990496325428466661833226680755615,-0.045600000000000001643130076445231679826974868774414,-0.02370000000000000231481500634345138678327202796936,0.041200000000000000510702591327572008594870567321777,-0.012700000000000002953193245502916397526860237121582,-0.04410000000000000031086244689504383131861686706543,-0.014000000000000005495603971894524875096976757049561,0.039699999999999999178434961777384160086512565612793,0.040300000000000002486899575160350650548934936523438,0.0023999999999999993560706457174092065542936325073242,-0.0057000000000000036748382115092681488022208213806152,0.025599999999999997757349490257183788344264030456543,0.016299999999999995048405310171801829710602760314941,0.045499999999999998778754672912327805534005165100098,-0.04490000000000000240918396343658969271928071975708,0.0082999999999999948818718564780283486470580101013184,-0.019900000000000004490852134608758206013590097427368,0.015100000000000002309263891220325604081153869628906,-0.047600000000000003419486915845482144504785537719727,-0.0098999999999999990785148895611200714483857154846191,-0.047600000000000003419486915845482144504785537719727,0.014700000000000004729550084903166862204670906066895,-0.0034000000000000002442490654175344388931989669799805,-0.040800000000000002930988785010413266718387603759766,-0.034200000000000001232347557333923759870231151580811,-0.037500000000000005551115123125782702118158340454102,0.016899999999999998356869923554768320173025131225586,0.02199999999999999178434961777384160086512565612793,0.028899999999999995137223152141814352944493293762207,0.03089999999999999691357999154206481762230396270752,-0.032899999999999998689936830942315282300114631652832,-0.0093000000000000027089441800853819586336612701416016,0.03519999999999999518163207312682061456143856048584,-0.0067000000000000045630166312093933811411261558532715,-0.018200000000000000899280649946376797743141651153564,0.0075999999999999956479257434693863615393638610839844,-0.00080000000000000209832151654154586140066385269165039,-0.047100000000000002975397705995419528335332870483398,-0.0027000000000000079491968563161208294332027435302734,0.024599999999999996869171070557058556005358695983887,0.0052000000000000032307490016592055326327681541442871,-0.023300000000000001265654248072678456082940101623535,0.035299999999999998046007476659724488854408264160156,0.0065999999999999947597473237692611292004585266113281,-0.027900000000000001187938636348917498253285884857178,0.040400000000000005351274978693254524841904640197754,0,0.002099999999999997701838339025925961323082447052002,0.040599999999999997202237977944605518132448196411133,0.0023999999999999993560706457174092065542936325073242,-0.022700000000000001426636586643326154444366693496704,0.042900000000000007571721027943567605689167976379395,0.0022000000000000005662137425588298356160521507263184,-0.041000000000000001720845688168992637656629085540771,-0.012700000000000002953193245502916397526860237121582,0.017899999999999999245048343254893552511930465698242,-0.028600000000000003891331701311173674184828996658325,-0.045900000000000003297362383136714925058186054229736,0.024999999999999994448884876874217297881841659545898,-0.049700000000000001121325254871408105827867984771729,0.034900000000000000466293670342565746977925300598145,0.041999999999999995670130203961889492347836494445801,0.026099999999999998201438700107246404513716697692871,-0.044800000000000006483702463810914196074008941650391,0.020499999999999990452081988223653752356767654418945,-0.0070000000000000062172489379008766263723373413085938,0.048000000000000000999200722162640886381268501281738,-0.030400000000000003408384685599230579100549221038818,-0.0042000000000000023425705819590803002938628196716309,0.030399999999999996469490781692002201452851295471191,-0.020700000000000003119726699196689878590404987335205,-0.013900000000000002631228568361621000804007053375244,-0.043000000000000003497202527569243102334439754486084,-0.035400000000000000910382880192628363147377967834473,0.042700000000000001842970220877759857103228569030762,-0.020900000000000005379030554308883438352495431900024,-0.0098999999999999990785148895611200714483857154846191,-0.0074000000000000037969627442180353682488203048706055,-0.033700000000000000788258347483861143700778484344482,-0.01940000000000000404676292475869558984413743019104,0.044899999999999995470290059529361315071582794189453,-0.0064000000000000029087843245179101359099149703979492,-0.02650000000000000272004641033163352403789758682251,-0.0029000000000000067390537594747002003714442253112793,0.03769999999999999740207812237713369540870189666748,0.010699999999999994237942502195437555201351642608643,9.9999999999995925481499625675496645271778106689453e-05,-0.040900000000000005795364188543317141011357307434082,0.014700000000000004729550084903166862204670906066895,-0.024900000000000001992850329202155990060418844223022,-0.0055000000000000048849813083506887778639793395996094,0.034799999999999997601918266809661872684955596923828,0.0022000000000000005662137425588298356160521507263184,0.0057000000000000036748382115092681488022208213806152,-0.024900000000000001992850329202155990060418844223022,-0.02740000000000000074384942649885488208383321762085,0.048599999999999990429877527731150621548295021057129,-0.027000000000000003164135620181696140207350254058838,0.02730000000000000481836792687317938543856143951416,-0.0057000000000000036748382115092681488022208213806152,-0.046700000000000005395683899678260786458849906921387,-0.043400000000000001076916333886401844210922718048096,-0.034500000000000002886579864025407005101442337036133,-0.0045000000000000039968028886505635455250740051269531,-0.028900000000000002076117056049042730592191219329834,-0.041900000000000006683542608243442373350262641906738,-0.040300000000000002486899575160350650548934936523438,0.011099999999999998756550212419824674725532531738281,0.035900000000000001354472090042690979316830635070801,-0.024100000000000003363975764614224317483603954315186,0.041599999999999998090416397644730750471353530883789,-0.034100000000000005306866057708248263224959373474121,-0.045400000000000002853273173286652308888733386993408,-0.035000000000000003330669073875469621270895004272461,0.047539819333123227440562885703911888413131237030029,0.042199419012548568252984892978929565288126468658447,-0.039255820645956923664599003132025245577096939086914,-0.0022924373338307122392742964933631810708902776241302,-0.0061453319550911237809098786044614826096221804618835,-0.020927060436693036699073999784559418912976980209351,-0.041600061750252624592771866218754439614713191986084,-0.033900000010117024851208356039933278225362300872803,-0.019400000006820749404168324758757080417126417160034,-0.023587538342375938271722191075241426005959510803223,0.02632688576031695995571801915957621531561017036438,0.0056000045309316801370180805008658353472128510475159,-0.031700026460192216870570547371244174428284168243408,-0.12170279370758559089882311354813282378017902374268,-0.036200065264112193941237194394489051774144172668457,0.03907046409774039830153924413025379180908203125,-0.00038442744518272088487254034561146909254603087902069,0.0022000001363601546372494865977387235034257173538208,-0.047999843132825029123900151262205326929688453674316,-0.04979054629259154624021377344433858525007963180542,0.047599999999606075473668198583254707045853137969971,0.0081901985086585919054735782651732733938843011856079,-0.041705857513742110309618027486067148856818675994873,-0.028469523880114401548357960791690857149660587310791,-0.030800000422948205225370799098527641035616397857666,0.15271266635719255022607399041589815169572830200195,0.018299999999417549539915128775646735448390245437622,-0.0040000080830779483759274128829019900877028703689575,-0.0067477566067639183425286297790535172680392861366272,-0.31297085132192498102554623073956463485956192016602,0.04609999996506699421194852561711741145700216293335,-0.0092836426881708466324338857589282270055264234542847,-0.013654902351034097635062991571430757176131010055542,-0.042960443123551413091565365220958483405411243438721,-0.0235000876881463309497899416555810603313148021698,-0.051976204111361737347785094698338070884346961975098,0.00093882537481915304816704193058285454753786325454712,-0.013216574282525738945337501206722663482651114463806,-0.027000006158863651406498718188231578096747398376465,0.033205586344210509530672226219394360668957233428955,-0.019600000576492873638478897646564291790127754211426,-0.02113639679387680284095019089818379143252968788147,-0.011768133102770715614493468592627323232591152191162,-0.0014000013164786762748237336495549243409186601638794,-0.014900550427546824586166884785143338376656174659729,0.037599996681604214154859278096409980207681655883789,-0.0059000002166059014804821991617700405186042189598083,-0.030640522121527308946342671447382599581032991409302,-0.010202778101808463590005615628797386307269334793091,0.031199815831053818310225622667530842591077089309692,-0.0312266024947128947863994596900738542899489402771,-0.012920237679419552950799143786753120366483926773071,-0.010722227966147041683386831323332444299012422561646,0.012321732044887913001818269265186245320364832878113,0.045804186925921162865105173978008679114282131195068,0.048730402147241079491291060321600525639951229095459,0.042599864788239918955703444680693792179226875305176,-0.0021000000221527950934607975597145923529751598834991,-0.010400000014935078737621232392029924085363745689392,-0.087039954646236969426631446822284488007426261901855,0.051131284337245751225875523005015566013753414154053,-0.014299990078822013422898962176077475305646657943726,0.030699942061303265444793808569556858856230974197388,-0.1924285310493683565091771470179082825779914855957,0.027699857094099167298395514080766588449478149414062,-0.056978466544602951460163353658572304993867874145508,-0.016665901474796625952867756836894841399043798446655,-0.019699999701418287323395617249843780882656574249268,0.027000343485021022910119725679578550625592470169067,0.041520700359325452000192058221728075295686721801758,-0.036600000000862539795143391074816463515162467956543,-0.042621461886213025949121657731666346080601215362549,-0.028812825935262850046703064776920655276626348495483,0.068578801159059843417509227947448380291461944580078,0.041099999073889281753224622661946341395378112792969,0.42121394185109412022782748863392043858766555786133,0.024799999998724637367830681000668846536427736282349,0.020299982300846564076124423081637360155582427978516,-0.042845949811362381287604961244142032228410243988037,-0.62883272617042185181901459145592525601387023925781,0.0014999999235087934333632286865167770883999764919281,0.010861678941419006597102203670601738849654793739319,0.038969437955494359848707119908794993534684181213379,0.041105581436361560143666338262846693396568298339844,-0.020400192006803170158280025248132005799561738967896,-0.067954791761085250878515751082886708900332450866699,0.030543634872448825051671761343641264829784631729126,-0.023556981618633936886864077564496255945414304733276,0.034699986514212348420738152299236389808356761932373,-0.025987767832504490850276113178551895543932914733887,0.044899998737679393256971849268666119314730167388916,0.023649613916855990319865199467130878474563360214233,0.043774949930139986364885373859578976407647132873535,-0.039300002882634334222533567526625120081007480621338,-0.04800120524652493753103854601249622646719217300415,-0.042400007266142507311723619523036177270114421844482,0.0029999995257077769449105542065581175847910344600677,-0.015764591541964991655566663553145190235227346420288,-0.012206083084994386045440961652275291271507740020752,-0.020100403266485614151015681727585615590214729309082,0.011799999999999997990496325428466661833226680755615,0.036299999999999998934185896359849721193313598632812,0.022399999999999989364063424091000342741608619689941,0.032999999999999987676524426660762401297688484191895,0.023399999999999990252241843791125575080513954162598,0.048699999999999993294252931264054495841264724731445,0.024399999999999991140420263491250807419419288635254,0.033299999999999996269650637259474024176597595214844,0.018899999999999986255438955140562029555439949035645,-0.029300000000000003125277814319815661292523145675659,0.047699999999999992406074511563929263502359390258789,0.0055000000000000048849813083506887778639793395996094,0.03699999999999999122923810546126333065330982208252,-0.030200000000000001149080830487037019338458776473999,-0.0037999999999999978239628717346931807696819305419922,-0.033500000000000001998401444325281772762537002563477,-0.028600000000000003891331701311173674184828996658325,0.015799999999999994604316100321739213541150093078613,0.023800000000000001709743457922741072252392768859863,-0.043900000000000001521005543736464460380375385284424,-0.025100000000000004252154184314349549822509288787842,0.018600000000000005417888360170763917267322540283203,0.031699999999999992073007604176382301375269889831543,0.0047999999999999987121412914348184131085872650146484,-0.035600000000000006639133687258436111733317375183105,-0.031200000000000002037259250187162251677364110946655,0.012299999999999998434585535278529278002679347991943,0.017299999999999995936583729871927062049508094787598,0.039099999999999995869970348394417669624090194702148,-0.014800000000000007593925488436070736497640609741211,-0.017600000000000004529709940470638684928417205810547,0.00089999999999999802380301616722135804593563079833984,-0.028600000000000003891331701311173674184828996658325,-0.010099999999999997868371792719699442386627197265625,-0.016199999999999999122923810546126333065330982208252,-0.020100000000000003280709037767337576951831579208374,-0.01150000000000000327515792264421179424971342086792,-0.0067000000000000045630166312093933811411261558532715,-0.036799999999999999378275106209912337362766265869141,-0.0074000000000000037969627442180353682488203048706055,0.013899999999999995692334664454392623156309127807617,-0.004000000000000003552713678800500929355621337890625,0.048000000000000000999200722162640886381268501281738,0.00079999999999999515942761263431748375296592712402344,-0.049100000000000004751754545395669993013143539428711,0.029399999999999995581312361991876969113945960998535,-0.04750000000000000055511151231257827021181583404541,-0.027700000000000002398081733190338127315044403076172,0.030300000000000007482903185973555082455277442932129,-0.038600000000000002364775042451583431102335453033447,-0.021700000000000004007905118896815110929310321807861,-0.04490000000000000240918396343658969271928071975708,-0.034900000000000000466293670342565746977925300598145,-0.0049000000000000015765166949677222874015569686889648,0.0097999999999999962141394860282161971554160118103027,-0.020600000000000003724798247617400193121284246444702,0.013799999999999992827959260921488748863339424133301,-0.028000000000000004052314039881821372546255588531494,-0.018100000000000004973799150320701301097869873046875,0.0027999999999999969357844520345679484307765960693359,0.04230000000000000426325641456060111522674560546875,0.014200000000000004285460875053104246035218238830566,-0.011200000000000001620925615952728549018502235412598,-0.036400000000000001798561299892753595486283302307129,-0.010800000000000004041211809635569807142019271850586,0.022499999999999992228438827623904217034578323364258,0.028600000000000000421884749357559485360980033874512,-0.037100000000000001032507412901395582593977451324463,0.00089999999999999802380301616722135804593563079833984,-0.023100000000000002475797344914099085144698619842529,0.005400000000000002020605904817784903571009635925293,-0.035200000000000002120525977034048992209136486053467,0.02289999999999998980815263394106295891106128692627,0.038499999999999992561505735011451179161667823791504,-0.049300000000000003541611448554249363951385021209717,0.023699999999999998845368054389837197959423065185547,-0.047000000000000000111022302462515654042363166809082,-0.046900000000000004185540802836840157397091388702393,-0.018900000000000003602673714908632973674684762954712,0.033199999999999993405275233726570149883627891540527,-0.035600000000000006639133687258436111733317375183105,0.044499999999999997890576253212202573195099830627441,0.038199999999999997846167332227196311578154563903809,-0.020600000000000003724798247617400193121284246444702,-0.010500000000000002386979502944086561910808086395264,0.033099999999999990540899830193666275590658187866211,0.043999999999999997446487043362139957025647163391113,-0.011599999999999999200639422269887290894985198974609,-0.045000000000000005273559366969493567012250423431396,-0.024200000000000002758904216193514002952724695205688,-0.023600000000000002919886554764161701314151287078857,0.047199999999999991961985301713866647332906723022461,-0.024900000000000001992850329202155990060418844223022,0.015100000000000002309263891220325604081153869628906,-0.0040999999999999994781951784261764260008931159973145,0.014200000000000004285460875053104246035218238830566,0.022800000000000000821565038222615839913487434387207,0.0096999999999999933497640824953123228624463081359863,0.026999999999999996225241716274467762559652328491211,-0.026400000000000003325117958752343838568776845932007,0.036499999999999990785148895611200714483857154846191,0.01750000000000000166533453693773481063544750213623,0.023499999999999993116617247324029449373483657836914,0.044499999999999997890576253212202573195099830627441,0.0060000000000000053290705182007513940334320068359375,0.024199999999999999289457264239899814128875732421875,-0.04660000000000000253130849614535691216588020324707,0.0088999999999999912514425659537664614617824554443359,-0.037600000000000001476596622751458198763430118560791,-0.015600000000000002753353101070388220250606536865234,0.02730000000000000481836792687317938543856143951416,0.011999999999999996780353228587046032771468162536621,0.01410000000000000142108547152020037174224853515625,0.015399999999999997024602294004580471664667129516602,-0.023500000000000000055511151231257827021181583404541,-0.011300000000000004485301019485632423311471939086914,0.033699999999999993849364443576632766053080558776855,-0.029600000000000004779510121011298906523734331130981,0.027099999999999999089617119807371636852622032165527,0.03859999999999999542588113854435505345463752746582,0.031299999999999994493293797859223559498786926269531,-0.011400000000000000410782519111307919956743717193604,-0.02900000000000000494049245958194660488516092300415,-0.043700000000000002731148640577885089442133903503418,-0.046400000000000003741451592986777541227638721466064,-0.048000000000000000999200722162640886381268501281738,0.020499999999999990452081988223653752356767654418945,-0.038500000000000006439293542825907934457063674926758,0.046799999999999994382271495396707905456423759460449,-0.002600000000000005084821452783216955140233039855957,0.020299999999999998601118988972302759066224098205566,0.033299999999999996269650637259474024176597595214844,-0.035100000000000006195044477408373495563864707946777,-0.0063000000000000000444089209850062616169452667236328,-0.037100000000000001032507412901395582593977451324463,-0.04400000000000000438538094726936833467334508895874,0.0030000000000000026645352591003756970167160034179688,-0.033800000000000003652633751016765017993748188018799,0.050000000000000002775557561562891351059079170227051,-0.049399999999999999467092948179924860596656799316406,0.035799999999999998490096686509787105023860931396484,0.027200000000000001953992523340275511145591735839844,0.012499999999999997224442438437108648940920829772949,-0.00020000000000000572875080706580774858593940734863281,0.027800000000000005262457136723242001608014106750488,-0.025900000000000002881028748902281222399324178695679,-0.026400000000000003325117958752343838568776845932007,0.011399999999999993471888615204079542309045791625977,-0.0055000000000000048849813083506887778639793395996094,-0.049399999999999999467092948179924860596656799316406,0.035099999999999992317256669593916740268468856811523,-0.024300000000000002153832667772803688421845436096191,-0.010899999999999999966693309261245303787291049957275,-0.0088000000000000022648549702353193424642086029052734,0.017200000000000006949996134153479943051934242248535,0.027899999999999994249044732441689120605587959289551,0.028399999999999994693133942291751736775040626525879,-0.01240000000000000129896093881143315229564905166626,-0.025500000000000001831867990631508291698992252349854,0.025099999999999997313260280407121172174811363220215,-0.02990000000000000296429547574916796293109655380249,0.04469999999999998974153925246355356648564338684082,0.043499999999999997002397833512077340856194496154785,0.020099999999999992872368181906495010480284690856934,0.02359999999999999598099265085693332366645336151123,-0.043599999999999999866773237044981215149164199829102,0.025999999999999995337063296574342530220746994018555,-0.023500000000000000055511151231257827021181583404541,0.0076999999999999915734072430950618581846356391906738,-0.038800000000000001154631945610162802040576934814453,-0.022999999999999999611421941381195210851728916168213,-0.0066000000000000016986412276764895068481564521789551,-0.02650000000000000272004641033163352403789758682251,-0.025400000000000002436939539052218606229871511459351,-0.021700000000000004007905118896815110929310321807861,-0.013600000000000000976996261670137755572795867919922,-0.0013000000000000025424107263916084775701165199279785,0.0018999999999999989119814358673465903848409652709961,-0.017100000000000004085620730620576068758964538574219,-0.021700000000000004007905118896815110929310321807861,0.037599999999999994537702718844229821115732192993164,-0.032000000000000000666133814775093924254179000854492,0.039099999999999995869970348394417669624090194702148,0.011899999999999993915977825054142158478498458862305,0.044299999999999992161825446146394824609160423278809,0.0062000000000000041189274213593307649716734886169434,0.024899999999999991584509473341313423588871955871582,-0.042200000000000001398881011027697240933775901794434,0.043700000000000002731148640577885089442133903503418,0.04929999999999999660271754464702098630368709564209,0.032899999999999998689936830942315282300114631652832,-0.036200000000000003008704396734174224548041820526123,-0.020800000000000005984102102729593752883374691009521,-0.038500000000000006439293542825907934457063674926758,0.033799999999999996713739847109536640346050262451172,-0.047300000000000001765254609153998899273574352264404,-0.032200000000000006394884621840901672840118408203125,0.04499999999999999833466546306226518936455249786377,-0.020900000000000005379030554308883438352495431900024,0.025499999999999994892974086724279914051294326782227,-0.043900000000000001521005543736464460380375385284424,0.041300000000000003375077994860475882887840270996094,0.004000000000000003552713678800500929355621337890625,-0.020500000000000004329869796038110507652163505554199,-0.034200000000000001232347557333923759870231151580811,-0.03250000000000000111022302462515654042363166809082,0.01589999999999999746869150385464308783411979675293,0.014399999999999996136423874304455239325761795043945,0.01929999999999999771294056927217752672731876373291,0.048699999999999993294252931264054495841264724731445,-0.022200000000000000982547376793263538274914026260376,0.041999999999999995670130203961889492347836494445801,0.0017999999999999960476060323344427160918712615966797,-0.033100000000000004418687638008123030886054039001465,0.0037999999999999978239628717346931807696819305419922,0.031299999999999994493293797859223559498786926269531,0.022999999999999992672528037473966833204030990600586,0.013799999999999992827959260921488748863339424133301,0.038999999999999993005594944861513795331120491027832,0.016700000000000006505906924303417326882481575012207,0.013100000000000000532907051820075139403343200683594,-0.043000000000000003497202527569243102334439754486084,-0.034400000000000000022204460492503130808472633361816,0.042200000000000001398881011027697240933775901794434,-0.031500000000000000222044604925031308084726333618164,0.04929999999999999660271754464702098630368709564209,-0.020000000000000003885780586188047891482710838317871,0.021399999999999988475885004390875110402703285217285,-0.020600000000000003724798247617400193121284246444702,0.0089999999999999941158179694866703357547521591186523,-0.0032000000000000014543921622589550679549574851989746,-0.014600000000000001865174681370262987911701202392578,0.035400000000000000910382880192628363147377967834473,-0.0492000000000000006772360450213454896584153175354,-0.049899999999999999911182158029987476766109466552734,-0.048800000000000003097522238704186747781932353973389,0.0034000000000000002442490654175344388931989669799805,-0.048900000000000005961897642237090622074902057647705,-0.049300000000000003541611448554249363951385021209717,-0.02740000000000000074384942649885488208383321762085,-0.015100000000000002309263891220325604081153869628906,-0.021500000000000005218048215738235739991068840026855,-0.00030000000000000165423230669148324523121118545532227,-0.028100000000000003447242491461111058015376329421997,-0.004700000000000002786659791809142916463315486907959,-0.011300000000000004485301019485632423311471939086914,-0.046900000000000004185540802836840157397091388702393,0.0034000000000000002442490654175344388931989669799805,-0.047600000000000003419486915845482144504785537719727,-0.022800000000000000821565038222615839913487434387207,-0.030000000000000002359223927328457648400217294692993,-0.049399999999999999467092948179924860596656799316406,0.019399999999999986699528164990624645724892616271973,-0.014500000000000005939693181744587491266429424285889,-0.022100000000000001587618925213973852805793285369873,0.037800000000000000266453525910037569701671600341797,0.019999999999999990007992778373591136187314987182617,0.0077999999999999944377826466279657324776053428649902,0.0090999999999999969801933730195742100477218627929688,0.04929999999999999660271754464702098630368709564209,0.0020000000000000017763568394002504646778106689453125,-0.0089000000000000051292303737682232167571783065795898,0.019899999999999987143617374840687261894345283508301,-0.012700000000000002953193245502916397526860237121582,0.026999999999999996225241716274467762559652328491211,0.019899999999999987143617374840687261894345283508301,0.02359999999999999598099265085693332366645336151123,-0.019700000000000002231548279496564646251499652862549,-0.043900000000000001521005543736464460380375385284424,0.024300000000000002153832667772803688421845436096191,0.037999999999999992117416525161388562992215156555176,-0.0091000000000000039190872769268025876954197883605957,-0.012099999999999999644728632119949907064437866210938,-0.01240000000000000129896093881143315229564905166626,0.012700000000000002953193245502916397526860237121582,-0.031700000000000005950795411990839056670665740966797,-0.038600000000000002364775042451583431102335453033447,-0.049100000000000004751754545395669993013143539428711,0.021599999999999994204635811456682858988642692565918,-0.036200000000000003008704396734174224548041820526123,0.013299999999999992383870051071426132693886756896973,-0.023200000000000001870725796493388770613819360733032,-0.00050000000000000044408920985006261616945266723632812,-0.017399999999999998800959133404830936342477798461914,0.047399999999999997690736108779674395918846130371094,0.027399999999999993804955522591626504436135292053223,0.0055000000000000048849813083506887778639793395996094,-0.04750000000000000055511151231257827021181583404541,-0.0149000000000000035194069880617462331429123878479,-0.035500000000000003774758283725532237440347671508789,-0.048199999999999999789057625321220257319509983062744,0.03699999999999999122923810546126333065330982208252,0.040700000000000000066613381477509392425417900085449,-0.04320000000000000228705943072782247327268123626709,0.0094999999999999945599071793367329519242048263549805,0.017600000000000004529709940470638684928417205810547,0.026599999999999998645527909957309020683169364929199,-0.017000000000000001221245327087672194465994834899902,-0.017000000000000001221245327087672194465994834899902,-0.032200000000000006394884621840901672840118408203125,-0.042800000000000004707345624410663731396198272705078,-0.029100000000000004335420911161236290354281663894653,0.0085999999999999965361041631695115938782691955566406,0.030200000000000004618527782440651208162307739257812,0.043700000000000002731148640577885089442133903503418,0.0064999999999999918953719202363572549074888229370117,-0.016399999999999997912780713704705704003572463989258,-0.0098000000000000031530333899354445748031139373779297,0.0072999999999999939936934367779031163081526756286621,-0.044800000000000006483702463810914196074008941650391,0.039099999999999995869970348394417669624090194702148,0.0057000000000000036748382115092681488022208213806152,0.017100000000000004085620730620576068758964538574219,-0.011400000000000000410782519111307919956743717193604,0.038199999999999997846167332227196311578154563903809,0.014399999999999996136423874304455239325761795043945,0.0010999999999999968136599193258007289841771125793457,-0.0064000000000000029087843245179101359099149703979492,0.016899999999999998356869923554768320173025131225586,0.03609999999999999320543508929404197260737419128418,0.043300000000000005151434834260726347565650939941406,-0.046200000000000004951594689828198170289397239685059,-0.041700000000000000954791801177634624764323234558105,0.033899999999999999578115250642440514639019966125488,-0.039500000000000007327471962526033166795969009399414,0.017700000000000007394085344003542559221386909484863,0.036699999999999996513899702677008463069796562194824,-0.027800000000000001793010184769627812784165143966675,-0.049399999999999999467092948179924860596656799316406,-0.030400000000000003408384685599230579100549221038818,-0.010099999999999997868371792719699442386627197265625,-0.0070000000000000062172489379008766263723373413085938,0.025700000000000000621724893790087662637233734130859,-0.016399999999999997912780713704705704003572463989258,0.0082999999999999948818718564780283486470580101013184,-0.045500000000000005717648576819556183181703090667725,0.039999999999999993893773364561639027670025825500488,0.041900000000000006683542608243442373350262641906738,-0.005400000000000002020605904817784903571009635925293,0.032499999999999987232435216810699785128235816955566,0.047000000000000000111022302462515654042363166809082,-0.016300000000000001987299214079030207358300685882568,-0.011900000000000000854871728961370536126196384429932,0.013999999999999998556710067987296497449278831481934,-0.042600000000000005917488721252084360457956790924072,-0.02370000000000000231481500634345138678327202796936,0.013499999999999998112620858137233881279826164245605,0.0083999999999999908073533561037038452923297882080078,-0.045000000000000005273559366969493567012250423431396,0.015499999999999999888977697537484345957636833190918,-0.0056000000000000008104628079763642745092511177062988,0.048199999999999992850163721413991879671812057495117,0.019199999999999994848565165739273652434349060058594,0.037800000000000000266453525910037569701671600341797,0.032099999999999989652721410493541043251752853393555,0.029600000000000001310063169057684717699885368347168,0.040599999999999997202237977944605518132448196411133,-0.046100000000000002087219286295294295996427536010742,-0.013100000000000000532907051820075139403343200683594,-0.023600000000000002919886554764161701314151287078857,0.0085999999999999965361041631695115938782691955566406,0.026700000000000001509903313490212894976139068603516,-0.045500000000000005717648576819556183181703090667725,-0.01580000000000000154321000422896759118884801864624,-0.0045000000000000039968028886505635455250740051269531,0.012700000000000002953193245502916397526860237121582,0.023800000000000001709743457922741072252392768859863,-0.014600000000000001865174681370262987911701202392578,0.0045000000000000039968028886505635455250740051269531,-0.03160000000000000308642000845793518237769603729248,0.0030000000000000026645352591003756970167160034179688,0.036599999999999993649524299144104588776826858520508,0.037199999999999996957988912527071079239249229431152,-0.02370000000000000231481500634345138678327202796936,0.035699999999999995625721282976883230730891227722168,0.044499999999999997890576253212202573195099830627441,0.0025000000000000022204460492503130808472633361816406,-0.00080000000000000209832151654154586140066385269165039,0.0027999999999999969357844520345679484307765960693359,0.0073999999999999899191749364035786129534244537353516,-0.035400000000000000910382880192628363147377967834473,-0.017700000000000000455191440096314181573688983917236,0.040800000000000002930988785010413266718387603759766,-0.031000000000000003247402347028582880739122629165649,0.0052999999999999991562305012848810292780399322509766,0.022800000000000000821565038222615839913487434387207,-0.016300000000000001987299214079030207358300685882568,-0.0042000000000000023425705819590803002938628196716309,-0.038200000000000004785061236134424689225852489471436,0.020599999999999993316457391756557626649737358093262,0.022099999999999994648725021306745475158095359802246,0.020299999999999998601118988972302759066224098205566,0.032399999999999998245847621092252666130661964416504,-0.038300000000000000710542735760100185871124267578125,-0.010300000000000003597122599785507190972566604614258,-0.022200000000000000982547376793263538274914026260376,0.024399999999999991140420263491250807419419288635254,-0.036600000000000000588418203051332966424524784088135,0.04839999999999999857891452847979962825775146484375,0.013999999999999998556710067987296497449278831481934,0.016899999999999998356869923554768320173025131225586,0.036499999999999990785148895611200714483857154846191,0.00059999999999999636957070947573811281472444534301758,0.004000000000000003552713678800500929355621337890625,-0.037299999999999999822364316059974953532218933105469,-0.013800000000000006705747068735945504158735275268555,-0.0016000000000000041966430330830917228013277053833008,-0.049700000000000001121325254871408105827867984771729,-0.029500000000000005384581669432009221054613590240479,-0.013700000000000003841371665203041629865765571594238,0.0076999999999999915734072430950618581846356391906738,0.020299999999999998601118988972302759066224098205566,0.018600000000000005417888360170763917267322540283203,0.033599999999999990984989040043728891760110855102539,-0.02560000000000000469624339416441216599196195602417,-0.026200000000000004535261055593764467630535364151001,0.041499999999999995226040994111826876178383827209473,0.0079999999999999932276395497865451034158468246459961,-0.045299999999999999988897769753748434595763683319092,-0.046800000000000001321165399303936283104121685028076,-0.021500000000000005218048215738235739991068840026855,-0.03800000000000000599520433297584531828761100769043,0.023399999999999990252241843791125575080513954162598,-0.0039000000000000006883382752675970550626516342163086,-0.026400000000000003325117958752343838568776845932007,-0.037000000000000005107025913275720085948705673217773,-0.041000000000000001720845688168992637656629085540771,0.047899999999999998134825318629737012088298797607422,0.011599999999999999200639422269887290894985198974609,-0.042700000000000001842970220877759857103228569030762,0.011899999999999993915977825054142158478498458862305,-0.021600000000000004612976667317525425460189580917358,0.04379999999999999171773623629633220843970775604248,-0.0024000000000000062949645496246375842019915580749512,0.032399999999999998245847621092252666130661964416504,-0.043599999999999999866773237044981215149164199829102,0.033699999999999993849364443576632766053080558776855,0.01589999999999999746869150385464308783411979675293,-0.043300000000000005151434834260726347565650939941406,-0.010599999999999998312461002569762058556079864501953,-0.047800000000000002209343819004061515443027019500732,0.049500000000000002331468351712828734889626502990723,-0.0052000000000000032307490016592055326327681541442871,0.020699999999999996180832795289461500942707061767578,-0.031800000000000001876276911616514553315937519073486,0.019099999999999991984189762206369778141379356384277,-0.020400000000000004934941344458820822183042764663696,-0.040400000000000005351274978693254524841904640197754,-0.022999999999999999611421941381195210851728916168213,-0.01580000000000000154321000422896759118884801864624,-0.037299999999999999822364316059974953532218933105469,0.040700000000000000066613381477509392425417900085449,-0.0039000000000000006883382752675970550626516342163086,-0.028800000000000002681188604469753045123070478439331,-0.013300000000000006261657858885882887989282608032227,0.019699999999999995292654375589336268603801727294922,0.019399999999999986699528164990624645724892616271973,0.030800000000000007926992395823617698624730110168457,-0.047300000000000001765254609153998899273574352264404,-0.019100000000000002392530618067212344612926244735718,0.038099999999999994981791928694292437285184860229492,0.014499999999999999000799277837359113618731498718262,0.0091999999999999929056748726452497066929936408996582,-0.033000000000000001554312234475219156593084335327148,-0.03800000000000000599520433297584531828761100769043,0.026700000000000001509903313490212894976139068603516,0.0084999999999999936717287596366077195852994918823242,-0.019100000000000002392530618067212344612926244735718,-0.0074000000000000037969627442180353682488203048706055,-0.049700000000000001121325254871408105827867984771729,-0.044600000000000000754951656745106447488069534301758,0.029899999999999996025401571841939585283398628234863,-0.015100000000000002309263891220325604081153869628906,0.035299999999999998046007476659724488854408264160156,0.035699999999999995625721282976883230730891227722168,0.0030000000000000026645352591003756970167160034179688,0.0042999999999999982680520815847557969391345977783203,-0.034800000000000004540812170716890250332653522491455,0.012499999999999997224442438437108648940920829772949,-0.033600000000000004862776847858185647055506706237793,0.034499999999999989008792056210950249806046485900879,-0.039699999999999999178434961777384160086512565612793,-0.0078000000000000013766765505351941101253032684326172,-0.01940000000000000404676292475869558984413743019104,-0.018500000000000002553512956637860042974352836608887,-0.036000000000000004218847493575594853609800338745117,-0.014600000000000001865174681370262987911701202392578,-0.0492000000000000006772360450213454896584153175354,0.044799999999999992605914655996457440778613090515137,-0.012000000000000003719247132494274410419166088104248,-0.01839999999999999968913755310495616868138313293457,0.032799999999999995825561427409411408007144927978516,-0.01230000000000000537347943918575765565037727355957,-0.024100000000000003363975764614224317483603954315186,-0.015100000000000002309263891220325604081153869628906,0.034799999999999997601918266809661872684955596923828,-0.047400000000000004629630012686902773566544055938721,0.043300000000000005151434834260726347565650939941406,0.00079999999999999515942761263431748375296592712402344,0.030300000000000007482903185973555082455277442932129,-0.021200000000000003563815909046752494759857654571533,0.041300000000000003375077994860475882887840270996094,0.010099999999999997868371792719699442386627197265625,0.013600000000000000976996261670137755572795867919922,0.026499999999999995781152506424405146390199661254883,-0.0042999999999999982680520815847557969391345977783203,-0.03339999999999999913402604079237789846956729888916,0.01589999999999999746869150385464308783411979675293,0.045999999999999999222843882762390421703457832336426,-0.035800000000000005428990590417015482671558856964111,0.032299999999999995381472217559348791837692260742188,0.030399999999999996469490781692002201452851295471191,-0.025500000000000001831867990631508291698992252349854,-0.02560000000000000469624339416441216599196195602417,-0.0039000000000000006883382752675970550626516342163086,0.0059000000000000024646951146678475197404623031616211,-0.011599999999999999200639422269887290894985198974609,-0.03339999999999999913402604079237789846956729888916,0.041800000000000003819167204710538499057292938232422,-0.016899999999999998356869923554768320173025131225586,0.039800000000000002042810365310288034379482269287109,0.0084999999999999936717287596366077195852994918823242,0.0010000000000000008881784197001252323389053344726562,-0.022600000000000002031708135064036468975245952606201,0.0342999999999999971578290569595992565155029296875,-0.02900000000000000494049245958194660488516092300415,-0.0027000000000000079491968563161208294332027435302734,-0.028000000000000004052314039881821372546255588531494,-0.035800000000000005428990590417015482671558856964111,0.048099999999999989985788317881088005378842353820801,-0.012600000000000000088817841970012523233890533447266,0.028099999999999999977795539507496869191527366638184,-0.025500000000000001831867990631508291698992252349854,0.047399999999999997690736108779674395918846130371094,-0.0083000000000000018207657603852567262947559356689453,-0.049000000000000001887379141862766118720173835754395,0.0282000000000000028421709430404007434844970703125,0.043400000000000008015810237793630221858620643615723,0.01679999999999999549249452002186444588005542755127,0.024099999999999996425081860706995939835906028747559,-0.042500000000000003053113317719180486164987087249756,0.034199999999999994293453653426695382222533226013184,0.039699999999999999178434961777384160086512565612793,0.017100000000000004085620730620576068758964538574219,-0.0062000000000000041189274213593307649716734886169434,0.020899999999999988031795794540812494233250617980957,-0.027100000000000002559064071760985825676470994949341,0.032099999999999989652721410493541043251752853393555,0.037499999999999991673327315311325946822762489318848,-0.00020000000000000572875080706580774858593940734863281,0.00029999999999999471533840278425486758351325988769531,0.027200000000000001953992523340275511145591735839844,-0.041800000000000003819167204710538499057292938232422,-0.013600000000000000976996261670137755572795867919922,-0.045500000000000005717648576819556183181703090667725,-0.022300000000000000377475828372553223744034767150879,0.0072999999999999939936934367779031163081526756286621,0.036900000000000002242650509742816211655735969543457,-0.00040000000000000451860771022438711952418088912963867,-0.043400000000000001076916333886401844210922718048096,-0.02990000000000000296429547574916796293109655380249,-0.027800000000000001793010184769627812784165143966675,0.034699999999999994737542863276757998391985893249512,-0.005400000000000002020605904817784903571009635925293,0.004700000000000002786659791809142916463315486907959,0.011499999999999996336264018736983416602015495300293,-0.0045000000000000039968028886505635455250740051269531,-0.017100000000000004085620730620576068758964538574219,0.0047999999999999987121412914348184131085872650146484,-0.002600000000000005084821452783216955140233039855957,-0.0079000000000000042410519540680979844182729721069336,0.047399999999999997690736108779674395918846130371094,-0.01839999999999999968913755310495616868138313293457,0.016899999999999998356869923554768320173025131225586,0.014499999999999999000799277837359113618731498718262,0.025300000000000003042011087472928920760750770568848,-0.012200000000000002509104035652853781357407569885254,0.037299999999999999822364316059974953532218933105469,0.042499999999999996114219413811952108517289161682129,-0.02480000000000000259792187762286630459129810333252,0.022300000000000000377475828372553223744034767150879,0.027899999999999994249044732441689120605587959289551,-0.047700000000000006283862319378386018797755241394043,0.030399999999999996469490781692002201452851295471191,-0.00060000000000000330846461338296649046242237091064453,-0.0081000000000000030309088572266773553565144538879395,-0.042000000000000002609024107869117869995534420013428,-0.043400000000000001076916333886401844210922718048096,-0.02130000000000000642819131257965636905282735824585,0.042800000000000004707345624410663731396198272705078,-0.0017000000000000070610184366159955970942974090576172,0.033999999999999988564702846360887633636593818664551,-0.035100000000000006195044477408373495563864707946777,-0.017100000000000004085620730620576068758964538574219,-0.021500000000000005218048215738235739991068840026855,-0.045299999999999999988897769753748434595763683319092,0.044299999999999992161825446146394824609160423278809,-0.040900000000000005795364188543317141011357307434082,-0.012500000000000004163336342344337026588618755340576,0.034199999999999994293453653426695382222533226013184,0.0063999999999999890309965167034533806145191192626953,-0.035200000000000002120525977034048992209136486053467,0.031599999999999989208632200643478427082300186157227,-0.026900000000000000299760216648792265914380550384521,0.031599999999999989208632200643478427082300186157227,-0.004000000000000003552713678800500929355621337890625,0.048299999999999995714539124946895753964781761169434,-0.030700000000000001593170040337099635507911443710327,0.01839999999999999968913755310495616868138313293457,-0.024100000000000003363975764614224317483603954315186,0.029600000000000001310063169057684717699885368347168,-0.009399999999999998634425679711057455278933048248291,-0.011099999999999998756550212419824674725532531738281,0.031799999999999994937383007709286175668239593505859,-0.02900000000000000494049245958194660488516092300415,0.038199999999999997846167332227196311578154563903809,0.0087999999999999953259610663280909648165106773376465,0.01410000000000000142108547152020037174224853515625,-0.020100000000000003280709037767337576951831579208374,-0.027300000000000001348920974919565196614712476730347,0.041999999999999995670130203961889492347836494445801,0.0282000000000000028421709430404007434844970703125,-0.043400000000000001076916333886401844210922718048096,-0.00800000000000000710542735760100185871124267578125,-0.0037999999999999978239628717346931807696819305419922,-0.015000000000000006383782391594650107435882091522217,-0.0032999999999999973798736618846305646002292633056641,0.025700000000000000621724893790087662637233734130859,-0.0060000000000000053290705182007513940334320068359375,-0.030700000000000001593170040337099635507911443710327,0.0097999999999999962141394860282161971554160118103027,-0.049700000000000001121325254871408105827867984771729,-0.016000000000000000333066907387546962127089500427246,-0.008700000000000006339373470609643845818936824798584,0.0085999999999999965361041631695115938782691955566406,0.00079999999999999515942761263431748375296592712402344,0.037199999999999996957988912527071079239249229431152,0.006799999999999993549604226927840500138700008392334,-0.044800000000000006483702463810914196074008941650391,0.0056000000000000008104628079763642745092511177062988,-0.032100000000000003530509218307997798547148704528809,0.034799999999999997601918266809661872684955596923828,0.046099999999999988209431478480837540701031684875488,0.041900000000000006683542608243442373350262641906738,-0.048300000000000002653433028854124131612479686737061,0.0022000000000000005662137425588298356160521507263184,0.030100000000000001754152378907747333869338035583496,0.045699999999999990629717672163678798824548721313477,0.0015000000000000013322676295501878485083580017089844,-0.0049000000000000015765166949677222874015569686889648,-0.031700000000000005950795411990839056670665740966797,-0.0066000000000000016986412276764895068481564521789551,-0.026800000000000000904831765069502580445259809494019,-0.025200000000000003647082635893639235291630029678345,0.035400000000000000910382880192628363147377967834473,-0.045400000000000002853273173286652308888733386993408,0.044899999999999995470290059529361315071582794189453,-0.018000000000000002109423746787797426804900169372559,0.030200000000000004618527782440651208162307739257812,-0.011200000000000001620925615952728549018502235412598,0.036400000000000001798561299892753595486283302307129,-0.010099999999999997868371792719699442386627197265625,0.024199999999999999289457264239899814128875732421875,-0.029600000000000004779510121011298906523734331130981,-0.033600000000000004862776847858185647055506706237793,-0.017300000000000002875477633779155439697206020355225,0.02109999999999999376054660160662024281919002532959,-0.046499999999999999666933092612453037872910499572754,-0.025300000000000003042011087472928920760750770568848,-0.038600000000000002364775042451583431102335453033447,0.044199999999999989297450042613490950316190719604492,0.027700000000000002398081733190338127315044403076172,0.046099999999999988209431478480837540701031684875488,-0.024500000000000000943689570931383059360086917877197,0.019499999999999989563903568523528520017862319946289,-0.017000000000000001221245327087672194465994834899902,-0.037200000000000003896882816434299456886947154998779,0.034699999999999994737542863276757998391985893249512,-0.021400000000000005823119764158946054521948099136353,0.014200000000000004285460875053104246035218238830566,-0.020200000000000002675637489346627262420952320098877,-0.0032000000000000014543921622589550679549574851989746,-0.042400000000000000188737914186276611872017383575439,0.038099999999999994981791928694292437285184860229492,-0.043300000000000005151434834260726347565650939941406,-0.021899999999999999328315070101780293043702840805054,0.042599999999999998978594817344855982810258865356445,-0.048500000000000001443289932012703502550721168518066,0.045199999999999990185628462313616182655096054077148,0.022699999999999997957189634689711965620517730712891,0.02539999999999999202859868319137603975832462310791,0.03149999999999998634425679711057455278933048248291,-0.0022000000000000075051076464660582132637500762939453,0.034699999999999994737542863276757998391985893249512,-0.048199999999999999789057625321220257319509983062744,0.01410000000000000142108547152020037174224853515625,0.0025999999999999981459275488759885774925351142883301,-0.042000000000000002609024107869117869995534420013428,0.01750000000000000166533453693773481063544750213623,0.027200000000000001953992523340275511145591735839844,0.0045999999999999999222843882762390421703457832336426,0.046899999999999997246646898929611779749393463134766,0.039999999999999993893773364561639027670025825500488,0.00059999999999999636957070947573811281472444534301758,-0.027700000000000002398081733190338127315044403076172,0.0093999999999999916955317758038290776312351226806641,-0.031300000000000001432187701766451937146484851837158,-0.015000000000000006383782391594650107435882091522217,0.029300000000000006594724766273429850116372108459473,0.032399999999999998245847621092252666130661964416504,-0.015600000000000002753353101070388220250606536865234,-0.041000000000000001720845688168992637656629085540771,-0.020900000000000005379030554308883438352495431900024,-0.0081000000000000030309088572266773553565144538879395,0.047000000000000000111022302462515654042363166809082,0.020899999999999988031795794540812494233250617980957,0.019899999999999987143617374840687261894345283508301,0.039599999999999996314059558244480285793542861938477,0.022300000000000000377475828372553223744034767150879,-0.049800000000000003985700658404311980120837688446045,0.047399999999999997690736108779674395918846130371094,0.032799999999999995825561427409411408007144927978516,0.031599999999999989208632200643478427082300186157227,-0.0049000000000000015765166949677222874015569686889648,0.01750000000000000166533453693773481063544750213623,-0.031400000000000004296563105299355811439454555511475,-0.0057000000000000036748382115092681488022208213806152,-0.030000000000000002359223927328457648400217294692993,-0.023500000000000000055511151231257827021181583404541,-0.0030000000000000026645352591003756970167160034179688,-0.017700000000000000455191440096314181573688983917236,0.030999999999999999777955395074968691915273666381836,-0.0062000000000000041189274213593307649716734886169434,-0.027800000000000001793010184769627812784165143966675,0.01679999999999999549249452002186444588005542755127,-0.048800000000000003097522238704186747781932353973389,-0.033300000000000003208544541166702401824295520782471,-0.029400000000000002520206265899105346761643886566162,-0.013900000000000002631228568361621000804007053375244,0.045899999999999996358468479229486547410488128662109,-0.047000000000000000111022302462515654042363166809082,0.020399999999999987587706584690749878063797950744629,-0.010000000000000001942890293094023945741355419158936,0.017200000000000006949996134153479943051934242248535,-0.002600000000000005084821452783216955140233039855957,0.022199999999999997513100424839649349451065063476562,-0.011900000000000000854871728961370536126196384429932,0.0023999999999999993560706457174092065542936325073242,0.046899999999999997246646898929611779749393463134766,-0.0045000000000000039968028886505635455250740051269531,0.0025000000000000022204460492503130808472633361816406,0.044199999999999989297450042613490950316190719604492,-0.021700000000000004007905118896815110929310321807861,0.01929999999999999771294056927217752672731876373291,0.02449999999999999400479566702415468171238899230957,-0.019100000000000002392530618067212344612926244735718,0.037800000000000000266453525910037569701671600341797,-0.031300000000000001432187701766451937146484851837158,0.00079999999999999515942761263431748375296592712402344,-0.035800000000000005428990590417015482671558856964111,0.015600000000000002753353101070388220250606536865234,-0.031800000000000001876276911616514553315937519073486,-0.019600000000000002836619827917274960782378911972046,-0.0055000000000000048849813083506887778639793395996094,-0.0097000000000000002886579864025407005101442337036133,-0.017700000000000000455191440096314181573688983917236,-0.0044000000000000011324274851176596712321043014526367,0.042099999999999998534505607494793366640806198120117,0.0027999999999999969357844520345679484307765960693359,0.031699999999999992073007604176382301375269889831543,-0.026800000000000000904831765069502580445259809494019,0.040900000000000005795364188543317141011357307434082,0.037199999999999996957988912527071079239249229431152,0.013100000000000000532907051820075139403343200683594,0.0080999999999999960920149533194489777088165283203125,0.019799999999999998157029779122240142896771430969238,0.020399999999999987587706584690749878063797950744629,0.046099999999999988209431478480837540701031684875488,0.0072999999999999939936934367779031163081526756286621,0.017200000000000006949996134153479943051934242248535,0.026700000000000001509903313490212894976139068603516,-0.040199999999999999622524171627446776255965232849121,0.046599999999999988653520688330900156870484352111816,-0.045100000000000001199040866595169063657522201538086,-0.035800000000000005428990590417015482671558856964111,0.020999999999999990896171198073716368526220321655273,0.020899999999999988031795794540812494233250617980957,-0.048100000000000003863576125695544760674238204956055,-0.025200000000000003647082635893639235291630029678345,-0.028400000000000001632027846198980114422738552093506,0.0011999999999999996780353228587046032771468162536621,-0.024400000000000001548761119352093373890966176986694,-0.010300000000000003597122599785507190972566604614258,0.03149999999999998634425679711057455278933048248291,0.019999999999999990007992778373591136187314987182617,-0.034900000000000000466293670342565746977925300598145,-0.0011000000000000037525538232330291066318750381469727,-0.034400000000000000022204460492503130808472633361816,-0.0076000000000000025868196473766147391870617866516113,-0.013100000000000000532907051820075139403343200683594,-0.017600000000000004529709940470638684928417205810547,0.015499999999999999888977697537484345957636833190918,-0.022300000000000000377475828372553223744034767150879,0.004700000000000002786659791809142916463315486907959,0.013700000000000003841371665203041629865765571594238,0.035699999999999995625721282976883230730891227722168,0.0095999999999999974242825828696368262171745300292969,-0.01589999999999999746869150385464308783411979675293,-0.033100000000000004418687638008123030886054039001465,-0.033100000000000004418687638008123030886054039001465,-0.048800000000000003097522238704186747781932353973389,-0.021200000000000003563815909046752494759857654571533,0.011799999999999997990496325428466661833226680755615,0.047699999999999992406074511563929263502359390258789,0.018799999999999997268851359422114910557866096496582,0.025899999999999992472687893041438655927777290344238,-0.046200000000000004951594689828198170289397239685059,-0.010300000000000003597122599785507190972566604614258,0.027700000000000002398081733190338127315044403076172,0.013799999999999992827959260921488748863339424133301,0.046399999999999996802557689079549163579940795898438,-0.021200000000000003563815909046752494759857654571533,0.039300000000000001598721155460225418210029602050781,-0.013900000000000002631228568361621000804007053375244,-0.0045000000000000039968028886505635455250740051269531,0.0091999999999999929056748726452497066929936408996582,0.036299999999999998934185896359849721193313598632812,0.044299999999999992161825446146394824609160423278809,-0.040100000000000003697042672001771279610693454742432,-0.021400000000000005823119764158946054521948099136353,0.016299999999999995048405310171801829710602760314941,0.027399999999999993804955522591626504436135292053223,-0.020800000000000005984102102729593752883374691009521,0.043999999999999997446487043362139957025647163391113,-0.017899999999999999245048343254893552511930465698242,0.042900000000000007571721027943567605689167976379395,-0.035200000000000002120525977034048992209136486053467,0.041599999999999998090416397644730750471353530883789,0.012099999999999999644728632119949907064437866210938,0.016899999999999998356869923554768320173025131225586,-0.041599999999999998090416397644730750471353530883789,0.04839999999999999857891452847979962825775146484375,0.04559999999999998776534226863077492453157901763916,-0.044700000000000003619327060278010321781039237976074,-0.018700000000000001343369859796439413912594318389893,0.049500000000000002331468351712828734889626502990723,0.031100000000000002642330798607872566208243370056152,-0.015000000000000006383782391594650107435882091522217,-0.010899999999999999966693309261245303787291049957275,0.0086999999999999924615856627951870905235409736633301,0.048699999999999993294252931264054495841264724731445,-0.014500000000000005939693181744587491266429424285889,0.037499999999999991673327315311325946822762489318848,-0.026900000000000000299760216648792265914380550384521,-0.043300000000000005151434834260726347565650939941406,0.018100000000000004973799150320701301097869873046875,-0.03250000000000000111022302462515654042363166809082,0.042900000000000007571721027943567605689167976379395,0.04750000000000000055511151231257827021181583404541,-0.022700000000000001426636586643326154444366693496704,0.0066999999999999906852288233949366258457303047180176,0.013799999999999992827959260921488748863339424133301,-0.045299999999999999988897769753748434595763683319092,-0.02900000000000000494049245958194660488516092300415,0.042900000000000007571721027943567605689167976379395,0.021899999999999988919974214240937726572155952453613,-0.036200000000000003008704396734174224548041820526123,-0.0072000000000000050071058410594559973105788230895996,0.048599999999999990429877527731150621548295021057129,-0.039000000000000006883382752675970550626516342163086,-0.040400000000000005351274978693254524841904640197754,-0.0078000000000000013766765505351941101253032684326172,-0.04060000000000000414113188185183389578014612197876,-0.0097000000000000002886579864025407005101442337036133,-0.002600000000000005084821452783216955140233039855957,-0.009399999999999998634425679711057455278933048248291,-0.010200000000000000732747196252603316679596900939941,-0.021500000000000005218048215738235739991068840026855,-0.039300000000000001598721155460225418210029602050781,-0.036000000000000004218847493575594853609800338745117,-0.027700000000000002398081733190338127315044403076172,-0.005400000000000002020605904817784903571009635925293,-0.00060000000000000330846461338296649046242237091064453,-0.0051000000000000003663735981263016583397984504699707,-0.047200000000000005839773109528323402628302574157715,0.041200000000000000510702591327572008594870567321777,-0.037100000000000001032507412901395582593977451324463,-0.029800000000000000099920072216264088638126850128174,0.034099999999999991429078249893791507929563522338867,-0.039600000000000003252953462151708663441240787506104,0.032699999999999992961186023876507533714175224304199,0.025899999999999992472687893041438655927777290344238,0.024099999999999996425081860706995939835906028747559,-0.027500000000000003608224830031758756376802921295166,0.046799999999999994382271495396707905456423759460449,-0.047900000000000005073719222536965389735996723175049,0.044299999999999992161825446146394824609160423278809,-0.0042000000000000023425705819590803002938628196716309,-0.0052000000000000032307490016592055326327681541442871,-0.021999999999999998723243521681069978512823581695557,0.0066827313091241151085664107256434363080188632011414,0.039600003623972590549584538166527636349201202392578,0.020100006214503050860908928143544471822679042816162,-0.048799565659187860156009719503344967961311340332031,0.015000706868803514310029001421753491740673780441284,0.0026999461328680255528533749043162970338016748428345,0.026900000024580844604216167681443039327859878540039,-0.045299999999983159293392986910475883632898330688477,0.031100000000000002642330798607872566208243370056152,-0.027199990053523966787585308679808804299682378768921,0.0038711753457265889871719011239292740356177091598511,-0.046699999999929180105606718598210136406123638153076,0.017300000000096245333924827036753413267433643341064,-0.04680001775301798755402060692176746670156717300415,-0.0017999999999997714009158933379239897476509213447571,0.019729695312916555732796197730749554466456174850464,0.044400934845593313660128131914461846463382244110107,0.046200000000001122113513218891966971568763256072998,-0.024599820848349183977088472374816774390637874603271,-0.036400016513863479861168315210306900553405284881592,-0.04349999999999793615090837306524917948991060256958,-0.041999999999268469719204688317404361441731452941895,-0.025400000000074016148765565503708785399794578552246,-0.034314630393235789895811649330426007509231567382812,-0.019599999999995048466372438156213320326060056686401,0.0067908523593426840803122246370548964478075504302979,-0.032299999999996421851111705336734303273260593414307,0.0098000000000243187719961568404869467485696077346802,-0.047839811723899013096161780822512810118496417999268,0.012500000000016718224027378880691685480996966362,0.037700000000003675015847193208173848688602447509766,0.044099999999999958677499023451673565432429313659668,0.037197968476831017037298465766070876270532608032227,0.043012737837862316525594508220819989219307899475098,-0.019599998268741820883764859217990306206047534942627,0.0020999998546956904869886795239608545671217143535614,-0.0043977552273646216413061083017055352684110403060913,-0.042699999916352648909878553240559995174407958984375,0.042000000000003402667037022411022917367517948150635,0.011801104455547743385390724313310784054920077323914,-0.019999999140032202055161647535896918270736932754517,-0.004195004109171502140740450670364225516095757484436,-0.049800012206174013029702507537876954302191734313965,-0.017600040102775028894033226833926164545118808746338,0.03410000000340355358341426494916959200054407119751,0.033500000000000057509552675583108793944120407104492,-0.047699999999999458111243910707344184629619121551514,0.028399998808462445509803728782571852207183837890625,0.029700000000705863156813535397304804064333438873291,0.012800000026908488204302472013296210207045078277588,-0.022951543794415302235378817385935690253973007202148,-0.028699989353584264700769423939163971226662397384644,0.020699434893589194889296223323071899358183145523071,0.036801275929652883800446971918063354678452014923096,-0.010811254055010537100667278309629182331264019012451,-0.013800158240823461736068722416348464321345090866089,-0.0066999999277937644440172881843409413704648613929749,0.039800000220357775737589633990864967927336692810059,-0.018900000001896760659647611646505538374185562133789,0.030600029217613101961692478880650014616549015045166,0.037313587452387698972788854234750033356249332427979,-0.031199999999791946242444495851486863102763891220093,0.024600002641656688873172953435641829855740070343018,0.024496386828609332392270303557779698166996240615845,-0.0030999999999993272520315557017056562472134828567505,-0.045794102604739282680323952945400378666818141937256,-0.02339725389106682429396499856011359952390193939209,-0.022399999999996672572777356435835827142000198364258,-0.0025994737428359491505924783183445470058359205722809,-0.031500048509470197910520283812729758210480213165283,0.039300000000060821003788902316955500282347202301025,0.027299999993232123424169444092513003852218389511108,0.049399999572546336723544158076038002036511898040771,-0.027691121212091721753845163789264915976673364639282,-0.040399999999985503063015812585945241153240203857422,0.034720214401803055348505466781716677360236644744873,-0.041899999999989494259278188792450237087905406951904,-0.0029999999999297676141207791289389206212945282459259,0.043368789736287702285544298774766502901911735534668,-0.027099999999422523522252248540098662488162517547607,-0.0049999999999892534921497322386585437925532460212708,-0.026000000000047717579887418537509802263230085372925,-0.0059059675260850832967385315441788407042622566223145,-0.034224380888223430996486484900742652826011180877686,-0.003999994914429073900041800015969783999025821685791,-0.034629277535933027099002146087514120154082775115967,0.037006593752079340597926915279458626173436641693115,0.03920000025201799548346670576393080409616231918335,-0.0087999999993133206505069310310318542178720235824585,-0.030795208995732816642521001426757720764726400375366,0.019191275215276876880965417626612179446965456008911,-0.021197081842380127020275537574889312963932752609253,0.021899964144363806561877083822764689102768898010254,0.029499882198097918117873916798998834565281867980957,-0.046999999995608700287252901262036175467073917388916,-0.031300000000009965683833712546402239240705966949463,-0.030399999999998386646105075215018587186932563781738,0.014699941129282788690457728364435752155259251594543,-0.0037999999999906411592143218314276964520104229450226,0.01690000007860976982687617464762297458946704864502,-0.037929881349132277268410007309284992516040802001953,0.020612708747097391315250547449977602809667587280273,0.015182689719046960075132801648578606545925140380859,-0.032581883599991132149931161166023230180144309997559,0.07266887404495722679875768790225265547633171081543,-0.02432567797581197330258895306087651988491415977478,-0.013900000186536361906908254582049266900867223739624,-0.011599984558160098685464234335995570290833711624146,-0.043900926315994862059177705759793752804398536682129,-0.017000253463578422069568674146466946694999933242798,0.046600888418972523374872451995543087832629680633545,0.0010000000058053269431229681529771369241643697023392,0.042201320717322049480557666356617119163274765014648,-0.015263785342849533685494201051824347814545035362244,0.016600000232353542828356296467973152175545692443848,-0.011892400074576850790841753280346893006935715675354,0.041797689971380162787806256119438330642879009246826,0.038700000000007450662309338440536521375179290771484,0.012437134654375577025309240752903860993683338165283,-0.017099996246370100655420642965509614441543817520142,-0.043399999980100245622338661632966250181198120117188,0.017199997744298665958151417498811497353017330169678,0.011298402734986418005647124118695501238107681274414,-0.035081954596399095303027593217848334461450576782227,-0.0034000232101821618868608965158273349516093730926514,0.10368172925160898389940200559067307040095329284668,0.047099999992307864382645732348464662209153175354004,-0.048699999999714145559881472991037298925220966339111,-0.084916066123951750022058604372432455420494079589844,0.02823734043612455973937258590922283474355936050415,-0.046699999997713563526513524948313715867698192596436,0.0025999908732865866477224070507645592442713677883148,0.034210197596739148895306215081291156820952892303467,0.041931848981557426347954731227218871936202049255371,-0.044700000022812054478738019724914920516312122344971,-0.09588759035788076146022973489380092360079288482666,-0.0084001791493447577202635656590246071573346853256226,-0.0083974554123185385368088873292435891926288604736328,0.038000000006957523890349648354458622634410858154297,0.033985115231994364459744417672482086345553398132324,-0.11306260739568621542794346623850287869572639465332,-0.024753717251348689859513640953991853166371583938599,0.048599999998913054333193883849162375554442405700684,-0.04839999988715062290145496604054642375558614730835,0.009667986987308342661240345705664367415010929107666,-0.046818875835228271342636219287669518962502479553223,0.024800000000063021632357163070992100983858108520508,0.010212657225592022477989040396550990408286452293396,0.038899989214316990637776427774952026084065437316895,-0.01290000000678088142025412565772057860158383846283,-0.039392749125154814804350422718925983645021915435791,-0.019279331181731567540493799128853424917906522750854,-0.066272748273142154107340218160970835015177726745605,-0.034511485163959652877618822230942896567285060882568,0.091790688137235912358313782988261664286255836486816,0.038355614690706398006714294979246915318071842193604,0.0005979018043831049039615876949937955942004919052124,-0.0086999829029609718200610757321555865928530693054199,0.037298512297153474381872229059808887541294097900391,0.034895508203932779078826342811225913465023040771484,0.0052115590459274182752458237644077598815783858299255,0.040500000009321739102841064550375449471175670623779,-0.012501176440483039928319719535920739872381091117859,-0.018964559126113385983947168256236182060092687606812,-0.041799999629969115944039259602504898793995380401611,-0.007287598460817079105977800423943335772491991519928,0.038665919946462914968954294181457953527569770812988,-0.00030070678567477326405266158104723217547871172428131,-0.03074068505624446764890045358242787187919020652771,-0.038098747380051964372960071614215848967432975769043,-0.01749999993415228896620483567403425695374608039856,-0.021312548137609264864433811226263060234487056732178,-0.018702615485663150879380722813039028551429510116577,-0.072075837011057505843147907853563083335757255554199,0.015399962745136587527472471492728800512850284576416,0.062193761454317458836626997253915760666131973266602,0.016499998626182690864006019637599820271134376525879,-0.0097999664809049168157084608310469775460660457611084,-0.19238019030768105377404708633548580110073089599609,0.036821169371468932818292074671262525953352451324463,-0.037599999916077500583533321787399472668766975402832,-0.047100019914930971176580953851953381672501564025879,-0.028649394453737632437739790702835307456552982330322,0.023729012753169086841209534100016753654927015304565,-0.031100642827796860095945774560277641285210847854614,-0.10972497149150392536931519771314924582839012145996,-0.012218542598387964817630013669713662238791584968567,-0.044941477234894201819859205215834663249552249908447,-0.043400647609260815940057653961048345081508159637451,0.069689516928335151768614252887346083298325538635254,-0.062570249607828226645622748947062063962221145629883,0.018842475376428201999656764087376359384506940841675,0.035800018995386165276961776271491544321179389953613,0.012002246945362138666468787562280340353026986122131,-0.014676303334967458202875434380985097959637641906738,-0.016272739571535483477093819715264544356614351272583,-0.01010096730345669269190977956895949319005012512207,-0.063709509383265139348395678098313510417938232421875,-0.036000006648981723589297843091117101721465587615967,0.0089985942207981978180342252926493529230356216430664,-0.66757004885102599889279417766374535858631134033203,-0.0035573495479235481275814834134507691487669944763184,-0.2760355901856524352133703814615728333592414855957,-0.012117117919911593246218295405469689285382628440857,0.20936734502565254589789844885672209784388542175293,0.018651143874932236271790841897200152743607759475708,0.013895584009390879454137746051856083795428276062012,-0.03568687945192697968943562614185793790966272354126,-0.021700155802882370448259052864159457385540008544922,-0.037848969062614715164194478802528465166687965393066,-0.041516133194043888798852037780307000502943992614746,-0.0093422629686510088448114785819598182570189237594604,-0.035464309192615117716229633515467867255210876464844,-0.68919731604742484609715802434948273003101348876953,0.042775351407931191949352012215967988595366477966309,0.018888771819133409052282601692240859847515821456909,-0.023713611843449777794035071565303951501846313476562,0.015263475890222149775055093812170525779947638511658,0.023894394056770865142347304299619281664490699768066,-0.016909319376562443465461527125626162160187959671021,0.01062693537511628059932800027809207676909863948822,-0.01696409190689162141407742012688686372712254524231,0.044283312468872307321454684370110044255852699279785,-0.026130787203369060245350397053698543459177017211914,0.045199997881247899744749929595855064690113067626953,0.48881222484508818348913905538211110979318618774414,0.025399954794182971751226318701810669153928756713867,-0.014998368590765283683841069262143719242885708808899,-0.1120967358772524957721827831846894696354866027832,-0.44590686913046728712117783288704231381416320800781,-0.019941331385285466365475670613705005962401628494263,0.04124412298463370901702162996116385329514741897583,0.02159480320003675374307405832041695248335599899292,0.039436715636283529995420593650123919360339641571045,