0,-0.019600000000000002836619827917274960782378911972046,0.030800000000000007926992395823617698624730110168457,0.011199999999999994682031712045500171370804309844971,0.034799999999999997601918266809661872684955596923828,0.034699999999999994737542863276757998391985893249512,-0.037600000000000001476596622751458198763430118560791,-0.013900000000000002631228568361621000804007053375244,-0.033700000000000000788258347483861143700778484344482,-0.039500000000000007327471962526033166795969009399414,0.040300000000000002486899575160350650548934936523438,-0.030300000000000000544009282066326704807579517364502,-0.0068000000000000004884981308350688777863979339599609,0.015200000000000005173639294753229478374123573303223,0.049599999999999991318055947431275853887200355529785,0.0057000000000000036748382115092681488022208213806152,0.010299999999999996658228695878278813324868679046631,0.047199999999999991961985301713866647332906723022461,0.024699999999999999733546474089962430298328399658203,-0.048100000000000003863576125695544760674238204956055,0.0098999999999999921396209856538916938006877899169922,-0.031400000000000004296563105299355811439454555511475,-0.028900000000000002076117056049042730592191219329834,0.0042999999999999982680520815847557969391345977783203,0.047899999999999998134825318629737012088298797607422,-0.022600000000000002031708135064036468975245952606201,-0.048199999999999999789057625321220257319509983062744,-0.027000000000000003164135620181696140207350254058838,0.031200000000000005506706202140776440501213073730469,0.00039999999999999757971380631715874187648296356201172,-0.040800000000000002930988785010413266718387603759766,-0.018800000000000004207745263329343288205564022064209,0.030700000000000005062616992290713824331760406494141,-0.024900000000000001992850329202155990060418844223022,-0.022499999999999999167332731531132594682276248931885,-0.049300000000000003541611448554249363951385021209717,-0.040199999999999999622524171627446776255965232849121,-0.010200000000000000732747196252603316679596900939941,0.021899999999999988919974214240937726572155952453613,-0.024000000000000000499600361081320443190634250640869,0.035400000000000000910382880192628363147377967834473,0.012099999999999999644728632119949907064437866210938,0.03089999999999999691357999154206481762230396270752,-0.021400000000000005823119764158946054521948099136353,-0.022800000000000000821565038222615839913487434387207,0.030399999999999996469490781692002201452851295471191,0.034199999999999994293453653426695382222533226013184,-0.027300000000000001348920974919565196614712476730347,0.027499999999999996669330926124530378729104995727539,0.044099999999999986433074639080587076023221015930176,-0.025500000000000001831867990631508291698992252349854,-0.012700000000000002953193245502916397526860237121582,-0.037400000000000002686739719592878827825188636779785,0.030700000000000005062616992290713824331760406494141,-0.023300000000000001265654248072678456082940101623535,-0.039600000000000003252953462151708663441240787506104,-0.042000000000000002609024107869117869995534420013428,-0.021500000000000005218048215738235739991068840026855,-0.01669999999999999956701302039618894923478364944458,-0.02560000000000000469624339416441216599196195602417,0.028800000000000006150635556423367233946919441223145,0.027599999999999999533706329657434253022074699401855,0.040700000000000000066613381477509392425417900085449,0.044599999999999986877163848930649692192673683166504,-0.047300000000000001765254609153998899273574352264404,-0.031900000000000004740652315149418427608907222747803,-0.019600000000000002836619827917274960782378911972046,-0.0024000000000000062949645496246375842019915580749512,0.0078999999999999903632641462536412291228771209716797,-0.047700000000000006283862319378386018797755241394043,0.023499999999999993116617247324029449373483657836914,0.028399999999999994693133942291751736775040626525879,0.014299999999999993272048470771551365032792091369629,0.0042999999999999982680520815847557969391345977783203,-0.043099999999999999422684027194918598979711532592773,-0.023300000000000001265654248072678456082940101623535,0.019899999999999987143617374840687261894345283508301,-0.02370000000000000231481500634345138678327202796936,-0.00070000000000000617284001691587036475539207458496094,-0.0027000000000000079491968563161208294332027435302734,-0.029700000000000000704991620636974403169006109237671,-0.041100000000000004585221091701896511949598789215088,-0.030200000000000001149080830487037019338458776473999,-0.017200000000000000011102230246251565404236316680908,-0.025300000000000003042011087472928920760750770568848,-0.0035999999999999990341059685761138098314404487609863,0.028300000000000005706546346573304617777466773986816,-0.017399999999999998800959133404830936342477798461914,-0.040000000000000000832667268468867405317723751068115,-0.038500000000000006439293542825907934457063674926758,0.042099999999999998534505607494793366640806198120117,-0.026100000000000005140332604014474782161414623260498,-0.025700000000000004091171845743701851461082696914673,0.032699999999999992961186023876507533714175224304199,-0.031500000000000000222044604925031308084726333618164,-0.023100000000000002475797344914099085144698619842529,-0.0492000000000000006772360450213454896584153175354,0.033999999999999988564702846360887633636593818664551,0.024399999999999991140420263491250807419419288635254,0.04379999999999999171773623629633220843970775604248,0.036199999999999996069810492826945846900343894958496,0.032999999999999987676524426660762401297688484191895,0.022099999999999994648725021306745475158095359802246,0.035699999999999995625721282976883230730891227722168,0.022499999999999992228438827623904217034578323364258,-0.035800000000000005428990590417015482671558856964111,-0.037700000000000004340972026284362073056399822235107,-0.0077000000000000054511950509095186134800314903259277,-0.0095999999999999974242825828696368262171745300292969,0.046699999999999991517896091863804031163454055786133,-0.025300000000000003042011087472928920760750770568848,0.010599999999999998312461002569762058556079864501953,-0.0093000000000000027089441800853819586336612701416016,-0.0056000000000000008104628079763642745092511177062988,-0.021500000000000005218048215738235739991068840026855,0.015299999999999994160226890471676597371697425842285,-0.024000000000000000499600361081320443190634250640869,-0.043300000000000005151434834260726347565650939941406,-0.017000000000000001221245327087672194465994834899902,-0.01410000000000000142108547152020037174224853515625,0.0032999999999999973798736618846305646002292633056641,-0.024900000000000001992850329202155990060418844223022,0.0097999999999999962141394860282161971554160118103027,0.027499999999999996669330926124530378729104995727539,-0.0071000000000000021427304375265521230176091194152832,-0.036600000000000000588418203051332966424524784088135,-0.010500000000000002386979502944086561910808086395264,-0.0064000000000000029087843245179101359099149703979492,0.047299999999999994826360705246770521625876426696777,-0.0010000000000000008881784197001252323389053344726562,0.022499999999999992228438827623904217034578323364258,-0.031300000000000001432187701766451937146484851837158,-0.018000000000000002109423746787797426804900169372559,-0.005400000000000002020605904817784903571009635925293,-0.04570000000000000450750547997813555411994457244873,-0.045600000000000001643130076445231679826974868774414,0.0086999999999999924615856627951870905235409736633301,0.0017000000000000001221245327087672194465994834899902,0.031799999999999994937383007709286175668239593505859,-0.01580000000000000154321000422896759118884801864624,-0.0017000000000000070610184366159955970942974090576172,-0.043599999999999999866773237044981215149164199829102,0.04469999999999998974153925246355356648564338684082,-0.025900000000000002881028748902281222399324178695679,0.035999999999999990341059685761138098314404487609863,0.0082999999999999948818718564780283486470580101013184,0.039300000000000001598721155460225418210029602050781,-0.038100000000000001920685832601520814932882785797119,0.014899999999999996580513084154517855495214462280273,0.0073999999999999899191749364035786129534244537353516,0.032899999999999998689936830942315282300114631652832,0.0032999999999999973798736618846305646002292633056641,0.032399999999999998245847621092252666130661964416504,0.027800000000000005262457136723242001608014106750488,-0.019200000000000001787459069646502030082046985626221,-0.024700000000000003202993426043576619122177362442017,0.041099999999999997646327187794668134301900863647461,-0.044600000000000000754951656745106447488069534301758,-0.045999999999999999222843882762390421703457832336426,-0.026400000000000003325117958752343838568776845932007,0.0044000000000000011324274851176596712321043014526367,0.026499999999999995781152506424405146390199661254883,-0.0078000000000000013766765505351941101253032684326172,-0.028500000000000004496403249731883988715708255767822,0.0062000000000000041189274213593307649716734886169434,-0.0035999999999999990341059685761138098314404487609863,0.010999999999999995892174808886920800432562828063965,0,0.048000000000000000999200722162640886381268501281738,-0.0073000000000000009325873406851314939558506011962891,0.034099999999999991429078249893791507929563522338867,0.031399999999999997357669201392127433791756629943848,0.034199999999999994293453653426695382222533226013184,-0.036100000000000000144328993201270350255072116851807,-0.009399999999999998634425679711057455278933048248291,0.020099999999999992872368181906495010480284690856934,0.022099999999999994648725021306745475158095359802246,-0.020200000000000002675637489346627262420952320098877,-0.032899999999999998689936830942315282300114631652832,0.022099999999999994648725021306745475158095359802246,0.037099999999999994093613508994167204946279525756836,-0.014800000000000007593925488436070736497640609741211,-0.024700000000000003202993426043576619122177362442017,-0.045299999999999999988897769753748434595763683319092,-0.037100000000000001032507412901395582593977451324463,0.041200000000000000510702591327572008594870567321777,0.015100000000000002309263891220325604081153869628906,-0.010800000000000004041211809635569807142019271850586,-0.018200000000000000899280649946376797743141651153564,-0.04580000000000000043298697960381105076521635055542,0.012700000000000002953193245502916397526860237121582,0.03609999999999999320543508929404197260737419128418,-0.034200000000000001232347557333923759870231151580811,-0.045200000000000004063416270128072937950491905212402,-0.0073000000000000009325873406851314939558506011962891,0.021899999999999988919974214240937726572155952453613,0.036299999999999998934185896359849721193313598632812,-0.046400000000000003741451592986777541227638721466064,0.0069999999999999923394611300864198710769414901733398,-0.030600000000000002198241588757809950038790702819824,0.031399999999999997357669201392127433791756629943848,-0.0090000000000000079936057773011270910501480102539062,-0.01410000000000000142108547152020037174224853515625,0.015499999999999999888977697537484345957636833190918,0.0047999999999999987121412914348184131085872650146484,0.026399999999999992916777102891501272097229957580566,0.020799999999999999045208198822365375235676765441895,0.011999999999999996780353228587046032771468162536621,-0.008700000000000006339373470609643845818936824798584,-0.027000000000000003164135620181696140207350254058838,-0.016000000000000000333066907387546962127089500427246,0.013499999999999998112620858137233881279826164245605,0.0080999999999999960920149533194489777088165283203125,0.044499999999999997890576253212202573195099830627441,-0.046700000000000005395683899678260786458849906921387,-0.043800000000000005595524044110788963735103607177734,0.035599999999999992761345879443979356437921524047852,0.018299999999999996824762149572052294388413429260254,-0.004700000000000002786659791809142916463315486907959,0.0025000000000000022204460492503130808472633361816406,-0.04230000000000000426325641456060111522674560546875,-0.042099999999999998534505607494793366640806198120117,-0.01150000000000000327515792264421179424971342086792,-0.026600000000000002114974861910923209507018327713013,-0.0022000000000000075051076464660582132637500762939453,-0.033700000000000000788258347483861143700778484344482,-0.019500000000000003441691376337985275313258171081543,0.019199999999999994848565165739273652434349060058594,-0.030200000000000001149080830487037019338458776473999,0.037400000000000002686739719592878827825188636779785,-0.026300000000000003930189507173054153099656105041504,-0.013700000000000003841371665203041629865765571594238,-0.021600000000000004612976667317525425460189580917358,0.0094999999999999945599071793367329519242048263549805,-0.013000000000000004607425552194399642758071422576904,-0.031700000000000005950795411990839056670665740966797,0.020999999999999990896171198073716368526220321655273,-0.04230000000000000426325641456060111522674560546875,0.030300000000000007482903185973555082455277442932129,-0.037800000000000000266453525910037569701671600341797,0.015799999999999994604316100321739213541150093078613,-0.035800000000000005428990590417015482671558856964111,-0.039199999999999998734345751927321543917059898376465,-0.026100000000000005140332604014474782161414623260498,-0.04140000000000000623945339839337975718080997467041,-0.035900000000000001354472090042690979316830635070801,-0.020000000000000003885780586188047891482710838317871,-0.020600000000000003724798247617400193121284246444702,-0.03250000000000000111022302462515654042363166809082,-0.039600000000000003252953462151708663441240787506104,0.031799999999999994937383007709286175668239593505859,-0.024900000000000001992850329202155990060418844223022,-0.031800000000000001876276911616514553315937519073486,0.0055000000000000048849813083506887778639793395996094,-0.0015000000000000013322676295501878485083580017089844,-0.048900000000000005961897642237090622074902057647705,0.021699999999999997069011214989586733281612396240234,0.028899999999999995137223152141814352944493293762207,-0.044600000000000000754951656745106447488069534301758,-0.023300000000000001265654248072678456082940101623535,0.016200000000000006061817714453354710713028907775879,-0.021000000000000004773959005888173123821616172790527,0.012899999999999994804156244754267390817403793334961,0.044499999999999997890576253212202573195099830627441,-0.026400000000000003325117958752343838568776845932007,0.049799999999999997046806754497083602473139762878418,-0.0020000000000000017763568394002504646778106689453125,-0.020300000000000005540012892879531136713922023773193,-0.0074000000000000037969627442180353682488203048706055,-0.021800000000000006872280522429718985222280025482178,0.026999999999999996225241716274467762559652328491211,-0.041599999999999998090416397644730750471353530883789,-0.0077000000000000054511950509095186134800314903259277,0.03769999999999999740207812237713369540870189666748,-0.017800000000000003319566843629218055866658687591553,0.03609999999999999320543508929404197260737419128418,-0.048300000000000002653433028854124131612479686737061,0.047299999999999994826360705246770521625876426696777,0.00059999999999999636957070947573811281472444534301758,-0.03080000000000000098809849191638932097703218460083,-0.042400000000000000188737914186276611872017383575439,-0.017700000000000000455191440096314181573688983917236,-0.0057999999999999996003197111349436454474925994873047,0.010899999999999993027799405354016926139593124389648,-0.027100000000000002559064071760985825676470994949341,-0.022200000000000000982547376793263538274914026260376,0.047099999999999989097609898180962773039937019348145,0.044599999999999986877163848930649692192673683166504,-0.043400000000000001076916333886401844210922718048096,-0.047600000000000003419486915845482144504785537719727,0.0063999999999999890309965167034533806145191192626953,-0.042000000000000002609024107869117869995534420013428,0.016500000000000000777156117237609578296542167663574,-0.03080000000000000098809849191638932097703218460083,-0.01240000000000000129896093881143315229564905166626,0.039999999999999993893773364561639027670025825500488,0.0042000000000000023425705819590803002938628196716309,0.035499999999999989896970475911075482144951820373535,0.0047999999999999987121412914348184131085872650146484,0.046699999999999991517896091863804031163454055786133,-0.036400000000000001798561299892753595486283302307129,-0.018300000000000003763656053479280672036111354827881,-0.0098000000000000031530333899354445748031139373779297,0.0059000000000000024646951146678475197404623031616211,-0.030700000000000001593170040337099635507911443710327,-0.042500000000000003053113317719180486164987087249756,0.027099999999999999089617119807371636852622032165527,-0.02900000000000000494049245958194660488516092300415,-0.045299999999999999988897769753748434595763683319092,-0.022399999999999999772404279951842909213155508041382,0.025300000000000003042011087472928920760750770568848,-0.002600000000000005084821452783216955140233039855957,0.04499999999999999833466546306226518936455249786377,-0.030600000000000002198241588757809950038790702819824,-0.0066000000000000016986412276764895068481564521789551,-0.032100000000000003530509218307997798547148704528809,-0.0028000000000000038746783559417963260784745216369629,-0.0095999999999999974242825828696368262171745300292969,-0.0024000000000000062949645496246375842019915580749512,0.03890000000000000401900734914306667633354663848877,-0.0073000000000000009325873406851314939558506011962891,-0.046100000000000002087219286295294295996427536010742,0.046799999999999994382271495396707905456423759460449,-0.0057000000000000036748382115092681488022208213806152,0.008199999999999992017496452945124474354088306427002,-0.015600000000000002753353101070388220250606536865234,0.019399999999999986699528164990624645724892616271973,-0.037700000000000004340972026284362073056399822235107,0.0050000000000000044408920985006261616945266723632812,-0.025900000000000002881028748902281222399324178695679,-0.0057999999999999996003197111349436454474925994873047,0.018600000000000005417888360170763917267322540283203,0.0057000000000000036748382115092681488022208213806152,0.0342999999999999971578290569595992565155029296875,0.0095999999999999974242825828696368262171745300292969,0.024999999999999994448884876874217297881841659545898,-0.022999999999999999611421941381195210851728916168213,-0.013400000000000002187139358511558384634554386138916,-0.018900000000000003602673714908632973674684762954712,-0.01839999999999999968913755310495616868138313293457,0.04929999999999999660271754464702098630368709564209,-0.043700000000000002731148640577885089442133903503418,-0.035800000000000005428990590417015482671558856964111,0.044199999999999989297450042613490950316190719604492,0.010799999999999997102317905728341429494321346282959,0.007499999999999992783550339936482487246394157409668,-0.0028000000000000038746783559417963260784745216369629,-0.0069000000000000033528735343679727520793676376342773,0.047899999999999998134825318629737012088298797607422,0.04469999999999998974153925246355356648564338684082,0.017200000000000006949996134153479943051934242248535,0.025700000000000000621724893790087662637233734130859,-0.016300000000000001987299214079030207358300685882568,0.013899999999999995692334664454392623156309127807617,-0.030000000000000002359223927328457648400217294692993,0.041900000000000006683542608243442373350262641906738,-0.016600000000000003641531520770513452589511871337891,-0.025500000000000001831867990631508291698992252349854,-0.01070000000000000117683640610266593284904956817627,0.038400000000000003574918139293004060164093971252441,-0.0013999999730677594768357696608518381253816187381744,-0.031403068074056551817196947240518056787550449371338,0.042100000005499828292787611871972330845892429351807,-0.045799999994648094014948469521186780184507369995117,-0.011899963290830539719422631605993956327438354492188,0.0016000000000000453963255875322602150845341384410858,-0.035700001423940218303609839267664938233792781829834,0.015000000000010187475862899475487211020663380622864,-0.026700000000000168043357007263693958520889282226562,0.030500000000062536115175149120659625623375177383423,-0.018299999999999996824762149572052294388413429260254,-0.027499999977376801685302609712380217388272285461426,-0.028099999999989935112187922072735091205686330795288,-0.0041999999999779149759127072627507004654034972190857,0.0018000000000000019022977637561666597321163862943649,0.032716166957828349270975820672902045771479606628418,-0.046699934469248721713441341307770926505327224731445,0.048999247767943364395559768809107481501996517181396,0.010899999999824985449925485170297179138287901878357,-0.013700178576173453054432016529062821064144372940063,0.043603031278299744788462533051642822101712226867676,-0.021999979963221807238715754806435143109411001205444,-0.038100215487575445072465640805603470653295516967773,-0.022699999986992389078288567816343856975436210632324,-0.022899999999979280679296422817969869356602430343628,0.016999999999997409544372217737873143050819635391235,0.0043000000416845030742907241005923424381762742996216,0.045599999999640004888501465529770939610898494720459,0.04149967334474556623913343855747370980679988861084,0.043499999991949166167071183508596732281148433685303,0.033900000581736498828089310109135112725198268890381,0.025133729600378660468118496851275267545133829116821,-0.0026999998812036901142674683029554216773249208927155,-0.038899999884398829552711873702719458378851413726807,-0.035499207081939591901242891935908119194209575653076,0.035300000000001031941199158836752758361399173736572,0.012599969242891272125373092194422497414052486419678,-0.02119999999977990184918397176261350978165864944458,0.0001999999999963942784193121626756806108460295945406,-0.028999999998649238219794455062583438120782375335693,-0.0055999999999998464200734460405328718479722738265991,0.031800000488661182840299801455330452881753444671631,0.02860000000021749311240881752382847480475902557373,0.016300000000477082168215403612521186005324125289917,-0.022399999999999871402867057668117922730743885040283,-0.019250793710907571076873523452377412468194961547852,-0.0010985845357722745247591733530612145841587334871292,0.01598375178757657430472782777997053926810622215271,-0.020700000003780163332356423211422224994748830795288,-0.0051038572453465042358389247567629354307428002357483,-0.047734524388725399490773781963071087375283241271973,0.0080004327944090489893591566783470625523477792739868,0.022895345468370405933589140090589353349059820175171,-0.00079999971903556505239962781672602432081475853919983,-0.029599999999552449592155056734554818831384181976318,0.04989999999994403079295324232589337043464183807373,0.0014000009003852910503123974095274206774774938821793,0.024599999992224414607777660535248287487775087356567,0.045392944246504078609216747963728266768157482147217,0.027999999826102232869384778268795344047248363494873,-0.046699999418263506145709840211566188372671604156494,-0.035566270399621340014828518860667827539145946502686,0.0031000001187963164249461467392166014178656041622162,0.0005000001156011712240972988396947584988083690404892,-0.024499207081939585600727227188144752290099859237671,0.01750000000000103902997317106837726896628737449646,-0.014300030757108735113281028361598146148025989532471,-0.026699999999779899795271376206073909997940063476562,-0.018600000000003610173271439975906105246394872665405,0.035800000001350765210794691029150271788239479064941,0.029400000000000151706425199904515466187149286270142,0.025800000488661191389017091069035814143717288970947,-0.047299999999782516013624444894958287477493286132812,0.0080000000004770838168965951808786485344171524047852,0.027200000000000130323529745624000497628003358840942,0.015749206289092428784348598469478019978851079940796,0.038301415464227737961433462032800889573991298675537,-0.024016248212423426527939440688896866049617528915405,-0.018700000003780161555999583811171760316938161849976,0.0026961427546534980081993637668347219005227088928223,0.020865475611274601763778235863355803303420543670654,0.018600432794409062914331443039372970815747976303101,-0.039404654531629584868213100889988709241151809692383,0.028800000280964441895514838165581750217825174331665,0.0030000000004475552498051094119091430911794304847717,-0.019000000000055968646384130238402576651424169540405,0.028600000900385291052741010275894950609654188156128,-0.010500000007775582913649436989089736016467213630676,-0.044507055753495922134632678535126615315675735473633,-0.040800000173897774113918046623439295217394828796387,-0.032599999975760990400530658916977699846029281616211,-0.041302761266650889204754548700293526053428649902344,0.008800000004949843149248955853636289248242974281311,-0.044399999995183285494970704121442395262420177459717,0.044300033038252507877619024156956584192812442779541,-0.030599999999999960564878165314439684152603149414062,-0.041800001281546192433147268729953793808817863464355,-0.020099999999990837001861976318650704342871904373169,0.027799999999999856076238202717831882182508707046509,0.024800000000056283966376469152237405069172382354736,0.00080000000000000155622043029879364439693745225667953,0.0072000000203608733803650743254820554284378886222839,0.035700000000009057821159785817144438624382019042969,0.0035000000000198817386165561771349530317820608615875,-0.034899999999999993527399766435337369330227375030518,0.012814550262045507761365925603058713022619485855103,0.004000058977676159560621371724664641078561544418335,-0.046700677008850985383325848943059099838137626647949,-0.026100000000157514562504346145033196080476045608521,0.035299839281443888550082732535884133540093898773193,0.041102728150469766688068773419217905029654502868652,0.044600018033100374825750122909084893763065338134766,0.038999806061182092087324946305670891888439655303955,-0.048399999988293154751239910638105357065796852111816,-0.041399999999981361431533599670729017816483974456787,0.027099999999997667621265406978636747226119041442871,0.017700000037516060158448993888669065199792385101318,-0.02770000000032398629334906559051887597888708114624,-0.033500293989728972821051655728297191672027111053467,0.023199999992754263139493886569653113838285207748413,-0.018600000000000005417888360170763917267322540283203,-0.016199999999999999122923810546126333065330982208252,-0.033000000000000001554312234475219156593084335327148,-0.024700000000000003202993426043576619122177362442017,0.02449999999999999400479566702415468171238899230957,-0.0035000000000000031086244689504383131861686706542969,-0.0052999999999999991562305012848810292780399322509766,0.032699999999999992961186023876507533714175224304199,0.026300000000000003930189507173054153099656105041504,-0.027600000000000003003153281611048441845923662185669,0.042599999999999998978594817344855982810258865356445,0.012299999999999998434585535278529278002679347991943,0.029499999999999998445687765524780843406915664672852,0.0282000000000000028421709430404007434844970703125,0.00089999999999999802380301616722135804593563079833984,-0.020300000000000005540012892879531136713922023773193,-0.0091000000000000039190872769268025876954197883605957,-0.045200000000000004063416270128072937950491905212402,0.018100000000000004973799150320701301097869873046875,0.014700000000000004729550084903166862204670906066895,-0.02480000000000000259792187762286630459129810333252,0.0090999999999999969801933730195742100477218627929688,0.044399999999999995026200849679298698902130126953125,-0.00060000000000000330846461338296649046242237091064453,0.010699999999999994237942502195437555201351642608643,-0.047100000000000002975397705995419528335332870483398,-0.023600000000000002919886554764161701314151287078857,0.013499999999999998112620858137233881279826164245605,-0.02480000000000000259792187762286630459129810333252,-0.0071000000000000021427304375265521230176091194152832,-0.013400000000000002187139358511558384634554386138916,0.041700000000000000954791801177634624764323234558105,-0.038200000000000004785061236134424689225852489471436,0.038800000000000001154631945610162802040576934814453,-0.033000000000000001554312234475219156593084335327148,0.036299999999999998934185896359849721193313598632812,-0.014800000000000007593925488436070736497640609741211,0.046799999999999994382271495396707905456423759460449,-0.045900000000000003297362383136714925058186054229736,-0.0034000000000000002442490654175344388931989669799805,-0.030900000000000003852473895449293195270001888275146,0.046599999999999988653520688330900156870484352111816,-0.041200000000000000510702591327572008594870567321777,-0.016199999999999999122923810546126333065330982208252,0.024699999999999999733546474089962430298328399658203,0.0095999999999999974242825828696368262171745300292969,0.013399999999999995248245454604330006986856460571289,0.00069999999999999923394611300864198710769414901733398,0.049599999999999991318055947431275853887200355529785,-0.018500000000000002553512956637860042974352836608887,0.00050000000000000044408920985006261616945266723632812,-0.025300000000000003042011087472928920760750770568848,0.040499999999999994337862574411701643839478492736816,-0.0052000000000000032307490016592055326327681541442871,0.023999999999999993560706457174092065542936325073242,0.036299999999999998934185896359849721193313598632812,0.032899999999999998689936830942315282300114631652832,-0.014400000000000003075317778211683616973459720611572,-0.00020000000000000572875080706580774858593940734863281,-0.0068000000000000004884981308350688777863979339599609,0.028399999999999994693133942291751736775040626525879,-0.028500000000000004496403249731883988715708255767822,0.019999999999999990007992778373591136187314987182617,0.040099999999999996758148768094542901962995529174805,-0.0045999999999999999222843882762390421703457832336426,0.036900000000000002242650509742816211655735969543457,-0.038500000000000006439293542825907934457063674926758,-0.034300000000000004096722960866827634163200855255127,0.033599999999999990984989040043728891760110855102539,-0.034500000000000002886579864025407005101442337036133,0.012299999999999998434585535278529278002679347991943,-0.012099999999999999644728632119949907064437866210938,-0.0028000000000000038746783559417963260784745216369629,-0.043800000000000005595524044110788963735103607177734,0.021599999999999994204635811456682858988642692565918,0.0069999999999999923394611300864198710769414901733398,-0.049000000000000001887379141862766118720173835754395,0.020099999999999992872368181906495010480284690856934,-0.042400000000000000188737914186276611872017383575439,-0.049500000000000002331468351712828734889626502990723,-0.048500000000000001443289932012703502550721168518066,0.0079999999999999932276395497865451034158468246459961,0.010299999999999996658228695878278813324868679046631,-0.022800000000000000821565038222615839913487434387207,-0.012000000000000003719247132494274410419166088104248,0.019499999999999989563903568523528520017862319946289,-0.0014000000000000054067861299245123518630862236022949,0.0060000000000000053290705182007513940334320068359375,-0.045000000000000005273559366969493567012250423431396,-0.016500000000000000777156117237609578296542167663574,0.049099999999999990873966737581213237717747688293457,-0.031500000000000000222044604925031308084726333618164,0.040199999999999999622524171627446776255965232849121,0.018999999999999989119814358673465903848409652709961,-0.0415000000000000021649348980190552538260817527771,-0.014500000000000005939693181744587491266429424285889,0.041099999999999997646327187794668134301900863647461,-0.030000000000000002359223927328457648400217294692993,0.0011999999999999996780353228587046032771468162536621,-0.040199999999999999622524171627446776255965232849121,0.020599999999999993316457391756557626649737358093262,-0.0014000000000000054067861299245123518630862236022949,0.032799999999999995825561427409411408007144927978516,-0.032200000000000006394884621840901672840118408203125,0.039900000000000004907185768843191908672451972961426,0.0042999999999999982680520815847557969391345977783203,0.024699999999999999733546474089962430298328399658203,0.040800000000000002930988785010413266718387603759766,-0.02560000000000000469624339416441216599196195602417,-0.03250000000000000111022302462515654042363166809082,-0.023600000000000002919886554764161701314151287078857,0.010999999999999995892174808886920800432562828063965,-0.039400000000000004463096558993129292502999305725098,0.036699999999999996513899702677008463069796562194824,-0.026700000000000001509903313490212894976139068603516,0.033699999999999993849364443576632766053080558776855,0.041300000000000003375077994860475882887840270996094,0.021899999999999988919974214240937726572155952453613,-0.010399999999999999522604099411182687617838382720947,-0.018600000000000005417888360170763917267322540283203,-0.044700000000000003619327060278010321781039237976074,0.023800000000000001709743457922741072252392768859863,-0.00020000000000000572875080706580774858593940734863281,0.045399999999999995914379269379423931241035461425781,0.027999999999999997113420135974592994898557662963867,0.043400000000000008015810237793630221858620643615723,0.016100000000000003197442310920450836420059204101562,-0.04580000000000000043298697960381105076521635055542,-0.036700000000000003452793606584236840717494487762451,0.0023999999999999993560706457174092065542936325073242,-0.036100000000000000144328993201270350255072116851807,-0.030900000000000003852473895449293195270001888275146,-0.049100000000000004751754545395669993013143539428711,0.046699999999999991517896091863804031163454055786133,0.02199999999999999178434961777384160086512565612793,-0.024100000000000003363975764614224317483603954315186,0.03609999999999999320543508929404197260737419128418,0.031799999999999994937383007709286175668239593505859,-0.033300000000000003208544541166702401824295520782471,-0.0044000000000000011324274851176596712321043014526367,0.049199999999999993738342141114117112010717391967773,-0.0070000000000000062172489379008766263723373413085938,-0.0082000000000000058952842607595812296494841575622559,-0.0050000000000000044408920985006261616945266723632812,0.014799999999999993716137680621613981202244758605957,0.01499999999999999944488848768742172978818416595459,-0.021400000000000005823119764158946054521948099136353,0.041200000000000000510702591327572008594870567321777,0.02199999999999999178434961777384160086512565612793,-0.04660000000000000253130849614535691216588020324707,-0.027500000000000003608224830031758756376802921295166,-0.037500000000000005551115123125782702118158340454102,-0.037700000000000004340972026284362073056399822235107,0.022199999999999997513100424839649349451065063476562,-0.0070000000000000062172489379008766263723373413085938,0.040199999999999999622524171627446776255965232849121,0.015600000000000002753353101070388220250606536865234,-0.041000000000000001720845688168992637656629085540771,-0.020500000000000004329869796038110507652163505554199,-0.036000000000000004218847493575594853609800338745117,0.011299999999999997546407115578404045663774013519287,0.028600000000000000421884749357559485360980033874512,0.018200000000000007838174553853605175390839576721191,0.047299999999999994826360705246770521625876426696777,0.025200000000000000177635683940025046467781066894531,-0.0098999999999999990785148895611200714483857154846191,-0.026800000000000000904831765069502580445259809494019,0.046399999999999996802557689079549163579940795898438,0.0070999999999999952038365336193237453699111938476562,0.024999999999999994448884876874217297881841659545898,0.027200000000000001953992523340275511145591735839844,0.0062000000000000041189274213593307649716734886169434,0.0030999999999999985900167587260511936619877815246582,-0.031100000000000002642330798607872566208243370056152,-0.013700000000000003841371665203041629865765571594238,-0.032100000000000003530509218307997798547148704528809,-0.031000000000000003247402347028582880739122629165649,-0.049899999999999999911182158029987476766109466552734,-0.0057999999999999996003197111349436454474925994873047,0.040999999999999994781951784261764260008931159973145,-0.011400000000000000410782519111307919956743717193604,0.016700000000000006505906924303417326882481575012207,-0.04660000000000000253130849614535691216588020324707,0.00079999999999999515942761263431748375296592712402344,0.023999999999999993560706457174092065542936325073242,-0.0037000000000000018984813721090176841244101524353027,0.026200000000000001065814103640150278806686401367188,0.024699999999999999733546474089962430298328399658203,0.0052999999999999991562305012848810292780399322509766,-0.044400000000000001965094753586527076549828052520752,-0.026100000000000005140332604014474782161414623260498,0.0017000000000000001221245327087672194465994834899902,-0.030700000000000001593170040337099635507911443710327,0.041999999999999995670130203961889492347836494445801,0.034199999999999994293453653426695382222533226013184,-0.020400000000000004934941344458820822183042764663696,0.017299999999999995936583729871927062049508094787598,-0.0075000000000000066613381477509392425417900085449219,-0.024000000000000000499600361081320443190634250640869,-0.025700000000000004091171845743701851461082696914673,0.0025999999999999981459275488759885774925351142883301,-0.046900000000000004185540802836840157397091388702393,-0.034400000000000000022204460492503130808472633361816,-0.044400000000000001965094753586527076549828052520752,0.0070999999999999952038365336193237453699111938476562,0.037099999999999994093613508994167204946279525756836,-0.026600000000000002114974861910923209507018327713013,0.025999999999999995337063296574342530220746994018555,0.037099999999999994093613508994167204946279525756836,-0.047200000000000005839773109528323402628302574157715,-0.047900000000000005073719222536965389735996723175049,0.010799999999999997102317905728341429494321346282959,0.019399999999999986699528164990624645724892616271973,-0.044600000000000000754951656745106447488069534301758,-0.038500000000000006439293542825907934457063674926758,0.028499999999999997557509345824655611068010330200195,0.0017000000000000001221245327087672194465994834899902,-0.027200000000000001953992523340275511145591735839844,0.0032000000000000014543921622589550679549574851989746,-0.0079000000000000042410519540680979844182729721069336,0.013600000000000000976996261670137755572795867919922,-0.037800000000000000266453525910037569701671600341797,-0.02110000000000000416888745746746280929073691368103,0.032799999999999995825561427409411408007144927978516,-0.045900000000000003297362383136714925058186054229736,-0.0018000000000000029864999362416710937395691871643066,-0.037600000000000001476596622751458198763430118560791,-0.043500000000000003941291737419305718503892421722412,-0.024200000000000002758904216193514002952724695205688,0.023499999999999993116617247324029449373483657836914,-0.019300000000000004651834473179405904375016689300537,0.028300000000000005706546346573304617777466773986816,-0.038300000000000000710542735760100185871124267578125,0.03149999999999998634425679711057455278933048248291,0.033899999999999999578115250642440514639019966125488,0.01870000000000000828226376370366779156029224395752,0.018500000000000002553512956637860042974352836608887,-0.0076000000000000025868196473766147391870617866516113,0.029800000000000007038813976123492466285824775695801,0.040700000000000000066613381477509392425417900085449,-0.0049000000000000015765166949677222874015569686889648,0.031899999999999997801758411242190049961209297180176,0.001399999999999998467892226017283974215388298034668,-0.00040000000000000451860771022438711952418088912963867,-0.027600000000000003003153281611048441845923662185669,0.048000000000000000999200722162640886381268501281738,-0.021899999999999999328315070101780293043702840805054,-0.040800000000000002930988785010413266718387603759766,-0.029200000000000003730349362740525975823402404785156,-0.033600000000000004862776847858185647055506706237793,0.0011999999999999996780353228587046032771468162536621,-0.030500000000000002803313137178520264569669961929321,-0.021500000000000005218048215738235739991068840026855,-0.034700000000000001676436767183986376039683818817139,-0.047800000000000002209343819004061515443027019500732,0.017700000000000007394085344003542559221386909484863,0.048599999999999990429877527731150621548295021057129,-0.00030000000000000165423230669148324523121118545532227,0.024199999999999999289457264239899814128875732421875,-0.02560000000000000469624339416441216599196195602417,-0.026900000000000000299760216648792265914380550384521,-0.010000000000000001942890293094023945741355419158936,-0.047400000000000004629630012686902773566544055938721,-0.015300000000000008038014698286133352667093276977539,-0.028600000000000003891331701311173674184828996658325,-0.028400000000000001632027846198980114422738552093506,-0.01150000000000000327515792264421179424971342086792,-0.025000000000000001387778780781445675529539585113525,0.013999999999999998556710067987296497449278831481934,0.0035000000000000031086244689504383131861686706542969,-0.034400000000000000022204460492503130808472633361816,-0.041000000000000001720845688168992637656629085540771,0.020499999999999990452081988223653752356767654418945,0.016899999999999998356869923554768320173025131225586,0.04379999999999999171773623629633220843970775604248,0.042800000000000004707345624410663731396198272705078,0.014899999999999996580513084154517855495214462280273,-0.0282000000000000028421709430404007434844970703125,-0.048000000000000000999200722162640886381268501281738,-0.029200000000000003730349362740525975823402404785156,-0.011900000000000000854871728961370536126196384429932,0.038300000000000000710542735760100185871124267578125,-0.0098000000000000031530333899354445748031139373779297,0.016500000000000000777156117237609578296542167663574,-0.046499999999999999666933092612453037872910499572754,0.027499999999999996669330926124530378729104995727539,0.01929999999999999771294056927217752672731876373291,-0.012700000000000002953193245502916397526860237121582,-0.022800000000000000821565038222615839913487434387207,-0.0066000000000000016986412276764895068481564521789551,0.011599999999999999200639422269887290894985198974609,0.035400000000000000910382880192628363147377967834473,-0.031400000000000004296563105299355811439454555511475,0.04929999999999999660271754464702098630368709564209,0.0052999999999999991562305012848810292780399322509766,0.025099999999999997313260280407121172174811363220215,-0.029100000000000004335420911161236290354281663894653,-0.02110000000000000416888745746746280929073691368103,-0.049899999999999999911182158029987476766109466552734,-0.030000000000000002359223927328457648400217294692993,0.032299999999999995381472217559348791837692260742188,0.00079999999999999515942761263431748375296592712402344,0.01410000000000000142108547152020037174224853515625,0.0027000000000000010103029524088924517855048179626465,0.0028999999999999998001598555674718227237462997436523,0.0077999999999999944377826466279657324776053428649902,-0.0045000000000000039968028886505635455250740051269531,0.0028999999999999998001598555674718227237462997436523,0.029499999999999998445687765524780843406915664672852,-0.002600000000000005084821452783216955140233039855957,0.02359999999999999598099265085693332366645336151123,0.0027000000000000010103029524088924517855048179626465,0.020799999999999999045208198822365375235676765441895,-0.0011000000000000037525538232330291066318750381469727,0.0042999999999999982680520815847557969391345977783203,-0.040500000000000001276756478318930021487176418304443,-0.02370000000000000231481500634345138678327202796936,-0.026400000000000003325117958752343838568776845932007,-0.0032999999999999973798736618846305646002292633056641,0.03859999999999999542588113854435505345463752746582,0.016899999999999998356869923554768320173025131225586,-0.0066000000000000016986412276764895068481564521789551,0.023999999999999993560706457174092065542936325073242,-0.029400000000000002520206265899105346761643886566162,-0.0074000000000000037969627442180353682488203048706055,-0.020800000000000005984102102729593752883374691009521,0.045699999999999990629717672163678798824548721313477,0.048599999999999990429877527731150621548295021057129,0.0079999999999999932276395497865451034158468246459961,0.045699999999999990629717672163678798824548721313477,-0.031500000000000000222044604925031308084726333618164,0.025499999999999994892974086724279914051294326782227,0.031599999999999989208632200643478427082300186157227,0.032599999999999990096810620343603659421205520629883,-0.021899999999999999328315070101780293043702840805054,-0.015600000000000002753353101070388220250606536865234,-0.0097000000000000002886579864025407005101442337036133,-0.041300000000000003375077994860475882887840270996094,0.037199999999999996957988912527071079239249229431152,0.0050000000000000044408920985006261616945266723632812,0.041200000000000000510702591327572008594870567321777,0.010699999999999994237942502195437555201351642608643,-0.042400000000000000188737914186276611872017383575439,0.011999999999999996780353228587046032771468162536621,-0.040500000000000001276756478318930021487176418304443,0.047099999999999989097609898180962773039937019348145,0.021399999999999988475885004390875110402703285217285,0.020999999999999990896171198073716368526220321655273,-0.029400000000000002520206265899105346761643886566162,0.0032000000000000014543921622589550679549574851989746,0.0094999999999999945599071793367329519242048263549805,-0.02740000000000000074384942649885488208383321762085,0.046499999999999999666933092612453037872910499572754,-0.016600000000000003641531520770513452589511871337891,-0.0068000000000000004884981308350688777863979339599609,0.024199999999999999289457264239899814128875732421875,0.047699999999999992406074511563929263502359390258789,-0.011200000000000001620925615952728549018502235412598,0.022800000000000000821565038222615839913487434387207,0.0057000000000000036748382115092681488022208213806152,0.019599999999999992428278972056432394310832023620605,0.041200000000000000510702591327572008594870567321777,0.016299999999999995048405310171801829710602760314941,0.0010999999999999968136599193258007289841771125793457,-0.041100000000000004585221091701896511949598789215088,0.044299999999999992161825446146394824609160423278809,-0.029300000000000003125277814319815661292523145675659,0.034400000000000000022204460492503130808472633361816,-0.011800000000000004929390229335695039480924606323242,-0.042200000000000001398881011027697240933775901794434,0.02449999999999999400479566702415468171238899230957,-0.020700000000000003119726699196689878590404987335205,-0.046300000000000000877076189453873666934669017791748,-0.032800000000000002764455331316639785654842853546143,-0.023600000000000002919886554764161701314151287078857,-0.0017000000000000070610184366159955970942974090576172,-0.035800000000000005428990590417015482671558856964111,-0.017100000000000004085620730620576068758964538574219,-0.03080000000000000098809849191638932097703218460083,-0.015300000000000008038014698286133352667093276977539,0.035999999999999990341059685761138098314404487609863,-0.036100000000000000144328993201270350255072116851807,0.0072999999999999939936934367779031163081526756286621,0.032399999999999998245847621092252666130661964416504,-0.0028000000000000038746783559417963260784745216369629,-0.049600000000000005195843755245732609182596206665039,0.0065999999999999947597473237692611292004585266113281,0.030100000000000001754152378907747333869338035583496,0.024300000000000002153832667772803688421845436096191,0.014499999999999999000799277837359113618731498718262,0.020899999999999988031795794540812494233250617980957,-0.0062000000000000041189274213593307649716734886169434,0.040800000000000002930988785010413266718387603759766,-0.012900000000000001743050148661495768465101718902588,-0.020000000000000003885780586188047891482710838317871,0.049699999999999994182431350964179728180170059204102,0.016500000000000000777156117237609578296542167663574,0.00059999999999999636957070947573811281472444534301758,-0.03080000000000000098809849191638932097703218460083,-0.045400000000000002853273173286652308888733386993408,0.0083999999999999908073533561037038452923297882080078,0.043599999999999999866773237044981215149164199829102,-0.016100000000000003197442310920450836420059204101562,0.047199999999999991961985301713866647332906723022461,-0.039300000000000001598721155460225418210029602050781,0.045399999999999995914379269379423931241035461425781,-0.0045999999999999999222843882762390421703457832336426,-0.025100000000000004252154184314349549822509288787842,-0.021700000000000004007905118896815110929310321807861,0.049799999999999997046806754497083602473139762878418,0.0094999999999999945599071793367329519242048263549805,-0.035800000000000005428990590417015482671558856964111,-0.036400000000000001798561299892753595486283302307129,0.0018999999999999989119814358673465903848409652709961,-0.018200000000000000899280649946376797743141651153564,0.045899999999999996358468479229486547410488128662109,0.037400000000000002686739719592878827825188636779785,-0.02650000000000000272004641033163352403789758682251,0.025899999999999992472687893041438655927777290344238,0.011599999999999999200639422269887290894985198974609,0.037900000000000003130828929442941443994641304016113,-0.0032999999999999973798736618846305646002292633056641,-0.0095000000000000014988010832439613295719027519226074,0.028600000000000000421884749357559485360980033874512,0.033699999999999993849364443576632766053080558776855,0.020499999999999990452081988223653752356767654418945,-0.036600000000000000588418203051332966424524784088135,0.00019999999999999878985690315857937093824148178100586,0.0062000000000000041189274213593307649716734886169434,-0.01750000000000000166533453693773481063544750213623,0.039900000000000004907185768843191908672451972961426,-0.00030000000000000165423230669148324523121118545532227,0.011199999999999994682031712045500171370804309844971,-0.026300000000000003930189507173054153099656105041504,-0.0032000000000000014543921622589550679549574851989746,0.021899999999999988919974214240937726572155952453613,-0.030900000000000003852473895449293195270001888275146,-0.022600000000000002031708135064036468975245952606201,-0.018100000000000004973799150320701301097869873046875,-0.0027000000000000079491968563161208294332027435302734,-0.02290000000000000021649348980190552538260817527771,0.041300000000000003375077994860475882887840270996094,0.046599999999999988653520688330900156870484352111816,-0.009399999999999998634425679711057455278933048248291,0.028399999999999994693133942291751736775040626525879,-0.021700000000000004007905118896815110929310321807861,-0.013600000000000000976996261670137755572795867919922,0.015700000000000005617728504603292094543576240539551,0.0017000000000000001221245327087672194465994834899902,-0.037700000000000004340972026284362073056399822235107,-0.022700000000000001426636586643326154444366693496704,-0.010500000000000002386979502944086561910808086395264,0.044099999999999986433074639080587076023221015930176,-0.047100000000000002975397705995419528335332870483398,0.0032999999999999973798736618846305646002292633056641,-0.037000000000000005107025913275720085948705673217773,0.023300000000000001265654248072678456082940101623535,-0.048199999999999999789057625321220257319509983062744,0.048299999999999995714539124946895753964781761169434,0.014700000000000004729550084903166862204670906066895,-0.015699999999999998678834600696063716895878314971924,0.038099999999999994981791928694292437285184860229492,-0.035700000000000002564615186884111608378589153289795,-0.01940000000000000404676292475869558984413743019104,-0.0030000000000000026645352591003756970167160034179688,0.046299999999999993938182285546645289286971092224121,-0.047600000000000003419486915845482144504785537719727,0.016000000000000000333066907387546962127089500427246,-0.026400000000000003325117958752343838568776845932007,-0.01580000000000000154321000422896759118884801864624,-0.0016000000000000041966430330830917228013277053833008,0.00059999999999999636957070947573811281472444534301758,0.010699999999999994237942502195437555201351642608643,0.030100000000000001754152378907747333869338035583496,0.041099999999999997646327187794668134301900863647461,0.024199999999999999289457264239899814128875732421875,-0.041599999999999998090416397644730750471353530883789,0.012600000000000000088817841970012523233890533447266,-0.010200000000000000732747196252603316679596900939941,0.045199999999999990185628462313616182655096054077148,-0.040000186942054566374693536090489942580461502075195,-0.047800000000162032320893956693907966837286949157715,0.019899999999986636711746257333288667723536491394043,-0.045900000000000155953028269095739233307540416717529,-0.044900000030617281954192776538548059761524200439453,-0.026899999999998574357062963713360659312456846237183,-0.033000070313557720858010924303016508929431438446045,-0.036500000011835669055937358962182770483195781707764,-0.025199999999999465882805083083439967595040798187256,-0.034800000000000004540812170716890250332653522491455,0.028099999999996669308721664037875598296523094177246,0.044199950443905178243397813275805674493312835693359,-0.011600000000103060857070680356173397740349173545837,0.042399846240850247447440324322087690234184265136719,-0.025199999999993259042208038067656161729246377944946,0.035301213116950155845863434933562530204653739929199,-0.026199821066287553444906777144751686137169599533081,0.01229999826327642618861712975331101915799081325531,0.036399999999999980981879588171068462543189525604248,-0.0027000182482042923981513382614139118231832981109619,-0.018300000001538859611960319284662546124309301376343,0.019899999999994685828674789718206739053130149841309,0.047799954453454480962637518359770183451473712921143,-0.022499999999999999167332731531132594682276248931885,1.4803252533160508973570652210392697069500534415515e-17,-0.026000000000434259073145426555129233747720718383789,-0.048400000000010622025481410446445806883275508880615,0.043499994749538847815806263952254084870219230651855,-0.028299418632991880928617689505699672736227512359619,-0.0087000000000043813119798841171359526924788951873779,0.038599450820768987924225257302168756723403930664062,-0.018300000000476480260802603083902795333415269851685,0.028699999999856024707201029855241358745843172073364,0.0083999789030607171363973506572619953658431768417358,-0.01430233527839322796304522000809811288490891456604,0.033699999999994116606227834154196898452937602996826,-0.033358609274422551527194968912226613610982894897461,0.03779999996523272787207758938166080042719841003418,0.047099999999863126354249232008442049846053123474121,-0.008599999999999934086059028004456195048987865447998,-0.011900000000020533041933390450139995664358139038086,-0.039598634776222101094855787550841341726481914520264,0.020698644530078254277771776514782686717808246612549,0.026399548332360654734340954519211663864552974700928,-0.012099999999980185633186025029317534063011407852173,-0.01725413044772971735141275928526738425716757774353,0.046900536765119862914197312875330680981278419494629,0.0103174787507656750412676771588849078398197889328,0.042899999999975381437256061190055334009230136871338,0.034747616276272728919050081231034710071980953216553,-0.041200000030726262323366171358429710380733013153076,0.0096999999936243780362943311956769321113824844360352,-0.0088656863194544431594490419001886039040982723236084,-0.0082999999999993339522275093145253777038305997848511,0.045423902664189469424727008117770310491323471069336,-0.047000000001278220695954956909190514124929904937744,-0.049195293818102045491080787087412318214774131774902,0.038599984576770378363885782846409711055457592010498,0.046939640111040320524793401091301348060369491577148,-0.027597298784885211653250536301129614003002643585205,0.015000035711305604799181701025645452318713068962097,-0.029900000100822280574286438081799133215099573135376,0.003965945858493044248738179646807111566886305809021,0.056913630282306663932256896032413351349532604217529,0.028454805304754738487504894806079391855746507644653,0.039599999998656702782096061810079845599830150604248,0.0089659285189887891892590587872291507665067911148071,0.044999999999998097077735792481689713895320892333984,-0.03750002860449892783112346705820527859032154083252,0.044699999991722048908737718875272548757493495941162,0.021500087717129426345685772048454964533448219299316,0.036236322581421037680726726648572366684675216674805,-0.045026824165389514598167863823618972674012184143066,-0.0078000000028096410503719582152371003758162260055542,0.012100000000152771537087481590333482017740607261658,0.037266369451243168409160233522925409488379955291748,0.12743970891269490453012735997617710381746292114258,-0.018401524196571115987719480244777514599263668060303,-0.045700000014977711082497791039713774807751178741455,0.0025921316236364173694883827891999317216686904430389,0.027199993863394042459269428491097642108798027038574,-0.0017999812861625886107469485253318453032989054918289,-0.52623618818453876677665448369225487112998962402344,-0.019799999999978491055374618667883623857051134109497,0.44367518982843390240589087625266984105110168457031,0.032499999994355620314134824866414419375360012054443,0.018405630468727424142727500111504923552274703979492,0.04049999999999934902072951103946252260357141494751,0.023199243600045885843607962328860594425350427627563,0.049728414195708510459059681352300685830414295196533,-0.037472707046928857566037152082571992650628089904785,0.021172911901111639287886845295361126773059368133545,-0.030148942384029910057652301702546537853777408599854,0.066237323314260979079115543299849377945065498352051,7.4461357670551166828415423637466119544114917516708e-05,-0.016499903017048771908248383510908752214163541793823,0.040977403623017577549703105432854499667882919311523,-0.0025485638599354698378973704819827617029659450054169,0.013643826205166654022549188596258318284526467323303,-0.011095190425353443006151188399144302820786833763123,-0.0080938780818779667430851176845862937625497579574585,-0.017323587610376719320148808378689864184707403182983,-0.030912765125110226033244842369640537071973085403442,0.03200005221768838920004540682384686078876256942749,-0.037598719746236519689830402057850733399391174316406,0.028999919760146344177575983280803484376519918441772,0.2625424757366278671888437656889436766505241394043,-0.069958293265247564751696529583568917587399482727051,-0.034006959347607640387067817755450960248708724975586,0.084779679216833742083636593633855227380990982055664,0.0067588793905469105385841466215879336232319474220276,0.043199441155459865349097725584215368144214153289795,-1.0075515729876816095611502532847225666046142578125,0.001490356037434135841671101196936888300115242600441,0.77601774296306103018139310734113678336143493652344,-0.014582964967998499408730062043559883022680878639221,-0.015955346017520955631541212937918317038565874099731,-0.023510604546819368482202250447699043434113264083862,-0.0058937540282209205724783807056610385188832879066467,-0.010129285520019369604138859131126082502305507659912,-0.0089467082301853406711700245068641379475593566894531,0.032176117656405253675266919799469178542494773864746,-0.010852489221015946749271385840529546840116381645203,0.044492055939780478235334726377914194017648696899414,0.03371954466060431837570732227504777256399393081665,-0.019495480707681044768575517878161917906254529953003,0.049019472674618667917822989466003491543233394622803,-0.049370607199173417722892764913922292180359363555908,0.032116656067196165669219709570825216360390186309814,-0.056362499264797409626037705265844124369323253631592,-0.020402691924443216997531180822988972067832946777344,0.086983512767721857250613481937762117013335227966309,-0.012166977484182392790779125846256647491827607154846,-0.061654326283700745803262321942384005524218082427979,-0.011950212151599521118172653189049015054479241371155,0.14164392577302728493116035224375082179903984069824,0.13031254635644332062760497592535102739930152893066,0.0095735946893147245984057036594094824977219104766846,0.0016122760709030761056004266151830961462110280990601,0.069283772449171415752644520580361131578683853149414,0.088101097218088134099822639200283447280526161193848,-0.0091268714159883912451221021910896524786949157714844,-0.33014806472566876616170361558033619076013565063477,-0.0078658345473706439698879933075659209862351417541504,0.51015010170255203902911489421967417001724243164062,0.036929950631933328164535623727715574204921722412109,-0.040335268358247008957384593941242201253771781921387,-6.451599016895045502796579572901691790320910513401e-05,0.003943468120091383338765567145856039132922887802124,-0.13652513687510650641776521752035478129982948303223,-0.023272584524343536277468658113320998381823301315308,-0.023446486624795787045982820018252823501825332641602,0.039713818813564581711172962741329683922231197357178,0.037678926939894399894548371321434387937188148498535,-0.059966343253598695939299290103008388541638851165771,-0.046715302730309896106497546952596167102456092834473,-0.015370148184131278076836046864173113135620951652527,0.029426523905472148218143146891634387429803609848022,-0.041150927994681715804681232384609756991267204284668,-0.032919021132982895228025199685362167656421661376953,-0.021359339065385441608357908194193441886454820632935,-0.19347912123801955242008432378497673198580741882324,0.024992123013971176415104480383888585492968559265137,-0.042991916668556819092206211507800617255270481109619,0.039308155365969196792796935824298998340964317321777,0.24165398407448440698530589543224778026342391967773,0.091732462164407460591952769846102455630898475646973,-0.013549498936393178372128431874443776905536651611328,0.0076951287549306890065081709906280593713745474815369,0.034970868242865778274808263859085855074226856231689,0.073911102306665060757140395253372844308614730834961,0.040077128357658635404714431160755339078605175018311,-0.3286489482269551731796752847003517672419548034668,0.0093182186223439173594629281183188140857964754104614,0.092492201671316054412130824857740662992000579833984,-0.04773911033086054855889557302361936308443546295166,0.019325714239263356436504537327891739550977945327759,0.013173458083041074753727350810095231281593441963196,-0.014288158303301110377270255469284165883436799049377,-0.048325778093458109097024788525231997482478618621826,0.025255579678220070605210167968834866769611835479736,0.028903174660529357131721894802467431873083114624023,0.0064169865003453905108465882278778735781088471412659,0.022203327886699791848812424177594948559999465942383,-0.20387540680596694109283362195128574967384338378906,0.026897511087183276906609208367626706603914499282837,0.074795953381103424950637759138771798461675643920898,-0.03977851475236977851768216396521893329918384552002,-0.039878590912105708887747113067234749905765056610107,-0.014562752934710865987399941445801232475787401199341,0.031287110055648478801337830645934445783495903015137,-0.43105029532909233669357718099490739405155181884766,-0.023923308392277947004300742150917358230799436569214,0.0032018207140730760296154500110787921585142612457275,0.045209317762087170011753300968848634511232376098633,0.098495998821856389771056683457572944462299346923828,0.53994377004766991312578738870797678828239440917969,-0.068219865397330353706806249647343065589666366577148,-0.048219349625579159546173713124517234973609447479248,0.32417995358054524368540683099126908928155899047852,-0.020142677847386027123466334387558163143694400787354,-0.024223115782650721933277893072045117150992155075073,-0.91976920843456988485797864996129646897315979003906,-0.033133735122819946150585224131646100431680679321289,0.5007469215179281007976896944455802440643310546875,-0.03650525281752328016215969341828895267099142074585,0.19768226810553155003979952653025975450873374938965,-0.006602852162424184545574945559565094299614429473877,0.093536436283161591975776616436633048579096794128418,-0.062705859640255420806020936197455739602446556091309,-0.0126024298083193368735788197909641894511878490448,-0.064202353554207558516964127193205058574676513671875,-0.01519246186955539729135367110757215414196252822876,-0.015209436243193747914648206176480016438290476799011,0.013851512976437024837750300321204122155904769897461,-0.11479477496445728013085840757412370294332504272461,-0.010872605932484253471459467732529446948319673538208,0.043248443657275550955354503912531072273850440979004,0.035504302981664785654469795872500981204211711883545,-0.040824198713555755191340068677163799293339252471924,-0.017359626876799316708144260701374150812625885009766,-0.06789894072546516501365232443276909179985523223877,-0.31212991456461236516872759239049628376960754394531,0.027391213230278758927749294116438250057399272918701,0.022934626689111180936064826596521015744656324386597,0.16049925022726682644069740035774884745478630065918,0.42709332912038022733725028956541791558265686035156,-0.13197771146593001434510483704798389226198196411133,-0.031987276085358173904893419603467918932437896728516,0.425009803164503097150372923351824283599853515625,0.032134719482881934915496913163224235177040100097656,-0.016331544388194292605209767543783527798950672149658,-0.75238022467947807125909776004846207797527313232422,-0.06970886248936800089204268715548096224665641784668,0.33972384662714133485295064929232466965913772583008,-0.05007736040166196889167338213155744597315788269043,0.0098531864360301407018694064277042343746870756149292,-0.05116752581560309043329226597052183933556079864502,0.24939445415940428296686093290190910920500755310059,-0.12650898154108483617541480725776636973023414611816,0.048104602421309435034135759678974864073097705841064,-0.044195633115008396696321568697385373525321483612061,0.019071572230794964913913602799766522366553544998169,0.018624363812905112697260179288605286274105310440063,-0.048185584729727753972028381213021930307149887084961,-0.031461386036227598217429601845651632174849510192871,0.048581811533138376246743206365863443352282047271729,-0.01566908307889665341594565006744232960045337677002,-0.043774285014599970122795014049188466742634773254395,0.014170808955145844376666275366005720570683479309082,-0.0094593420600573834694513308818386576604098081588745,-0.1137838842405686917702567484411702025681734085083,-0.60191546392305383950116492997040040791034698486328,-0.083485773004659660778692398253042483702301979064941,0.044168180461944248071937124677788233384490013122559,0.076116490149075496929320649996952852234244346618652,0.28778539886281151449765047800610773265361785888672,-0.03215992192446069652955742412814288400113582611084,0.043336760732938753304388512788136722519993782043457,0.38876537411327266591243301263602916151285171508789,0.015964524880151591268440114390614326111972332000732,0.046760484590912664015771582626257441006600856781006,-0.99191639982378088102876745324465446174144744873047,-0.058828508504442711402049326352425850927829742431641,0.066179198669242864094819367437594337388873100280762,0.015038447505223258987561152366652095224708318710327,0.020038039916002652746085388457686349283903837203979,0.0097784157895221442136080014506660518236458301544189,0.18910464816092781292766744627442676573991775512695,0.027816738305736912056920218105915409978479146957397,0.019426544862030929727847450294575537554919719696045,-0.016495149576337315294738417037478939164429903030396,-0.077611194792163842870458267952926689758896827697754,-0.0046467351861339996343946978640815359540283679962158,-0.016311114440205221054469575392431579530239105224609,0.021752892369712614056842525656065845396369695663452,0.015936455495322569830829451120735029689967632293701,0.036300852784451886900995987161877565085887908935547,-0.037813089280162429095533127565431641414761543273926,0.045699826887502757732928415634887642227113246917725,0.029443470022418576775846688065030321013182401657104,-0.29070878680443235086983122528181411325931549072266,-0.22135320775520334057873128585924860090017318725586,-0.0073674702155545552031967737605100410291925072669983,0.014972990665600253989975243484877864830195903778076,0.042834496499997931628911373991286382079124450683594,0.32809542595140728238334304478485137224197387695312,-0.01294901878332484039535454911629130947403609752655,-0.029763158638318167048542051134063513018190860748291,0.21354466775003907996755003750877222046256065368652,0.014819636051730422643402107496513053774833679199219,-0.029303046126532686366239488506835186854004859924316,-0.57998476644926155731951666894019581377506256103516,0.019984223781053744861679888344951905310153961181641,0.033467400533452026922809352527110604569315910339355,0.032295237808836113613253360199450980871915817260742,-0.04889239408079124049599784029851434752345085144043,0.0077369306557185596809333993917334737488999962806702,0.18328883620401209553207877434033434838056564331055,0.018680100772434628242368859218913712538778781890869,0.0033619107796318678169078530970637075370177626609802,0.035286570125854586910119081721859402023255825042725,-0.030922086838933892510850043322534475009888410568237,0.039902090008591052650022135139806778170168399810791,-0.14777910663932039558865483286353992298245429992676,0.014493927424553071717228114323461340973153710365295,0.10040267567282423755159470601938664913177490234375,0.0038217259233743953832085349375802252325229346752167,-0.0075676196388264945630330871040314377751201391220093,-0.10171010758462196987839121220531524159014225006104,-0.040239783057574370073172786987925064750015735626221,-0.30102818256184077361226059110776986926794052124023,-0.045202549322822638266927697259234264492988586425781,0.10460405828608251854738853126036701723933219909668,0.20970659868810145876061312719684792682528495788574,-0.20497729505721354326119865163491340354084968566895,0.098966637974547758127563668040238553658127784729004,-0.0080777764119831681199901396439599920995533466339111,0.11854469119991749292974958507329574786126613616943,0.078733754271258532542177022151008713990449905395508,-0.089612616679035361766381129200453869998455047607422,0.03737584961438370628750149649022205267101526260376,-0.27638538841523030420432860410073772072792053222656,-0.027455888225173467886985889663264970295131206512451,0.03180082209932413167541298548712802585214376449585,-0.052875879680235306212754409216358908452093601226807,-0.04963896964741383588393119907777872867882251739502,0.10418512713508512601556788013112964108586311340332,0.060246987632595484785102968317005434073507785797119,-0.099501971922630480515969964017131133005023002624512,-0.0029128001042593196050212167591553225065581500530243,0.10532510266236748408541501476065604947507381439209,-0.023961920045594449490966582061446388252079486846924,-0.021716458722939872144630513162155693862587213516235,-0.27357253587312635456640919073834083974361419677734,0.0066255462758260646322083786685652739834040403366089,0.074730199773844374622200348312617279589176177978516,0.087487704620282047418555748663493432104587554931641,-0.00032908155507794471100746491742938815150409936904907,-0.31812901878000615640829096264496911317110061645508,-0.045306819172638616854964510594072635285556316375732,-0.20378046991693821166080624607275240123271942138672,-0.014728576919377523932186413446743245003744959831238,-0.048513358245290919001924123676872113719582557678223,0.1875296533426787648490829951697378419339656829834,0.16723922818544798007955876073538092896342277526855,0.15753898023235429759481007749855052679777145385742,-0.053977407756024969875952024267462547868490219116211,0.080394344074702750457817046481068246066570281982422,0.14451691150402859453727444360993104055523872375488,-0.033078606906802136833345429067776422016322612762451,-0.016299558141956042855991171336427214555442333221436,-0.27390401500223465758310226192406844347715377807617,-0.012048003236190586023868220877375279087573289871216,0.12133821748718369437636255270263063721358776092529,-0.078443938748660915760702039278839947655797004699707,0.024571003367262023858730302094954822678118944168091,0.0041955713305809761576314897979500528890639543533325,-0.031769104926957135448528646293198107741773128509521,-0.20662657677443010961759739529952639713883399963379,-0.17415910242620799563972866508265724405646324157715,-0.063675992973109662997899249603506177663803100585938,0.033787162006003242098461925024821539409458637237549,-0.044325702213931540696112421073848963715136051177979,-0.24391295187017614232161122345132753252983093261719,-0.019087556347616475849182648971691378392279148101807,-0.01546289119924472779676882794319681124761700630188,0.038894629986978110358641913535393541678786277770996,0.026476454960292772344843115206458605825901031494141,-0.043209315405594021786139791174718993715941905975342,-0.024110687611256249179847443997459777165204286575317,0.29177386652382070186817486501240637153387069702148,0.027502585469133408735409318524034461006522178649902,-0.012923335983049724293159066235148202395066618919373,0.035000410351964779398503679885834571905434131622314,0.31354920502040817265054784002131782472133636474609,0.08477584766846955888208725582444458268582820892334,-0.052696457401244831131315038419415941461920738220215,-0.13248813144354806836666682556824525818228721618652,0.068197019896935731630982502338156336918473243713379,0.24193824925268400671818369573884410783648490905762,0.020157649771652824677303783573734108358621597290039,-0.35409142093504158976813300796493422240018844604492,-0.012789935691971636780306376124372036429122090339661,0.24981835426868292948654470819747075438499450683594,0.015916252537840330089080609354823536705225706100464,0.029079259756865743352660658160857565235346555709839,-0.093785015802032939413734879963158164173364639282227,-0.52929513446315590297075459602638147771358489990234,0.060878195876611071457595869560464052483439445495605,-0.14064602137846449192437603414873592555522918701172,-0.17511960371165330441201035682752262800931930541992,0.015748111820945785710446074290302931331098079681396,0.030760096384120770574011061171404435299336910247803,-0.14618752904298784600634064645419130101799964904785,-0.01359624941848557901080685184069807291962206363678,0.02323398759393403498196839507272670743986964225769,-0.056071082961988996662405781989946262910962104797363,0.021944761918886796642214065400366962421685457229614,0.016520963761157456128891851676598889753222465515137,0.0077455113409443960420519559306740120518952608108521,-0.039293494401920765757285636254891869612038135528564,-0.038970022085708204417908717687168973498046398162842,-0.017125480031400883845771332403273845557123422622681,0.016711931310347670487370663749970844946801662445068,0.18603517171017178166714245435287011787295341491699,0.082315542863180005128675986725284019485116004943848,-0.050156807052619205300469928943130071274936199188232,-0.069953553708923685294784888810681877657771110534668,0.19081143286224933053318864040193147957324981689453,0.085146964278579623242038110220164526253938674926758,-0.034470345711381196462941289837544900365173816680908,-0.32173790899823423439229941322992090135812759399414,-0.016604979274583916981633535669971024617552757263184,0.15013311176060187279723834308242658153176307678223,-0.0084494794004653858698894453027605777606368064880371,-0.030089687018248312960766455148586828727275133132935,0.074766494993507168209667668179463362321257591247559,-0.072610981654973080767767612542229471728205680847168,-0.030781292648411413132025771233202249277383089065552,0.037169517278127235659912486198663827963173389434814,-0.063859846076399232051024057454924331977963447570801,-0.023893880237044782394173481065990927163511514663696,0.009842230939989777410703553073290095198899507522583,-0.020965685531728728285827401123242452740669250488281,-0.032659620047813073262510386030044173821806907653809,-0.051226756130463180216594309968058951199054718017578,-0.014765862184621147620844361370018305024132132530212,-0.019429397841154022463783235252776648849248886108398,-0.023451217241257003853771578860687441192567348480225,-0.040818094507767729850478133357682963833212852478027,-0.091264057816732080397059689857997000217437744140625,-0.020856231421106079942928701598248153459280729293823,-0.044048606677369553374923327737633371725678443908691,0.040467774405557217776152612032092292793095111846924,0.093163625726070564692093967096298001706600189208984,0.063239477321513137830777395720360800623893737792969,-0.058270214906477380001348365112789906561374664306641,-0.039440337722417409538344656994013348594307899475098,0.077677050071588579771564297971053747460246086120605,0.066616152720205962234345520300848875194787979125977,-0.021398632053939901920269761603776714764535427093506,-0.30271786236315717522060708688513841480016708374023,0.033451342794072642938818518132393364794552326202393,0.023836766278644311300993763325095642358064651489258,0.0093863901617977103103429570296611927915364503860474,0.018669852307673165392465364220697665587067604064941,0.010408081943303074123896578839776339009404182434082,0.021229418836314174062751547467087220866233110427856,-0.0067229378252515676131495503398127766558900475502014,0.048065633733462613530473817036181571893393993377686,-0.032820190258131362592841639980179024860262870788574,0.043949550087133915088344338073511607944965362548828,-0.0055525895257188930334568688351737364428117871284485,-0.02665441797441755675257546442935563391074538230896,-0.019040553947522655814372782856480625923722982406616,-0.017490040410530545422762571661223773844540119171143,0.021458712867943981889018445485817210283130407333374,0.021208411386471809345621863940323237329721450805664,0.044629347806868481518538516183980391360819339752197,0.048867063541809058202503024403995368629693984985352,-0.25722134456559558879362725747341755777597427368164,-0.016657336600572548307441778092652384657412767410278,-0.026768963678783511822567575677567219827324151992798,0.035752046872313252012798301393559086136519908905029,0.047391303462185140060736188161172321997582912445068,0.17393089735869216028163464216049760580062866210938,-0.062615976853361579590462326905253576114773750305176,0.0045094903229679602144064354263264249311760067939758,-0.018612885236311028924749422230888740159571170806885,0.049869458133858096671175985648005735129117965698242,0.0014703065284528069045499876210669754073023796081543,-0.51371243563880197857685061535448767244815826416016,-0.03564423490802431232493674428951635491102933883667,0.026423243374712999248510314487248251680284738540649,0.036312392939636242705780944106663810089230537414551,-0.04158066591476797940751808368986530695110559463501,0.013868223637102709833168745490183937363326549530029,0.0036134634125422832387486415939292783150449395179749,-0.064795283961062460909019478094705846160650253295898,-0.0037421697401169113847418934426514169899746775627136,-0.057217255375685040219568833208541036583483219146729,0.0073241696741640754247937294962866872083395719528198,-0.025442233001351864662975543751599616371095180511475,-0.040059945082973044683249952413461869582533836364746,0.02814139221841998814155338948239659657701849937439,0.047003442294603771378636025701780454255640506744385,-0.039639161150733466520978964808819000609219074249268,0.001564704914781737000312178409444641147274523973465,0.048394125800769009770885276111584971658885478973389,-0.047146909176704387967049569851951673626899719238281,-0.29836262603432756046473173228150699287652969360352,-0.032272598286631336284013826798400259576737880706787,-0.073946006743716874431981977977557107806205749511719,0.0028230875009305567494011235396556003252044320106506,-0.075103196554426571163176618028955999761819839477539,0.081868973147724913297373916520882630720734596252441,0.043598570314043648410429199202553718350827693939209,0.0098086409140014756136149998155815410427749156951904,0.081781159774131265138841229145327815786004066467285,0.040952599078313195457567985613422933965921401977539,0.046104322961532634428394317183119710534811019897461,-0.42857774018187227982323861397162545472383499145508,-0.042907217471782076179120934966704226098954677581787,-0.033735000148119996532525277643799199722707271575928,-0.0067867183336983430072542056166184920584782958030701,0.04130242133731416159792004805240139830857515335083,0.0023089887700352479046883580338089814176782965660095,0.32547125605745425014347915748658124357461929321289,-0.12198662564994139367868797307892236858606338500977,0.010724945928840183204111546899639506591483950614929,0.00089403760389061305829255799082488920248579233884811,0.027415949297917897170551171370789234060794115066528,-0.025517900078029728122563923875532054807990789413452,0.026476198825111450785296796084367088042199611663818,-0.044346095661695922318656926108815241605043411254883,0.041976396918997752050195515494124265387654304504395,-0.050255879361948363470702361155417747795581817626953,-0.013251625622231293782915528822741180192679166793823,-0.024706625873366382106777194849200895987451076507568,-0.062416778096042235812745957446168176829814910888672,-0.017375935038970360263510528398001042660325765609741,-0.0044480641006523187822030429572350840317085385322571,-0.011610995102535874579086083713264088146388530731201,0.0060125565952575139166969009352214925456792116165161,-0.035087140733653307544948063423362327739596366882324,0.055485436822617549557090654843705124221742153167725,0.010868947837438363776541017102772457292303442955017,0.033073169917887640378850733213766943663358688354492,0.043387630505462522478854481278176535852253437042236,-0.021097183099748267193218609349969483446329832077026,-0.042055440869415934568298354179205489344894886016846,-0.20077724800356142043078477854578522965312004089355,-0.047363731725384571047410275923539302311837673187256,0.027373453422642048810109471901341748889535665512085,0.034095949945246388501640666390812839381396770477295,-0.0030870370374184688717911217992195815895684063434601,-0.0032464884381352412598409351573991443729028105735779,0.32595039100470679649390604026848450303077697753906,-0.01315807503245735622654510876827771426178514957428,0.043774656920859585096383881364090484566986560821533,-0.0086534480248832909565770421522756805643439292907715,-0.031187832183868894470046839728638587985187768936157,-0.039265064035317792656698543396487366408109664916992,0.05125856142617243177417307720133976545184850692749,-0.030445640224362895825960251272590539883822202682495,0.013438539479407068943928038606827612966299057006836,0.023474356445492311484812830713053699582815170288086,-0.018907599491366118560353726252287742681801319122314,0.027862374103025309285408539494710566941648721694946,-0.054457370075950785326401870634072110988199710845947,-0.016433436779151731899073496379060088656842708587646,0.0062531781554214654894607861024269368499517440795898,0.0315785744798109391240359400399029254913330078125,-0.027308421364749816545591798444547748658806085586548,-0.03485992481273310350520233669158187694847583770752,0.041857571014254191243963987290044315159320831298828,-0.036822740550874283327331681903160642832517623901367,0.040974138764834154569083324304301640950143337249756,-0.041159535959486043266153387776284944266080856323242,0.046763689896636373433125299925450235605239868164062,-0.028218864286377754596601974412806157488375902175903,-0.055220319183363716919465957744250772520899772644043,-0.006277743767602427492346972570658181211911141872406,0.023871356880979376080542664340100600384175777435303,-0.04730665081491323975537710566641180776059627532959,0.020065858896425422391862625204339565243571996688843,-0.038642816823032617723487902594570186920464038848877,0.12398859837809703132727179308858467265963554382324,0.035118330114374818329281424666987732052803039550781,0.030300000000000007482903185973555082455277442932129,-0.033500000000000001998401444325281772762537002563477,-0.024000000000000000499600361081320443190634250640869,-0.015000000000000006383782391594650107435882091522217,-0.023100000000000002475797344914099085144698619842529,0.010999999999999995892174808886920800432562828063965,0.015100000000000002309263891220325604081153869628906,0.016100000000000003197442310920450836420059204101562,0.020699999999999996180832795289461500942707061767578,-0.017399999999999998800959133404830936342477798461914,0.029800000000000007038813976123492466285824775695801,-0.042800000000000004707345624410663731396198272705078,0.015200000000000005173639294753229478374123573303223,-0.01240000000000000129896093881143315229564905166626,0.042499999999999996114219413811952108517289161682129,-0.028800000000000002681188604469753045123070478439331,0.032499999999999987232435216810699785128235816955566,0.028899999999999995137223152141814352944493293762207,-0.017100000000000004085620730620576068758964538574219,0.024199999999999999289457264239899814128875732421875,-0.029400000000000002520206265899105346761643886566162,-0.019200000000000001787459069646502030082046985626221,0.04750000000000000055511151231257827021181583404541,-0.04140000000000000623945339839337975718080997467041,-0.039600000000000003252953462151708663441240787506104,0.010199999999999993793853292345374939031898975372314,-0.00050000000000000044408920985006261616945266723632812,-0.034000000000000002442490654175344388931989669799805,-0.043500000000000003941291737419305718503892421722412,-0.01320000000000000339728245535297901369631290435791,-0.048900000000000005961897642237090622074902057647705,-0.028100000000000003447242491461111058015376329421997,0.0032000000000000014543921622589550679549574851989746,0.012299999999999998434585535278529278002679347991943,0.0068999999999999894750857265535159967839717864990234,-0.034800000000000004540812170716890250332653522491455,-0.026800000000000000904831765069502580445259809494019,0.0070999999999999952038365336193237453699111938476562,0.031200000000000005506706202140776440501213073730469,-0.021000000000000004773959005888173123821616172790527,0.039599999999999996314059558244480285793542861938477,0.010999999999999995892174808886920800432562828063965,-0.013900000000000002631228568361621000804007053375244,0.039900000000000004907185768843191908672451972961426,-0.016300000000000001987299214079030207358300685882568,-0.021500000000000005218048215738235739991068840026855,-0.03890000000000000401900734914306667633354663848877,-0.033899999999999999578115250642440514639019966125488,-0.0075000000000000066613381477509392425417900085449219,-0.006100000000000001254552017826426890678703784942627,0.040300000000000002486899575160350650548934936523438,0.048199999999999992850163721413991879671812057495117,-0.040199999999999999622524171627446776255965232849121,-0.027100000000000002559064071760985825676470994949341,-0.043300000000000005151434834260726347565650939941406,-0.029800000000000000099920072216264088638126850128174,-0.031800000000000001876276911616514553315937519073486,0.0062000000000000041189274213593307649716734886169434,-0.013900000000000002631228568361621000804007053375244,-0.025400000000000002436939539052218606229871511459351,-0.021899999999999999328315070101780293043702840805054,0.022399999999999989364063424091000342741608619689941,0.031699999999999992073007604176382301375269889831543,-0.033600000000000004862776847858185647055506706237793,-0.015400000000000003963496197911808849312365055084229,-0.01150000000000000327515792264421179424971342086792,-0.01839999999999999968913755310495616868138313293457,0.042900000000000007571721027943567605689167976379395,-0.019300000000000004651834473179405904375016689300537,-0.0021000000000000046407322429331543389707803726196289,-0.0282000000000000028421709430404007434844970703125,-0.029700000000000000704991620636974403169006109237671,-0.0060000000000000053290705182007513940334320068359375,0.0077999999999999944377826466279657324776053428649902,-0.004700000000000002786659791809142916463315486907959,0.027599999999999999533706329657434253022074699401855,-0.028600000000000003891331701311173674184828996658325,0.0062999999999999931055150170777778839692473411560059,0.043700000000000002731148640577885089442133903503418,0.013799999999999992827959260921488748863339424133301,-0.014700000000000004729550084903166862204670906066895,-0.030900000000000003852473895449293195270001888275146,0.011999999999999996780353228587046032771468162536621,-0.0049000000000000015765166949677222874015569686889648,-0.0081000000000000030309088572266773553565144538879395,-0.046200000000000004951594689828198170289397239685059,-0.049600000000000005195843755245732609182596206665039,0.045199999999999990185628462313616182655096054077148,0.0098999999999999921396209856538916938006877899169922,0.021599999999999994204635811456682858988642692565918,0.0049000000000000015765166949677222874015569686889648,-0.026900000000000000299760216648792265914380550384521,-0.006100000000000001254552017826426890678703784942627,-0.013500000000000005051514762044462258927524089813232,-0.010500000000000002386979502944086561910808086395264,-0.036400000000000001798561299892753595486283302307129,-0.039900000000000004907185768843191908672451972961426,0.020999999999999990896171198073716368526220321655273,-0.043599999999999999866773237044981215149164199829102,-0.0092000000000000067834626804597064619883894920349121,-0.031200000000000002037259250187162251677364110946655,0.013299999999999992383870051071426132693886756896973,0.046199999999999991073806882013741414994001388549805,0.012799999999999991939780841221363516524434089660645,-0.02900000000000000494049245958194660488516092300415,-0.0086000000000000034749980670767399715259671211242676,0.025499999999999994892974086724279914051294326782227,0.027499999999999996669330926124530378729104995727539,-0.017100000000000004085620730620576068758964538574219,0.019099999999999991984189762206369778141379356384277,-0.008700000000000006339373470609643845818936824798584,0.018100000000000004973799150320701301097869873046875,-0.026700000000000001509903313490212894976139068603516,-0.011599999999999999200639422269887290894985198974609,-0.0017000000000000070610184366159955970942974090576172,0.015100000000000002309263891220325604081153869628906,-0.0079000000000000042410519540680979844182729721069336,0.033799999999999996713739847109536640346050262451172,0.045399999999999995914379269379423931241035461425781,-0.012800000000000005817568649035820271819829940795898,0.005400000000000002020605904817784903571009635925293,0.00029999999999999471533840278425486758351325988769531,0.010199999999999993793853292345374939031898975372314,-0.015600000000000002753353101070388220250606536865234,0.036699999999999996513899702677008463069796562194824,0.049599999999999991318055947431275853887200355529785,-0.0020000000000000017763568394002504646778106689453125,0.046799999999999994382271495396707905456423759460449,-0.044300000000000006039613253960851579904556274414062,0.03949999999999999344968415471157641150057315826416,0.022699999999999997957189634689711965620517730712891,0.0096999999999999933497640824953123228624463081359863,0.0027999999999999969357844520345679484307765960693359,0.018799999999999997268851359422114910557866096496582,0.0075999999999999956479257434693863615393638610839844,0.023699999999999998845368054389837197959423065185547,-0.004700000000000002786659791809142916463315486907959,-0.017000000000000001221245327087672194465994834899902,0.0011999999999999996780353228587046032771468162536621,0.028099999999999999977795539507496869191527366638184,-0.012700000000000002953193245502916397526860237121582,-0.022399999999999999772404279951842909213155508041382,0.031399999999999997357669201392127433791756629943848,0.010499999999999995448085599036858184263110160827637,-0.048900000000000005961897642237090622074902057647705,0.014799999999999993716137680621613981202244758605957,0.010799999999999997102317905728341429494321346282959,-0.0069000000000000033528735343679727520793676376342773,-0.0014000000000000054067861299245123518630862236022949,0.006100000000000001254552017826426890678703784942627,0.030200000000000004618527782440651208162307739257812,-0.010899999999999999966693309261245303787291049957275,-0.043700000000000002731148640577885089442133903503418,0.025599999999999997757349490257183788344264030456543,0.023399999999999990252241843791125575080513954162598,-0.021800000000000006872280522429718985222280025482178,0.025099999999999997313260280407121172174811363220215,0.0064999999999999918953719202363572549074888229370117,-0.025100000000000004252154184314349549822509288787842,0.030800000000000007926992395823617698624730110168457,-0.004000000000000003552713678800500929355621337890625,0.04750000000000000055511151231257827021181583404541,0.025599999999999997757349490257183788344264030456543,0.048699999999999993294252931264054495841264724731445,-0.048600000000000004307665335545607376843690872192383,-0.016899999999999998356869923554768320173025131225586,-0.042500000000000003053113317719180486164987087249756,-0.0034000000000000002442490654175344388931989669799805,0.016000000000000000333066907387546962127089500427246,0.04379999999999999171773623629633220843970775604248,0.0098999999999999921396209856538916938006877899169922,-0.011599999999999999200639422269887290894985198974609,0.0064999999999999918953719202363572549074888229370117,-0.0088000000000000022648549702353193424642086029052734,0.048899999999999999023003738329862244427204132080078,0.007499999999999992783550339936482487246394157409668,-0.0089000000000000051292303737682232167571783065795898,0.0095999999999999974242825828696368262171745300292969,-0.049399999999999999467092948179924860596656799316406,0.039599999999999996314059558244480285793542861938477,0.00079999999999999515942761263431748375296592712402344,-0.034100000000000005306866057708248263224959373474121,-0.021400000000000005823119764158946054521948099136353,0.04230000000000000426325641456060111522674560546875,0.04140000000000000623945339839337975718080997467041,-0.012800000000000005817568649035820271819829940795898,-0.029600000000000004779510121011298906523734331130981,-0.048300000000000002653433028854124131612479686737061,0.043599999999999999866773237044981215149164199829102,0.030399999999999996469490781692002201452851295471191,-0.032400000000000005184741524999481043778359889984131,0.024699999999999999733546474089962430298328399658203,-0.037000000000000005107025913275720085948705673217773,0.043099999999999999422684027194918598979711532592773,-0.0415000000000000021649348980190552538260817527771,-0.035700000000000002564615186884111608378589153289795,-0.023900000000000001104671909502030757721513509750366,-0.034000000000000002442490654175344388931989669799805,0.045999999999999999222843882762390421703457832336426,-0.022800000000000000821565038222615839913487434387207,-0.0051000000000000003663735981263016583397984504699707,0.040999999999999994781951784261764260008931159973145,0.015600000000000002753353101070388220250606536865234,-0.013400000000000002187139358511558384634554386138916,0.017299999999999995936583729871927062049508094787598,0.049599999999999991318055947431275853887200355529785,0.043999999999999997446487043362139957025647163391113,-0.041599999999999998090416397644730750471353530883789,0.044299999999999992161825446146394824609160423278809,-0.020300000000000005540012892879531136713922023773193,0.047899999999999998134825318629737012088298797607422,-0.0049945122086896987650961321492104616481810808181763,0.03080005563003325452786640425983932800590991973877,0.011700000000441752867619271682997350580990314483643,-0.012799999999911279915942863283362385118380188941956,0.022099999999999994648725021306745475158095359802246,0.048800005099144151687884374268833198584616184234619,0.042700000003846300122845036639773752540349960327148,-0.041099999999911124293205944013607222586870193481445,-0.022499999463315233094728995411060168407857418060303,0.023000013377167193018291158068677759729325771331787,-0.023599767750822949613498380472265125717967748641968,-0.047799999999999967514874299467919627204537391662598,-0.028899999748160144080744160532958630938082933425903,-0.030480995586624089893623690272761450614780187606812,-0.004200003409682789325130247704009889275766909122467,0.020499999999991930926812599977893114555627107620239,0.030607765222936893223515397721712361089885234832764,0.011700000000053488793949618695933168055489659309387,0.016483741975046758282408276841124461498111486434937,-0.0070000000010729743205040165321406675502657890319824,-0.008200132762354647025793141779104189481586217880249,0.042600000005680697945376067536926711909472942352295,-0.04150000000246494707978328619901731144636869430542,0.028300295058978613277345104393134533893316984176636,0.0098442534641197641798182615957557572983205318450928,-0.0068000000000000004884981308350688777863979339599609,-0.042599999999939582029373497107371804304420948028564,0.01819996308808467452844404022016533417627215385437,-0.012599999252474753524966288864561647642403841018677,-0.012900000000027033938976295246447989484295248985291,-0.048470748046717138102223998430417850613594055175781,0.032646355214776864861470073719829088076949119567871,0.0029987957877856980665187691670325875747948884963989,0.012800000121725576412989866526004334446042776107788,0.045998969399233008426008950664254371076822280883789,0.01347904511141294336962204170049517415463924407959,0.046699999999994246113743656678707338869571685791016,0.032487095361509801816346509895083727315068244934082,0.019100077037713675959240688939644314814358949661255,0.0092673869256035198982424105906829936429858207702637,0.037464747127719175145976748808607226237654685974121,-0.073897463186266887369413325359346345067024230957031,0.0365137073754154620197631686551176244392991065979,-0.039358971093107396332921865678144968114793300628662,0.037723203140234987107426434249646263197064399719238,0.0039467718815992015868321374227889464236795902252197,0.028598098808874924253720095634889730717986822128296,0.015699995562184120012627630558199598453938961029053,0.0037818901071185657448980865780185922631062567234039,0.026175827584312007234590424786802032031118869781494,0.0051303837875337106322337632491326075978577136993408,0.030999994559831607621180893374912557192146778106689,0.024987455139366166606551544759895477909594774246216,0.0017390931093224783025863455776516275363974273204803,0.04561738920347648690301056717544270213693380355835,0.021300288841084896729327624598226975649595260620117,0.045300002928912057320598449905446614138782024383545,-0.010916325754360502175988045792109915055334568023682,0.02459927426770084496476798108233197126537561416626,0.017799883206357024201249572570304735563695430755615,0.024213620992112144109098537114732607733458280563354,0.025919432594107272987971057887079950887709856033325,0.035299585677146978757168227502916124649345874786377,0.011176197644302046305120335034644085681065917015076,0.037943006165056705758509281167789595201611518859863,-0.01036267480089306594615017331761919194832444190979,-0.027800006535705260035662433892866829410195350646973,-0.044399999990675807770568184196235961280763149261475,0.0075000258349891919459895284205686039058491587638855,-0.023600000157829890967686736757968901656568050384521,0.024990706737206838661258245792851084843277931213379,-0.020687726145975453978520519626727036666125059127808,0.0033871683603129841728940352396648449939675629138947,0.011501541012664250399066823149496485712006688117981,0.018944438830720309457911199046975525561720132827759,-0.0034951982841910662208606552781020582187920808792114,-0.047442016464676266263023052260905387811362743377686,-0.0080999999927355865320111050209561653900891542434692,-0.03850372204402198461625772551997215487062931060791,-0.0066460352416406751410726805318063270533457398414612,0.016140437525194048506982369417528389021754264831543,-0.096770642509974483247425780518824467435479164123535,0.009141723004285243203703714698349358513951301574707,0.021907505258999881297965472981559287291020154953003,-0.01075890153014295858024951257903012447059154510498,0.038577523829416572598294266072116442956030368804932,-0.0065000032815318228851531046075251651927828788757324,0.02186758767201116282485884312336565926671028137207,-0.024500000125340901796500148179802636150270700454712,-0.032000327282587136268343641631872742436826229095459,-0.012533126644114394102058618329920136602595448493958,-0.015184990978313510703867628137686551781371235847473,-0.021100063658013392536849650582553294952958822250366,-0.027808440928341511544363839902871404774487018585205,