-0.02130000000000000642819131257965636905282735824585,-0.018000000000000002109423746787797426804900169372559,0.018200000000000007838174553853605175390839576721191,-0.042700000000000001842970220877759857103228569030762,-0.01669999999999999956701302039618894923478364944458,-0.022800000000000000821565038222615839913487434387207,0.013799999999999992827959260921488748863339424133301,-0.019000000000000002997602166487922659143805503845215,-0.030000000000000002359223927328457648400217294692993,0.021199999999999996624922005139524117112159729003906,-0.0014000000000000054067861299245123518630862236022949,0.02449999999999999400479566702415468171238899230957,-0.027500000000000003608224830031758756376802921295166,0.034699999999999994737542863276757998391985893249512,0.046099999999999988209431478480837540701031684875488,0.011199999999999994682031712045500171370804309844971,0.0051000000000000003663735981263016583397984504699707,0.013299999999999992383870051071426132693886756896973,-0.01230000000000000537347943918575765565037727355957,-0.021700000000000004007905118896815110929310321807861,-0.049700000000000001121325254871408105827867984771729,0.017399999999999998800959133404830936342477798461914,-0.015200000000000005173639294753229478374123573303223,0.022999999999999992672528037473966833204030990600586,0.037800000000000000266453525910037569701671600341797,-0.020500000000000004329869796038110507652163505554199,0.040300000000000002486899575160350650548934936523438,-0.013800000000000006705747068735945504158735275268555,-0.0021000000000000046407322429331543389707803726196289,0.0097999999999999962141394860282161971554160118103027,0.010499999999999995448085599036858184263110160827637,0.026499999999999995781152506424405146390199661254883,0.041700000000000000954791801177634624764323234558105,0.013799999999999992827959260921488748863339424133301,0.033799999999999996713739847109536640346050262451172,0.010099999999999997868371792719699442386627197265625,0.040999999999999994781951784261764260008931159973145,0.032699999999999992961186023876507533714175224304199,0.040999999999999994781951784261764260008931159973145,-0.0039000000000000006883382752675970550626516342163086,0.039099999999999995869970348394417669624090194702148,-0.010399999999999999522604099411182687617838382720947,0.0057999999999999996003197111349436454474925994873047,-0.038500000000000006439293542825907934457063674926758,0.0093999999999999916955317758038290776312351226806641,0.0017999999999999960476060323344427160918712615966797,-0.042200000000000001398881011027697240933775901794434,-0.00040000000000000451860771022438711952418088912963867,0.00029999999999999471533840278425486758351325988769531,-0.0045999999999999999222843882762390421703457832336426,-0.037000000000000005107025913275720085948705673217773,0.035699999999999995625721282976883230730891227722168,-0.0020000000000000017763568394002504646778106689453125,-0.0023000000000000034305891460917337099090218544006348,0.04379999999999999171773623629633220843970775604248,0.020899999999999988031795794540812494233250617980957,0.027099999999999999089617119807371636852622032165527,-0.03080000000000000098809849191638932097703218460083,-0.043000000000000003497202527569243102334439754486084,-0.025100000000000004252154184314349549822509288787842,0.028899999999999995137223152141814352944493293762207,0.017399999999999998800959133404830936342477798461914,-0.013400000000000002187139358511558384634554386138916,-0.044300000000000006039613253960851579904556274414062,0.016399999999999997912780713704705704003572463989258,0.0055000000000000048849813083506887778639793395996094,0.015799999999999994604316100321739213541150093078613,0.042499999999999996114219413811952108517289161682129,-0.011900000000000000854871728961370536126196384429932,0.041900000000000006683542608243442373350262641906738,-0.01150000000000000327515792264421179424971342086792,0.012299999999999998434585535278529278002679347991943,0.016600000000000003641531520770513452589511871337891,0.044199999999999989297450042613490950316190719604492,-0.041000000000000001720845688168992637656629085540771,0.011099999999999998756550212419824674725532531738281,0.031200000000000005506706202140776440501213073730469,-0.033300000000000003208544541166702401824295520782471,-0.039400000000000004463096558993129292502999305725098,0.016600000000000003641531520770513452589511871337891,0.047299999999999994826360705246770521625876426696777,0.0086999999999999924615856627951870905235409736633301,0.037400000000000002686739719592878827825188636779785,0.030399999999999996469490781692002201452851295471191,-0.0084000000000000046851411639181606005877256393432617,0.031100000000000002642330798607872566208243370056152,0.0011999999999999996780353228587046032771468162536621,-0.031400000000000004296563105299355811439454555511475,-0.049700000000000001121325254871408105827867984771729,0.0080999999999999960920149533194489777088165283203125,0.028700000000000003286260152890463359653949737548828,-0.035700000000000002564615186884111608378589153289795,0.010599999999999998312461002569762058556079864501953,0.00039999999999999757971380631715874187648296356201172,-0.030000000000000002359223927328457648400217294692993,0.012099999999999999644728632119949907064437866210938,-0.044200000000000003175237850427947705611586570739746,-0.029100000000000004335420911161236290354281663894653,0.0045000000000000039968028886505635455250740051269531,-0.0062000000000000041189274213593307649716734886169434,-0.037299999999999999822364316059974953532218933105469,0.042999999999999996558308623662014724686741828918457,-0.008700000000000006339373470609643845818936824798584,0.029300000000000006594724766273429850116372108459473,-0.027700000000000002398081733190338127315044403076172,0.00019999999999999878985690315857937093824148178100586,-0.0097000000000000002886579864025407005101442337036133,-0.011400000000000000410782519111307919956743717193604,0.01679999999999999549249452002186444588005542755127,0.03609999999999999320543508929404197260737419128418,-0.04490000000000000240918396343658969271928071975708,0.049199999999999993738342141114117112010717391967773,0.029899999999999996025401571841939585283398628234863,0.042400000000000007127631818093504989519715309143066,0.029499999999999998445687765524780843406915664672852,-0.028600000000000003891331701311173674184828996658325,-0.041300000000000003375077994860475882887840270996094,-0.01940000000000000404676292475869558984413743019104,0.025200000000000000177635683940025046467781066894531,-0.041100000000000004585221091701896511949598789215088,-0.026200000000000004535261055593764467630535364151001,0.038999999999999993005594944861513795331120491027832,-0.026900000000000000299760216648792265914380550384521,0.034400000000000000022204460492503130808472633361816,-0.01070000000000000117683640610266593284904956817627,0.0282000000000000028421709430404007434844970703125,0.031599999999999989208632200643478427082300186157227,-0.0050000000000000044408920985006261616945266723632812,0.049000000000000001887379141862766118720173835754395,-0.013900000000000002631228568361621000804007053375244,-0.026100000000000005140332604014474782161414623260498,-0.0031000000000000055289106626332795713096857070922852,0.014200000000000004285460875053104246035218238830566,0.015100000000000002309263891220325604081153869628906,0.011299999999999997546407115578404045663774013519287,-0.028400000000000001632027846198980114422738552093506,-0.034800000000000004540812170716890250332653522491455,-0.048500000000000001443289932012703502550721168518066,0.010199999999999993793853292345374939031898975372314,-0.032800000000000002764455331316639785654842853546143,-0.027300000000000001348920974919565196614712476730347,0.015200000000000005173639294753229478374123573303223,-0.033700000000000000788258347483861143700778484344482,-0.012200000000000002509104035652853781357407569885254,0.042800000000000004707345624410663731396198272705078,0.045799999999999993494093075696582673117518424987793,0.0090999999999999969801933730195742100477218627929688,-0.048600000000000004307665335545607376843690872192383,0.011499999999999996336264018736983416602015495300293,0.019399999999999986699528164990624645724892616271973,-0.039800000000000002042810365310288034379482269287109,0.035299999999999998046007476659724488854408264160156,0.0082999999999999948818718564780283486470580101013184,0.01839999999999999968913755310495616868138313293457,-0.045200000000000004063416270128072937950491905212402,0.04750000000000000055511151231257827021181583404541,-0.0034000000000000002442490654175344388931989669799805,0.036299999999999998934185896359849721193313598632812,-0.0076000000000000025868196473766147391870617866516113,0.030700000000000005062616992290713824331760406494141,0.007499999999999992783550339936482487246394157409668,0.016299999999999995048405310171801829710602760314941,0.012700000000000002953193245502916397526860237121582,-0.028400000000000001632027846198980114422738552093506,0.016500000000000000777156117237609578296542167663574,-0.026100000000000005140332604014474782161414623260498,0.028399999999999994693133942291751736775040626525879,0.031699999999999992073007604176382301375269889831543,0.010599999999999998312461002569762058556079864501953,-0.01150000000000000327515792264421179424971342086792,0.048799999999999996158628334796958370134234428405762,-0.03160000000000000308642000845793518237769603729248,-0.046400000000000003741451592986777541227638721466064,-0.035000000000000003330669073875469621270895004272461,0.006100000000000001254552017826426890678703784942627,0.046299999999999993938182285546645289286971092224121,-0.0040999999999999994781951784261764260008931159973145,0.00039999999999999757971380631715874187648296356201172,-0.017200000000000000011102230246251565404236316680908,-0.042600000000000005917488721252084360457956790924072,-0.030300000054524427184343693397750030271708965301514,-0.0071000000089816526355201986575593764428049325942993,-0.022199999410637077934538297085964586585760116577148,0.027999999999999615474255421077032224275171756744385,-0.0035000000000000031086244689504383131861686706542969,0.017699999999999951882934112745715538039803504943848,-0.039400000000000004463096558993129292502999305725098,-0.021800000000000575861580642822445952333509922027588,0.0038999007524429443044544640883941610809415578842163,0.0030000002682826062624932283995349280303344130516052,-0.0060019691405768498676520650292331993114203214645386,-0.0034000000000000002442490654175344388931989669799805,0.0043996530470924895273032717568639782257378101348877,-0.043299999999785732107682179048424586653709411621094,-0.046700000000016339551933697293861769139766693115234,-0.029200000119477213106344848370099498424679040908813,-0.019500000065761562834110165454148955177515745162964,0.031600001180964953917396087490487843751907348632812,-0.012400000000012305692576042304153816075995564460754,0.040999999999999994781951784261764260008931159973145,-0.030000000000000144606548957426639390178024768829346,-0.013700000000000003841371665203041629865765571594238,-0.040600000000001260080928489060170250013470649719238,0.0087997120294115264982348634248410235159099102020264,0.036499998700646942018099849747159169055521488189697,-0.049427335714742767769358522400580113753676414489746,0.040199999999999999622524171627446776255965232849121,-0.017702482267626728357212684272781189065426588058472,0.00090000000047030183272095404944934671220835298299789,-0.027000000000038586883688296325090050231665372848511,0.024799999999905012609824339619990496430546045303345,0.020599999948705257496461840105439478065818548202515,0.015799999878107377077052220215591660235077142715454,-0.047500000000011192990978514671951415948569774627686,-0.0015000000000000013322676295501878485083580017089844,-0.0026000000000000094216301427252346911700442433357239,0.020099999999999992872368181906495010480284690856934,0.0089999999999999229921554544375794648658484220504761,0.025499921377105629755055460350376961287111043930054,0.0091999979003540687666484743090222764294594526290894,-0.0029256212799798246917970523384155967505648732185364,-0.030500000000000002803313137178520264569669961929321,-0.0091019168801446930644472033122838183771818876266479,-0.013400000000000012595480214372400951106101274490356,0.011299999999997801386486528940622520167380571365356,-0.0059000000000038622244291630636325862724334001541138,0.042599999997862771083934063653941848315298557281494,0.041699999994922021251397836749674752354621887207031,-0.024300000000000227667884544757725961972028017044067,-0.019900000000000004490852134608758206013590097427368,-0.032100000000000003530509218307997798547148704528809,0.030800000000000007926992395823617698624730110168457,0.016399999999999997912780713704705704003572463989258,0.01239999672404628640320911614480792195536196231842,-0.010500000087484707630980373949114436982199549674988,0.002798932446667548937235814321411453420296311378479,0.012899999999999994804156244754267390817403793334961,-0.020300079870005736243365745963274093810468912124634,-0.029800000000000000099920072216264088638126850128174,-0.036200000000000003008704396734174224548041820526123,0.0025999999999999981459275488759885774925351142883301,0.04499999999999999833466546306226518936455249786377,0.0342999999999999971578290569595992565155029296875,0.0035000000000000031086244689504383131861686706542969,-0.017399999999999998800959133404830936342477798461914,0.017899999999999999245048343254893552511930465698242,-0.013900000000000002631228568361621000804007053375244,-0.012099999999999999644728632119949907064437866210938,0.011999999999999996780353228587046032771468162536621,-0.038500000000000006439293542825907934457063674926758,0.047000000000000000111022302462515654042363166809082,-0.040900000000000005795364188543317141011357307434082,0.016100000000000003197442310920450836420059204101562,0.022999999999999992672528037473966833204030990600586,0.030800000000000007926992395823617698624730110168457,-0.022700000000000001426636586643326154444366693496704,-0.033000000000000001554312234475219156593084335327148,0.023300000000000001265654248072678456082940101623535,0.0042000000000000023425705819590803002938628196716309,0.027800000000000005262457136723242001608014106750488,-0.011400000000000000410782519111307919956743717193604,-0.042800000000000004707345624410663731396198272705078,0.0085999999999999965361041631695115938782691955566406,-0.0098999999999999990785148895611200714483857154846191,0.019499999999999989563903568523528520017862319946289,0.048000000000000000999200722162640886381268501281738,-0.021999999999999998723243521681069978512823581695557,-0.017700000000000000455191440096314181573688983917236,0.012799999999999991939780841221363516524434089660645,-0.001900000000000005850875339774574968032538890838623,-0.004000000000000003552713678800500929355621337890625,0.00050000000000000044408920985006261616945266723632812,0.0282000000000000028421709430404007434844970703125,0.015399999999999997024602294004580471664667129516602,-0.010800000000000004041211809635569807142019271850586,-0.039199999999999998734345751927321543917059898376465,-0.016800000000000002431388423929092823527753353118896,0.025200000000000000177635683940025046467781066894531,-0.0014000000000000054067861299245123518630862236022949,0.045199999999999990185628462313616182655096054077148,-0.0282000000000000028421709430404007434844970703125,0.030700000000000005062616992290713824331760406494141,-0.010599999999999998312461002569762058556079864501953,-0.026900000000000000299760216648792265914380550384521,0.0035999999999999990341059685761138098314404487609863,0.0052999999999999991562305012848810292780399322509766,0.035499999999999989896970475911075482144951820373535,-0.044300000000000006039613253960851579904556274414062,0.013799999999999992827959260921488748863339424133301,0.02480000000000000259792187762286630459129810333252,0.033499999999999988120613636510825017467141151428223,-0.047700000000000006283862319378386018797755241394043,0.031899999999999997801758411242190049961209297180176,-0.00800000000000000710542735760100185871124267578125,-0.0077000000000000054511950509095186134800314903259277,0.0012999999999999956035168224843800999224185943603516,0.025099999999999997313260280407121172174811363220215,-0.044600000000000000754951656745106447488069534301758,0.033599999999999990984989040043728891760110855102539,0.023099999999999995536903441006870707497000694274902,0.0034000000000000002442490654175344388931989669799805,0.014700000000000004729550084903166862204670906066895,-0.02650000000000000272004641033163352403789758682251,0.01679999999999999549249452002186444588005542755127,-0.019900000000000004490852134608758206013590097427368,0.047799999999999995270449915096833137795329093933105,0.027499999999999996669330926124530378729104995727539,0.01320000000000000339728245535297901369631290435791,-0.041900000000000006683542608243442373350262641906738,0.011199999999999994682031712045500171370804309844971,0.043499999999999997002397833512077340856194496154785,-0.020100000000000003280709037767337576951831579208374,0.026999999999999996225241716274467762559652328491211,-0.017200000000000000011102230246251565404236316680908,0.038099999999999994981791928694292437285184860229492,-0.019500000000000003441691376337985275313258171081543,-0.026700000000000001509903313490212894976139068603516,0.023499999999999993116617247324029449373483657836914,-0.013900000000000002631228568361621000804007053375244,0.03699999999999999122923810546126333065330982208252,-0.0017000000000000070610184366159955970942974090576172,0.004700000000000002786659791809142916463315486907959,0.039199999999999998734345751927321543917059898376465,-0.019900000000000004490852134608758206013590097427368,0.046599999999999988653520688330900156870484352111816,0.016600000000000003641531520770513452589511871337891,0.031399999999999997357669201392127433791756629943848,-0.043099999999999999422684027194918598979711532592773,0.021899999999999988919974214240937726572155952453613,-0.049899999999999999911182158029987476766109466552734,0.029899999999999996025401571841939585283398628234863,0.01039999999999999258371019550395430997014045715332,0.014700000000000004729550084903166862204670906066895,-0.01150000000000000327515792264421179424971342086792,-0.02290000000000000021649348980190552538260817527771,-0.020100000000000003280709037767337576951831579208374,0.021499999999999991340260407923778984695672988891602,-0.010300000000000003597122599785507190972566604614258,-0.021700000000000004007905118896815110929310321807861,0.029499999999999998445687765524780843406915664672852,-0.0492000000000000006772360450213454896584153175354,-0.028300000000000002237099394619690428953617811203003,-0.040700000000000000066613381477509392425417900085449,-0.037100000000000001032507412901395582593977451324463,0.039699999999999999178434961777384160086512565612793,0.047299999999999994826360705246770521625876426696777,-0.0067000000000000045630166312093933811411261558532715,-0.037100000000000001032507412901395582593977451324463,-0.04400000000000000438538094726936833467334508895874,-0.035400000000000000910382880192628363147377967834473,0.049799999999999997046806754497083602473139762878418,0.039400000000000004463096558993129292502999305725098,0.019199999999999994848565165739273652434349060058594,-0.025900000000000002881028748902281222399324178695679,-0.030600000000000002198241588757809950038790702819824,-0.049000000000000001887379141862766118720173835754395,0.040599999999999997202237977944605518132448196411133,-0.01410000000000000142108547152020037174224853515625,-0.0070000000000000062172489379008766263723373413085938,0.047599999999999989541699108031025389209389686584473,0.02109999999999999376054660160662024281919002532959,-0.027200000000000001953992523340275511145591735839844,0.0078999999999999903632641462536412291228771209716797,0.020999999999999990896171198073716368526220321655273,0.046399999999999996802557689079549163579940795898438,-0.029800000000000000099920072216264088638126850128174,-0.0492000000000000006772360450213454896584153175354,0.017799999999999996380672939721989678218960762023926,0.0097999999999999962141394860282161971554160118103027,-0.021000000000000004773959005888173123821616172790527,-0.0027000000000000079491968563161208294332027435302734,0.045799999999999993494093075696582673117518424987793,0.035900000000000001354472090042690979316830635070801,0.041700000000000000954791801177634624764323234558105,-0.04140000000000000623945339839337975718080997467041,0.025499999999999994892974086724279914051294326782227,-0.025800000000000003486100297322991536930203437805176,0.037099999999999994093613508994167204946279525756836,-0.02650000000000000272004641033163352403789758682251,0.015299999999999994160226890471676597371697425842285,-0.01320000000000000339728245535297901369631290435791,0.0083999999999999908073533561037038452923297882080078,0.0045999999999999999222843882762390421703457832336426,-0.04410000000000000031086244689504383131861686706543,0.032399999999999998245847621092252666130661964416504,0.023899999999999990696331053641188191249966621398926,-0.00800000000000000710542735760100185871124267578125,-0.041900000000000006683542608243442373350262641906738,-0.0050000000000000044408920985006261616945266723632812,0.034900000000000000466293670342565746977925300598145,-0.044400000000000001965094753586527076549828052520752,0.0011999999999999996780353228587046032771468162536621,-0.0072000000000000050071058410594559973105788230895996,0.013399999999999995248245454604330006986856460571289,-0.027900000000000001187938636348917498253285884857178,-0.010800000000000004041211809635569807142019271850586,0.033499999999999988120613636510825017467141151428223,-0.027100000000000002559064071760985825676470994949341,-0.0079000000000000042410519540680979844182729721069336,0.028499999999999997557509345824655611068010330200195,0.03699999999999999122923810546126333065330982208252,-0.025500000000000001831867990631508291698992252349854,0.024199999999999999289457264239899814128875732421875,-0.042000000000000002609024107869117869995534420013428,0.001399999999999998467892226017283974215388298034668,-0.032100000000000003530509218307997798547148704528809,-0.031400000000000004296563105299355811439454555511475,0.025499999999999994892974086724279914051294326782227,-0.045100000000000001199040866595169063657522201538086,-0.00800000000000000710542735760100185871124267578125,0.025899999999999992472687893041438655927777290344238,-0.0084000000000000046851411639181606005877256393432617,-0.049700000000000001121325254871408105827867984771729,-0.019600000000000002836619827917274960782378911972046,0.032699999999999992961186023876507533714175224304199,-0.032200000000000006394884621840901672840118408203125,-0.010599999999999998312461002569762058556079864501953,-0.025400000000000002436939539052218606229871511459351,-0.024200000000000002758904216193514002952724695205688,-0.030500000000000002803313137178520264569669961929321,-0.0052999999999999991562305012848810292780399322509766,-0.018700000000000001343369859796439413912594318389893,0.020699999999999996180832795289461500942707061767578,0.037400000000000002686739719592878827825188636779785,-0.020100000000000003280709037767337576951831579208374,0.042700000000000001842970220877759857103228569030762,0.011699999999999995126120921895562787540256977081299,-0.0015000000000000013322676295501878485083580017089844,0.00069999999999999923394611300864198710769414901733398,-0.046200000000000004951594689828198170289397239685059,-0.023100000000000002475797344914099085144698619842529,0.02289999999999998980815263394106295891106128692627,0.013399999999999995248245454604330006986856460571289,-0.013800000000000006705747068735945504158735275268555,0.030800000000000007926992395823617698624730110168457,-0.035300000000000004984901380566952866502106189727783,0.0040999999999999994781951784261764260008931159973145,0.049399999999999999467092948179924860596656799316406,-0.024700000000000003202993426043576619122177362442017,0.044099999999999986433074639080587076023221015930176,-0.008700000000000006339373470609643845818936824798584,-0.048900000000000005961897642237090622074902057647705,-0.014300000000000007149836278586008120328187942504883,0.026800000000000004374278717023116769269108772277832,-0.018600000000000005417888360170763917267322540283203,0.0035000000000000031086244689504383131861686706542969,0.044499999999999997890576253212202573195099830627441,-0.04400000000000000438538094726936833467334508895874,-0.036799999999999999378275106209912337362766265869141,-0.029700000000000000704991620636974403169006109237671,-0.024600000000000003808064974464286933653056621551514,0.0077999999999999944377826466279657324776053428649902,0.036699999999999996513899702677008463069796562194824,0.045999999999999999222843882762390421703457832336426,-0.0047999999999999987121412914348184131085872650146484,-0.033500000000000001998401444325281772762537002563477,0.038699999999999998290256542077258927747607231140137,-0.04320000000000000228705943072782247327268123626709,0.01499999999999999944488848768742172978818416595459,-0.01070000000000000117683640610266593284904956817627,-0.0042999999999999982680520815847557969391345977783203,0.041800000000000003819167204710538499057292938232422,-0.037900000000000003130828929442941443994641304016113,-0.040900000000000005795364188543317141011357307434082,0.01320000000000000339728245535297901369631290435791,-0.021899999999999999328315070101780293043702840805054,0.0088999999999999912514425659537664614617824554443359,-0.032800000000000002764455331316639785654842853546143,-0.022600000000000002031708135064036468975245952606201,0.034199999999999994293453653426695382222533226013184,-0.038800000000000001154631945610162802040576934814453,0.018600000000000005417888360170763917267322540283203,0.03519999999999999518163207312682061456143856048584,0.031999999999999986788346006960637168958783149719238,0.030499999999999999333866185224906075745820999145508,0.0017999999999999960476060323344427160918712615966797,0.020599999999999993316457391756557626649737358093262,0.024999999999999994448884876874217297881841659545898,0.0076999999999999915734072430950618581846356391906738,0.033799999999999996713739847109536640346050262451172,-0.019600000000000002836619827917274960782378911972046,0.032999999999999987676524426660762401297688484191895,-0.0085000000000000075495165674510644748806953430175781,-0.033000000000000001554312234475219156593084335327148,-0.035800000000000005428990590417015482671558856964111,-0.0282000000000000028421709430404007434844970703125,-0.016500000000000000777156117237609578296542167663574,-0.047200000000000005839773109528323402628302574157715,0.013799999999999992827959260921488748863339424133301,0.04839999999999999857891452847979962825775146484375,0.027200000000000001953992523340275511145591735839844,-0.04060000000000000414113188185183389578014612197876,-0.024700000000000003202993426043576619122177362442017,-0.025500000000000001831867990631508291698992252349854,0.0035999999999999990341059685761138098314404487609863,0.038399990132151902433310652895670500583946704864502,0.0024999968268231099674525630405241827247664332389832,-0.037500000000000893729534823251015041023492813110352,-0.0093000000000406889133497401189742959104478359222412,-0.035000000000000003330669073875469621270895004272461,-0.018200000000004060152214435674977721646428108215332,0.037099999999999994093613508994167204946279525756836,-0.031300000000000001432187701766451937146484851837158,0.0020999996745299917208504858479045651620253920555115,-0.045800119682738699156132611278735566884279251098633,0.049139244235407851524310984814292169176042079925537,-0.046200000000000004951594689828198170289397239685059,0.024799986392515481481435557498116395436227321624756,-0.040698136357373966565109668636068818159401416778564,0.046599998886478880000261426630459027364850044250488,0.0084998062173439435651456363984834752045571804046631,-0.010400062375419020371802858448972983751446008682251,-0.035200000000017682422193132651955238543450832366943,0.0498999999990620488055093062484957044944167137146,0.0064999999999999918953719202363572549074888229370117,-0.021100000000120501530975758441854850389063358306885,0.0068999999999999894750857265535159967839717864990234,-0.024900000000000001992850329202155990060418844223022,0.016799989325417999386225176294828997924923896789551,-0.029402348722345077874917862459369644057005643844604,0.0074076392609733312036301988712239108281210064888,0.02910000000000000086597395920762210153043270111084,-0.020100267075221535384432769433260546065866947174072,0.033936573986586046625113510799565119668841361999512,-0.04650002185290160600095177301227522548288106918335,-0.031300238858189978474744208369884290732443332672119,-0.042600078081632387905219871981898904778063297271729,0.041100001956544410242067044691793853417038917541504,0.016300007568468579538523144378814322408288717269897,-0.0018999939411653554970776935917342598258983343839645,-0.043999997947071309289945872933458304032683372497559,0.048000000009002237455479900063437526114284992218018,0.020300007505685665337713530220753455068916082382202,-0.025300036855378328637389273580993176437914371490479,0.035197063103472966960616474807466147467494010925293,0.022888663730314687261291339837043778970837593078613,-0.026199999905946156492086984712841513101011514663696,-0.02580064587841048723282355581432057078927755355835,-0.0008541053499151553046395135559976097283652052283287,-0.017000026939140582687981506637697748374193906784058,-0.02929999870562394193029831512831151485443115234375,-0.0073000157213699715455512695427842118078842759132385,-0.042299981720587895295260238981427391991019248962402,0.020600077441234172087591858257837884593755006790161,0.027800061986539115199690286317490972578525543212891,0.049300020995157754766236024579484364949166774749756,-0.015399999907899924664334001533916307380422949790955,-0.015399923211064559316896271923269523540511727333069,-0.025600255573614442983210182092079776339232921600342,-0.048700484927083752262344518157988204620778560638428,0.0047687216789243300207878917262860340997576713562012,0.032900000962243373947568869652968714945018291473389,0.030398136039416972370430514160943857859820127487183,-0.029891821700145513457380630484294670168310403823853,-0.048099999945982310767256251438084291294217109680176,-0.062537346919685862789428654195944545790553092956543,-0.016941247336668477374566066373517969623208045959473,-0.054585042742160506945570119796684593893587589263916,-0.066430712900584609759135901185800321400165557861328,-0.029256112279684599181139859069844533223658800125122,0.021618274045424490381606119626667350530624389648438,-0.00014328787962286364146384520790178385141189210116863,-0.0041585030649061360472074078131754504283890128135681,0.042816135196893340131296668005234096199274063110352,-0.040530658538321148731675691578857367858290672302246,0.0024847241519788667782342450607302453136071562767029,0.0090882990968707694223738258187950123101472854614258,-0.024067842314395529457193845246365526691079139709473,0.034717041010334528938763298810954438522458076477051,-0.0036956254897596331476794517811867990531027317047119,-0.094307732246178707646855343682545935735106468200684,-0.020131021349870034664597540086106164380908012390137,0.02839451847546190996207648993276961846277117729187,-0.043995612859123275906192418460705084726214408874512,-0.06995110946790131234429566120525123551487922668457,-0.0043171801721060181281086620685982779832556843757629,-0.0071068152404320491036249229921395453857257962226868,-0.047594563108586271371613918290677247568964958190918,-0.046296025519276542969926424575533019378781318664551,0.016915752660776425808641931780584855005145072937012,0.021021766398059266861553240346438542474061250686646,-0.068084936377664009854449034264689544215798377990723,0.024094681822868800613601791837936616502702236175537,0.013515554442222780032190065924169175559654831886292,-0.043617070533949170441090359418012667447328567504883,0.027834372006546120870140725855890195816755294799805,-0.037736472862709632969391293499938910827040672302246,0.040495094290457264718519070356705924496054649353027,-0.025868430824036437593038684212842781562358140945435,0.0026611859774520610702475131859046086901798844337463,-0.021879753394090609153188609070639358833432197570801,0.010625752771483643055461243420722894370555877685547,-0.049309928934972248326662480621962458826601505279541,-0.0080198745682487689728779045594819763209670782089233,0.010890257420157490805823208290803449926897883415222,-0.069356389799456574785097018320811912417411804199219,-0.052530806801025113628167417800796101801097393035889,0.01308251227772889123401878208596826880238950252533,0.042296398707098552260941204394839587621390819549561,-0.033902084062303938782889645153773017227649688720703,-0.027546443043293771663071467514782852958887815475464,-0.020656446438365363288403031560847011860460042953491,0.0080001891153641674359064950294850859791040420532227,0.0069000017463139917336945039494366938015446066856384,0.025000001398192590873481577773418393917381763458252,-0.048001446082026340278492426705270190723240375518799,0.018799798803203655872540167592887883074581623077393,-0.030324879882830342581190308237637509591877460479736,0.030467624687409596700993219542397127952426671981812,0.032876675221357197498317503914222470484673976898193,-0.068530893100484074897948971738514956086874008178711,0.010296525621360920130231697555700520751997828483582,-0.0333155505181963462746352888643741607666015625,-0.0035843899124775023025402109766446301364339888095856,0.0055979017537841372839646503223320905817672610282898,-0.011818776981058756389564301514383259927853941917419,-0.014622416067604117675959862765466823475435376167297,0.019902399214957958856198061425857304129749536514282,0.018799999999684659235388295428492710925638675689697,-0.045999999999999999222843882762390421703457832336426,-0.020701157084927059720547148913283308502286672592163,-0.04580008253141668733698921300856454763561487197876,-0.049822454966090175265680528582379338331520557403564,0.025085959751233954939664272387744858860969543457031,-0.001737417836597086526206901169189222855493426322937,0.038633216149477768441844460767242708243429660797119,0.046698580991317191479783588192731258459389209747314,0.035191342433873715189740494224679423496127128601074,0.010403133384804103683807241509384766686707735061646,-0.02670026973460616279143486906377802370116114616394,-0.045200125587243629443623404995378223247826099395752,-0.031914872697206157770022372233142959885299205780029,0.002634054272480684105728343524788215290755033493042,0.04789999973896350016211442834901390597224235534668,0.024899999999999991584509473341313423588871955871582,0.012692492032638962376478453109029942424967885017395,0.049799982285827028294367124772179522551596164703369,-0.0063033163521702502071764051549962459830567240715027,-0.03241155877163695575582380570267559960484504699707,0.030414699527085444635821076531101425644010305404663,0.0086823399646422730335793005451705539599061012268066,-0.0084006150500565649613671226347832998726516962051392,-0.0095044204981295059286861004466118174605071544647217,0.025500652121399611238494742337934440001845359802246,-0.026800007722269664905967445633905299473553895950317,0.046099893226674050483726574611864634789526462554932,-0.0011117812060717634399520381549564262968488037586212,0.043808002416303302994915469525949447415769100189209,-0.048900000045621110078553073208240675739943981170654,-0.03240000000226071763531621172660379670560359954834,0.047695851174052728005392509658122435212135314941406,-0.019700329166117941381841660586360376328229904174805,0.006897927517031531181868064805939866346307098865509,-0.017023171742437063352904047519587038550525903701782,-0.0093507640563472126105093451542416005395352840423584,-0.010581918279347115804944756689565110718831419944763,-0.022800733739749546452602046997526485938578844070435,-0.012814045211224402154304158329978235997259616851807,-0.025000916457309115686902245556666457559913396835327,0.037499938791633088963628495093871606513857841491699,0.045599693829611487316810780612286180257797241210938,0.014991617250109060682783379547799995634704828262329,-0.044430662021287731233698536925658117979764938354492,-0.001900000150514982418317733170454175706254318356514,0.012799999995446955172728742411436542170122265815735,-0.034417271984117550620574377262528287246823310852051,-0.039202479918946465942131140991477877832949161529541,0.012590204143670973360724651968212128849700093269348,0.044324131891633353208526102662290213629603385925293,0.013500894416141044629409151411891798488795757293701,-0.0078975018913493323646779487035018973983824253082275,0.003196756854854676012378522642620737315155565738678,-0.0097371226598362125431718183676821354310959577560425,-0.031593556785117646312777139883110066875815391540527,0.013798911962765499777949784743213967885822057723999,0.01339982459802514444535681548131833551451563835144,-0.00041299112600715271381365822911391205707332119345665,-0.0021301380114969342173536492879293291480280458927155,0.006999999981819419840600726701040912303142249584198,0.00059999999984572795295317826358427737432066351175308,0.015287001451916339134218247863827855326235294342041,0.0045990428023081515729320045693384599871933460235596,-0.033905577762859413770701877410829183645546436309814,0.0072728173551327547977085608010838768677785992622375,-0.027198409546608431908154557277157437056303024291992,0.0062351194573983153082719077531237417133525013923645,0.047198257690190835444976613644030294381082057952881,-0.00012244600892296735863626344631427400599932298064232,-0.021098589047040195582072286129005078691989183425903,0.0072987002051347390357838307295423874165862798690796,-0.012700055485458154602707026015195879153907299041748,-0.025607378873114729905813291566119005437940359115601,-0.027752779447725115652412242184254864696413278579712,0.027899999999893228957992263872256444301456212997437,0.022399999999999989364063424091000342741608619689941,-0.029805290228048224310253289104366558603942394256592,0.043399934569936092498831925468039116822183132171631,-0.031701796614316796185661928575427737087011337280273,0.032692705941826154247831226484777289442718029022217,0.037700612668896633927761996574190561659634113311768,-0.033123238635501081605916340322437463328242301940918,0.010599573754577672202170646187369129620492458343506,0.025994551245367952807541200854757335036993026733398,0.0072001687397196230747131728833210217999294400215149,-0.035900257446122331439486430326724075712263584136963,-0.010200000047227864713450529166038904804736375808716,-0.029500022588980927273905052743430132977664470672607,0.013709379190313564222947206872049719095230102539062,0.03749999999999666100425343984170467592775821685791,0.027399999999999993804955522591626504436135292053223,-0.03580000000048709496436316612744121812283992767334,0.037999999999999992117416525161388562992215156555176,0.01720000063875584683792396845092298462986946105957,0.015398507145924191646946255218608712311834096908569,-0.0047997412885732301454644321836440212791785597801208,0.039804489339239954026616885585099225863814353942871,-0.028100000000000003447242491461111058015376329421997,0.027495560081619657699647518711572047322988510131836,-0.010299999999276235329581652422348270192742347717285,0.00069999999980508169263732076714745744538959115743637,-0.015200000112167339622049055947172746527940034866333,0.02689984439970587171142568649884196929633617401123,0.025018404822933069941992556550758308731019496917725,0.0068999999999797912222931906001122115412726998329163,0.039900000000000004907185768843191908672451972961426,0.032599999998507822596138794324360787868499755859375,-0.037800000000000000266453525910037569701671600341797,0.033300001261682088404825208272086456418037414550781,-0.014000390659048914110407224598020548000931739807129,0.044800021171697984589954444345494266599416732788086,0.020842049705736928610910752013296587392687797546387,0.0028999999999999998001598555674718227237462997436523,0.04049276714523349779417671356895880308002233505249,0.032100000001873352228898284010938368737697601318359,-0.040000000002006312616043004481980460695922374725342,-0.045400000048666080965098501565080368891358375549316,-0.028202041383291381881903703288116957992315292358398,0.015716591458491625116211665158516552764922380447388,-0.046600000000008731659839611438655992969870567321777,-0.0056000000000000008104628079763642745092511177062988,-0.0070000000005970546695932554825958504807204008102417,-0.03250000000000000111022302462515654042363166809082,0.017500000170721244363569724100671010091900825500488,-0.0047001446725186152991726729055699252057820558547974,-0.03189988445544734985137580451919347979128360748291,-0.0021086046012077095182513097881837893510237336158752,-0.0149000000000000035194069880617462331429123878479,-0.010143873127419340135491054866179183591157197952271,-0.024699999999076339279868719245314423460513353347778,-0.040100000006533166596600636921721161343157291412354,-0.024200000494969141351386809901669039390981197357178,0.0099974446390114161259399239156664407346397638320923,-0.028025721489884154041805075507909350562840700149536,-0.014100000000000003155808947497007466154173016548157,0.002099999999999997701838339025925961323082447052002,-0.038300000000076314665697907457797555252909660339355,-0.03160000000000000308642000845793518237769603729248,0.014199999974874474156782966360879072453826665878296,0.044899913124715716550294786202357499860227108001709,0.039600079845715958903884512665172223933041095733643,0.044197069894683103929988732261335826478898525238037,-0.049000000000000001887379141862766118720173835754395,0.027570392490144632335891117236315039917826652526855,0.034600000041806064365879080924059962853789329528809,0.032999999992569355178329004729675943963229656219482,-0.027200000691144698983237049105810001492500305175781,-0.025700210745049845845189295800992113072425127029419,-0.010099999999813490808575622281750838737934827804565,0.038300000000000000710542735760100185871124267578125,-0.022399999999999999772404279951842909213155508041382,-0.030600000000104047442883725693718588445335626602173,0.016399999999999997912780713704705704003572463989258,0.030300000000000007482903185973555082455277442932129,-0.027900004430607153182997137719212332740426063537598,-0.038399999429267542283561454041773686185479164123535,0.048299874491508958118668459746913868002593517303467,0.019899999999999987143617374840687261894345283508301,0.031799991600235784361405677600487251766026020050049,0.023300000058336170494222017168794991448521614074707,0.045099999999182543986009363834455143660306930541992,0.041599999999999998090416397644730750471353530883789,0.049000000000000001887379141862766118720173835754395,0.0051000000000000003663735981263016583397984504699707,-0.036600000000000000588418203051332966424524784088135,-0.015100000000000002309263891220325604081153869628906,-0.0077000000000000054511950509095186134800314903259277,-0.024900000000000001992850329202155990060418844223022,0.038400000000000003574918139293004060164093971252441,-0.043599999999999999866773237044981215149164199829102,0.0051000000000000003663735981263016583397984504699707,-0.036900000000000002242650509742816211655735969543457,-0.049500000000000002331468351712828734889626502990723,0.041200000000000000510702591327572008594870567321777,0.040700000000000000066613381477509392425417900085449,-0.029700000000000000704991620636974403169006109237671,-0.040700000000000000066613381477509392425417900085449,-0.036600000000000000588418203051332966424524784088135,0.029700000000000004174438572590588591992855072021484,0.0342999999999999971578290569595992565155029296875,-0.01320000000000000339728245535297901369631290435791,-0.0075000000000000066613381477509392425417900085449219,-0.011099999999999998756550212419824674725532531738281,-0.046800000000000001321165399303936283104121685028076,-0.027300000000000001348920974919565196614712476730347,0.010899999999999993027799405354016926139593124389648,-0.035300000000000004984901380566952866502106189727783,0.006100000000000001254552017826426890678703784942627,-0.019300000000000004651834473179405904375016689300537,0.046499999999999999666933092612453037872910499572754,0.014499999999999999000799277837359113618731498718262,0.010899999999999993027799405354016926139593124389648,0.037999999999999992117416525161388562992215156555176,0.013499999999999998112620858137233881279826164245605,-0.034100000000000005306866057708248263224959373474121,-0.013400000000000002187139358511558384634554386138916,-0.016500000000000000777156117237609578296542167663574,0.0080999999999999960920149533194489777088165283203125,0.046799999999999994382271495396707905456423759460449,0.0069999999999999923394611300864198710769414901733398,0.049699999999999994182431350964179728180170059204102,0.03699999999999999122923810546126333065330982208252,0.020099999999999992872368181906495010480284690856934,-0.014700000000000004729550084903166862204670906066895,0.0282000000000000028421709430404007434844970703125,0.010699999999999994237942502195437555201351642608643,0.0055000000000000048849813083506887778639793395996094,-0.02740000000000000074384942649885488208383321762085,-0.040800000000000002930988785010413266718387603759766,-0.014800000000000007593925488436070736497640609741211,-0.043099999999999999422684027194918598979711532592773,-0.0040999999999999994781951784261764260008931159973145,0.027599999999999999533706329657434253022074699401855,-0.0042999999999999982680520815847557969391345977783203,0.034199999999999994293453653426695382222533226013184,-0.014600000000000001865174681370262987911701202392578,-0.0083000000000000018207657603852567262947559356689453,0.048899999999999999023003738329862244427204132080078,-0.023400000000000000660582699651968141552060842514038,0.022300000000000000377475828372553223744034767150879,-0.019500000000000003441691376337985275313258171081543,0.040999999999999994781951784261764260008931159973145,-0.016899999999999998356869923554768320173025131225586,0.0035999999999999990341059685761138098314404487609863,0.039599999999999996314059558244480285793542861938477,0.034199999999999994293453653426695382222533226013184,0.040099999999999996758148768094542901962995529174805,-0.027000000000000003164135620181696140207350254058838,0.027399999999999993804955522591626504436135292053223,-0.028000000000000004052314039881821372546255588531494,-0.034800000000000004540812170716890250332653522491455,-0.037800000000000000266453525910037569701671600341797,-0.041000000000000001720845688168992637656629085540771,0.03519999999999999518163207312682061456143856048584,-0.0025000000000000022204460492503130808472633361816406,0.037099999999999994093613508994167204946279525756836,0.030999999999999999777955395074968691915273666381836,-0.047100000000000002975397705995419528335332870483398,-0.040400000000000005351274978693254524841904640197754,-0.024700000000000003202993426043576619122177362442017,0.023199999999999998401278844539774581789970397949219,0.0015999999999999972577491291758633451536297798156738,0.02109999999999999376054660160662024281919002532959,0.035900000000000001354472090042690979316830635070801,-0.017600000000000004529709940470638684928417205810547,0.0052999999999999991562305012848810292780399322509766,0.0063999999999999890309965167034533806145191192626953,0.023999999999999993560706457174092065542936325073242,0.039300000000000001598721155460225418210029602050781,-0.031900000000000004740652315149418427608907222747803,0.031399999999999997357669201392127433791756629943848,0.0049000000000000015765166949677222874015569686889648,-0.040900000000018837953419392761134076863527297973633,-0.00030035470526118551596109207402207630366319790482521,-0.041599999999999998090416397644730750471353530883789,-0.016199999999999999122923810546126333065330982208252,-0.016199999999999999122923810546126333065330982208252,0.048500000000000001443289932012703502550721168518066,0.041999999999999995670130203961889492347836494445801,-0.0037000000000012214090849838044050557073205709457397,-0.02959999991214717213194873579595878254622220993042,-0.042900004969867337745181856689669075421988964080811,0.0084999999999999936717287596366077195852994918823242,0.014499999826817601758510711817962146596983075141907,0.042200000000000008337774914934925618581473827362061,-0.04410000000000000031086244689504383131861686706543,0.0015000000000000013322676295501878485083580017089844,0.023099999999999995536903441006870707497000694274902,-0.006100000000000001254552017826426890678703784942627,0.046299999999999993938182285546645289286971092224121,-0.016500000000000000777156117237609578296542167663574,0.0022999999999999964916952421845053322613239288330078,0.032999999999999987676524426660762401297688484191895,-0.045500000000000005717648576819556183181703090667725,-0.011900000000000000854871728961370536126196384429932,-0.034600000000000005750955267558310879394412040710449,0.044899999999999995470290059529361315071582794189453,-0.020300000000000005540012892879531136713922023773193,0.039300000000000001598721155460225418210029602050781,-0.030700000000000001593170040337099635507911443710327,-0.0023000000000000034305891460917337099090218544006348,0.020699999999999225963609461587111582048237323760986,0.024099999999994348165444080223096534609794616699219,0.0067005662805847462232256006586794683244079351425171,-0.029700000000000000704991620636974403169006109237671,0.032499999999999987232435216810699785128235816955566,0.040499999999999994337862574411701643839478492736816,0.039199999999999998734345751927321543917059898376465,-0.033899999999999999578115250642440514639019966125488,-0.032400000002058323977927045689284568652510643005371,0.02060000014130477716256528708527184790000319480896,0.021600194665966042373295152856371714733541011810303,-0.025400000000000002436939539052218606229871511459351,-0.021000000067386292296189864714506256859749555587769,-0.0138999999999982921938812552298259106464684009552,-0.033300000000000003208544541166702401824295520782471,0.019999964228999800308628209677408449351787567138672,-0.027300011511741495429106407755170948803424835205078,-0.025098717788683111429293148830765858292579650878906,-0.03610000000014752102872606087657914031296968460083,0.0040999999999999994781951784261764260008931159973145,0.0082999999999849340126534258388346643187105655670166,0.016100000000000003197442310920450836420059204101562,0.022300000000000000377475828372553223744034767150879,0.047899998812407598713924983258038992062211036682129,-0.010700432772244462126254305189831939060240983963013,0.037377311058285359046671203486766899004578590393066,-0.021999999999999998723243521681069978512823581695557,0.018899936498581793031803499616216868162155151367188,-0.037993244295390117548638642119840369559824466705322,0.032399995963470477888801468679957906715571880340576,-0.033400314743982986720460814922262215986847877502441,0.032597214197759509513030451444137725047767162322998,0.00649679911135490287948934806649958773050457239151,-0.041600000008516727079133090683171758428215980529785,-0.012000000000000003719247132494274410419166088104248,0.024099862933321929830965402175024792086333036422729,-0.016000080897854346284603366257215384393930435180664,-0.022900114696903488969992324086888402234762907028198,-0.024700648228136112827257875323994085192680358886719,0.0014964914140470021632761676855238874850329011678696,0.045899312301520875378990638182585826143622398376465,-0.018000803180479047621576071946947195101529359817505,0.025986522999622257978913353326788637787103652954102,0.011854168212413061095356070495654421392828226089478,-0.046800055804911547263635895888000959530472755432129,-0.022200378166496493453907490334131580311805009841919,0.016983276604701003087427579885115846991539001464844,0.011052046506087147281771621010193484835326671600342,0.037800118168766196069530138856862322427332401275635,0.030800094611033373287467540535544685553759336471558,0.00028427543654916477599073343363045296428026631474495,0.031199283333650559835170668065984500572085380554199,0.032036466308219407883584040064306464046239852905273,-0.027510364246411879440845638100654468871653079986572,-0.035080946937173763944262105951565899886190891265869,0.0043152798593534763896273354077948170015588402748108,-0.040008385238910655623545409298458253033459186553955,0.027341193104957351583950142526191484648734331130981,-0.024641405873239236035132648794387932866811752319336,-0.028006190470761412741884655019930505659431219100952,0.0058036224167825230246808843048711423762142658233643,0.02628745769034400089902980823808320565149188041687,-0.012102439297439118032206906150349823292344808578491,-0.0019637662712530361275309331858807126991450786590576,0.032929969937986851291622514281698386184871196746826,0.025122109416482362592715205096283170860260725021362,0.010332943738216858117762164681607828242704272270203,0.0012539959710398725784008533423730114009231328964233,-0.010744681671531423200471877521522401366382837295532,0.036579163909309590774210363406382384710013866424561,-0.048161929649719159574061677631107158958911895751953,0.021068503891835000524368481933379371184855699539185,0.0017419718492655915896560880895549416891299188137054,-0.031356674293523068008937570994021371006965637207031,0.018434547101320145762182178827970346901565790176392,-0.034450132642947342564987422974809305742383003234863,0.022583727072768688265425041095113556366413831710815,-0.031367316652650932551349427512832335196435451507568,-0.03179055567260197917578423698614642489701509475708,-0.0069728171764076429112177990532472904305905103683472,-0.02422362033157126476323739439067139755934476852417,-0.049223490713854373135305309006071183830499649047852,-0.0031829480809931879649321562197883395128883421421051,0.01283456096331695578394160861535056028515100479126,-0.027059769461537978851861652174193295650184154510498,0.036902226077079533506086761462938738986849784851074,-0.040916702557833882492044352829907438717782497406006,0.0085947878397163932073787862009339733049273490905762,0.080833627102657928942264220495417248457670211791992,0.023194416350103230078927296631263743620365858078003,-0.069747720546299185606642367929453030228614807128906,0.011529760939218182402843382305945851840078830718994,-0.015747537875768585075020311592197685968130826950073,-0.022639272527502692783363258399731421377509832382202,-0.057037290627775759366269170413943356834352016448975,0.0027163885162581409733750792412365626660175621509552,0.027599948144115232784301383617275860160589218139648,-0.013077654390348322430148719774933852022513747215271,0.015339608851115585363977800170687260106205940246582,0.0024577342732141319210648067183910825406201183795929,-0.059646107331962128217384133677114732563495635986328,0.0095714931035021048183475400605857430491596460342407,-0.036228885157065342237370231259774300269782543182373,0.10947463185267150564961013969877967610955238342285,-0.034014379612158363030971486296039074659347534179688,0.035454762200833392360443951929482864215970039367676,-0.0055922395175823699092765295404205971863120794296265,-0.054023583859877766233381635174737311899662017822266,-0.02604944023080608961340232099246350117027759552002,-0.022722043992189133732040318136569112539291381835938,-0.043668308260784612084837164047712576575577259063721,0.03532474292601724824569586758116201963275671005249,-0.028554542602528879685630514018157555256038904190063,0.045899977915693848662392895221273647621273994445801,0.0091874750213919442742849241767544299364089965820312,0.008502742701822453216808916920399497030302882194519,0.041847858003181859221086824618396349251270294189453,-0.038233193370732249105614641848660539835691452026367,-0.030956673149638895548019235093306633643805980682373,-0.046683918751512627764999052715211291797459125518799,-0.069714330056672949020857288360275560989975929260254,-0.026815782036457628395575980562171025667339563369751,-0.055772340094798138199205794762747245840728282928467,-0.06243463227406266524699418596355826593935489654541,-0.030608096536153716477057784572934906464070081710815,-0.028402281427675840630442394285637419670820236206055,-0.03361557834529151078672981611816794611513614654541,-0.055261745284665410304913990557906799949705600738525,0.0039591980023523385204264890546710375929251313209534,0.074513622117474864747777019147179089486598968505859,-0.046678294115849158774089744383672950789332389831543,-0.008198305359022628815979238936506590107455849647522,-0.061957950634681790980096138810040429234504699707031,-0.0098500692998197657279657590834176517091691493988037,-0.014803011836485278213126903779084386769682168960571,-0.030065653064557159440672862160681688692420721054077,0.011317612751197195924968141866884252522140741348267,0.23197715842812183240084777935408055782318115234375,0.2926561949071906920671892748941900208592414855957,0.63217159836740477452110553713282570242881774902344,0.077364155005616816462854501423862529918551445007324,0.045720280979033967039271146859391592442989349365234,0.050969462273054599865673708336544223129749298095703,0.024587384619756395831569051324549946002662181854248,0.16188584184594032033821520144556416198611259460449,-0.0094830204751981291011464492157756467349827289581299,-0.014012431046825474592609772628293285379186272621155,-0.056900691152114935000838613632367923855781555175781,0.11558009301040277072569750771435792557895183563232,-0.031473383869376543586771077798402984626591205596924,-0.02645491403365906810107865965164819499477744102478,0.19910046960371488578012133530137361958622932434082,0.61987603982158945292724183673271909356117248535156,0.63616791512636494676513621016056276857852935791016,1.3398761035679327413561168214073404669761657714844,0.11847037552119103753778261989282327704131603240967,0.092973151968733402927824727157712914049625396728516,0.22228788162918949877777663459710311144590377807617,0.1598085051898802955161471572864684276282787322998,0.15805344343011556995648447809799108654260635375977,0.22740816159192736578553706294769654050469398498535,0.061271318130092254639063042986890650354325771331787,0.075294699540519469116439665867801522836089134216309,0.38104469279276470539130627912527415901422500610352,0.02579109628735366810392548586605698801577091217041,0.016600884642248764366811997206241358071565628051758,0.12257125518015407616978507121530128642916679382324,0.15146328599354444421898335804144153371453285217285,0.16427251880220924973308171956887235864996910095215,0.39334684214880188957152995499200187623500823974609,0.056008049439878734854225683648110134527087211608887,0.095253137470546950238414751765958499163389205932617,0.11339109913475342583666360951610840857028961181641,0.10864603716043659542567212383801233954727649688721,0.0036491444924805138336210141858373390277847647666931,0.080394483777500372334579026301071280613541603088379,0.03518309274135015402018566987862868700176477432251,0.36162698562967077187124687043251469731330871582031,0.24845245251996112001435790261893998831510543823242,0.093739196555834902735426794606610201299190521240234,-0.01756675617029043387495867989400721853598952293396,0.061228236545965646075995181263351696543395519256592,0.0044608246273547952354121548523835372179746627807617,0.037269816250200857310481694639747729524970054626465,0.063002243997570109290684570169105427339673042297363,-0.019459823728914305007720031426288187503814697265625,0.021814327652114384736847796375514008104801177978516,0.018930710817236882231862082903717237059026956558228,0.046277040528380927741913808404206065461039543151855,-0.38868089979818681856116313610982615500688552856445,0.11609166608306610568579486653106869198381900787354,0.021611158112606488473916854786693875212222337722778,0.83521182330940246796302517395815812051296234130859,0.041750552180085678810605998023675056174397468566895,0.0063492886501679453303825795273951371200382709503174,0.01951790777754658715026359061539551476016640663147,0.032660133736058589992712342109371093101799488067627,0.05581997267835179382666765945941733662039041519165,-0.0062653112798972867419911025876899657305330038070679,0.021358434735402973686513306006418133620172739028931,0.043827824555592573285700552787602646276354789733887,-0.019997162582532240077126672872509516309946775436401,-0.043811236738440048621434641518135322257876396179199,0.027923687137384262807460189037556119728833436965942,0.034300297472435008205859929830694454722106456756592,0.19048049581968956589506092313968110829591751098633,-0.029362205876969464657388897421697038225829601287842,1.0106554119136386127308924187673255801200866699219,-0.029973739650743444484781718983867904171347618103027,-0.029911445153689451836864776623770012520253658294678,-0.054756611036448639417972827914127265103161334991455,0.033255837341581363786335856502773822285234928131104,-0.035556886245879694430360729029416688717901706695557,0.0042511780566297134933972934334178717108443379402161,0.0051208900127200926780113299230379197979345917701721,-0.051552648368687149782463308156366110779345035552979,0.025222827734929502419003455315760220400989055633545,0.036984034827565306913221832019189605489373207092285,0.043165730071957411628780221235501812770962715148926,0.088284130150948880721983869079849682748317718505859,0.27297257223577214846343963472463656216859817504883,0.035938358104010206806044891436613397672772407531738,0.96908393556747707275889069933327846229076385498047,0.00081276273467961290385835892990940010349731892347336,-0.016032370433764053102576596643302764277905225753784,-0.0056368169157739681646157592354029475245624780654907,0.014207131664301788503967927113080804701894521713257,-0.01305899302296577302318070223918766714632511138916,0.016009041090023001102649047311388130765408277511597,-0.044739851323555880624471825512955547310411930084229,-0.038281027103363764185761652925066300667822360992432,0.015840115932288977018682629704926512204110622406006,-0.014862715993572375716702538284152979031205177307129,0.0050724586441606347303467927645215240772813558578491,0.032507985189639328205135626603805576451122760772705,0.30974115076131492063638006584369577467441558837891,-0.047427164254906832574487651754679973237216472625732,0.98963755340641845759108718993957154452800750732422,0.004748524601166057533541131618903818889521062374115,-0.029949580664777333827153427137091057375073432922363,0.011663421574223242077605888766811403911560773849487,-0.0034387627766718506863719007071722444379702210426331,-0.04458282517723736321224592416001542005687952041626,0.021183990239738218624987453608810028526932001113892,-0.0087278325076172082880310298946824332233518362045288,-0.042774427062894054829556012009561527520418167114258,-0.036252570231474885720235334929384407587349414825439,-0.033591729640268533363389735768578248098492622375488,-0.013982201703571577391937985623826534720137715339661,-0.0056402041504033115573712997559141513193026185035706,0.1630782666254425861129817576511413790285587310791,0.020593384465025399432391850496060214936733245849609,0.69169785481173984287295297690434381365776062011719,0.024873587377709362872257869980785471852868795394897,-0.030322969835992308329508659880957566201686859130859,-0.034410388788863058295852681567339459434151649475098,-0.022535169168583130822058890885273285675793886184692,0.034563305991512360826334315788699313998222351074219,0.033616010237255175563397813220944954082369804382324,-0.021665802857048940127659975019014382269233465194702,-0.025684409432202567197256470876709499862045049667358,-0.017819526029403249395288710843487933743745088577271,-0.021041250835578007016835044851177372038364410400391,0.046586032748902377054189827276786672882735729217529,0.0376818008164033976803430903146363561972975730896,-0.033730153834724559136493127198264119215309619903564,-0.048947283513934118637234149673531646840274333953857,-0.02289927291455723032398417160493409028276801109314,0.024274656656649927499724839208283810876309871673584,-0.0049825177504020934371453677158569917082786560058594,0.0033239500443844596441755889770774956559762358665466,-0.047132662366999554526270088672390556894242763519287,-0.026355656816780995144178234568244079127907752990723,0.040610975175605974751835702818425488658249378204346,-0.042414978816920079207619664884987287223339080810547,0.013406199817861981851696562273446033941581845283508,0.049764759384413659315526956561370752751827239990234,0.005243940524445634375483304978615706204436719417572,-0.031012446144190960323205885629249678459018468856812,-0.014317464483503652278306716993938607629388570785522,-0.0042019738248928210563870599969504837645217776298523,0.03289949654012939983527274989683064632117748260498,-0.0061194372363232441003333406115416437387466430664062,-0.046419891165345568417865962373980437405407428741455,-0.022020011649219895649709499707569193560630083084106,0.044223318076059343895156672488155891187489032745361,-0.0068197452459431116833510344577007344923913478851318,0.038838638200254758936491583654060377739369869232178,-0.034870012933917317321519391271067433990538120269775,-0.023300798447220195941387288485202589072287082672119,-0.03312115562104349375527334586877259425818920135498,-0.0080212912821336062457744375819856941234320402145386,0.0079668879715830316634583851964634959585964679718018,-0.00067259179097788740746971525297226435213815420866013,0.024071739722617155332606841966480715200304985046387,0.031927917345743024590820624553089146502315998077393,0.042534729129391338209309481044329004362225532531738,0.024979193390873892510750664541774312965571880340576,-0.04164815967479544578377925745371612720191478729248,0.017269467552311661834307798812915279995650053024292,0.0052998085080619350070718631684485444566234946250916,0.03909871384106626546195428772989544086158275604248,-0.043397455724404836174823429928437690250575542449951,-0.032500000009043412962927988019146141596138477325439,0.031399999999999997357669201392127433791756629943848,-0.033818494177775826337040143698686733841896057128906,0.035799641570882202723513643149999552406370639801025,-0.033716141914821487479692052602331386879086494445801,-0.040012180424875837259079958130314480513334274291992,-0.0087999772534343503882503512159019010141491889953613,0.037350892280574247983349067681047017686069011688232,-0.0033026977175192604244124972012741636717692017555237,-0.025800435137300178206620770993140467908233404159546,0.014202828621040055126489853876137203769758343696594,0.032999999228432719267090078574256040155887603759766,0.038300000000000000710542735760100185871124267578125,0.010799952399241840791943580768474930664524435997009,-0.023098923596540848340863405496747873257845640182495,0.029499999999999998445687765524780843406915664672852,0.026999999999999996225241716274467762559652328491211,0.040199999999999666555616784080484649166464805603027,-0.015100000000000002309263891220325604081153869628906,0.0041995092103183960866030766112544370116665959358215,0.00029999959480155811682514088722939504805253818631172,0.034999999631554867818294951575808227062225341796875,-0.021703011180743143893057123250400763936340808868408,0.018299999999999996824762149572052294388413429260254,-0.037300039184330315011894896315425285138189792633057,-0.04660000000000000253130849614535691216588020324707,0.026399999999999992916777102891501272097229957580566,0.03089999999999999691357999154206481762230396270752,0.0085999999999999965361041631695115938782691955566406,-0.049399999999999999467092948179924860596656799316406,0.037400000000000002686739719592878827825188636779785,0.025999999999999995337063296574342530220746994018555,0.031899999999999997801758411242190049961209297180176,-0.011300000000000004485301019485632423311471939086914,0.047000000000000000111022302462515654042363166809082,-0.016600000000000003641531520770513452589511871337891,0.033799999999999996713739847109536640346050262451172,0.023300000000000001265654248072678456082940101623535,0.0059000000000000024646951146678475197404623031616211,0.015700000000000005617728504603292094543576240539551,0.047399999999999997690736108779674395918846130371094,-0.030000000000000002359223927328457648400217294692993,-0.0014000000000000054067861299245123518630862236022949,-0.029100000000000004335420911161236290354281663894653,0.030700000000000005062616992290713824331760406494141,-0.039400000000000004463096558993129292502999305725098,-0.049700000000000001121325254871408105827867984771729,0.042900000000000007571721027943567605689167976379395,-0.049300000000000003541611448554249363951385021209717,0.020299999999999998601118988972302759066224098205566,-0.0030000000000000026645352591003756970167160034179688,0.036199999999999996069810492826945846900343894958496,0.040400000000000005351274978693254524841904640197754,0.025200000000000000177635683940025046467781066894531,0.0044000000000000011324274851176596712321043014526367,-0.047000000000000000111022302462515654042363166809082,0.028499999999999997557509345824655611068010330200195,-0.019200000000000001787459069646502030082046985626221,0.033799999999999996713739847109536640346050262451172,0.022199999999999997513100424839649349451065063476562,-0.018700000000000001343369859796439413912594318389893,-0.043700000000000002731148640577885089442133903503418,0.03339999999999999913402604079237789846956729888916,-0.0016000000000000041966430330830917228013277053833008,-0.0050000000000000044408920985006261616945266723632812,-0.034500000000000002886579864025407005101442337036133,-0.033100000000000004418687638008123030886054039001465,0.013899999999999995692334664454392623156309127807617,-0.026100000000000005140332604014474782161414623260498,0.022699999999999997957189634689711965620517730712891,-0.020500000000000004329869796038110507652163505554199,-0.028700000000000003286260152890463359653949737548828,0.042599999999999998978594817344855982810258865356445,0.027999999999999997113420135974592994898557662963867,0.02730000000000000481836792687317938543856143951416,-0.0415000000000000021649348980190552538260817527771,-0.026200000000000004535261055593764467630535364151001,-0.037299999999999999822364316059974953532218933105469,-0.048700000000000000233146835171282873488962650299072,-0.02560000000000000469624339416441216599196195602417,0.032999999999999987676524426660762401297688484191895,-0.0018000000000000029864999362416710937395691871643066,-0.039500000000000007327471962526033166795969009399414,0.023300000000000001265654248072678456082940101623535,0.0084999999999999936717287596366077195852994918823242,0.014899999999999996580513084154517855495214462280273,0.026300000000000003930189507173054153099656105041504,0.022100000000000865479909961663906869944185018539429,-0.019200000000047609538533777140401070937514305114746,0.04519905459758540022807693503636983223259449005127,-0.0057999999999999996003197111349436454474925994873047,0.047199999999999991961985301713866647332906723022461,-0.048500000000000001443289932012703502550721168518066,0.012700000000000002953193245502916397526860237121582,-0.004500059152663293295104640634463066817261278629303,0.031594070165472075417678610165239661000669002532959,-0.036699999806287686432426653482252731919288635253906,0.047513923355090872946426827638788381591439247131348,-0.0045999999999999999222843882762390421703457832336426,-0.012807833657534354460105774364819808397442102432251,0.020099999999999895727853527205297723412513732910156,-0.039900000000000004907185768843191908672451972961426,0.043600000000000319055892816777486586943268775939941,0.047899999999995085397941352312045637518167495727539,-0.026800066696506235491836989126568369101732969284058,0.020799999999999888022905736306711332872509956359863,-0.043700000000000002731148640577885089442133903503418,-0.0031000000000000055289106626332795713096857070922852,0.03339999999999999913402604079237789846956729888916,-0.0073000140839088361113806691093941481085494160652161,-0.043501411840889521454034394309928757138550281524658,0.016300000009631616937344489315364626236259937286377,-0.023997412695896620793423181794423726387321949005127,-0.033100000000000004418687638008123030886054039001465,0.024798116841819550087988588416010315995663404464722,0.034400000000000589828186292606915230862796306610107,-0.033100000000000004418687638008123030886054039001465,0.00099999999431524613791033573306776816025376319885254,0.006400000001289082862676593776996014639735221862793,0.032798566870324216693255436894105514511466026306152,-0.0039000000000108813076604707958949802559800446033478,-0.014300000000000302052827194643214170355349779129028,0.029999999999933201627611012440866034012287855148315,0.032699999999999992961186023876507533714175224304199,-0.016399962280722941987409768671568599529564380645752,0.010599968769527614784187186103281419491395354270935,0.049400050083139260270748138736962573602795600891113,-0.0032022703568254950491633881171082975924946367740631,0.0080999999999999960920149533194489777088165283203125,0.030006657163283184663882252607436385005712509155273,-0.030899999997303511517499075011983222793787717819214,-0.021900000000015476531167735174676636233925819396973,0.039999841184237591718009241503750672563910484313965,-0.037606617837820696670370068659394746646285057067871,0.011029128583069132060745509704702271847054362297058,-0.03690000256844008785783728399110259488224983215332,-0.031500003138501077304400865841671475209295749664307,0.017299996783997118737774556507247325498610734939575,0.0099999993345664742183664941421739058569073677062988,-0.04810603123872844721908847986924229189753532409668,-0.004902010667269115877509033651904246653430163860321,0.016397093164079421662160385153583774808794260025024,-0.047884919935513234334756305088376393541693687438965,0.020999993679511070460153021599580824840813875198364,-0.031466160954297911489518924099684227257966995239258,0.028029792495550286124395000797449029050767421722412,0.0052628273209884574718175898055960715282708406448364,-0.014711962585837254011145169840801827376708388328552,0.013789095370434923532032556181547988671809434890747,-0.039546356475969650368096353076907689683139324188232,-0.03199540144291154047939684801349358167499303817749,-0.039796033929463979494922654112087911926209926605225,0.032503125539535930588197487622892367653548717498779,-0.016900609283466351551172834888348006643354892730713,-0.022020149917003132428172662571341788861900568008423,-0.034010553531716183894850757951644482091069221496582,0.065609923284429952361485050005285302177071571350098,-0.03183873048220021984011651738910586573183536529541,0.047893971292207106194016574818306253291666507720947,0.0017184719434517011556889931611635802255477756261826,-0.042652733999879108295338880907365819439291954040527,-0.03308970195198128461111508613612386398017406463623,-0.035114923868409808616064538000500760972499847412109,0.047071140216583318149901060678530484437942504882812,-0.022753797685561422819988663945878215599805116653442,0.02601068768789384713646661850816599326208233833313,-0.0045909434990113661897992436422555329045280814170837,-0.002017307388897705573010954438473163463640958070755,0.028398807554032238359420503570618166122585535049438,-0.044762835394726363524853240960510447621345520019531,0.034925381294810098342651372149703092873096466064453,-0.0092830783647080781367799673375884594861418008804321,0.0040373702342107837745532883388932532398030161857605,0.038185947508733900090938107041438343003392219543457,0.044284266811045656930811986740081920288503170013428,-0.024751780270068537981309475526359165087342262268066,-0.048655220800740028863629049737937748432159423828125,0.024825359258943795193186332426193985156714916229248,0.0083814511237721572856074203627940732985734939575195,0.007736663042713279488105104775286235962994396686554,-0.026744147996446660658920180253517173696309328079224,-0.042550086910662081318701410737048718146979808807373,-0.045881368154514538815202939758819411508738994598389,-0.036427779812275226656304027983424020931124687194824,-0.012338275406803152905998999244729930069297552108765,0.021996806230445756918934208101745753083378076553345,0.014422557725417669421963395848251821007579565048218,-0.060407388652938029394157126716891070827841758728027,-0.052978236244534633592184746930797700770199298858643,0.0099852774381883682708327398813707986846566200256348,-0.0055778048881228534799925355969207885209470987319946,-0.0096783991608974558051858849694326636381447315216064,-0.018062093968990416970044066147238481789827346801758,0.017953672441005746190922920391130901407450437545776,-0.0027144146040682993505088749230935718514956533908844,-0.079997132395920558800561650514282518997788429260254,-0.025717282502937487825844797839636157732456922531128,-0.05971698707214560808420600324097904376685619354248,0.040397644315262735970062379919909290038049221038818,-0.027171613741801502878159269016578036826103925704956,0.0034312038031556204263627929407221017754636704921722,0.021578922340844741700749409574200399219989776611328,-0.28869286035376229282434223932796157896518707275391,-0.0011369862081211379312151166232069954276084899902344,-0.063670230512679185097546508131927112117409706115723,0.12171474112103883302715701120177982375025749206543,0.028163611403572919728022228014197025913745164871216,-0.055308196520613403524002649191970704123377799987793,-0.023693791006659692399693994957488030195236206054688,-0.098775229941225131669035874892870197072625160217285,-0.081056133921990486390640739955415483564138412475586,-0.068272426858693072149186775732232490554451942443848,-0.073895784544489737100114723489241441711783409118652,-0.065091727879941621570658583095791982486844062805176,-0.034327813435798534835718953672767383977770805358887,0.02777644633499677315202625038637052057310938835144,-0.034312059810185376040880811387978610582649707794189,-0.40100954416758000098397474175726529210805892944336,-0.068467931488759431468693605893349740654230117797852,-0.013658065722666276262109441574921220308169722557068,0.18137371208016711543464793976454529911279678344727,-0.041537088777931295557888091707354760728776454925537,-0.027633777175012592952629830733712879009544849395752,0.033389721931573829172279488375352229923009872436523,-0.25375182355596398453556616914283949881792068481445,-0.0097336340012916678504639733660042111296206712722778,-0.014003955294856625449217979451077553676441311836243,0.02812391088304170075340415735354326898232102394104,-0.020481816841319524374886995587985438760370016098022,-0.030264557347640559659129877445593592710793018341064,0.037417684927089758795126783752493793144822120666504,-0.0035638410461679300399173708768785218126140534877777,-0.3350244817610938952157084713689982891082763671875,-0.08062498348029599470887518464223830960690975189209,-0.040454816824299570654499547117666224949061870574951,0.1763056551641806468655460093941655941307544708252,0.011502668062454519601334190781471988884732127189636,-0.074470352708142451003681117072119377553462982177734,-0.033983378962390814459482157872116658836603164672852,-0.10709930941140576032832854025400592945516109466553,0.026767041305982328114332347013260005041956901550293,0.17169115894385467147031931745004840195178985595703,-0.014450817813403212322431734548899839865043759346008,0.00038939240533330100966363795933489200251642614603043,-0.038730137897161377724675190847847261466085910797119,0.0080174975024283265390145913897868013009428977966309,0.10296709554106667217077131226687924936413764953613,-0.18445641851151620138615783162094885483384132385254,-0.020467028960908396212348137055414554197341203689575,-0.02331643195168380672255281638172164093703031539917,0.071815172214024794450359934216976398602128028869629,-0.010788910019234043691227498129592277109622955322266,-0.08025370892928318511394536471925675868988037109375,0.19569481979089278778083382803743006661534309387207,0.67876324438991708642987532584811560809612274169922,0.58166896636670173403871331174741499125957489013672,1.23167721507582683670989354141056537628173828125,0.085633106474603204461004679615143686532974243164062,0.092902974817528960471690879785455763339996337890625,0.23540307812323021940947853636316722258925437927246,0.1588257235651610865811989015128347091376781463623,0.2254545156439504982603949656549957580864429473877,0.37035104679639285762959843850694596767425537109375,-0.0032022764649846289196355453299247528775595128536224,-0.030447776896639858895676766792348644230514764785767,0.31871493249058047148025707429042086005210876464844,0.02177434320361185463021946873141132527962327003479,-0.052571508356473610479309144238868611864745616912842,0.22866236341019918754113859904464334249496459960938,0.76919579410122251861281483797938562929630279541016,0.63345167344673702913837587402667850255966186523438,1.2860236662606472357595066569047048687934875488281,0.12784897090073576997326654236530885100364685058594,0.097146602331494510962350830141076585277915000915527,0.30126114308238310934839887522684875875711441040039,0.19720410214612185684224243686912814155220985412598,0.26459424418685772995019078734912909567356109619141,0.54751668710837564368887342425296083092689514160156,0.078131367327088030449999678239692002534866333007812,0.31039120497920119623458390378800686448812484741211,0.39140096212172542644580630621931049972772598266602,0.061394655096868540333776564921208773739635944366455,-0.0048084071163122295983205489733336435165256261825562,0.15285359247756410971952334421075647696852684020996,0.33550597173116059046549253253033384680747985839844,0.24550119224156086161769962927792221307754516601562,0.53878317420136401239005863317288458347320556640625,0.091260490897363849560619541989581193774938583374023,0.10688479912727068266153906961335451342165470123291,0.22668010701276539164972234630113234743475914001465,0.18883176779895280428256398863595677539706230163574,0.17968573590239575454852172242681263014674186706543,0.26959457688596105695566507165494840592145919799805,0.051295096052381083939764039314468391239643096923828,0.59651594106943983675250819942448288202285766601562,0.3186716349135451653573625208082376047968864440918,0.045353250788260968118237315138685517013072967529297,0.036218410729607616871383868328848620876669883728027,-0.032273222038350014850838221036610775627195835113525,0.04232664855488607602573836174997268244624137878418,-0.0091132076626641786432081460134213557466864585876465,0.038662968167123737406321026810473995283246040344238,0.075145909956143217001134360089054098352789878845215,0.10637039649943198782455766604471136815845966339111,0.19155208409082499776410202230181312188506126403809,0.37008801160633486571072126025683246552944183349609,-0.34732084742249164088789825655112508684396743774414,0.34102927565966850709244795325503218919038772583008,0.097600502730700436360145033631852129474282264709473,1.5927299581072378309443138277856633067131042480469,0.16625524809294445205409829213749617338180541992188,0.08361550606327668166972699737016228027641773223877,0.022426268792383671768497777065931586548686027526855,-0.086707168378244048323466586225549690425395965576172,0.012431144342396886759427587776372092776000499725342,-0.036553281831802307555445707976105040870606899261475,0.0080565646728958818095778227075243194121867418289185,-0.0057794982382077583066282144841352419462054967880249,-0.033716715529552888919173625481562339700758457183838,0.11751915820778893739806392204627627506852149963379,0.21229123357619511525129496476438362151384353637695,-0.11781894059573053135103748445544624701142311096191,0.32754479030447714027474148679175414144992828369141,-0.021524279382675256394596985387579479720443487167358,1.0354626968228184402676106401486322283744812011719,0.11096053447136131064887365482718450948596000671387,-0.057341454542256038717784605296401423402130603790283,0.016294326192985559426107400327055074740201234817505,-0.049706218798522938673301041490049101412296295166016,-0.047957758497813356146632912668792414478957653045654,-0.022295378369431555903856789768724411260336637496948,0.026964917963477344486911135845730314031243324279785,0.014447349439242092306034948023807373829185962677002,-0.042100302055626377673025473313828115351498126983643,0.051736415559661477758801595427939901128411293029785,0.16342908883267426300989200171898119151592254638672,0.056447515002881726298156195298361126333475112915039,0.34629557536567678877048592767096124589443206787109,0.049241301394148041803422444218085729517042636871338,1.031357192300813352403565659187734127044677734375,0.27547729124172209980159209408157039433717727661133,-0.022669474539626161685434979631281748879700899124146,-0.02356972972146856304398454540205420926213264465332,0.031225545731253235431923442888546560425311326980591,0.01989412020626289689939625304759829305112361907959,-0.021261928245273488402578010436627664603292942047119,-0.00048109137271621407174956863705972409661626443266869,-0.018509766706434123417768233821334433741867542266846,0.010290978676718191137107183408261334989219903945923,0.05295969486391971514649412711150944232940673828125,-0.047525181030465053766409511126767029054462909698486,0.062759013823145193278207898401888087391853332519531,0.32628839444546620107701073720818385481834411621094,0.045174564650599012549658795023788115940988063812256,0.97953471510948986189504239519010297954082489013672,0.15988853496193108916223479809559648856520652770996,-0.022044668974786834486634390373183123301714658737183,0.045960861572014267972807743944940739311277866363525,-0.03220437528487998801729474962485255673527717590332,0.05304078422023254107964262971108837518841028213501,0.035321793811061395762518344554337090812623500823975,0.010197074917337199673195158311500563286244869232178,0.024592795526925354671066159539805084932595491409302,-0.011034643163316733630030519464071403490379452705383,0.054821203096119340558711741095976321958005428314209,-0.028225436594207068546902306138690619263797998428345,0.026515097115602646871135306128053343854844570159912,0.10458679801742400139463740060818963684141635894775,-0.049100409704226397056281427921931026503443717956543,0.47259360551018303464587688722531311213970184326172,0.030338959047289650039491704092142754234373569488525,-0.015582364949026069125825877392799156950786709785461,0.027680355142295498538373976771254092454910278320312,-0.0077609381879346281407627827775286277756094932556152,0.011636496179431207384502577895091235404834151268005,0.011054233935693758700269384576131415087729692459106,0.019119500925797564688801699617215490434318780899048,0.046517203523861183622756243494222871959209442138672,-0.034941739320017747849611566834937548264861106872559,0.015471835760412524368723197198960406240075826644897,0.032259835368781304698604373015768942423164844512939,0.002282640436306924893589131997373442573007196187973,0.016617383371116432183578481840413587633520364761353,0.026519721501767432730867213308556529227644205093384,0.0039475959319718589846104350726818665862083435058594,0.0013670744910761558916362234938901565328706055879593,-0.022725267570550402446150073387798329349607229232788,0.046441481306177555266057055405326536856591701507568,0.038088746837231117481348263709151069633662700653076,0.036588717139324863913962815331615274772047996520996,0.03248610293803908671828040155560302082449197769165,0.049694161101011061210108721297729061916470527648926,0.024762278563430002720213707334551145322620868682861,0.036989022265301089997802108655378106050193309783936,0.027348250709061650703946000362520862836390733718872,0.017835569207360402188555781322065740823745727539062,-0.040771106845407960317384521431449684314429759979248,0.043750262672500823957211224524144199676811695098877,-0.042527387396758632720494830437019118107855319976807,0.0049599770454695681770607151861440797802060842514038,-0.058242350218575447695634750289173098281025886535645,0.022652759837019156852200296725641237571835517883301,0.045550499776879367630488815166245331056416034698486,0.039142533811977756053046562101371819153428077697754,-0.031202361364818836236834087571878626476973295211792,0.00020148396541875334482714354766841324817505665123463,-0.0044814126946661637235225228437229816336184740066528,-0.028660049858360271690660425747410045005381107330322,0.02605889422449654199698265699680632678791880607605,0.016100863735370413848402293410799757111817598342896,-0.040302461098381682502722611616263748146593570709229,0.044202660236967637741312131538506946526467800140381,-0.03388742182782026463039315444802923593670129776001,0.019353471054287994801423877788693062029778957366943,-0.035424977789262249161517104312224546447396278381348,0.0061707579337482651449242609942302806302905082702637,-0.027953612381900139194357279848190955817699432373047,0.03291097611684083712457749015811714343726634979248,0.034753826547356918286180160748699563555419445037842,-0.040359589341988980071285197936958866193890571594238,0.015884733070008080768609204369568033143877983093262,0.05006273714291374632434639124767272733151912689209,-0.0029408449458557138142533737834583007497712969779968,0.018002925436349959120718722260789945721626281738281,0.04148351342243326855818708054357557557523250579834,-0.038322879359971140367235875601181760430335998535156,0.017349125459917770497586531064371229149401187896729,-0.017937848472861978033066066018363926559686660766602,0.049576041071796729531317993178163305856287479400635,0.027290602512940818902276163271380937658250331878662,0.019868507558953044100924500980909215286374092102051,0.050776776748434150621225313670947798527777194976807,-0.0065868055234136781150855455280179739929735660552979,0.046645062760783347066695370131128584034740924835205,0.033334015098894886897085143573349341750144958496094,0.04320282211369876751438923179193807300180196762085,0.02499512606061744107721622754070267546921968460083,-0.024798774023852714065707658619430731050670146942139,-0.0098856553675574689726834876069005986209958791732788,0.00082731216995199580513387083158249879488721489906311,-0.035281312865437869374929391597106587141752243041992,-0.0040309140367941198590528983913827687501907348632812,0.030790186276985525432037249515815346967428922653198,-0.022200004848494055142982261941142496652901172637939,-0.039595550144373610479409109075277228839695453643799,-0.028732805630956887582572178985174105037003755569458,-0.021626562088793228194605333669642277527600526809692,-0.024500000000000000943689570931383059360086917877197,0.043999999992491774236658130803334643132984638214111,-0.0059999999325519148135610336680656473618000745773315,0.014899999999999996580513084154517855495214462280273,0.037900000000000003130828929442941443994641304016113,-0.011100000000000574684744236719780019484460353851318,-0.048400000000000005517808432387028005905449390411377,0.0048999999999993293711697539549732027808204293251038,-0.030200081856713197059338682493034866638481616973877,-0.040199999997750687774633604476548498496413230895996,-0.026300330735466174308934128589498868677765130996704,0.03339999999999999913402604079237789846956729888916,-0.01070114620734360227904957696409837808459997177124,-0.019700000000000002231548279496564646251499652862549,0.010299999999995163718624624493713781703263521194458,-0.016000000000000000333066907387546962127089500427246,0.02109999999999999376054660160662024281919002532959,0.04140000000000000623945339839337975718080997467041,0.0012999999999999956035168224843800999224185943603516,0.047899999999999998134825318629737012088298797607422,0.015200000000000005173639294753229478374123573303223,0.024300000000000002153832667772803688421845436096191,-0.012200000000000002509104035652853781357407569885254,-0.0010000000000000008881784197001252323389053344726562,-0.026600000000000002114974861910923209507018327713013,0.033999999999999988564702846360887633636593818664551,0.01410000000000000142108547152020037174224853515625,0.035299999999999998046007476659724488854408264160156,-0.021800000000000006872280522429718985222280025482178,0.036799999999999999378275106209912337362766265869141,-0.037700000000000004340972026284362073056399822235107,0.03890000000000000401900734914306667633354663848877,0.030700000000000005062616992290713824331760406494141,0.04140000000000000623945339839337975718080997467041,0.03890000000000000401900734914306667633354663848877,-0.046200000000000004951594689828198170289397239685059,-0.019800000000000005095923683029468520544469356536865,-0.024400000000000001548761119352093373890966176986694,0.0085999999999999965361041631695115938782691955566406,0.035099999999999992317256669593916740268468856811523,0.020499999999999990452081988223653752356767654418945,-0.032600000000000003974598428158060414716601371765137,-0.046400000000000003741451592986777541227638721466064,-0.040300000000000002486899575160350650548934936523438,-0.0024000000000000062949645496246375842019915580749512,0.013899999999999995692334664454392623156309127807617,-0.0064000000000000029087843245179101359099149703979492,0.0039000000000000006883382752675970550626516342163086,0.040400000000000005351274978693254524841904640197754,0.044899999999999995470290059529361315071582794189453,0.0017000000000000001221245327087672194465994834899902,0.0056000000000000008104628079763642745092511177062988,-0.04570000000000000450750547997813555411994457244873,0.039400000000000004463096558993129292502999305725098,-0.010300000000000003597122599785507190972566604614258,-0.022399999999999999772404279951842909213155508041382,-0.04140000000000000623945339839337975718080997467041,-0.046300000000000000877076189453873666934669017791748,-0.037200000000000003896882816434299456886947154998779,-0.013300000000000006261657858885882887989282608032227,0.040500000000002707445379002137997304089367389678955,0.010199999999976779724297770712837518658488988876343,0.010689790725734926377099576200180308660492300987244,-0.043700000000000002731148640577885089442133903503418,0.036799999999999999378275106209912337362766265869141,-0.00040000000000000457281781884866234122455352917313576,-0.040000000000000000832667268468867405317723751068115,0.0020997961343384562854508246232398960273712873458862,0.025079652627032891776259759808453964069485664367676,-0.046300000000117684517686456047158571891486644744873,-0.012752260227061211483867708693651366047561168670654,-0.0044000000000000011324274851176596712321043014526367,-0.028927034859805373506747017131601751316338777542114,-0.0093000000000021468271604874189506517723202705383301,0.0052000000000000032307490016592055326327681541442871,0.01859999999465850734070571093070611823350191116333,-0.010300000000287386561770297532802942441776394844055,-0.016008671107878052336515040110498375725001096725464,-0.027600000000000807914846134849540248978883028030396,0.015299999999998996694228203807597310515120625495911,0.013999999999999804267680758584901923313736915588379,0.024099999999999996425081860706995939835906028747559,0.0059998768627719765988981492910170345567166805267334,0.018195044107992153908925914151950564701110124588013,0.048599266512958670671817884567644796334207057952881,0.04560707151364001149529414647076919209212064743042,-0.019100000000000002392530618067212344612926244735718,-0.0077067438025857403285923119540257175685837864875793,0.049199999989654526200144601943975430913269519805908,0.028899999999999974320541440420129220001399517059326,-0.035798106981657480674119398145194281823933124542236,-0.025200986641861572445932893060671631246805191040039,0.0085151042501795427830391105317175970412790775299072,0.024391416698802154128244978892325889319181442260742,-0.018899492513939457338789651430488447658717632293701,0.010900222959879992540299653569491056259721517562866,-0.025634386987214027864290244451694888994097709655762,0.02622453704871452809244125603527209023013710975647,-0.037390450044326804801553265633629052899777889251709,-0.015425815128810849846674457808148872572928667068481,0.023082305846652356740023037673381622880697250366211,0.035490047804940728914946390659679309464991092681885,0.030106124877431229835966774999178596772253513336182,-0.056165968252930291437774457108389469794929027557373,0.011099352687552332605291915967882232507690787315369,0.020363643741422847444066945854501682333648204803467,0.019224078806341336062013525065594876650720834732056,-0.03826961922392570214501716918675811029970645904541,-0.011107777503378567229841422658864757977426052093506,-0.022995973775443975806176410969783319160342216491699,-0.04879734919335966536468873755438835360109806060791,-0.046502913965498500481476895629384671337902545928955,-0.013752650648776168149090004533263709163293242454529,0.0065151109708289486541210600023532606428489089012146,0.021443708874572076777953455462011334020644426345825,0.0041078957424370383597067579728445707587525248527527,0.0028811766208270053052364900736392883118242025375366,-0.012071897329050170627473548279340320732444524765015,-0.04832337713721258920518408785937936045229434967041,0.036888114043572547973148800792841939255595207214355,-0.033592000723849907428686378807469736784696578979492,-0.093419119413678891605812282250553835183382034301758,-0.041363991535426039569678380303230369463562965393066,0.040541556747370491309290230219630757346749305725098,-0.048935311809329189169925911073733004741370677947998,-0.015030831531236545778318358657088538166135549545288,0.32432927430575581029259524257213342934846878051758,0.010524940362248118644328265247622766764834523200989,0.0023109683539049141048904445483458403032273054122925,0.009892784357535308603637247415463207289576530456543,0.029151234419309411671772380714173777960240840911865,0.22384708383044857327170973348984261974692344665527,0.051465277640496007172110637384321307763457298278809,-0.039875936361980821032169330919714411720633506774902,0.0195640926208464176194734562841404112987220287323,0.032000632275582835406524395693850237876176834106445,-0.10316426504137493624924104551610071212053298950195,0.020237651029203090197183811937975406181067228317261,0.00076135959624975169286742460172945357044227421283722,0.0043121081380500256644006107364930358016863465309143,-0.091728077286873904716557603933324571698904037475586,0.28857042205261557166195984791556838899850845336914,0.035948300620451366371721491077551036141812801361084,0.02050567352136399915107922709012200357392430305481,0.013521425106385038042433599514424713561311364173889,-0.14144897955931026722886656443733954802155494689941,0.2305499941678824937785208248897106386721134185791,0.12859501255337690839297692946274764835834503173828,-0.047307692599755694906615843819963629357516765594482,0.0038289645960840747000719641590649189311079680919647,-0.048530450901519597839417485829471843317151069641113,-0.083364208086782826123695144815428648144006729125977,0.0042450195499914942370844883612335252109915018081665,-0.039004413000960129476180071605995181016623973846436,-0.0078376933814117647619790218982416263315826654434204,-0.09378362137708361190302497334414510987699031829834,0.22835627762106189275748135969479335471987724304199,0.084625523760268259176875460525479866191744804382324,-0.05754263259227158922026745813127490691840648651123,-0.039723547902992664693222479854739503934979438781738,-0.38399820679943424961422238084196578711271286010742,0.1699643984578791955364351906609954312443733215332,0.024133005317265514982905116880829154979437589645386,0.017840380243424453637901549996058747638016939163208,0.013397358728355557994094127138851035851985216140747,0.044050007516131417517613044765312224626541137695312,-0.019009250722875223327257288019609404727816581726074,-0.05915483779525779195473944582772674039006233215332,-0.049981683067710308554509879286342766135931015014648,-0.034788851281954184802014395927471923641860485076904,0.024771068563678243223957764485021471045911312103271,-0.21710201625121183788280632143141701817512512207031,0.16192235510646865725981058403704082593321800231934,-0.04446662340681987318768975114835484419018030166626,-0.084340665196086239685513419317430816590785980224609,-0.3875549511006841640892162104137241840362548828125,-0.30615528100630595709219505806686356663703918457031,0.05090471145253742252245743316052539739757776260376,0.094312208159837193632846208402042975649237632751465,-0.031613511456535348109753158496459946036338806152344,0.091624482614117000456310790923453168943524360656738,-0.03213498647111112660468279500491917133331298828125,-0.17805286630900390987264358955144416540861129760742,-0.01490713099250912804238922149124846328049898147583,0.017205616256936707986202605979997315444052219390869,0.10373103465221995833633883421498467214405536651611,