0.024021935462951657380692438437108648940920829772949,0.017478996515274042300447376874217297881841659545898,-0.019567450881004335577761921172168513294309377670288,0.039551013708114618472322376874217297881841659545898,-0.031213352084159852461997530781445675529539585113525,-0.017662951350212098555747530781445675529539585113525,0.027778875827789303865067438437108648940920829772949,-0.019870579242706302297571951953614188823848962783813,-0.042549767345190052381109779844337026588618755340576,-0.049661517748609190769926158282032702118158340454102,0.04348862171173095703125,-0.0010589689016342190841513115628913510590791702270508,-0.016301801800727849789396373125782702118158340454102,0.0061970591545104924957598768742172978818416595458984,0.021570837497711173313952315311325946822762489318848,-0.049027159623801712384771889219337026588618755340576,0.0047372341156005845497212192185543244704604148864746,-0.029081413149833680586997530781445675529539585113525,-0.025720389187335969405356905781445675529539585113525,-0.035452048480510714445479436562891351059079170227051,-0.0065304070711135892013388115628913510590791702270508,0.025931018590927126798995061562891351059079170227051,-0.0082482457160949762542401231257827021181583404541016,0.011843454837799069490067438437108648940920829772949,-0.024953240156173707442466280781445675529539585113525,0.032780343294143671206697376874217297881841659545898,-0.027103987336158756604742592344337026588618755340576,-0.015229585766792300138838811562891351059079170227051,0.049423331022262567691072376874217297881841659545898,-0.01520355045795440673828125,0.0219317376613616943359375,0.041379624605178827456697376874217297881841659545898,0.026413810253143307771317438437108648940920829772949,-0.017734882235527042737555092344337026588618755340576,-0.028405795991420748625166936562891351059079170227051,-0.00056145787239075123364884234433702658861875534057617,-0.0085746526718139676193075615628913510590791702270508,-0.040422595292329790983565374062891351059079170227051,0.00039749741554259698794737687421729788184165954589844,-0.040664480626583100753013155781445675529539585113525,0.03288364410400390625,-0.012313830852508547697432561562891351059079170227051,-0.042997905611991883711997530781445675529539585113525,0.04996526241302490234375,-3.0627846717840023771373125782702118158340454101562e-05,-0.0084162563085556085784588731257827021181583404541016,0.042610985040664670076004938437108648940920829772949,0.049118149280548098478682561562891351059079170227051,-0.044763405621051792493414467344337026588618755340576,-0.030253246426582339895228201953614188823848962783813,0.013020479679107660464509876874217297881841659545898,0.023189449310302728823884876874217297881841659545898,-0.0071780502796173137336488423443370265886187553405762,-0.0062886267900466932823100307814456755295395851135254,-0.0085500448942184489875550923443370265886187553405762,-0.024826210737228397718023842344337026588618755340576,0.043344920873641959446764815311325946822762489318848,-0.0083951890468597425987162807814456755295395851135254,-0.040132015198469164762862249062891351059079170227051,0.026573073863983151521317438437108648940920829772949,0.0359112918376922607421875,0.030700463056564333830245061562891351059079170227051,-0.024833542108535770764898842344337026588618755340576,-0.0092219203710556044151225307814456755295395851135254,-0.00494594871997833251953125,-0.00528739392757415771484375,-0.028681538999080661428431326953614188823848962783813,0.00047274827957152765200987687421729788184165954589844,0.015503799915313712376452315311325946822762489318848,0.032506936788558954409822376874217297881841659545898,-0.011472576856613160567466280781445675529539585113525,-0.032371197640895847669195717344337026588618755340576,0.0067565619945526081413511576556629734113812446594238,0.0030936241149902288238848768742172978818416595458984,0.030297839641571039370759876874217297881841659545898,-0.04382995329797267913818359375,0.037148427963256833161942438437108648940920829772949,-0.032303664088249209318526311562891351059079170227051,-0.022065192461013797414759451953614188823848962783813,0.036262989044189453125,-0.0032117307186126722862162807814456755295395851135254,-0.018168640136718754163336342344337026588618755340576,-0.019635960459709170949915701953614188823848962783813,-0.021802699565887453253543171172168513294309377670288,0.0242021381855010986328125,0.038762462139129635896317438437108648940920829772949,0.020248854160308832339509876874217297881841659545898,0.02472436428070068359375,-0.04717020690441131591796875,0.0192404687404632568359375,0.0279745757579803466796875,-0.027198366820812228811243826953614188823848962783813,-0.0427029766142368316650390625,-0.0021323829889297526984925923443370265886187553405762,0.0043905317783355657379473768742172978818416595458984,-0.044845913350582126966070717344337026588618755340576,-0.015136831998825074629966280781445675529539585113525,-0.048457803856581452284224553750391351059079170227051,0.011488342285156244448884876874217297881841659545898,-0.043827129900455480404630748125782702118158340454102,-0.037226821482181551847823186562891351059079170227051,0.0028619289398193331619424384371086489409208297729492,-0.0418018884956836700439453125,0.0198817551136016845703125,-0.0093643158674240126182475307814456755295395851135254,0.0004087984561920166015625,0.0098472535610198974609375,-0.039284773170948028564453125,0.024909043312072748355134876874217297881841659545898,0.033499705791473391447432561562891351059079170227051,-0.019059094786643984709151311562891351059079170227051,-0.021396741271018985403040701953614188823848962783813,0.047869670391082766447432561562891351059079170227051,0.0081058442592620849609375,0.0155933201313018798828125,0.007201015949249267578125,-0.024083572626113894377120061562891351059079170227051,0.048674559593200675267077315311325946822762489318848,0.004520595073699951171875,0.0278573930263519287109375,0.015085643529891959446764815311325946822762489318848,0.032254540920257562808259876874217297881841659545898,0.0021869719028472858757261576556629734113812446594238,-0.00156821310520172119140625,-0.018447893857955935392745061562891351059079170227051,-0.0028591573238372844367738423443370265886187553405762,0.043317961692810061369307561562891351059079170227051,0.041492766141891471165514815311325946822762489318848,-0.04934323229826986789703369140625,0.014048236608505251798995061562891351059079170227051,-0.00608716905117034912109375,0.040592467784881583470202315311325946822762489318848,0.016746366024017328433259876874217297881841659545898,-0.019346928596496584112918171172168513294309377670288,-0.030375435948371890676478201953614188823848962783813,0.014502769708633414524889815311325946822762489318848,-0.017845785617828374691740123125782702118158340454102,-0.037486721575260166516851967344337026588618755340576,-0.035102020204067233000166936562891351059079170227051,-0.049957721808459615298048106524220202118158340454102,0.035058116912841788548327315311325946822762489318848,0.043406802415847781095870061562891351059079170227051,-0.041705089062452321835294810625782702118158340454102,-0.0029103338718414334396200615628913510590791702270508,0.029196959733963009919754938437108648940920829772949,0.044507795572280878237947376874217297881841659545898,-0.01046144962310791015625,-0.010726755857467656918302623125782702118158340454102,-0.00021546185016632635189637312578270211815834045410156,-0.046184294298291211910978404375782702118158340454102,0.025569093227386471833817438437108648940920829772949,-0.023189479112625123458091280781445675529539585113525,-0.0019798457622528103927450615628913510590791702270508,-0.036766421794891361585211342344337026588618755340576,0.0230866372585296630859375,-0.039105629920959478207365123125782702118158340454102,-0.044959921017289163069907687031445675529539585113525,-0.01259227097034454345703125,0.032739198207855216282702315311325946822762489318848,0.0368664562702178955078125,0.012453329563140866365067438437108648940920829772949,0.039707887172698977384932561562891351059079170227051,-0.028212904930114749563196951953614188823848962783813,0.010043573379516598786942438437108648940920829772949,-0.023608240485191347990401311562891351059079170227051,-0.022838801145553592336634451953614188823848962783813,-0.048122634924948219647955482969337026588618755340576,-0.015990877151489259200278780781445675529539585113525,-0.039485754817724233456388560625782702118158340454102,0.019739383459091180972322376874217297881841659545898,0.028110200166702264956697376874217297881841659545898,0.018671226501464840974442438437108648940920829772949,-0.039252384752035143766768499062891351059079170227051,-0.038562891632318498091880343281445675529539585113525,0.045319092273712155427567438437108648940920829772949,0.030659031867980954255692438437108648940920829772949,0.0098242282867431612869424384371086489409208297729492,0.041650831699371337890625,-0.042811073362827301025390625,-0.025301656126976015265261921172168513294309377670288,-0.036590652167797090010825655781445675529539585113525,0.0060877621173858614822549384371086489409208297729492,0.0082708954811096177528462192185543244704604148864746,0.0041739165782928439041299384371086489409208297729492,0.0041154563426971380035723768742172978818416595458984,0.031062895059585565737947376874217297881841659545898,0.016107672452926630191072376874217297881841659545898,0.0169225037097930908203125,0.048139846324920645970202315311325946822762489318848,0.043194425106048581208817438437108648940920829772949,-0.022975969314575198088057561562891351059079170227051,0.018634486198425295744307561562891351059079170227051,0.013146823644638053196764815311325946822762489318848,-0.041716147959232334485601967344337026588618755340576,-0.029272542893886567549888155781445675529539585113525,-0.015600857138633732190680092344337026588618755340576,-0.045547769963741303878013155781445675529539585113525,-0.04801050759851932525634765625,-0.0022743672132492093185263115628913510590791702270508,-0.025315177440643314710211342344337026588618755340576,0.046034169197082516755692438437108648940920829772949,0.045017623901367181948884876874217297881841659545898,0.031841498613357541169754938437108648940920829772949,0.016867172718048092927567438437108648940920829772949,-0.027002163231372836721400076953614188823848962783813,0.026106059551239013671875,0.0077630996704101534744424384371086489409208297729492,-0.033640404045581821790289467344337026588618755340576,-0.037979850172996522383872530781445675529539585113525,-0.013652244210243226485435030781445675529539585113525,-0.0098761618137359619140625,-0.0075223863124847453742738423443370265886187553405762,0.012773591279983523283370061562891351059079170227051,-0.037555964291095735030356905781445675529539585113525,0.038557529449462890625,-0.0417071990668773651123046875,-0.041700882464647294478599093281445675529539585113525,0.020585459470748898591629938437108648940920829772949,0.030825674533843994140625,0.035202258825302118472322376874217297881841659545898,0.0075927138328552232215962192185543244704604148864746,0.020945692062377924136384876874217297881841659545898,0.041762149333953849095202315311325946822762489318848,-0.036352284252643585205078125,-0.00561569631099700927734375,0.019776451587677004728682561562891351059079170227051,0.042868214845657351408370061562891351059079170227051,-0.0034548252820968683440838731257827021181583404541016,0.034385812282562253083817438437108648940920829772949,0.027903878688812250308259876874217297881841659545898,0.018971198797225946597322376874217297881841659545898,0.047862672805786127261384876874217297881841659545898,-0.028239776194095615735601967344337026588618755340576,0.0039196550846099798004473768742172978818416595458984,-0.0049996733665466364104901231257827021181583404541016,-0.028476327657699588430384451953614188823848962783813,-0.034545290470123293791182561562891351059079170227051,-0.038224363327026368575278780781445675529539585113525,-0.0098092794418334974815287807814456755295395851135254,0.016439473628997794407702315311325946822762489318848,-0.031166373193264009650027546172168513294309377670288,-0.04112444818019866943359375,0.012067562341690062088783719218554324470460414886475,0.0022504746913909884353799384371086489409208297729492,0.040635120868682858552567438437108648940920829772949,0.040309286117553702610827315311325946822762489318848,0.016218823194503781404129938437108648940920829772949,0.030814188718795779142745061562891351059079170227051,-0.038679154217243195967856905781445675529539585113525,-0.019861465692520143683230671172168513294309377670288,-0.0396104119718074798583984375,0.0137982666492462158203125,0.029864692687988275698884876874217297881841659545898,0.019761121273040763157702315311325946822762489318848,0.044734936952590939607254938437108648940920829772949,-0.020038798451423648488978201953614188823848962783813,0.020311659574508658665514815311325946822762489318848,0.049568653106689453125,0.025263029336929324064620061562891351059079170227051,0.017825835943222040347322376874217297881841659545898,-0.0178758800029754638671875,0.040896284580230715666182561562891351059079170227051,-0.032524962723255161634039467344337026588618755340576,-0.016011893749237060546875,0.0030579686164855929275674384371086489409208297729492,0.025516432523727414216629938437108648940920829772949,-0.04400423727929592132568359375,-0.047893265075981621137213295469337026588618755340576,0.041751456260681149568192438437108648940920829772949,-0.0028946042060852064659037807814456755295395851135254,-0.014626643061637883969083873125782702118158340454102,0.0050861597061157212684712192185543244704604148864746,0.020799314975738517063952315311325946822762489318848,0.048143559694290155581697376874217297881841659545898,0.0033229172229766804069761576556629734113812446594238,0.0278743207454681396484375,-0.027144704759120945325445717344337026588618755340576,-0.025663468241691592131026311562891351059079170227051,-0.0044369518756866496711488423443370265886187553405762,0.0059481680393218966385049384371086489409208297729492,0.029071736335754397306807561562891351059079170227051,-0.017821240425109866056807561562891351059079170227051,-0.023206916451454166760992592344337026588618755340576,0.031196045875549319181807561562891351059079170227051,-0.025275455415248872237388155781445675529539585113525,-0.014725679159164430098716280781445675529539585113525,-0.046545040234923368283048716875782702118158340454102,-0.011118197441101075606528780781445675529539585113525,0.044133818149566642063952315311325946822762489318848,-0.046834962815046315975919810625782702118158340454102,0.025463068485260004214509876874217297881841659545898,0.032260888814926141909822376874217297881841659545898,-0.030499149858951572766851967344337026588618755340576,0.0088055908679962116569761576556629734113812446594238,-0.0071636050939559992034588731257827021181583404541016,0.037551975250244132298327315311325946822762489318848,-0.013571897149085999922935030781445675529539585113525,0.014560496807098380345202315311325946822762489318848,0.035369122028350824527009876874217297881841659545898,-0.028931571543216707403933796172168513294309377670288,-0.047977418825030329618819280312891351059079170227051,-0.0468309223651885986328125,-0.0016143143177032512336488423443370265886187553405762,-0.00034630596637726107633881156289135105907917022705078,-0.021900737285614015059653780781445675529539585113525,-0.0077371418476104777961488423443370265886187553405762,-0.043105686455965047665372935625782702118158340454102,-0.027371750771999360518638155781445675529539585113525,0.014730119705200189761384876874217297881841659545898,0.021841424703598025236495061562891351059079170227051,-0.0083144098520278944541850307814456755295395851135254,-0.0042584240436553955078125,-0.0010330885648727472503338731257827021181583404541016,-0.042133317887783051924888155781445675529539585113525,0.0415165722370147705078125,-0.0100972354412078857421875,-0.041273590922355656018805092344337026588618755340576,0.027834874391555783357254938437108648940920829772949,0.034534025192260744963057561562891351059079170227051,0.032376235723495475071764815311325946822762489318848,-0.016670700907707218518805092344337026588618755340576,0.0205422341823577880859375,-0.0064980715513229397872763115628913510590791702270508,-0.00244475901126861572265625,-0.030643117427825931897711342344337026588618755340576,-0.016905131936073305998213811562891351059079170227051,0.016781723499298087376452315311325946822762489318848,0.038237726688385001438952315311325946822762489318848,-0.033195903897285466976896373125782702118158340454102,-0.020391130447387696700278780781445675529539585113525,0.011301410198211667146317438437108648940920829772949,0.0061721444129943792145098768742172978818416595458984,0.026655143499374381321764815311325946822762489318848,-0.031922192871570588545981905781445675529539585113525,0.035460627079010001438952315311325946822762489318848,-0.036736391484737396240234375,0.0030524253845214815994424384371086489409208297729492,-0.0463765971362590789794921875,-0.0041697114706039442588725307814456755295395851135254,-0.016580724716186524825278780781445675529539585113525,-0.016801226139068606291182561562891351059079170227051,-0.022217741608619692023074421172168513294309377670288,0.022848272323608392886384876874217297881841659545898,0.037321323156356805972322376874217297881841659545898,-0.015618044137954714689620061562891351059079170227051,0.049903136491775509919754938437108648940920829772949,-0.045476420223712926693693248125782702118158340454102,0.017670905590057364720202315311325946822762489318848,0.026923358440399169921875,-0.025575071573257449758509451953614188823848962783813,-0.043763747066259385543052218281445675529539585113525,-0.0040243059396743788291850307814456755295395851135254,-0.011580577492713933773771373125782702118158340454102,-0.018917179107666017706668171172168513294309377670288,-0.017712184786796571211997530781445675529539585113525,0.049837940931320184878572376874217297881841659545898,0.039534270763397216796875,-0.039609053730964662032310030781445675529539585113525,-0.027535782754421235518638155781445675529539585113525,0.00130426883697509765625,0.022388573729636804254816695447516394779086112976074,0.023264223303592037467302233721966331358999013900757,-0.0081322878599166849300505788278314867056906223297119,-0.00057254432388250200720164473366935453668702393770218,0.0084425747394561712066973768742172978818416595458984,-0.037636549025764562403928437106515048071742057800293,0.02860554457857062207737364190052176127210259437561,0.035389226675033559621486034529880271293222904205322,0.045079345552873836822094233411917230114340782165527,0.036974287033129819846077879219592432491481304168701,-0.0071316480636596721320863423443370265886187553405762,0.012965029237239624956834482816248055314645171165466,-0.049532933626220479461643719787389272823929786682129,0.0030669331550598603365609395865476471954025328159332,-0.020330315828323366339480671172168513294309377670288,-0.047176861460703184425469203233660664409399032592773,-0.031183597445487792887419686849170830100774765014648,0.024982935179923854845940311975027725566178560256958,0.023138827085494986790514815311325946822762489318848,0.027240377336516057721338412989098287653177976608276,0.015343451500149186961241554172374890185892581939697,0.0023357423841522469316889232260336939361877739429474,-0.0089586943150202925228997585804791015107184648513794,-0.0078632771969844462295329279299949121195822954177856,-0.045637249574269629637246481479451176710426807403564,0.0081821203231828201068998041023405676241964101791382,-0.045880202576518064327970591875782702118158340454102,0.013508188724517825041182561562891351059079170227051,-0.0043780893087395364796088337300261628115549683570862,0.045486032962799072265625,0.018263621789891232999325509922527999151498079299927,-0.020762879381745914103563066532842640299350023269653,0.011908328533172678892482210244452289771288633346558,0.016264611751248023857607805098268727306276559829712,-0.012731930613517766781583873125782702118158340454102,-0.028998003899846809539031511349094216711819171905518,-0.030270813157924406772147918331938853953033685684204,-0.0187376260757447163363131892310775583609938621521,0.03949936375324773069062089803082926664501428604126,0.047034746409515999776562722445305553264915943145752,0.03447449207305908203125,0.035276699824623301837700495298122405074536800384521,0.027771830561011609517230169785761972889304161071777,0.043028718233109539137437593581125838682055473327637,-0.012295860052108743137866397887592029292136430740356,-0.011813190904326646007982404285030497703701257705688,-0.0015845507383305808095375066812948716687969863414764,-0.044818204863324141717928483785726712085306644439697,-0.032162299752235418148771373125782702118158340454102,0.015716713733593627028151118452115042600780725479126,-0.00030193924449777953620405179790964211861137300729752,-0.034801635015941335959954727741205715574324131011963,0.021395123518523215949693749848847801331430673599243,-0.03737104237296245273780570528288080822676420211792,-0.046823156256918845030678966168125043623149394989014,-0.011911356449091107731486083309846435440704226493835,-0.0047628045082092340667401231257827021181583404541016,0.032385414838790885228014815311325946822762489318848,0.021794319152814191353773054515841067768633365631104,0.038705044984817499331697376874217297881841659545898,-0.022540582554858211439263726560966460965573787689209,0.0081599883932174602924058959274589142296463251113892,-0.027353362739086079652439664755547710228711366653442,-0.020376974075625751275930852557394246105104684829712,0.034344118833541867341629938437108648940920829772949,-0.021221697330270548192965307521262730006128549575806,-0.034991273036369070770223999033987638540565967559814,0.022038757801055824936398153113259468227624893188477,0.011373141858029825815301627756070956820622086524963,0.013625502587418226313475955180365417618304491043091,-0.033644719421863561459318248125782702118158340454102,-0.039746566848464774668325816264768945984542369842529,-0.040713340786844916252551485058575053699314594268799,0.013672602176667285681088692683715635212138295173645,0.0083023369312286605936623828938536462374031543731689,0.043723028573326855328318174542800989001989364624023,-0.041208714246745797860072002549713943153619766235352,-0.023590821249737700671111895189824281260371208190918,-0.038395790755748754330411998125782702118158340454102,0.0047117353152434050464480996822658198652788996696472,0.029910230641137593859957277686589804943650960922241,-0.011422352362609581449826023913374228868633508682251,0.013168669260558128059068749848847801331430673599243,0.030157005784729497277485421591336489655077457427979,-0.0075357645794200253316907911482758208876475691795349,0.021667021513021321454939283057683496735990047454834,-0.046132805943489077482588811562891351059079170227051,0.047437739372253415193192438437108648940920829772949,0.010960191488248154784157506469455256592482328414917,-0.028535145521163943205245061562891351059079170227051,0.02123205743161666811391619091864413348957896232605,-0.043241860747758299743370713486001477576792240142822,-0.024833101034164431486495061562891351059079170227051,-0.017196336377395128602874052603510790504515171051025,-0.039616249501705169677734375,-0.046653787419191433682996716925117652863264083862305,-0.0099348455564333519596242894067472661845386028289795,-0.02671628892421723175387704429795121541246771812439,0.04394533847160838474499300332354323472827672958374,0.043476366996809026610470994000934297218918800354004,0.049941533803939813784822376874217297881841659545898,0.013292330286713604017845291593857837142422795295715,-0.017788749933149688997602311246737372130155563354492,0.022281152009964028115618361880478914827108383178711,0.044991570711135867033370061562891351059079170227051,-0.032106429848698568585430024313609465025365352630615,0.041738349199295213254323755336372414603829383850098,-0.01498828829259733416701116937019833130761981010437,0.00074581503868102749787993843710864894092082977294922,-0.0051386043401592321200332946773414732888340950012207,0.011404478550146474394311191247197712073102593421936,-0.03909106930796209244949324101980892010033130645752,0.0075492501472854160390890676524122682167217135429382,-0.029127208888620994414742071398904954548925161361694,0.034349757432753640074007961402458022348582744598389,0.016160541772843903945977572789161058608442544937134,0.034538972377777102384932561562891351059079170227051,0.039680796861648562345870061562891351059079170227051,-0.033068646490574636620518589325001812539994716644287,0.019662487506866457853682561562891351059079170227051,-0.011671584844589237561773842344337026588618755340576,0.017679309844970694798327315311325946822762489318848,-0.0071890890598297133018412807814456755295395851135254,0.021411949396133417300447376874217297881841659545898,0.041776818037033078279129938437108648940920829772949,-0.0017903059720993097503338731257827021181583404541016,0.033228534460067751798995061562891351059079170227051,0.026075577735900870579577315311325946822762489318848,0.037513327598571774568192438437108648940920829772949,-0.039972270280122762509122935625782702118158340454102,-0.026139736175537112844446951953614188823848962783813,0.0050734996795654269119424384371086489409208297729492,-0.0034312665462493951995526231257827021181583404541016,-0.029913614690303805265791936562891351059079170227051,-0.032545860111713412199385686562891351059079170227051,-0.036680610477924348311606905781445675529539585113525,0.049653482437133786286942438437108648940920829772949,-0.043844805657863618331138155781445675529539585113525,-0.035094507038593292236328125,0.029347586631774905119307561562891351059079170227051,0.0133101940155029296875,-0.037658818066120147705078125,0.035410982370376584138504938437108648940920829772949,0.043214714527130118626452315311325946822762489318848,0.020597618818283078279129938437108648940920829772949,0.046391141414642331208817438437108648940920829772949,-0.034433348476886754818693248125782702118158340454102,-0.019264954328536990080245061562891351059079170227051,-0.044839526340365414014410561094337026588618755340576,0.0034116685390472370476011576556629734113812446594238,0.025804114341735837068192438437108648940920829772949,0.029258477687835696134932561562891351059079170227051,-0.012106102705001835218023842344337026588618755340576,-0.0030481904745101942588725307814456755295395851135254,0.017971616983413693513504938437108648940920829772949,0.045028311014175412263504938437108648940920829772949,0.026519227027893069181807561562891351059079170227051,-0.044001000374555593319669810625782702118158340454102,-0.016135847568511968441740123125782702118158340454102,0.031654065847396842259264815311325946822762489318848,-0.0158106982707977294921875,0.041538161039352414216629938437108648940920829772949,0.0010298371315002399772886576556629734113812446594238,0.029171508550643918122879938437108648940920829772949,-0.0393560230731964111328125,-0.026175093650817875257086342344337026588618755340576,0.040611809492111197728014815311325946822762489318848,-0.011898916959762577405523842344337026588618755340576,-0.044775136560201649060797279844337026588618755340576,-0.0125369131565093994140625,0.018984621763229361790514815311325946822762489318848,0.046633553504943844880692438437108648940920829772949,0.0019658267498016343544087192185543244704604148864746,0.0259920060634613037109375,-0.028559474647045137579715046172168513294309377670288,-0.023981174826622011359011921172168513294309377670288,-0.033916933834552770443693248125782702118158340454102,-0.020549440383911134200278780781445675529539585113525,0.031196904182434079255692438437108648940920829772949,-0.047748654335737231169112249062891351059079170227051,-0.025307118892669681203821951953614188823848962783813,0.0098905265331268310546875,-0.021357384324073795667242592344337026588618755340576,-0.0047190845012664850433026231257827021181583404541016,-0.0031689524650573772102113423443370265886187553405762,0.00093682408332824290697615765566297341138124465942383,0.044646239280700675267077315311325946822762489318848,-0.045091154798865322461676186094337026588618755340576,0.023263567686080927066072376874217297881841659545898,0.029797768592834464329577315311325946822762489318848,-0.036225445568561553955078125,0.0065601766109466552734375,-0.0040508478879928630500550923443370265886187553405762,0.004649341106414794921875,-0.012236398458480839124273842344337026588618755340576,0.015919947624206537417634876874217297881841659545898,0.037120497226715079563952315311325946822762489318848,-0.027292586863040927541712576953614188823848962783813,-0.045940671488642698117033091875782702118158340454102,-0.048154145106673242049399874531445675529539585113525,-0.00079849958419800359799012312578270211815834045410156,0.03327095508575439453125,-0.024946311116218568282310030781445675529539585113525,-0.011482775211334228515625,-0.040984866768121720748130343281445675529539585113525,-0.026195631921291352706138155781445675529539585113525,0.018784755468368524722322376874217297881841659545898,0.026500904560089105777009876874217297881841659545898,-0.012742483615875245528403780781445675529539585113525,0.042670989036560053042634876874217297881841659545898,-0.010041245818138123946372530781445675529539585113525,-0.037305763363838201351896373125782702118158340454102,-0.034684138000011445479575655781445675529539585113525,-0.0051983088254928602744975307814456755295395851135254,-0.0448178313672542572021484375,0.023698842525482169407702315311325946822762489318848,0.034363788366317746247879938437108648940920829772949,-0.038249594718217851119224093281445675529539585113525,-0.018563687801361083984375,0.019468033313751215152009876874217297881841659545898,-0.00784353911876678466796875,-0.00080267488956451554793503078144567552953958511352539,0.040589326620101923159822376874217297881841659545898,-0.01489429175853729248046875,-0.044142513349652294507574623594337026588618755340576,-0.016033571958541874280523842344337026588618755340576,-0.034834970533847813001226967344337026588618755340576,-0.01864267885684967041015625,0.0094006538391113239616636576556629734113812446594238,0.0067654728889465290397886576556629734113812446594238,0.028236198425292971525557561562891351059079170227051,-0.033290374279022219572432561562891351059079170227051,-0.046789618954062466016363686094337026588618755340576,-0.0050583094358444269378338731257827021181583404541016,-0.0037777006626129178146200615628913510590791702270508,-0.048067472130060198698409124062891351059079170227051,0.0039054334163665729851011576556629734113812446594238,-0.01399163901805877685546875,0.048712259531021109837389815311325946822762489318848,-0.017658421397209168868247530781445675529539585113525,0.0088510274887084947059712192185543244704604148864746,0.040808236598968497532702315311325946822762489318848,0.0051055729389190632194761576556629734113812446594238,0.044859045743942255191072376874217297881841659545898,0.047626858949661246556139815311325946822762489318848,0.0165773332118988037109375,0.026505458354949953947432561562891351059079170227051,-0.023835945129394534025557561562891351059079170227051,0.02716886997222900390625,0.037509965896606448088057561562891351059079170227051,-0.0099448651075363173057475307814456755295395851135254,-0.017356097698211669921875,-0.019684204459190370040122530781445675529539585113525,0.048810648918151858244307561562891351059079170227051,0.038007354736328116673327315311325946822762489318848,-0.040641763061285023084234779844337026588618755340576,0.019407767057418826017745061562891351059079170227051,0.036443990468978879060379938437108648940920829772949,0.036203068494796750154129938437108648940920829772949,0.027870833873748779296875,-0.014842396974563604183927623125782702118158340454102,0.0037329316139221163650674384371086489409208297729492,-0.021985781192779545178961342344337026588618755340576,-0.0425872318446636199951171875,-0.010101976990699770841963811562891351059079170227051,-0.0057311683893203763107138115628913510590791702270508,0.046734696626663199681139815311325946822762489318848,0.038747185468673700503572376874217297881841659545898,-0.0052558809518814114669638115628913510590791702270508,0.011562418937683102693192438437108648940920829772949,0.046723139286041256990067438437108648940920829772949,0.00047395229339599470597121921855432447046041488647461,-0.025890053808689118819419405781445675529539585113525,-6.3323974609376387778780781445675529539585113525391e-05,-0.031588287651538850264731905781445675529539585113525,0.023947793245315554533370061562891351059079170227051,0.021651786565780636872879938437108648940920829772949,0.030080538988113400544754938437108648940920829772949,0.013878655433654782380692438437108648940920829772949,0.0009702742099761962890625,0.033865714073181146792634876874217297881841659545898,0.048425680398941031712389815311325946822762489318848,0.019039624929428095034822376874217297881841659545898,0.0061318695545196505447549384371086489409208297729492,0.044894003868103021792634876874217297881841659545898,0.0145313441753387451171875,0.015523844957351679019197376874217297881841659545898,0.047637116909027096833817438437108648940920829772949,0.037038701772689822111495061562891351059079170227051,0.0414662063121795654296875,0.013827818632125857267745061562891351059079170227051,0.014850383996963492649889815311325946822762489318848,-0.014523804187774658203125,-0.030113475024700166182700655781445675529539585113525,-0.031738260388374330001060030781445675529539585113525,-0.019915339350700382581305092344337026588618755340576,-0.038377667963504794035323186562891351059079170227051,-0.0099780231714248698859925923443370265886187553405762,-0.034357397258281713314786998125782702118158340454102,0.034173262119293210115067438437108648940920829772949,0.037655466794967645816072376874217297881841659545898,0.0415966808795928955078125,-0.0074350059032440227180238423443370265886187553405762,-0.013584497570991518888838811562891351059079170227051,0.038711249828338623046875,-0.022211059927940372121790701953614188823848962783813,-0.028275147080421451223353201953614188823848962783813,0.017715340852737418431139815311325946822762489318848,0.0088375627994537325760049384371086489409208297729492,-0.039797724783420564131919405781445675529539585113525,0.00064806342124938687287993843710864894092082977294922,-0.036512118577957157483648842344337026588618755340576,-0.031660909950733187590010686562891351059079170227051,-0.041541795432567599211104436562891351059079170227051,-0.00298841297626495361328125,0.033990222215652468595870061562891351059079170227051,0.0223789215087890625,0.037034845352172843235827315311325946822762489318848,-0.024089175462722781095870061562891351059079170227051,0.0062681198120117173622212192185543244704604148864746,0.0041258275508880559723223768742172978818416595458984,-0.042525091767311097579185030781445675529539585113525,0.036105227470397946443192438437108648940920829772949,-0.023913940787315370734011921172168513294309377670288,-0.036380629241466524992354436562891351059079170227051,0.02373063564300537109375,0.012602484226226798313952315311325946822762489318848,0.015150326490402224455245061562891351059079170227051,-0.049803801765665414724715276406641351059079170227051,-0.012528401613235477796148842344337026588618755340576,-0.039503459632396702161383217344337026588618755340576,0.011890304088592526521317438437108648940920829772949,0.013436919450759879368639815311325946822762489318848,0.0207413136959075927734375,-0.045716869831085207853682561562891351059079170227051,-0.018014150857925417814620061562891351059079170227051,-0.028860962390899660284793171172168513294309377670288,-0.018636071681976319747153780781445675529539585113525,0.028798723220825189761384876874217297881841659545898,-0.012515580654144292660490123125782702118158340454102,0.014820939302444449681139815311325946822762489318848,0.02832794189453125,-0.0056044667959213312347088731257827021181583404541016,0.020296347141265866365067438437108648940920829772949,-0.019456925988197329435713811562891351059079170227051,0.020849543809890749845870061562891351059079170227051,0.012230098247528076171875,-0.030359011888504032483648842344337026588618755340576,0.023014223575592032688952315311325946822762489318848,-0.044390929117798808012373967812891351059079170227051,-0.022676789760589600997153780781445675529539585113525,-0.018598237633705140547935030781445675529539585113525,0.016628301143646231907702315311325946822762489318848,-0.0089501798152923639495526231257827021181583404541016,-0.00678516924381256103515625,-0.021573421359062198987555092344337026588618755340576,0.028147989511489862612947376874217297881841659545898,0.047713196277618399876452315311325946822762489318848,0.04842603206634521484375,0.014707148075103759765625,-0.034667974710464483090177623125782702118158340454102,0.018189954757690432463057561562891351059079170227051,0.047710102796554562654129938437108648940920829772949,-0.034184239804744720458984375,0.044140571355819696597322376874217297881841659545898,-0.034426371753215792570479436562891351059079170227051,-0.00042243003845215260083634234433702658861875534057617,0.035346353054046625308259876874217297881841659545898,-0.036734768748283387618247530781445675529539585113525,-0.043768640980124479122892466875782702118158340454102,0.0061864495277404729645098768742172978818416595458984,-0.027476510405540468390261921172168513294309377670288,0.036361581087112418431139815311325946822762489318848,0.017856681346893304995759876874217297881841659545898,0.0327502787113189697265625,0.038549804687499994448884876874217297881841659545898,-0.030699878931045535696009451953614188823848962783813,-0.033068604767322540283203125,-0.01341091096401214599609375,-1.9675493240361996427623125782702118158340454101562e-05,-0.0022247225046157850791850307814456755295395851135254,0.018905854225158683079577315311325946822762489318848,0.039800548553466791323884876874217297881841659545898,-0.048698638472706085034147349688282702118158340454102,0.016138952970504757966629938437108648940920829772949,-0.042164673656225205855552218281445675529539585113525,0.042135667800903317536942438437108648940920829772949,0.0493653118610382080078125,-0.031130930781364442999636921172168513294309377670288,-0.0029658943414688151984925923443370265886187553405762,-0.0010298222303390530685263115628913510590791702270508,0.013512504100799557771317438437108648940920829772949,0.026959854364395144377120061562891351059079170227051,0.028155946731567377261384876874217297881841659545898,0.048222476243972772769197376874217297881841659545898,-0.041752756386995319715094154844337026588618755340576,-0.033556002378463747892745061562891351059079170227051,0.030954486131668082493639815311325946822762489318848,0.014561039209365841951004938437108648940920829772949,-0.035653300583362579345703125,0.038123226165771476048327315311325946822762489318848,0.035600936412811270970202315311325946822762489318848,0.016726934909820551089509876874217297881841659545898,0.030209994316101065892077315311325946822762489318848,-0.035965132713317873869307561562891351059079170227051,-0.014895242452621464124273842344337026588618755340576,-0.043184498697519307919279185625782702118158340454102,0.0020630538463592487663511576556629734113812446594238,0.039590376615524294767745061562891351059079170227051,-0.010264050960540775647711342344337026588618755340576,-0.010534155368804934416182561562891351059079170227051,-0.0034558385610580499847088731257827021181583404541016,0.01645863056182861328125,0.043538486957550040501452315311325946822762489318848,0.028627657890319818667634876874217297881841659545898,-0.045497815310955050382979436562891351059079170227051,0.048312973976135251130692438437108648940920829772949,-0.00093497335910797119140625,-0.016824850440025330977622530781445675529539585113525,0.0431862771511077880859375,-9.7867846488956800055092344337026588618755340576172e-05,0.027189427614212030581697376874217297881841659545898,-0.040684354305267338147711342344337026588618755340576,-0.027623946964740755949385686562891351059079170227051,-0.023994946479797364669028780781445675529539585113525,-0.0064233779907226576377787807814456755295395851135254,0.045712965726852419767745061562891351059079170227051,-0.0083513975143432658820863423443370265886187553405762,0.016007584333419797029129938437108648940920829772949,0.045015084743499758634932561562891351059079170227051,0.025099802017211916838057561562891351059079170227051,0.031244349479675290193192438437108648940920829772949,-0.014396947622299198499273842344337026588618755340576,0.030525946617126459292634876874217297881841659545898,-0.036292488873004916105635686562891351059079170227051,-0.018896540999412538702761921172168513294309377670288,0.022393423318862917814620061562891351059079170227051,-0.0458686612546443939208984375,-0.0053415209054946954925213731257827021181583404541016,0.012349730730056761307533719218554324470460414886475,-0.025838856399059299817633217344337026588618755340576,-0.043254359811544421110518499062891351059079170227051,0.019244724512100214175447376874217297881841659545898,-0.0031877577304840129523988423443370265886187553405762,0.036094802618026736173995061562891351059079170227051,-0.040940379351377488570395968281445675529539585113525,0.021827441453933713044754938437108648940920829772949,0.031760936975479117649889815311325946822762489318848,-0.0331381857395172119140625,-0.027739554643630984914759451953614188823848962783813,-0.040885020792484287610601967344337026588618755340576,0.0086056351661682115028462192185543244704604148864746,-0.015290448069572450118247530781445675529539585113525,0.010890328884124750308259876874217297881841659545898,-0.048688116297125820508551186094337026588618755340576,-0.031767441332340246029630748125782702118158340454102,-0.043448361754417422209151311562891351059079170227051,0.024088633060455319490067438437108648940920829772949,0.00083336830139160017472121921855432447046041488647461,0.034659421443939200657702315311325946822762489318848,-0.026286156475543977217856905781445675529539585113525,-0.0097707211971282958984375,-0.039689307659864427046958468281445675529539585113525,-0.024077078700065614874636921172168513294309377670288,-0.037731045484542848067466280781445675529539585113525,0.0081982910633087158203125,-0.01463736593723297119140625,0.040875065326690676603682561562891351059079170227051,-0.00836288928985595703125,-0.038654079288244248824302218281445675529539585113525,-0.035973326861858369307700655781445675529539585113525,-0.0067376762628555339484925923443370265886187553405762,0.0218811929225921630859375,-0.034581108391284948178068248125782702118158340454102,0.031396859884262079409822376874217297881841659545898,-0.039571948349475860595703125,-0.00090998709201813021696381156289135105907917022705078,0.0176543295383453369140625,-0.0021337300539016751388388115628913510590791702270508,0.0012666642665863023231587192185543244704604148864746,-0.022054594755172733655523842344337026588618755340576,0.023959934711456298828125,-0.047441027127206325531005859375,-0.021039888262748721731165701953614188823848962783813,-0.043076094985008243909430092344337026588618755340576,-0.017742446064949041195646373125782702118158340454102,0.0053844690322875921051348768742172978818416595458984,0.0087931454181671142578125,0.028229093551635733860827315311325946822762489318848,-0.022251012921333315763838811562891351059079170227051,-0.046356654539704326978277748594337026588618755340576,-0.0077825814485549954513388115628913510590791702270508,-0.0051609963178634657432475307814456755295395851135254,-0.049969345901627097716879433164649526588618755340576,0.0023784697055816636512837192185543244704604148864746,-0.012418270111083984375,0.042391365766525260228014815311325946822762489318848,-0.017709547281265260176841280781445675529539585113525,0.0073249042034149169921875,0.042518770694732657688952315311325946822762489318848,0.0064141690731048528473223768742172978818416595458984,0.046412801742553702610827315311325946822762489318848,0.049603003263473513517745061562891351059079170227051,0.014718008041381833161942438437108648940920829772949,-0.020761507749557497892745061562891351059079170227051,-0.031784562766551976986661998125782702118158340454102,0.032195365428924552220202315311325946822762489318848,0.026870512962341303042634876874217297881841659545898,-0.0144534409046173095703125,-0.024246531724929812345870061562891351059079170227051,-0.014439782500267034359708873125782702118158340454102,-0.026663951575756076467493826953614188823848962783813,0.047583174705505368318192438437108648940920829772949,-0.018764322996139528448855671172168513294309377670288,0.021065759658813479338057561562891351059079170227051,0.0345610082149505615234375,0.038226044178009024876452315311325946822762489318848,0.026518541574478152189620061562891351059079170227051,-0.01855848729610443115234375,-0.018744719028472904553961342344337026588618755340576,0.012285709381103515625,-0.0087202906608581584602113423443370265886187553405762,-0.011908599734306336836997530781445675529539585113525,-0.010931670665740966796875,0.049015653133392331208817438437108648940920829772949,0.032018911838531491365067438437108648940920829772949,-0.0093792885541915949065838731257827021181583404541016,-0.04385447315871715545654296875,0.042566835880279541015625,0.049971038103103632144197376874217297881841659545898,-0.029602697491645815069949421172168513294309377670288,0.024410945177078244294754938437108648940920829772949,-0.033368425071239472823325655781445675529539585113525,0.0070449590682983356804136576556629734113812446594238,0.027061587572097769993639815311325946822762489318848,-0.023129978775978089766685030781445675529539585113525,-0.016658058762550359555021373125782702118158340454102,-0.021256485581398011641685030781445675529539585113525,0.031918567419052121247879938437108648940920829772949,-0.048891281522810463300299232969337026588618755340576,0.0176873505115509033203125,0.0046658635139465304275674384371086489409208297729492,0.043737930059432980622879938437108648940920829772949,0.016198831796646120939620061562891351059079170227051,0.028120476007461550627120061562891351059079170227051,-0.0400764644145965576171875,0.040344583988189700041182561562891351059079170227051,0.045971733331680295076004938437108648940920829772949,0.0106687843799591064453125,0.013391089439392087068192438437108648940920829772949,-0.023740765452384952893805092344337026588618755340576,-0.025831425189971925215903780781445675529539585113525,-0.00082881748676300048828125,-0.034818433225154876708984375,-0.03945074975490570068359375,-0.0080614507198333781867738423443370265886187553405762,-0.035550908744335175948325655781445675529539585113525,0.032341492176055905427567438437108648940920829772949,0.039035207033157340306139815311325946822762489318848,0.040124481916427603978014815311325946822762489318848,0.017634558677673342619307561562891351059079170227051,0.048830139636993410978682561562891351059079170227051,0.040340846776962271946764815311325946822762489318848,-0.023660403490066532483648842344337026588618755340576,-0.026264609396457673506919405781445675529539585113525,0.019580620527267458830245061562891351059079170227051,0.0070604622364044133941973768742172978818416595458984,-0.038556889444589619031500404844337026588618755340576,0.0083232104778289753288511576556629734113812446594238,-0.014390757679939275570646373125782702118158340454102,-0.030428014695644382131556326953614188823848962783813,-0.04394021816551685333251953125,-0.0083760440349578899055238423443370265886187553405762,0.024464893341064455900557561562891351059079170227051,0.018159174919128412417634876874217297881841659545898,-0.039972452074289323287192843281445675529539585113525,-0.0032581806182861369758363423443370265886187553405762,-0.013019791245460515805021373125782702118158340454102,-0.0010990381240844754318075615628913510590791702270508,-0.0028515577316284221320863423443370265886187553405762,0.032017123699188229646317438437108648940920829772949,-0.026992832124233250012945717344337026588618755340576,-0.031593106687068939208984375,0.013133543729782107267745061562891351059079170227051,-0.0020496577024459866622763115628913510590791702270508,0.019746762514114377107254938437108648940920829772949,-0.048138943314552311292242592344337026588618755340576,-0.010729235410690311780523842344337026588618755340576,-0.03798235952854156494140625,0.0104424059391021728515625,0.011579310894012449784096219218554324470460414886475,0.022035145759582513980134876874217297881841659545898,-0.018944081664085392346930092344337026588618755340576,0.0022646546363830552528462192185543244704604148864746,-0.024031406641006471808230671172168513294309377670288,-2.0533800125163703675923443370265886187553405761719e-06,0.033290529251098627261384876874217297881841659545898,-0.021733659505844118986495061562891351059079170227051,0.010612112283706662263504938437108648940920829772949,0.027073663473129269685379938437108648940920829772949,0.047073710983443456390418191404023673385381698608398,0.034089740264495634047836603031100821681320667266846,-0.020832416415214542737555092344337026588618755340576,0.018101149797439559235856521013374731410294771194458,0.01432527899750780930876459251521737314760684967041,-0.037834135154522531563348053396111936308443546295166,0.017637091875076296720870061562891351059079170227051,-0.041674800220166043074332407059046090580523014068604,0.020542774156303886257113333613233407959342002868652,0.025123876333236688090932986483494460117071866989136,0.020422542095184320620759876874217297881841659545898,-0.0084859728586317816068085306824286817573010921478271,-0.0028071403119905341712325697045571359922178089618683,-0.0048336952924813783583068982352415332570672035217285,0.027041143178939814478711767264940135646611452102661,0.041893035660805225117719885474798502400517463684082,0.031546151638031087738323066105294856242835521697998,0.038443446537867333179239182072706171311438083648682,-0.036669310133882644653358084951833006925880908966064,0.015073126554480295938298617386408295715227723121643,0.049068641662597653474442438437108648940920829772949,-0.018693489898639274737757176580998930148780345916748,0.04273395538333911447548274509244947694242000579834,-0.035956586897373202238448186562891351059079170227051,-0.020866250994113554745323924066724430304020643234253,0.027391791550075879346781704271052149124443531036377,-0.041811604052782017082456889056629734113812446594238,0.046937125921249392423995061562891351059079170227051,0.0046295702457423070982911461612729908665642142295837,-0.031567390263080599699385686562891351059079170227051,0.037931319593897033781715322220406960695981979370117,0.0093388763615438498411069900839720503427088260650635,0.0006502449512481664082794163839196244225604459643364,0.01635184895092264140137316985601501073688268661499,-0.029032231861625099750279233035143988672643899917603,-0.032198122484092484008044721122132614254951477050781,-0.014575710892677179106313722911636432399973273277283,0.0020027276507866751363573509792104232474230229854584,-0.007989762338399538504907226865725533571094274520874,0.01712490908273911136006084632299462100490927696228,-0.0022199988365173353721537807814456755295395851135254,0.032684588829462270231918097351808683015406131744385,0.014747466808851925415546624265061836922541260719299,-0.040883538871501264033714306833644513972103595733643,0.040790647268295295024831403907228377647697925567627,-0.052228014179235775216181281166427652351558208465576,-0.02812790723129256556522825860611192183569073677063,-0.00079865227838381010021240324903146756696514785289764,-0.022487186251183965274291765013003896456211805343628,0.00051979422569253688844043148620244210178498178720474,0.018881112337200051110031040479952935129404067993164,0.025408118609412225913368743590581289026886224746704,0.016813042711257695366322550967197457794100046157837,-0.040508960187435230637653660323849180713295936584473,-0.03619183600622274954439205885137198492884635925293,0.027087325463961954563618661495638662017881870269775,0.037678736448288077665047524078545393422245979309082,0.049714529514312738589509876874217297881841659545898,0.043738414794439357813349289472171221859753131866455,0.032080680131920391584543494900572113692760467529297,0.021725555711019760990465599093113269191235303878784,-0.023660315957152327354107157475482381414622068405151,-0.045322599597432969287247317424771608784794807434082,-0.0098680970110632242747739084620661742519587278366089,-0.020393925736691083383522737904058885760605335235596,0.070408615169085378426849786137609044089913368225098,-0.047345341237337280893004987092353985644876956939697,-0.021022532634460494582739897850842680782079696655273,-0.35932662617710686703276223852299153804779052734375,-0.017711395588890607721843650779192103073000907897949,0.0053251875426732408688734743407167115947231650352478,-0.025679699540598649454281598991656210273504257202148,0.032703139062918239188260116634410223923623561859131,0.024911605438217427482827659446229517925530672073364,0.0010708067877205893793368662869625040912069380283356,-0.38555248726846219620156830387713853269815444946289,-0.039536294759837220524900658347178250551223754882812,-0.008693609496414064080616057594852463807910680770874,0.040636506354401427665301582692336523905396461486816,0.0089911139130130733609913562531801289878785610198975,0.042403067613973777216784810661920346319675445556641,-0.16964963120937154306133720638172235339879989624023,0.41554526412348791186701646438450552523136138916016,0.042630779593444273478652917219733353704214096069336,0.0069059709336416101946309886727703997166827321052551,0.046441274964838810679346181586879538372159004211426,0.049527174079623141611516956572813796810805797576904,0.014778699291913071148241165531089791329577565193176,-0.0096060079120885242393024228135800512973219156265259,-0.034588071603782827301287738919199910014867782592773,0.12713468758816950932022393772058421745896339416504,-0.1234114603979682284196073283055739011615514755249,-0.0018001029302757906840753987509629041596781462430954,0.019897199804022075442233585818030405789613723754883,-0.003375312684732829134753862021511849889066070318222,0.060884847384326715169500232605059863999485969543457,0.046962755786097973298431895727844676002860069274902,-0.018419364780232656830794013558261212892830371856689,-0.59634388864434650923129765942576341331005096435547,0.035046396273447438796111441661196295171976089477539,0.037721122998135563075816634182046982459723949432373,-0.030562824324289254024344941740309877786785364151001,0.0022582380772079428156440261687976089888252317905426,0.00081264521801357591113817990802203894418198615312576,0.027764948216604089931136556401725101750344038009644,-1.0307715846108638224620790424523875117301940917969,-0.041864127724878533176600114984466927126049995422363,-0.0059945534698779643495436530997722002211958169937134,0.019323160974717625004704046887127333320677280426025,-0.049930521689738702195704433961509494110941886901855,0.0023951904338605596242461892586561589268967509269714,-0.46346899141927583309907845432462636381387710571289,1.1415753639398678043193058329052291810512542724609,0.049360295371696040478415312691140570677816867828369,-0.028612034237890215937483162633725441992282867431641,0.023637053332059385080121671762753976508975028991699,-0.033254100089546649587912696688363212160766124725342,0.0069797505245458362974075861018263822188600897789001,-0.082291827096159758658799887598433997482061386108398,-0.023277354931435543378137609238365257624536752700806,0.053841056118445140832307060918537899851799011230469,-0.037204699084898214256345028161376831121742725372314,-0.0040003008613985618913133635032863821834325790405273,0.14887192802430807003766233265196206048130989074707,-0.017321688222076147417594071953317325096577405929565,0.012120789252218083092982325865705206524580717086792,-0.041021972869850834020333252283307956531643867492676,0.0051184401454085629371015819799595192307606339454651,-0.28309653478727597741837485045834910124540328979492,0.042482367228378239976116503839875804260373115539551,0.026044215937742875438543066479724075179547071456909,-0.053917507121761576449614494777051731944084167480469,0.030324851233438115949425650796911213546991348266602,0.00083168296436443827756440638765411677013617008924484,-0.017214206234629509523204049514788493979722261428833,-0.63286823878004139221076229659956879913806915283203,-0.044346077379719690825243816334477742202579975128174,-0.025280648449562303364812620998236525338143110275269,-0.012967208778025903284647490920633572386577725410461,0.020272203511709066536816692405409412458539009094238,0.020050319432084337534227813648612936958670616149902,-0.15580729532275089388448918725771363824605941772461,0.57181308282382536933852179572568275034427642822266,-0.065473679664947867506974432671995600685477256774902,0.075050314501521220300617187604075297713279724121094,-0.017480835317152724345257652771579159889370203018188,0.012156956876290351057812166857274860376492142677307,-0.046869320099132791290763577762845670804381370544434,-0.061283812871724387127958522114568040706217288970947,-0.044066112178662762699499211294096312485635280609131,-0.010158096436229932524319963249581633135676383972168,0.012694864877408338840747425990684860153123736381531,-0.049546195525563628547782712985281250439584255218506,0.020107640357294866845228042961934988852590322494507,-0.011993734414651298358922559827988152392208576202393,0.0089552968192621543869202938026319316122680902481079,0.010555030508451426762839275852456921711564064025879,0.058348061415633103998779063203983241692185401916504,-0.25566422505614994076239554487983696162700653076172,0.024266998547906148964159456227207556366920471191406,0.032295012972844511223158292523294221609830856323242,0.02504299219688676733652776817962148925289511680603,-0.015587208365721619621191429416739993030205368995667,-0.062198295477259260555236153322766767814755439758301,-0.019936864929316559791327989614728721790015697479248,-0.097388165342348592679044827491452451795339584350586,0.030582097479121772565235914953518658876419067382812,-0.036342500827854201661537558720738161355257034301758,-0.0024207274433319233772343714861108310287818312644958,-0.030292084063386785774962817185951280407607555389404,0.0037975880656522494407956180850760574685409665107727,-0.034975428818587013524155082677680184133350849151611,0.080460853935354625932063754589762538671493530273438,-0.014229528404189058926609945388008782174438238143921,-0.0070829017823848972740252705193597648758441209793091,0.021063314135049002878696811080772022251039743423462,0.019699887242314379626195730565996200311928987503052,-0.041667703595915921155334871173181454651057720184326,-0.07345711381706632181476379628293216228485107421875,-0.00057766964052303147996586529799856180034112185239792,0.16538412189575532607044294763909419998526573181152,-0.0037850061532583643801597172995343498769216239452362,0.013790331246380297530729208688171638641506433486938,-0.15749294985733386376125508832046762108802795410156,-0.025614292104513387837716464900950086303055286407471,0.38130169607470154602424372569657862186431884765625,8.9044157393987884635067411864817188416054705157876e-06,0.051283048851403854884178912243442027829587459564209,-0.72278389979382906549432163956225849688053131103516,-0.044963058619172366348060165819333633407950401306152,-0.0079545509009450558746134873899791273288428783416748,-0.13783404745620389530991189985797973349690437316895,-0.025970600203476044975925418611950590275228023529053,-0.019493913583396974692485414948350808117538690567017,0.0035249830750954899184768098763242960558272898197174,-0.24017800026771199406461221315112197771668434143066,-0.049394822991885335705664061833886080421507358551025,0.037288789739304877002279425823871861211955547332764,0.016566364391867503813582374050383805297315120697021,0.055219907995784189846943945667590014636516571044922,-0.032019249696738388832883970280818175524473190307617,-0.18251791788333099342267473730316851288080215454102,0.16351880070590232851834855409833835437893867492676,0.024076430267089787146117529914590704720467329025269,-0.023559417327889672910679053075000410899519920349121,-0.013751233588397629090116502936780307209119200706482,-0.039956263043039653981569614416002877987921237945557,-0.024637421217546421475796947220260335598140954971313,-0.020757636394027084714153374989109579473733901977539,0.026964967814157591446955208880353893619030714035034,0.23400692898094516136708875819749664515256881713867,-0.14473654735231311629917172467685304582118988037109,0.0055179009875214960617606507753407640848308801651001,-0.031603759653187846190292020764900371432304382324219,0.047084909252967668824574332120391773059964179992676,0.45277039560549331431715813778282608836889266967773,0.10634472201274594582720567359501728788018226623535,0.050625718135205360903583482468093279749155044555664,-0.48815593443653892968825402931543067097663879394531,0.00079788463766906588588850857135525984631385654211044,0.014347605276049101366564464399289136053994297981262,-0.098672917159012371590698364798299735412001609802246,0.052679303838026547701645085908239707350730895996094,-0.12528138480590189640651033187168650329113006591797,-0.0046040638391803903606280812255135970190167427062988,-0.10532198756056405930525698977362480945885181427002,0.039206328425681752358755716159066651016473770141602,0.046439936329310385620949830354220466688275337219238,0.054019859785327833945345332722354214638471603393555,-0.013574990032702020231747397360777540598064661026001,-0.0037444383055847776410607341546210591332055628299713,-0.41542988347833548212761911599955055862665176391602,0.075095552753597583084399502695305272936820983886719,0.038357016852588528277312462932968628592789173126221,-0.035576080540870587409774117304550600238144397735596,0.0145342225476147828000517137070346507243812084198,0.049035963647132828346908439698381698690354824066162,-0.019218193790918981084248073898379516322165727615356,0.09838957233984757522193831391632556915283203125,-0.036073634866178025393246286967041669413447380065918,0.62959981704042911054841624718392267823219299316406,-0.33859622540662326350968669430585578083992004394531,0.04364746254750775239505955482854915317147970199585,-0.68003632064482988361930893006501719355583190917969,0.0092158745727391969820851969075192755553871393203735,0.23842234840961648578705478485062485560774803161621,0.074592406440630337760566703764197882264852523803711,0.0021041004691918835031727574857995932688936591148376,-0.23159985015465123225908428139518946409225463867188,0.015702839638568812097307869635187671519815921783447,-0.032545585128365153715357394048623973503708839416504,-0.013257906784284904239124003311189881060272455215454,-0.038485656827185785178180310595053015276789665222168,-0.10983573889973706483313975468263379298150539398193,0.10153906801184214847566522621491458266973495483398,-0.69267492283582154932730645668925717473030090332031,0.18543980625894768143879787203331943601369857788086,0.070110791754928042385230924082861747592687606811523,0.10724067107972598544840536760602844879031181335449,0.11568520518620470372006536763365147635340690612793,0.032401684921626539015448997815838083624839782714844,-0.5908280758529702580972298164851963520050048828125,0.067636000059058759559249551784887444227933883666992,-0.027489196349486627601876875814923550933599472045898,0.027175366469074875575007155248385970480740070343018,-0.011641117569764405231813597652035241480916738510132,-0.011955774176750678938763172709514037705957889556885,0.044605290334291697318391811677429359406232833862305,0.15828099256670655203826925117027712985873222351074,0.031669238592922796526885065304668387398123741149902,0.26585915798253761943570339099096599966287612915039,-0.20997435855429574802499814722978044301271438598633,-0.01473400291593259664457704616324917878955602645874,-0.49973196697990673875722222874173894524574279785156,-0.02434303828719603865482490334670728771016001701355,-0.010252351227618939147334664596655784407630562782288,0.079771572466972875958823863129509845748543739318848,-0.025633722994233620190440703368039976339787244796753,-0.12955401264248023185388092315406538546085357666016,0.031518160856091770316567135523655451834201812744141,0.036240343729209034684402013226645067334175109863281,-0.015326649313367116458928229860703140730038285255432,-0.039133510668920491737399203202585340477526187896729,-0.12423266731798600359670814441415132023394107818604,0.10668043153738128447916011509732925333082675933838,-0.31835517274064001336242313300317618995904922485352,0.076424412728470988986906320405978476628661155700684,0.010194768198341039658338935680603754008188843727112,0.10054555313992685761093071050709113478660583496094,-0.025629800188496580648500611232520896010100841522217,-0.025151856312249035868555679940072877798229455947876,-0.52516205240696378631071183917811140418052673339844,-0.014664786700455179069280120529583655297756195068359,0.010785166060764078341249749826147308340296149253845,-0.030319424702879661792653820384657592512667179107666,-0.027545045782438017795135110077353601809591054916382,-0.024356983602282757106483046527500846423208713531494,0.020526382588818538332819940706031047739088535308838,0.09037627973641335077381597784551559016108512878418,-0.0091468347957923117758083364492449618410319089889526,-0.0047361463300132173800949253461567423073574900627136,0.066879839150312134221643134424084564670920372009277,0.087864825060708806603315679240040481090545654296875,-0.11291970335900594624156667578063206747174263000488,-0.021109134742878326446158254725560254883021116256714,-0.18168951721289397505110230213176691904664039611816,0.39489538783463118409855496793170459568500518798828,-0.089410656846212036019672098063892917707562446594238,-0.015992860608236677405491477088617102708667516708374,-0.29755511290479336183878444899164605885744094848633,-0.036566971212655549616776795573969138786196708679199,-0.20912971293375498538225087941100355237722396850586,0.049120583916485736908352777163599967025220394134521,-0.11278111217564082413566950435779290273785591125488,0.19153235180063038489706173095328267663717269897461,-0.16160237243979955201744758142012869939208030700684,0.034776872853434705190611708758297027088701725006104,-0.029020018166998923225818884930049534887075424194336,0.13694873406365004608886692949454300105571746826172,-0.056224890585983622326438080563093535602092742919922,0.051117754797158874990881116673335782252252101898193,-0.21172774473030805952866728603112278506159782409668,-0.20666167208785557463102122710552066564559936523438,0.14999322772388748448157969050953397527337074279785,-0.018365557446171326683170832438918296247720718383789,0.45544326607857876787477380275959149003028869628906,-0.025668116492365399688990734716753649991005659103394,-0.024015318115877121174506214629218447953462600708008,0.036893892265245566142173316848129616118967533111572,-0.018822786193801979010009617354626243468374013900757,-0.077398302524637765942294720389327267184853553771973,0.035352133955672972176476065442329854704439640045166,0.14121169414140097297938325482391519472002983093262,-0.16931794652270729106824376231088535860180854797363,-0.033875318382191682564652523979020770639181137084961,0.2031780295551786907903846213230281136929988861084,0.71313363479217983798008617668529041111469268798828,-0.24854048178069707009107958128879545256495475769043,0.010549438014508964733817464320964063517749309539795,-0.48208035516449271318251135198806878179311752319336,0.011143046014888885464344525644264649599790573120117,-0.30270361664527956069292713436880148947238922119141,0.12847552650930552098351711265422636643052101135254,-0.040000740202593497440997083458569250069558620452881,0.34792130190946535250873239419888705015182495117188,-0.22597500060395878107577516402670880779623985290527,0.018522712148429040096564435202708409633487462997437,-0.049804460527765138933009581023725331760942935943604,-0.0087152074905328599796483501904731383547186851501465,0.1417586064992018834995946008348255418241024017334,0.0014249271014447708640082712605590131715871393680573,-0.065948803581877199486704910214029951021075248718262,0.041178103378885215490878834998511592857539653778076,0.31371015612322750154561390445451252162456512451172,-0.034060254920052206173419762080811779014766216278076,0.60949771162359933640573217417113482952117919921875,0.064719400140405641819185689200821798294782638549805,0.019029806775161195453449636261211708188056945800781,0.039714037370379783042917409829897223971784114837646,0.021066893239408229082654244734840176533907651901245,-0.16323802502035242301126061192917404696345329284668,-0.0736972099858856921628103009425103664398193359375,3.3672200101704715671183804071020517767465207725763e-05,0.28263643128552873307057780039031058549880981445312,0.15107884827586970377666375497938133776187896728516,0.20583671994461688603550442167033907026052474975586,-0.030474302506338618590220335136109497398138046264648,-0.082384772956843460578468807398166973143815994262695,-0.014836155808695353913728709471797628793865442276001,0.61487074387581863721408126366441138088703155517578,0.040107271431541621775629380408645374700427055358887,-0.36276176919257357988968237805238459259271621704102,0.02716465751533950895302282901866419706493616104126,0.024809870724489369031573460233630612492561340332031,-0.02803924736692122582359942839502764400094747543335,-0.053232362782501090048281611188940587453544139862061,-0.018674985462980377842745483008002338465303182601929,-0.076660638107085177228583461328526027500629425048828,-0.1425013216914521874123522593436064198613166809082,0.14330690266278636735286511338927084580063819885254,0.029677335178450003905226139977457933127880096435547,-0.24874817328073811628641465176769997924566268920898,0.004857447528601920028190619404995231889188289642334,-0.0011918633590374014090407239763180768932215869426727,0.015391923716678534289625801534384663682430982589722,0.17776019228160228058399638939590658992528915405273,-0.033269600455601809618766395715283579193055629730225,0.010818202080143422133540198615264671389013528823853,0.027443888779616509854264450041227973997592926025391,-0.035846157888187374362942705374734941869974136352539,0.13601483688828244766888531103177228942513465881348,-0.13329666372403872753871212353260489180684089660645,-0.017105113726922013817066670071653788909316062927246,-0.029481443715965362922792891708922979887574911117554,0.18150598657353350651177947838732507079839706420898,0.029673968645144301048421908717500627972185611724854,-0.040460203814043700643043877107629668898880481719971,0.023389240974137730927351341847497678827494382858276,0.020250883861820011960785947735530498903244733810425,0.066741956929191006975266020617709727957844734191895,0.021183976240610323527047142988521954976022243499756,-0.17203748570455354438557549201505025848746299743652,0.049822906718853463003959802790632238611578941345215,-0.43411729735856857681497444900742266327142715454102,0.017600141543551637429709799675947579089552164077759,-0.27535516400752824139885888143908232450485229492188,0.044440028939156973886159818221130990423262119293213,0.029089606904056732744612290275654231663793325424194,0.0276454117412655783758701488750375574454665184021,-0.055640294133648487973076157686591614037752151489258,-0.019576564070869283823439488401163544040173292160034,-0.26917864495074511621552915130450855940580368041992,-0.0072406461123572692095695657599208061583340167999268,-0.033496730155011533724973560310900211334228515625,0.032778809113872840741432668210109113715589046478271,0.035007580371359960091925955794067704118788242340088,-0.037571773810001915516743054013204528018832206726074,0.029193768750315422788599306613832595758140087127686,0.013429974617612756848661348385576275177299976348877,0.034772457564242353900141324629657901823520660400391,0.27307647921725541895199285136186517775058746337891,-0.11143217343706560140681460779887856915593147277832,-0.016208864376748569752217932204985118005424737930298,-0.012209836162921070684683755303012731019407510757446,0.11682043983279269405706202178407693281769752502441,0.013120438361119450207392667095973592950031161308289,0.0042574343281583200068740602262096217600628733634949,-0.013478697168684392396209581477251049363985657691956,-0.014550867527784283605996051846886985003948211669922,-0.049610722907088629363148157835894380696117877960205,-0.043531407489386664266817206225823611021041870117188,-0.035667903028637627793617781435386859811842441558838,-0.00099304224498504762609629725744753159233368933200836,-0.045073616309481999431252319254781468771398067474365,0.020182765192802393922066883646948554087430238723755,-0.33095862490363703312112875210004858672618865966797,-0.017506231799591962655648913482764328364282846450806,0.17066766623554494031189676661597331985831260681152,-0.023532124880022164264969930513871076982468366622925,-0.10757530123905736929579290972469607368111610412598,0.035359141625258758145911031078867381438612937927246,-0.690203143845366184905287809669971466064453125,0.073767188990151902339142964137863600626587867736816,0.015771291180237748119630225573928328230977058410645,0.019279416276368151195175215661947731859982013702393,-0.026157228010348174823684885836883040610700845718384,-0.028179025568529789125271634020464261993765830993652,-0.066903445420247814601211189255991484969854354858398,-0.079141972389991682712562237611564341932535171508789,-0.0043420823541024909653085472882594331167638301849365,0.27390673519370650756954432836209889501333236694336,-0.11701286828481183288630518291029147803783416748047,0.022243845352281559762941398616931110154837369918823,-0.011570687359338494362703819717808073619380593299866,0.10432362570131641088533314132291707210242748260498,0.0025326964218584106965093116770049164188094437122345,-0.038203256178252910368886574588032090105116367340088,0.0020816234653286283876050255514655873412266373634338,-0.057774806938780558229762362998371827416121959686279,-0.0060715103405123817606470204566448956029489636421204,0.0031125637297593480509738661510255042230710387229919,-0.011935381478826423071182283308644400676712393760681,-0.028772648840967075117847073784105305094271898269653,-0.13611941209735625712973217105172807350754737854004,0.093207502117694990273477628761611413210630416870117,-0.15672534918219580002407553820376051589846611022949,-0.019424459351981709226420136360502510797232389450073,0.16688008016291575041911698917829198762774467468262,-0.03785913970198356154339691670429601799696683883667,-0.13365038420063979351937177852960303425788879394531,-0.0010812707209504109767683743825728015508502721786499,-0.57917288740719918838095736646209843456745147705078,0.042217573423702532686707655784630333073437213897705,0.04030839985652999446497091184937744401395320892334,0.041317339081228275643464797894921503029763698577881,0.026817237624201985951577498212827777024358510971069,-0.022434929273807042299226921500121534336358308792114,0.0060233560565653094034943570989071304211392998695374,-0.013113678363230128406935470763983175856992602348328,-0.039201343716882983136962081971432780846953392028809,0.24595324249031405572374353596387663856148719787598,-0.10826998348434203889301130629974068142473697662354,0.099550114900046490773455332146113505586981773376465,0.026000305473414222351413727096769434865564107894897,0.048882540910947021306487414449293282814323902130127,0.023336921057622004443965479936196061316877603530884,0.043607478997449190816215747190653928555548191070557,-0.047862893817530671736193426113459281623363494873047,-0.096900034525963088527511501979461172595620155334473,-0.032208319295633953960322770626589772291481494903564,0.017005242840610473864515483910508919507265090942383,0.018934562932070249374749693060948629863560199737549,-0.039701460314123540595865335944836260750889778137207,-0.044321930219207834877881424517909181304275989532471,0.010542145906816608944001067982298991410061717033386,-0.28975424529056381661717978204251267015933990478516,-0.014774757529290524077358881527288758661597967147827,0.17559715495060390644255221559433266520500183105469,0.035414619004752352637854784234150429256260395050049,-0.23309327840839069723166687708726385608315467834473,0.035209196378033595642431663463867153041064739227295,-0.27808890715633038936971388466190546751022338867188,0.0025405615325128569348400731087167514488101005554199,0.025960584320229091598308812649520405102521181106567,-0.036119600930552699102893399185632006265223026275635,-0.011655628835643087187756705702668114099651575088501,0.015146168065724000678651250950679241213947534561157,0.016663517481715829637867187784650013782083988189697,-0.038708641841219394719164625939811230637133121490479,-0.029822907236616888471125719206611393019556999206543,-0.0017941600260784965059634998851834097877144813537598,-0.0067395117526745946384680863161520392168313264846802,0.31973236235517810133188731924747116863727569580078,-0.072102364609008776086263026172673562541604042053223,-0.045473225329897427882119842479369253851473331451416,0.013620026623627096498680977276762860128656029701233,0.032616364517265114542077242276718607172369956970215,0.04628853825654848791470996616226329933851957321167,-0.36115660714926567376181765212095342576503753662109,-0.010222944958104827548051041219423495931550860404968,0.025069680660303197972105238022777484729886054992676,-0.029449766482964316594017617489953408949077129364014,0.0058674146259291813654268565869642770849168300628662,-0.095938057358095574223000312485964968800544738769531,-0.011851003899669459301646767812599136959761381149292,-0.29597342153934907971191137221467215567827224731445,-0.047619802735767220724927284436489571817219257354736,0.25580781134679264621212269048555754125118255615234,0.0098370423666980250781977090923646755982190370559692,-0.042431283070293056292054956202264293096959590911865,-0.0090797232916812152525576351536074071191251277923584,-0.33622203157566071807238472501921933144330978393555,0.0061774687698144970654512420082937751431018114089966,-0.0268560562780254322157169610818527871742844581604,-0.025866703205940734522361168501447536982595920562744,-0.045710594731552811609276432136539369821548461914062,0.039511245282650396537516002126722014509141445159912,-0.029419466989296625542005259035249764565378427505493,-0.039992910653119280450784600589031470008194446563721,-0.0078924164350250812505205288971410482190549373626709,-0.0062082220012221536742380578743905061855912208557129,0.00078125648670562060534028336888923149672336876392365,0.052340749777779145557321527348904055543243885040283,0.040762383172676719400584488539607264101505279541016,0.024717689467244296358527932966353546362370252609253,0.029503892617772878304016614947613561525940895080566,-0.034546308287863314312460261135129258036613464355469,-0.026223501464900825924653204879177792463451623916626,-0.072836386572469435929377823413233272731304168701172,0.0036025045427682009062386736530925190891139209270477,-0.016212794184684294757081701732204237487167119979858,0.012445564814682945342649844633342581801116466522217,-0.0036090105772871331965556684906459850026294589042664,0.0067109136599630952318973342585195496212691068649292,-0.025976541802022499322299964319427090231329202651978,-0.027061018320141714404991617470841447357088327407837,0.044401109034750405046843013678881106898188591003418,0.0069760325869407547455525175905677315313369035720825,0.016245610685937768996600638615745992865413427352905,0.03868908043195167650862842378955974709242582321167,0.019718430717114106276444118748258915729820728302002,0.0051038070290577485302319082904887181939557194709778,-0.030129205031432706313188063518282433506101369857788,-0.032614050113325729340907344067090889438986778259277,-0.019522648444449116483800921173497044946998357772827,0.044319756763142724442783304539261735044419765472412,-0.0071648103445976227612868036942472826922312378883362,0.040634685754828148152029143602703697979450225830078,-0.047072937712266886556289335885594482533633708953857,-0.02996598184108734130859375,-0.024046730995178226819586342344337026588618755340576,-0.044826912134885793514982310625782702118158340454102,0.0152958929538726806640625,-0.0034521698951721219161825615628913510590791702270508,0.040474706888198846987947376874217297881841659545898,0.035239893198013308439620061562891351059079170227051,-0.043596647679805755615234375,-0.015440407395362856779463811562891351059079170227051,0.036523139476776114720202315311325946822762489318848,-0.024011135101318362844446951953614188823848962783813,-0.0182341635227203369140625,0.029567825794219973478682561562891351059079170227051,0.048991566896438590306139815311325946822762489318848,-0.012551882863044740157310030781445675529539585113525,-0.018325817584991459241461342344337026588618755340576,0.003037989139556884765625,0.037112277746200558747879938437108648940920829772949,0.047848880290985107421875,0.028615009784698483552567438437108648940920829772949,0.0203518569469451904296875,0.0045949935913085909744424384371086489409208297729492,0.036937272548675528782702315311325946822762489318848,0.0015241384506225544304136576556629734113812446594238,0.022575151920318600740067438437108648940920829772949,-0.0056194543838501004318075615628913510590791702270508,0.014538043737411493472322376874217297881841659545898,0.039474511146545404605134876874217297881841659545898,-0.00939427316188812255859375,0.010390257835388182205971219218554324470460414886475,0.045727735757827750462389815311325946822762489318848,-0.039788879454135894775390625,-0.018617290258407595548995061562891351059079170227051,0.0022496640682220445106587192185543244704604148864746,0.038799786567687982730134876874217297881841659545898,0.025746768712997428196764815311325946822762489318848,-0.026822805404663089406946951953614188823848962783813,0.029161727428436270970202315311325946822762489318848,-0.030131328105926516447432561562891351059079170227051,-0.0019694268703460693359375,-0.042625916749238969283286593281445675529539585113525,0.0057911574840545654296875,0.0425242483615875244140625,0.046389234066009518708817438437108648940920829772949,-0.013648572564125063810713811562891351059079170227051,-0.043319417536258703060880748125782702118158340454102,0.018662679195404055509932561562891351059079170227051,0.003969132900238037109375,-0.0065830677747726468185263115628913510590791702270508,-0.047973704338073734632086342344337026588618755340576,-0.048654565215110780196372530781445675529539585113525,0.024568492174148554019197376874217297881841659545898,-0.021019440889358524671148842344337026588618755340576,-0.048651389405131341414634249531445675529539585113525,0.0022113561630248967926348768742172978818416595458984,-0.0035790264606475885589276231257827021181583404541016,-0.027412682771682742727259451953614188823848962783813,-0.011887273192405706234708873125782702118158340454102,-0.023947650194168092208091280781445675529539585113525,0.049095112085342410002120061562891351059079170227051,-0.047220103815197950192228404375782702118158340454102,0.028774666786193850431807561562891351059079170227051,0.021616393327713007144197376874217297881841659545898,0.032312971353530881013504938437108648940920829772949,0.0270611345767974853515625,-0.021943989396095278654463811562891351059079170227051,-0.01496468484401702880859375,-0.048789952602237465772994085000391351059079170227051,-0.034748402237892155042242592344337026588618755340576,0.0092456758022308321853799384371086489409208297729492,0.030555373430252066868639815311325946822762489318848,0.0245068073272705078125,0.035272574424743644017077315311325946822762489318848,0.016624408960342410002120061562891351059079170227051,-0.035618239641189576583091280781445675529539585113525,-0.040655473619699483700529185625782702118158340454102,0.013394534587860107421875,0.033345806598663332853682561562891351059079170227051,-0.032656265795230871029630748125782702118158340454102,0.0395395755767822265625,-0.036351156234741215100836342344337026588618755340576,-0.016183218359947210140958873125782702118158340454102,0.038486200571060183439620061562891351059079170227051,-0.041573886573314670911383217344337026588618755340576,-0.0078944861888885498046875,-0.024715438485145572317103201953614188823848962783813,0.0034602463245391804069761576556629734113812446594238,0.027838504314422599095202315311325946822762489318848,0.032257193326950067691072376874217297881841659545898,0.017759752273559567536942438437108648940920829772949,0.011204773187637323550447376874217297881841659545898,-0.013279032707214359632086342344337026588618755340576,-0.00331480801105499267578125,0.012535703182220456208817438437108648940920829772949,-0.048925605602562427520751953125,-0.039265829324722292814620061562891351059079170227051,-0.0033827096223831218391175923443370265886187553405762,0.00121128559112548828125,0.019074058532714835423327315311325946822762489318848,-0.00022835731506348072583634234433702658861875534057617,-0.019793605804443361456668171172168513294309377670288,-0.022570294141769413343023842344337026588618755340576,-0.025066645443439485030356905781445675529539585113525,-0.034313234686851504240401311562891351059079170227051,0.010144191980361934313226157655662973411381244659424,-0.039030484855175018310546875,0.027178102731704706362947376874217297881841659545898,0.018000787496566764134264815311325946822762489318848,0.0332607328891754150390625,-0.00033741295337677557064637312578270211815834045410156,-0.017837616801261904631026311562891351059079170227051,0.021589028835296633634932561562891351059079170227051,-0.038636577129364017835211342344337026588618755340576,-0.018693065643310552426115123125782702118158340454102,0.014029067754745480622879938437108648940920829772949,-0.020894467830657962453821951953614188823848962783813,-0.046517082676291468534834905312891351059079170227051,0.0056859910488128648231587192185543244704604148864746,-0.033941273391246799817633217344337026588618755340576,-0.026173326373100283537276311562891351059079170227051,-0.044624491780996325407393499062891351059079170227051,-0.0048187166452407850791850307814456755295395851135254,0.026025235652923583984375,-0.047128257155418400159430092344337026588618755340576,-0.044679456204175953260016029844337026588618755340576,-0.01521988213062286376953125,0.0033451139926910372635049384371086489409208297729492,-0.014528748393058781018805092344337026588618755340576,-0.0069288432598114055305238423443370265886187553405762,0.03916466236114501953125,-0.031189598143100741994837576953614188823848962783813,-0.049221942108124500103727427813282702118158340454102,0.018708121776580807771317438437108648940920829772949,0.018743199110031125154129938437108648940920829772949,-0.014673769474029541015625,-0.029217894375324252043135686562891351059079170227051,-0.025115725398063663831305092344337026588618755340576,-0.033927118778228765316740123125782702118158340454102,-0.00218521058559417724609375,0.00085269808769225519107237687421729788184165954589844,-0.03154058754444122314453125,0.019675815105438226870759876874217297881841659545898,-0.012629324197769166426841280781445675529539585113525,-0.00433361530303955078125,0.040256035327911374177567438437108648940920829772949,-0.039642442762851719251226967344337026588618755340576,-0.00015732347965240894849259234433702658861875534057617,-0.040686256438493731413252874062891351059079170227051,0.010683679580688471011384876874217297881841659545898,0.0043999254703521728515625,0.036910045146942141447432561562891351059079170227051,0.0028194487094879150390625,-0.035121890902519228849776311562891351059079170227051,0.028448653221130368318192438437108648940920829772949,-0.045306793227791790357183998594337026588618755340576,-0.042392349243164068051115123125782702118158340454102,0.024985218048095697573884876874217297881841659545898,0.030061304569244384765625,-0.049528132192790508270263671875,-0.048001424595713618193038030312891351059079170227051,-0.0021511584520340007453675923443370265886187553405762,0.034985113143920901213057561562891351059079170227051,0.0389330387115478515625,0.031264269351959222964509876874217297881841659545898,0.037440043687820431794754938437108648940920829772949,-0.014438202977180486508146373125782702118158340454102,0.014711320400238037109375,-0.020717909932136537726199421172168513294309377670288,-0.014725944399833684750333873125782702118158340454102,0.047867244482040396946764815311325946822762489318848,-0.032352745532989501953125,0.0077412307262420612663511576556629734113812446594238,0.0369324386119842529296875,0.012833809852600089329577315311325946822762489318848,-0.044706268981099132886480873594337026588618755340576,-0.037049484252929691663336342344337026588618755340576,-0.034498271346092228284430092344337026588618755340576,0.042192739248275754060379938437108648940920829772949,0.012406563758850096268471219218554324470460414886475,0.015240037441253656558259876874217297881841659545898,0.037959402799606314915514815311325946822762489318848,-0.031536999344825747404463811562891351059079170227051,0.014597010612487790193192438437108648940920829772949,-0.037761392444372182675138560625782702118158340454102,-0.0010152339935302762130575615628913510590791702270508,-0.0090479493141174330284037807814456755295395851135254,0.0013689577579498249382261576556629734113812446594238,0.033327686786651614103682561562891351059079170227051,-0.039407335221767425537109375,0.040564519166946408357254938437108648940920829772949,-0.034648525714874270353682561562891351059079170227051,0.044636946916580197419754938437108648940920829772949,-0.046643191203475001249678655312891351059079170227051,-0.020002311468124391730105671172168513294309377670288,-0.0036355435848236111739950615628913510590791702270508,0.016524684429168698396317438437108648940920829772949,0.0197195112705230712890625,-0.035775102674961090087890625,-0.031265087425708770751953125,-0.049004264734685422377769015156445675529539585113525,0.036210167407989504728682561562891351059079170227051,0.00012231469154357771378371921855432447046041488647461,-0.047289753518998625669844670937891351059079170227051,-0.044188041985034946790289467344337026588618755340576,-0.0040136158466339139083700615628913510590791702270508,0.034561330080032343081697376874217297881841659545898,0.046543377637863161955245061562891351059079170227051,-0.024767526984214784102622530781445675529539585113525,0.0041332483291625921051348768742172978818416595458984,0.0050289988517761216590962192185543244704604148864746,-0.026341857016086579756919405781445675529539585113525,0.016662803647838678872128426178278459701687097549438,-0.0049394618401769549431712391651672078296542167663574,-0.026326349377632143194949421172168513294309377670288,-0.011476364805605066346516629494090011576190590858459,0.027247992640345875675622622225091618020087480545044,0.040823997181961863001120605076721403747797012329102,0.031928205490112562814353225348895648494362831115723,-0.042184112951003605029853815722162835299968719482422,-0.012265828252160420469563106848909228574484586715698,0.034346938132215912298228488452878082171082496643066,-0.027163727579147391860692195564297435339540243148804,-0.025595006346715781092582275846325501333922147750854,0.0099562346950611748525039601531716471072286367416382,0.024541127681632111251497363468843104783445596694946,0.038443007961298437946684458665913552977144718170166,-0.031048586969653409195490922911631059832870960235596,-0.041307222843170128545597918900966760702431201934814,-0.0062213365258569032142932364592979865847155451774597,-0.0087081849055645910856471303418402385432273149490356,-0.00033483338495474769579487994697331032512011006474495,0.014018977151953170706688567292985680978745222091675,0.030277976350953795386944378265070554334670305252075,0.02297459198374155256439088645947776967659592628479,-0.04926062884120471080384717765809909906238317489624,-0.029248044984805949414452541645914607215672731399536,-0.016984053483525728828196221797952603083103895187378,-0.043847519160757526812677298266862635500729084014893,0.010068446393686376894027745265702833421528339385986,0.025902438205618494304616206136415712535381317138672,-0.041734238713979722457114718281445675529539585113525,-0.0082406925829680583578396024790890805888921022415161,0.018913839649822603711237789525512198451906442642212,-0.020928838849064424626478242430493992287665605545044,0.017136954884489741246511584904510527849197387695312,0.048761778956352648528582705012013320811092853546143,-0.0063088715076458157585137520584339654305949807167053,0.039055383295026273315908582617339561693370342254639,0.036953108231252536353128590462802094407379627227783,0.01872500181253012110915712185033044079318642616272,0.033431878150919067116397798145044362172484397888184,-0.034355816422211173100098591248752200044691562652588,-0.033719471754444431399466708398904302157461643218994,-0.017369949804322975389636596332820772659033536911011,0.045944976897630405987538182444041012786328792572021,-0.018073261357114230735154691842581087257713079452515,0.020499812736016014697026932367407425772398710250854,-0.04573425613302838088625179580049007199704647064209,-0.023949527102144582690890217691048746928572654724121,-0.028003345712126644778683370873295643832534551620483,-0.037570078665942294171564697080611949786543846130371,0.016225222454579617953340786584703892003744840621948,0.0051537369421585819614928247744956024689599871635437,0.0044085365383723391224934928800394118297845125198364,0.038613371607760321735369757334410678595304489135742,-0.040632042558431870349355818916592397727072238922119,-0.01399985849470046679610124584769437205977737903595,0.038466650854132394821149887320643756538629531860352,-0.021083342713208531871149631342632346786558628082275,-0.016431273338415808976664678198176261503249406814575,0.028076791771385455759313387602560396771878004074097,-0.013081756929207859901920230072391859721392393112183,-0.0061835080552568692791037818778931978158652782440186,-0.019835713495319734489541474431462120264768600463867,0.00162537715396584474605856662776659504743292927742,0.035304570180064442919132261522463522851467132568359,0.046137652092863759567542558670538710430264472961426,0.027464362428347426081653992469000513665378093719482,0.021608586577532278016899880412893253378570079803467,-0.024006875439671636340843718926407746039330959320068,-0.033920018031814318237859851024040835909545421600342,-0.0077641853091212475329596642836804676335304975509644,0.027463100899497539658655753669336263556033372879028,-0.0099416246076868639708346009342676552478224039077759,0.012984984082953924741654638808086019707843661308289,0.031434455830344973370493733000330394133925437927246,-0.011342014769511838886972832085575646487995982170105,0.047900035160498448394417181361859547905623912811279,-0.010541029630126319549532354358234442770481109619141,-0.041552688763211588496293558137040236033499240875244,-0.020448553961710042720101299096313596237450838088989,0.0002124073086686236616106582264507096624583937227726,0.036811161467548203507504922527004964649677276611328,0.0061731977955595488533058201596759317908436059951782,-0.030452932413236460940098027094791177660226821899414,-0.026815153432470175548507640428397280629724264144897,0.0008191951806566770020665013696259393327636644244194,-0.011205434797695640672388073255660856375470757484436,-0.038345365643330152349843586989663890562951564788818,-0.0020026102896405348005592905735738895600661635398865,0.041220027168899012193215014576708199456334114074707,0.045386904371844047356709950236108852550387382507324,-0.012193888838740982866193363065576704684644937515259,-0.046921926057004868793054441766798845492303371429443,0.048388231179199249487599132635295973159372806549072,0.0014249988278817711864765449547576281474903225898743,-0.0015808740960152733306953720671117480378597974777222,0.04045187761845557561368735832729726098477840423584,0.04810056879768495607940792524459538981318473815918,0.012656567153741190429050433863267244305461645126343,-0.016340829434636151146209570583778258878737688064575,0.010911680900162579882506364015171129722148180007935,0.025862556653351052166067702842155995313078165054321,-0.0052980796809026500446271334965331334387883543968201,-0.025606795873107643379817943696252768859267234802246,-0.013731767051371966334438745604984433157369494438171,-0.03516927580147905657570461812611029017716646194458,0.047985590626819715764916907119186362251639366149902,-0.046138823732541564548448320692841662093997001647949,-0.04514956600516636942010961774940369650721549987793,0.018281690644376669824255898788578633684664964675903,0.030867906575083734616038455556008557323366403579712,0.024063868693790312069946679685017443262040615081787,-0.018908668128755704018750805062154540792107582092285,-0.013881739138280890788479382536024786531925201416016,-0.046690401169703410477751504004118032753467559814453,-0.035851726344950561597979543648762046359479427337646,-0.027783809303606975954492597224998462479561567306519,-0.0017408124998723128150357464249964323244057595729828,0.013783705294924475728834956100854469696059823036194,0.031238288248591140200405291693641629535704851150513,0.040885367095553903915572391269961372017860412597656,-0.10641440492733279798986956166118034161627292633057,-0.048975146576802963682695235547726042568683624267578,0.015994583295241896619964805381641781423240900039673,0.063162993669904243798640663953847251832485198974609,0.050334617756350036321677521300443913787603378295898,0.035753798941771483543838883178977994248270988464355,-0.022136941793075234213850066566919849719852209091187,-0.48603412022561520711150251372600905597209930419922,0.037391574978521614769366721020560362376272678375244,-0.0042572579509844469744517247988824237836524844169617,-0.14411110868457494005312469198543112725019454956055,-0.0058225004323026238045590829983666480984538793563843,-0.023932200183337529880711613827770634088665246963501,0.021172101809226559487875363174680387601256370544434,-0.40202210727025933234557442119694314897060394287109,0.021459706979743094212853549151986953802406787872314,0.012337731360715371853320476702720043249428272247314,-0.011279343441586989899017012817239447031170129776001,-0.0054331089903396859869255663966214342508465051651001,-0.40355071822479532395178125625534448772668838500977,-0.19398573089423779003404035847779596224427223205566,0.32609051216799939121315787815547082573175430297852,-0.0073046967168294771322045733086270047351717948913574,2.9582494473488039904299565230338942001253599300981e-05,0.022092119383698784890190935925602389033883810043335,-0.0028442382483649013627524659852952026994898915290833,-0.018770741609467251481691008052621327806264162063599,-0.027826186241226267409354377946328895632177591323853,-0.06718301292032315130686725979103357531130313873291,0.12750404349018920613367811256466666236519813537598,-0.094222946457695411215382819136721082031726837158203,-0.057703090906699519568867629004671471193432807922363,0.00046922919542986889175281706165776540728984400629997,0.054664684467886914820411448090453632175922393798828,0.3111111493239693825962888240610482171177864074707,0.00060258413097028905996976888559402141254395246505737,0.015066808565883089629511282225848844973370432853699,-0.92775454335108065162529555891524069011211395263672,-0.031483759540106286134442115098863723687827587127686,-0.017409514230488469521684891105905990116298198699951,-0.15483282739032533381617895429371856153011322021484,0.0079566148379812424301649187441398680675774812698364,-0.041264626000786952531029783131089061498641967773438,-0.0038445443938303195709205173358213869505561888217926,-1.2172748650529261471575637187925167381763458251953,-0.019965112886865084979026718770001025404781103134155,0.051230839644829405388204435212173848412930965423584,-0.023910665353348310030456858044090040493756532669067,0.03274948501390070876304605462792096659541130065918,-0.59281434152884315835763118229806423187255859375,-0.46613064494271361226651606557425111532211303710938,1.2629798149730719902805731180706061422824859619141,-0.013946096146990971317847218813312792917713522911072,-0.032463298619257723032216489400525460951030254364014,-0.0064247441139967430626112054881104995729401707649231,0.041145562236809984923979754967149347066879272460938,0.043023410057229476144424751282713259570300579071045,-0.075215405680075383965110802364506525918841361999512,0.0013051277356918853430473026477898201846983283758163,0.06342078165776048048751789565358194522559642791748,