0.014899999999999996580513084154517855495214462280273,-0.04320000000000000228705943072782247327268123626709,-0.0085000000000000075495165674510644748806953430175781,-0.022800000000000000821565038222615839913487434387207,-0.029700000000000000704991620636974403169006109237671,0.019899999999999987143617374840687261894345283508301,-0.010599999999999998312461002569762058556079864501953,0.04230000000000000426325641456060111522674560546875,0.048599999999999990429877527731150621548295021057129,0.040800000000000002930988785010413266718387603759766,-0.029700000000000000704991620636974403169006109237671,-0.034000000000000002442490654175344388931989669799805,-0.011800000000000004929390229335695039480924606323242,-0.011400000000000000410782519111307919956743717193604,-0.044200000000000003175237850427947705611586570739746,0.0086999999999999924615856627951870905235409736633301,-0.028000000000000004052314039881821372546255588531494,0.020499999999999990452081988223653752356767654418945,0.01410000000000000142108547152020037174224853515625,-0.045000000000000005273559366969493567012250423431396,0.031999999999999986788346006960637168958783149719238,-0.032700000000000006838973831690964289009571075439453,0.0044000000000000011324274851176596712321043014526367,-0.012800000000000005817568649035820271819829940795898,0.020899999999999988031795794540812494233250617980957,0.01039999999999999258371019550395430997014045715332,0.0027000000000000010103029524088924517855048179626465,-0.01940000000000000404676292475869558984413743019104,0.041499999999999995226040994111826876178383827209473,-0.016100000000000003197442310920450836420059204101562,0.019399999999999986699528164990624645724892616271973,0.041499999999999995226040994111826876178383827209473,-0.009399999999999998634425679711057455278933048248291,-0.004000000000000003552713678800500929355621337890625,-0.031400000000000004296563105299355811439454555511475,0.046099999999999988209431478480837540701031684875488,-0.034200000000000001232347557333923759870231151580811,0.04320000000000000228705943072782247327268123626709,0.038300000000000000710542735760100185871124267578125,-0.035700000000000002564615186884111608378589153289795,-0.030900000000000003852473895449293195270001888275146,-0.0063000000000000000444089209850062616169452667236328,0.015499999999999999888977697537484345957636833190918,0.0071999999999999911293180332449992420151829719543457,-0.032600000000000003974598428158060414716601371765137,-0.043599999999999999866773237044981215149164199829102,0.0010000000000000008881784197001252323389053344726562,0.024599999999999996869171070557058556005358695983887,0.026800000000000004374278717023116769269108772277832,0.00029999999999999471533840278425486758351325988769531,-0.035300000000000004984901380566952866502106189727783,0.043999999999999997446487043362139957025647163391113,-0.047300000000000001765254609153998899273574352264404,0.018999999999999989119814358673465903848409652709961,-0.018900000000000003602673714908632973674684762954712,-0.041300000000000003375077994860475882887840270996094,-0.020700000000000003119726699196689878590404987335205,-0.031100000000000002642330798607872566208243370056152,-0.01070000000000000117683640610266593284904956817627,0.0059000000000000024646951146678475197404623031616211,0.037900000000000003130828929442941443994641304016113,-0.0062000000000000041189274213593307649716734886169434,0.032499999999999987232435216810699785128235816955566,0.013600000000000000976996261670137755572795867919922,0.039699999999999999178434961777384160086512565612793,-0.013800000000000006705747068735945504158735275268555,0.0095999999999999974242825828696368262171745300292969,-0.0093000000000000027089441800853819586336612701416016,-0.020700000000000003119726699196689878590404987335205,0.032999999999999987676524426660762401297688484191895,0.040099999999999996758148768094542901962995529174805,-0.0017000000000000070610184366159955970942974090576172,0.011899999999999993915977825054142158478498458862305,0.0055000000000000048849813083506887778639793395996094,-0.009399999999999998634425679711057455278933048248291,0.029200000000000003730349362740525975823402404785156,0.011899999999999993915977825054142158478498458862305,-0.023200000000000001870725796493388770613819360733032,0.0037000000000000018984813721090176841244101524353027,0.023800000000000001709743457922741072252392768859863,0.026999999999999996225241716274467762559652328491211,0.018299999999999996824762149572052294388413429260254,0.017700000000000007394085344003542559221386909484863,-0.035200000000000002120525977034048992209136486053467,0.022399999999999989364063424091000342741608619689941,-0.016100000000000003197442310920450836420059204101562,-0.02650000000000000272004641033163352403789758682251,-0.01320000000000000339728245535297901369631290435791,0.0027000000000000010103029524088924517855048179626465,0.047899999999999998134825318629737012088298797607422,0.042599999999999998978594817344855982810258865356445,0.025700000000000000621724893790087662637233734130859,-0.0084000000000000046851411639181606005877256393432617,-0.039800000000000002042810365310288034379482269287109,-0.01070000000000000117683640610266593284904956817627,-0.018800000000000004207745263329343288205564022064209,-0.0035999999999999990341059685761138098314404487609863,0.048799999999999996158628334796958370134234428405762,0.021799999999999999933386618522490607574582099914551,0.025599999999999997757349490257183788344264030456543,0.031799999999999994937383007709286175668239593505859,0.011899999999999993915977825054142158478498458862305,-0.026100000000000005140332604014474782161414623260498,0.028800000000000006150635556423367233946919441223145,0.0025000000000000022204460492503130808472633361816406,0.049599999999999991318055947431275853887200355529785,0.0078999999999999903632641462536412291228771209716797,-0.035700000000000002564615186884111608378589153289795,-0.02370000000000000231481500634345138678327202796936,-0.0032000000000000014543921622589550679549574851989746,0.038099999999999994981791928694292437285184860229492,-0.011599999999999999200639422269887290894985198974609,0.00019999999999999878985690315857937093824148178100586,0.040900000000000005795364188543317141011357307434082,0.0032000000000000014543921622589550679549574851989746,-0.02740000000000000074384942649885488208383321762085,-0.025200000000000003647082635893639235291630029678345,0.026599999999999998645527909957309020683169364929199,0.0092999999999999957700502761781535809859633445739746,-0.037400000000000002686739719592878827825188636779785,0.024399999999999991140420263491250807419419288635254,0.037099999999999994093613508994167204946279525756836,0.038300000000000000710542735760100185871124267578125,-0.034100000000000005306866057708248263224959373474121,0.047199999999999991961985301713866647332906723022461,-0.022499999999999999167332731531132594682276248931885,0.032199999999999992517096814026444917544722557067871,-0.0065000000000000057731597280508140102028846740722656,-0.023800000000000001709743457922741072252392768859863,0.039199999999999998734345751927321543917059898376465,0.0042999999999999982680520815847557969391345977783203,-0.0069000000000000033528735343679727520793676376342773,0.0010000000000000008881784197001252323389053344726562,-0.036700000000000003452793606584236840717494487762451,-0.0282000000000000028421709430404007434844970703125,-0.04660000000000000253130849614535691216588020324707,-0.037200000000000003896882816434299456886947154998779,-0.035100000000000006195044477408373495563864707946777,0.0028999999999999998001598555674718227237462997436523,0.024300000000000002153832667772803688421845436096191,0.011599999999999999200639422269887290894985198974609,0.026099999999999998201438700107246404513716697692871,-0.037400000000000002686739719592878827825188636779785,-0.038300000000000000710542735760100185871124267578125,0.016899999999999998356869923554768320173025131225586,0.015700000000000005617728504603292094543576240539551,0.019399999999999986699528164990624645724892616271973,-0.023200000000000001870725796493388770613819360733032,0.027399999999999993804955522591626504436135292053223,0.013899999999999995692334664454392623156309127807617,-0.010599999999999998312461002569762058556079864501953,0.0017000000000000001221245327087672194465994834899902,0.03609999999999999320543508929404197260737419128418,-0.022399999999999999772404279951842909213155508041382,-0.047300000000000001765254609153998899273574352264404,0.033199999999999993405275233726570149883627891540527,0.0050000000000000044408920985006261616945266723632812,-0.02990000000000000296429547574916796293109655380249,0.011899999999999993915977825054142158478498458862305,-0.033700000000000000788258347483861143700778484344482,-0.040800000000000002930988785010413266718387603759766,-0.033899999999999999578115250642440514639019966125488,0.044599999999999986877163848930649692192673683166504,0.010099999999999997868371792719699442386627197265625,0.014499999999999999000799277837359113618731498718262,0.0015000000000000013322676295501878485083580017089844,0.048599999999999990429877527731150621548295021057129,0.027200000000000001953992523340275511145591735839844,0.016299999999999995048405310171801829710602760314941,0.036599999999999993649524299144104588776826858520508,0.001399999999999998467892226017283974215388298034668,0.012999999999999997668531648287171265110373497009277,0.047799999999999995270449915096833137795329093933105,0.049199999999999993738342141114117112010717391967773,-0.040100000000000003697042672001771279610693454742432,0.049899999999999999911182158029987476766109466552734,0.014799999999999993716137680621613981202244758605957,-0.035600000000000006639133687258436111733317375183105,-0.023400000000000000660582699651968141552060842514038,0.027399999999999993804955522591626504436135292053223,0.0282000000000000028421709430404007434844970703125,0.01589999999999999746869150385464308783411979675293,-0.021000000000000004773959005888173123821616172790527,0.014200000000000004285460875053104246035218238830566,-0.021400000000000005823119764158946054521948099136353,0.016899999999999998356869923554768320173025131225586,0.032599999999999990096810620343603659421205520629883,0.033499999999999988120613636510825017467141151428223,0.036900000000000002242650509742816211655735969543457,0.029600000000000001310063169057684717699885368347168,-0.015000000000000006383782391594650107435882091522217,0.045999999999999999222843882762390421703457832336426,0.04559999999999998776534226863077492453157901763916,-0.020500000000000004329869796038110507652163505554199,0.041200000000000000510702591327572008594870567321777,0.045199999999999990185628462313616182655096054077148,0.03089999999999999691357999154206481762230396270752,-0.025100000000000004252154184314349549822509288787842,0.022300000000000000377475828372553223744034767150879,0.032399999999999998245847621092252666130661964416504,-0.0032999999999999973798736618846305646002292633056641,0.0088999999999999912514425659537664614617824554443359,0.030499999999999999333866185224906075745820999145508,-0.0056000000000000008104628079763642745092511177062988,0.0079999999999999932276395497865451034158468246459961,0.040300000000000002486899575160350650548934936523438,-0.0057999999999999996003197111349436454474925994873047,0.0078999999999999903632641462536412291228771209716797,-0.045299999999999999988897769753748434595763683319092,-0.04400000000000000438538094726936833467334508895874,-0.014800000000000007593925488436070736497640609741211,-0.032000000000000000666133814775093924254179000854492,-0.043000000000000003497202527569243102334439754486084,0.049399999999999999467092948179924860596656799316406,0.032199999999999992517096814026444917544722557067871,-0.014400000000000003075317778211683616973459720611572,0.016200000000000006061817714453354710713028907775879,0.049899999999999999911182158029987476766109466552734,0.0042000000000000023425705819590803002938628196716309,0.038199999999999997846167332227196311578154563903809,0.029399999999999995581312361991876969113945960998535,0.039099999999999995869970348394417669624090194702148,-0.030700000000000001593170040337099635507911443710327,-0.039900000000000004907185768843191908672451972961426,-0.031500000000000000222044604925031308084726333618164,-0.039600000000000003252953462151708663441240787506104,-0.044800000000000006483702463810914196074008941650391,-0.015400000000000003963496197911808849312365055084229,0.020399999999999987587706584690749878063797950744629,0.027399999999999993804955522591626504436135292053223,0.002099999999999997701838339025925961323082447052002,-0.033000000000000001554312234475219156593084335327148,0.021399999999999988475885004390875110402703285217285,-0.01750000000000000166533453693773481063544750213623,0.046599999999999988653520688330900156870484352111816,-0.020700000000000003119726699196689878590404987335205,0.0079999999999999932276395497865451034158468246459961,0.025899999999999992472687893041438655927777290344238,0.037199999999999996957988912527071079239249229431152,0.012600000000000000088817841970012523233890533447266,0.031799999999999994937383007709286175668239593505859,0.007499999999999992783550339936482487246394157409668,0.030499999999999999333866185224906075745820999145508,0.038800000000000001154631945610162802040576934814453,0.006799999999999993549604226927840500138700008392334,0.047799999999999995270449915096833137795329093933105,-0.025700000000000004091171845743701851461082696914673,0.0080999999999999960920149533194489777088165283203125,0.047599999999999989541699108031025389209389686584473,0.028399999999999994693133942291751736775040626525879,-0.0037999999999999978239628717346931807696819305419922,-0.037900000000000003130828929442941443994641304016113,-0.047300000000000001765254609153998899273574352264404,0.015399999999999997024602294004580471664667129516602,-0.027900000000000001187938636348917498253285884857178,0.0062999999999999931055150170777778839692473411560059,-0.039100000000000002808864252301646047271788120269775,-0.022800000000000000821565038222615839913487434387207,-0.024000000000000000499600361081320443190634250640869,-0.033500000000000001998401444325281772762537002563477,-0.010200000000000000732747196252603316679596900939941,0.027999999999999997113420135974592994898557662963867,0.018600000000000005417888360170763917267322540283203,-0.0037000000000000018984813721090176841244101524353027,-0.0042999999999999982680520815847557969391345977783203,0.015100000000000002309263891220325604081153869628906,0.025599999999999997757349490257183788344264030456543,-0.046400000000000003741451592986777541227638721466064,-0.0090000000000000079936057773011270910501480102539062,0.047899999999999998134825318629737012088298797607422,-0.048700000000000000233146835171282873488962650299072,-0.027300000000000001348920974919565196614712476730347,0.0052999999999999991562305012848810292780399322509766,-0.033100000000000004418687638008123030886054039001465,-0.0034000000000000002442490654175344388931989669799805,-0.0027000000000000079491968563161208294332027435302734,-0.035300000000000004984901380566952866502106189727783,-0.04400000000000000438538094726936833467334508895874,-0.044700000000000003619327060278010321781039237976074,-0.002600000000000005084821452783216955140233039855957,-0.030400000000000003408384685599230579100549221038818,0.0015000000000000013322676295501878485083580017089844,0.04469999999999998974153925246355356648564338684082,-0.027800000000000001793010184769627812784165143966675,0.0020000000000000017763568394002504646778106689453125,-0.033300000000000003208544541166702401824295520782471,0.028399999999999994693133942291751736775040626525879,0.048099999999999989985788317881088005378842353820801,0.02910000000000000086597395920762210153043270111084,-0.045600000000000001643130076445231679826974868774414,-0.035500000000000003774758283725532237440347671508789,0.004000000000000003552713678800500929355621337890625,-0.03250000000000000111022302462515654042363166809082,0.032999999999999987676524426660762401297688484191895,-0.049800000000000003985700658404311980120837688446045,0.013100000000000000532907051820075139403343200683594,-0.001900000000000005850875339774574968032538890838623,-0.039100000000000002808864252301646047271788120269775,-0.048199999999999999789057625321220257319509983062744,-0.025800000000000003486100297322991536930203437805176,-0.041300000000000003375077994860475882887840270996094,-0.047000000000000000111022302462515654042363166809082,0.031999999999999986788346006960637168958783149719238,0.049199999999999993738342141114117112010717391967773,-0.030100000000000001754152378907747333869338035583496,-0.021400000000000005823119764158946054521948099136353,-0.0035999999999999990341059685761138098314404487609863,0.019699999999999995292654375589336268603801727294922,-0.015500000000000006827871601444712723605334758758545,0.0015999999999999972577491291758633451536297798156738,0.0022000000000000005662137425588298356160521507263184,0.039199999999999998734345751927321543917059898376465,-0.011800000000000004929390229335695039480924606323242,-0.0032000000000000014543921622589550679549574851989746,-0.038699999999999998290256542077258927747607231140137,0.040199999999999999622524171627446776255965232849121,0.013499999999999998112620858137233881279826164245605,-0.025100000000000004252154184314349549822509288787842,0.038199999999999997846167332227196311578154563903809,0.027700000000000002398081733190338127315044403076172,0.014399999999999996136423874304455239325761795043945,-0.012200000000000002509104035652853781357407569885254,-0.01839999999999999968913755310495616868138313293457,0.031799999999999994937383007709286175668239593505859,-0.029300000000000003125277814319815661292523145675659,-0.018300000000000003763656053479280672036111354827881,-0.0051000000000000003663735981263016583397984504699707,-0.046100000000000002087219286295294295996427536010742,-0.0074000000000000037969627442180353682488203048706055,0.031799999999999994937383007709286175668239593505859,0.01320000000000000339728245535297901369631290435791,0.036400000000000001798561299892753595486283302307129,0.034799999999999997601918266809661872684955596923828,-0.0047999999999999987121412914348184131085872650146484,0.035499999999999989896970475911075482144951820373535,-0.045400000000000002853273173286652308888733386993408,-0.041100000000000004585221091701896511949598789215088,0.017000000000000001221245327087672194465994834899902,-0.04060000000000000414113188185183389578014612197876,0.028499999999999997557509345824655611068010330200195,-0.031400000000000004296563105299355811439454555511475,0.011499999999999996336264018736983416602015495300293,0.017700000000000007394085344003542559221386909484863,0.0066999999999999906852288233949366258457303047180176,-0.041700000000000000954791801177634624764323234558105,0.028899999999999995137223152141814352944493293762207,0.031999999999999986788346006960637168958783149719238,-0.043099999999999999422684027194918598979711532592773,-0.011099999999999998756550212419824674725532531738281,-0.044700000000000003619327060278010321781039237976074,0.034499999999999989008792056210950249806046485900879,-0.046800000000000001321165399303936283104121685028076,-0.0070000000000000062172489379008766263723373413085938,0.0011999999999999996780353228587046032771468162536621,0.034999999999999989452881266061012865975499153137207,0.048899999999999999023003738329862244427204132080078,0.032799999999999995825561427409411408007144927978516,0.01499999999999999944488848768742172978818416595459,-0.047300000000000001765254609153998899273574352264404,0.010499999999999995448085599036858184263110160827637,-0.0033024363221099942329594956191840537940151989459991,-0.12437866404113634422046175131981726735830307006836,-0.0031581089061366385620233110387289343634620308876038,0.016599869140450387167140533506426436360925436019897,-0.0038031321156309222386582291619561146944761276245117,0.06321476303871140234313941164145944640040397644043,0.00449322021410989650563871933286463900003582239151,0.0044588327313886616867777412664963776478543877601624,-0.015499999722431762397278909304532135138288140296936,-0.032566753305789633565758833810832584276795387268066,-0.016600020043001390696035812766240269411355257034302,0.043588460415169942574475925312071922235190868377686,0.027099992812264619979067958865925902500748634338379,-0.057060798227204938271039935671069542877376079559326,-0.0052000048277021692147426001895382796647027134895325,-0.029720653567835743358305222727722139097750186920166,-0.089906147449454298925530792985227890312671661376953,-0.027882557701715160458633135931449942290782928466797,-0.021728227166745606169229176884982734918594360351562,0.0046831603444850494408213670283203100552782416343689,-0.017003798655285805307979529743533930741250514984131,-0.003099730235049502624633532832376658916473388671875,0.041927784317647001643969417727930704131722450256348,-0.03980423586088283754991223872821137774735689163208,0.04355718030727150080760878836372285149991512298584,0.0090947516897003435887292255301872501149773597717285,-0.041001198925558306196403890453439089469611644744873,-0.034099593279394997680231682579687912948429584503174,0.027791682344173406632448219966136093717068433761597,-0.0032922461998479432901398844535378884756937623023987,0.026394665294690172752112289344950113445520401000977,-0.15617224712455718416137528947729151695966720581055,-0.002327238466885393763927680765846162103116512298584,0.0083997134627103089282718073604883102234452962875366,-0.024306858253191853530550403661436575930565595626831,0.079199567343385415818524108999554300680756568908691,-0.060563121255311089252693079743039561435580253601074,-0.01928496970885586192512306524804444052278995513916,0.034000000607778739503128662136077764444053173065186,0.049414178106288252079192346855052164755761623382568,-0.0025000438872616551760907910306741541717201471328735,0.01439887021942386213790854299077182076871395111084,0.033499984261338038027400187957027810625731945037842,-0.0079503685319832224226432870750613801646977663040161,0.038699989428996980911357184140797471627593040466309,-0.0221831552261230850742190767732608946971595287323,-0.090344495277253328291422462825721595436334609985352,-0.021353186691686645154453216832735051866620779037476,0.042327847410746681500182120316821965388953685760498,-0.040985148900868940968766906962628127075731754302979,-0.019818662572780983144316024890940752811729907989502,0.0073005906922191995261917085713321284856647253036499,0.038484976005882229332932809029443887993693351745605,-0.029809275074691735096799050097615690901875495910645,0.0076717568797151827059144224563169700559228658676147,-0.0024442506104837401909035676794701430480927228927612,-0.017502625233550093281076343032509612385183572769165,-0.038499109422123534152149204601300880312919616699219,-0.045923385211896178281776315088791307061910629272461,-0.04050198736863256515627895737452490720897912979126,0.0082999999999999948818718564780283486470580101013184,0.029300000000000006594724766273429850116372108459473,-0.046100000000000002087219286295294295996427536010742,-0.0088000000000000022648549702353193424642086029052734,0.022800000000000000821565038222615839913487434387207,-0.020500000000000004329869796038110507652163505554199,0.020299999999999998601118988972302759066224098205566,0.048599999999999990429877527731150621548295021057129,0.011399999999999993471888615204079542309045791625977,0.039400000000000004463096558993129292502999305725098,-0.020900000000000005379030554308883438352495431900024,-0.0060000000000000053290705182007513940334320068359375,0.027099999999999999089617119807371636852622032165527,-0.037400000000000002686739719592878827825188636779785,-0.046400000000000003741451592986777541227638721466064,0.015799999999999994604316100321739213541150093078613,0.025999999999999995337063296574342530220746994018555,0.033599999999999990984989040043728891760110855102539,-0.010200000000000000732747196252603316679596900939941,-0.048700000000000000233146835171282873488962650299072,-0.024000000000000000499600361081320443190634250640869,0.017700000000000007394085344003542559221386909484863,0.0084999999999999936717287596366077195852994918823242,-0.034800000000000004540812170716890250332653522491455,0.037800000000000000266453525910037569701671600341797,0.011099999999999998756550212419824674725532531738281,-0.047700000000000006283862319378386018797755241394043,0.005400000000000002020605904817784903571009635925293,0.022499999999999992228438827623904217034578323364258,-0.0095999999999999974242825828696368262171745300292969,0.01499999999999999944488848768742172978818416595459,0.01589999999999999746869150385464308783411979675293,0.0049000000000000015765166949677222874015569686889648,-0.045900000000000003297362383136714925058186054229736,-0.042900000000000000632827124036339228041470050811768,-0.022399999999999999772404279951842909213155508041382,-0.016500000000000000777156117237609578296542167663574,0.02730000000000000481836792687317938543856143951416,0.011299999999999997546407115578404045663774013519287,-0.020000000000000003885780586188047891482710838317871,-0.048199999999999999789057625321220257319509983062744,0.040400000000000005351274978693254524841904640197754,0.023899999999999990696331053641188191249966621398926,0.028899999999999995137223152141814352944493293762207,-0.011900000000000000854871728961370536126196384429932,0.027399999999999993804955522591626504436135292053223,-0.005400000000000002020605904817784903571009635925293,-0.036000000000000004218847493575594853609800338745117,0.010899999999999993027799405354016926139593124389648,0.0342999999999999971578290569595992565155029296875,-0.034800000000000004540812170716890250332653522491455,0.036799999999999999378275106209912337362766265869141,0.037199999999999996957988912527071079239249229431152,-0.041200000000000000510702591327572008594870567321777,-0.012900000000000001743050148661495768465101718902588,-0.039900000000000004907185768843191908672451972961426,0.019799999999999998157029779122240142896771430969238,0.02449999999999999400479566702415468171238899230957,0.015499999999999999888977697537484345957636833190918,0.027499999999999996669330926124530378729104995727539,-0.035100000000000006195044477408373495563864707946777,0.015600000000000002753353101070388220250606536865234,0.028499999999999997557509345824655611068010330200195,-0.045100000000000001199040866595169063657522201538086,0.019599999999999992428278972056432394310832023620605,0.035499999999999989896970475911075482144951820373535,-0.017600000000000004529709940470638684928417205810547,-0.046900000000000004185540802836840157397091388702393,0.047899999999999998134825318629737012088298797607422,-0.02110000000000000416888745746746280929073691368103,-0.017000000000000001221245327087672194465994834899902,0.049699999999999994182431350964179728180170059204102,0.0044000000000000011324274851176596712321043014526367,-0.043099999999999999422684027194918598979711532592773,-0.036299999999999998934185896359849721193313598632812,0.042400000000000007127631818093504989519715309143066,0.034199999999999994293453653426695382222533226013184,0.043400000000000008015810237793630221858620643615723,-0.043700000000000002731148640577885089442133903503418,0.030300000000000007482903185973555082455277442932129,-0.037200000000000003896882816434299456886947154998779,-0.028600000000000003891331701311173674184828996658325,0.017000000000000001221245327087672194465994834899902,0.049899999999999999911182158029987476766109466552734,0.015299999999999994160226890471676597371697425842285,-0.045900000000000003297362383136714925058186054229736,-0.040000000000000000832667268468867405317723751068115,-0.0149000000000000035194069880617462331429123878479,0.028499999999999997557509345824655611068010330200195,0.02539999999999999202859868319137603975832462310791,-0.0023000000000000034305891460917337099090218544006348,-0.021500000000000005218048215738235739991068840026855,-0.0091000000000000039190872769268025876954197883605957,-0.023900000000000001104671909502030757721513509750366,-0.01669999999999999956701302039618894923478364944458,-0.039500000000000007327471962526033166795969009399414,-0.0032000000000000014543921622589550679549574851989746,-0.049100000000000004751754545395669993013143539428711,-0.0013000000000000025424107263916084775701165199279785,0.029800000000000007038813976123492466285824775695801,-0.020300000000000005540012892879531136713922023773193,-0.033200000000000000344169137633798527531325817108154,-0.035400000000000000910382880192628363147377967834473,0.033999999999999988564702846360887633636593818664551,-0.026400000000000003325117958752343838568776845932007,-0.021800000000000006872280522429718985222280025482178,0.026300000000000003930189507173054153099656105041504,-0.0070000000000000062172489379008766263723373413085938,-0.028500000000000004496403249731883988715708255767822,-0.032300000000000002320366121466577169485390186309814,-0.026800000000000000904831765069502580445259809494019,-0.015699999999999998678834600696063716895878314971924,-0.011000000000000002831068712794149178080260753631592,-0.024700000000000003202993426043576619122177362442017,0.01929999999999999771294056927217752672731876373291,-0.010599999999999998312461002569762058556079864501953,-0.020700000000000003119726699196689878590404987335205,-0.035600000000000006639133687258436111733317375183105,0.024399999999999991140420263491250807419419288635254,-0.0070000000000000062172489379008766263723373413085938,0.039699999999999999178434961777384160086512565612793,0.0071999999999999911293180332449992420151829719543457,0.021399999999999988475885004390875110402703285217285,0.015799999999999994604316100321739213541150093078613,-0.031500000000000000222044604925031308084726333618164,-0.010099999999999997868371792719699442386627197265625,-0.038600000000000002364775042451583431102335453033447,0.015200000000000005173639294753229478374123573303223,-0.0093000000000000027089441800853819586336612701416016,0.045199999999999990185628462313616182655096054077148,-0.0051000000000000003663735981263016583397984504699707,-0.044500000000000004829470157119430950842797756195068,-0.038100000000000001920685832601520814932882785797119,0.0094999999999999945599071793367329519242048263549805,0.039400000000000004463096558993129292502999305725098,-0.014500000000000005939693181744587491266429424285889,-0.027200000000000001953992523340275511145591735839844,-0.0492000000000000006772360450213454896584153175354,-0.036400000000000001798561299892753595486283302307129,-0.0057000000000000036748382115092681488022208213806152,-0.03160000000000000308642000845793518237769603729248,-0.013300000000000006261657858885882887989282608032227,-0.036299999999999998934185896359849721193313598632812,0.042499999999999996114219413811952108517289161682129,0.011899999999999993915977825054142158478498458862305,-0.031900000000000004740652315149418427608907222747803,-0.018200000000000000899280649946376797743141651153564,-0.023600000000000002919886554764161701314151287078857,-0.01750000000000000166533453693773481063544750213623,-0.0086000000000000034749980670767399715259671211242676,0.01929999999999999771294056927217752672731876373291,0.0072999999999999939936934367779031163081526756286621,0.048500000000000001443289932012703502550721168518066,0.025800000000000003486100297322991536930203437805176,-0.027000000000000003164135620181696140207350254058838,0.002099999999999997701838339025925961323082447052002,0.00079999999999999515942761263431748375296592712402344,0.019499999999999989563903568523528520017862319946289,-0.032800000000000002764455331316639785654842853546143,0.04140000000000000623945339839337975718080997467041,0.014600000000000001865174681370262987911701202392578,0.047299999999999994826360705246770521625876426696777,0.046799999999999994382271495396707905456423759460449,0.026499999999999995781152506424405146390199661254883,0.041900000000000006683542608243442373350262641906738,-0.028700000000000003286260152890463359653949737548828,-0.0029000000000000067390537594747002003714442253112793,-0.035400000000000000910382880192628363147377967834473,-0.028000000000000004052314039881821372546255588531494,0.010599999999999998312461002569762058556079864501953,0.043999999999999997446487043362139957025647163391113,-0.0097000000000000002886579864025407005101442337036133,0.047199999999999991961985301713866647332906723022461,-0.0072000000000000050071058410594559973105788230895996,-0.017300000000000002875477633779155439697206020355225,0.044199999999999989297450042613490950316190719604492,0.010899999999999993027799405354016926139593124389648,0.014499999999999999000799277837359113618731498718262,-0.029500000000000005384581669432009221054613590240479,0.043300000000000005151434834260726347565650939941406,-0.044200000000000003175237850427947705611586570739746,-0.025100000000000004252154184314349549822509288787842,0.00050000000000000044408920985006261616945266723632812,-0.010599999999999998312461002569762058556079864501953,-0.01410000000000000142108547152020037174224853515625,-0.041300000000000003375077994860475882887840270996094,0.041499999999999995226040994111826876178383827209473,0.036599999999999993649524299144104588776826858520508,-0.036700000000000003452793606584236840717494487762451,-0.0062000000000000041189274213593307649716734886169434,0.027999999999999997113420135974592994898557662963867,0.027899999999999994249044732441689120605587959289551,-0.0090000000000000079936057773011270910501480102539062,-0.040100000000000003697042672001771279610693454742432,0.03949999999999999344968415471157641150057315826416,0.018000000000000002109423746787797426804900169372559,-0.018800000000000004207745263329343288205564022064209,0.021699999999999997069011214989586733281612396240234,0.032599999999999990096810620343603659421205520629883,0.038300000000000000710542735760100185871124267578125,-0.017800000000000003319566843629218055866658687591553,-0.038300000000000000710542735760100185871124267578125,-0.021400000000000005823119764158946054521948099136353,0.014499999999999999000799277837359113618731498718262,0.0045000000000000039968028886505635455250740051269531,0.046399999999999996802557689079549163579940795898438,0.04379999999999999171773623629633220843970775604248,-0.034700000000000001676436767183986376039683818817139,0.045999999999999999222843882762390421703457832336426,-0.035700000000000002564615186884111608378589153289795,-0.0063000000000000000444089209850062616169452667236328,-0.013100000000000000532907051820075139403343200683594,-0.010899999999999999966693309261245303787291049957275,-0.020700000000000003119726699196689878590404987335205,0.026300000000000003930189507173054153099656105041504,0.024899999999999991584509473341313423588871955871582,-0.012099999999999999644728632119949907064437866210938,-0.047100000000000002975397705995419528335332870483398,0.046699999999999991517896091863804031163454055786133,0.036400000000000001798561299892753595486283302307129,-0.0034000000000000002442490654175344388931989669799805,0.024599999999999996869171070557058556005358695983887,0.049399999999999999467092948179924860596656799316406,-0.027200000000000001953992523340275511145591735839844,-0.030400000000000003408384685599230579100549221038818,0.038800000000000001154631945610162802040576934814453,-0.024100000000000003363975764614224317483603954315186,0.035900000000000001354472090042690979316830635070801,0.04559999999999998776534226863077492453157901763916,-0.0064000000000000029087843245179101359099149703979492,0.024199999999999999289457264239899814128875732421875,-0.022300000000000000377475828372553223744034767150879,0.0052999999999999991562305012848810292780399322509766,-0.012099999999999999644728632119949907064437866210938,-0.022700000000000001426636586643326154444366693496704,-0.040300000000000002486899575160350650548934936523438,-0.01580000000000000154321000422896759118884801864624,-0.02900000000000000494049245958194660488516092300415,-0.025100000000000004252154184314349549822509288787842,-0.019800000000000005095923683029468520544469356536865,0.020399999999999987587706584690749878063797950744629,-0.046300000000000000877076189453873666934669017791748,0.017000000000000001221245327087672194465994834899902,-0.0052999999999999991562305012848810292780399322509766,-0.017100000000000004085620730620576068758964538574219,0.028399999999999994693133942291751736775040626525879,0.004700000000000002786659791809142916463315486907959,0.020799999999999999045208198822365375235676765441895,-0.033600000000000004862776847858185647055506706237793,0.0012999999999999956035168224843800999224185943603516,0.0070999999999999952038365336193237453699111938476562,0.048199999999999992850163721413991879671812057495117,0.010999999999999995892174808886920800432562828063965,0.041599999999999998090416397644730750471353530883789,-0.029100000000000004335420911161236290354281663894653,0.030600000000000002198241588757809950038790702819824,0.030300000000000007482903185973555082455277442932129,0.031899999999999997801758411242190049961209297180176,-0.048400000000000005517808432387028005905449390411377,-0.039000000000000006883382752675970550626516342163086,-0.024500000000000000943689570931383059360086917877197,-0.039100000000000002808864252301646047271788120269775,-0.011400000000000000410782519111307919956743717193604,0.030700000000000005062616992290713824331760406494141,-0.0013000000000000025424107263916084775701165199279785,-0.049000000000000001887379141862766118720173835754395,0.040300000000000002486899575160350650548934936523438,-0.031900000000000004740652315149418427608907222747803,0.0070999999999999952038365336193237453699111938476562,0.00029999999999999471533840278425486758351325988769531,0.03339999999999999913402604079237789846956729888916,-0.022499999999999999167332731531132594682276248931885,0.0039000000000000006883382752675970550626516342163086,0.00029999999999999471533840278425486758351325988769531,-0.042700000000000001842970220877759857103228569030762,-0.028100000000000003447242491461111058015376329421997,0.013899999999999995692334664454392623156309127807617,0.011899999999999993915977825054142158478498458862305,0.042599999999999998978594817344855982810258865356445,0.030200000000000004618527782440651208162307739257812,-0.036799999999999999378275106209912337362766265869141,0.034799999999999997601918266809661872684955596923828,0.028300000000000005706546346573304617777466773986816,0.024099999999999996425081860706995939835906028747559,-0.038500000000000006439293542825907934457063674926758,-0.015699999999999998678834600696063716895878314971924,0.039800000000000002042810365310288034379482269287109,0.041700000000000000954791801177634624764323234558105,-0.033800000000000003652633751016765017993748188018799,0.04140000000000000623945339839337975718080997467041,-0.047400000000000004629630012686902773566544055938721,-0.0084000000000000046851411639181606005877256393432617,-0.012600000000000000088817841970012523233890533447266,0.026300000000000003930189507173054153099656105041504,0.0073999999999999899191749364035786129534244537353516,0.03609999999999999320543508929404197260737419128418,-0.037600000000000001476596622751458198763430118560791,0.032799999999999995825561427409411408007144927978516,-0.045900000000000003297362383136714925058186054229736,0.019499999999999989563903568523528520017862319946289,0.018200000000000007838174553853605175390839576721191,0.037400000000000002686739719592878827825188636779785,-0.017899999999999999245048343254893552511930465698242,-0.028000000000000004052314039881821372546255588531494,0.022800000000000000821565038222615839913487434387207,-0.01070000000000000117683640610266593284904956817627,0.028999999999999998001598555674718227237462997436523,0.021799999999999999933386618522490607574582099914551,-0.013700000000000003841371665203041629865765571594238,-0.04320000000000000228705943072782247327268123626709,0.0020000000000000017763568394002504646778106689453125,-0.00060000000000000330846461338296649046242237091064453,-0.023300000000000001265654248072678456082940101623535,-0.019800000000000005095923683029468520544469356536865,0.0086999999999999924615856627951870905235409736633301,-0.011800000000000004929390229335695039480924606323242,0.049699999999999994182431350964179728180170059204102,0.033599999999999990984989040043728891760110855102539,-0.020200000000000002675637489346627262420952320098877,-0.034200000000000001232347557333923759870231151580811,-0.039900000000000004907185768843191908672451972961426,0.017600000000000004529709940470638684928417205810547,0.042499999999999996114219413811952108517289161682129,-0.0025000000000000022204460492503130808472633361816406,0.028999999999999998001598555674718227237462997436523,0.034999999999999989452881266061012865975499153137207,-0.016500000000000000777156117237609578296542167663574,-0.023400000000000000660582699651968141552060842514038,0.017700000000000007394085344003542559221386909484863,0.022699999999999997957189634689711965620517730712891,-0.018800000000000004207745263329343288205564022064209,-0.014200000000000004285460875053104246035218238830566,0.045199999999999990185628462313616182655096054077148,0.01320000000000000339728245535297901369631290435791,0.042900000000000007571721027943567605689167976379395,0.017899999999999999245048343254893552511930465698242,-0.01240000000000000129896093881143315229564905166626,0.021799999999999999933386618522490607574582099914551,-0.010300000000000003597122599785507190972566604614258,-0.041000000000000001720845688168992637656629085540771,0.028499999999999997557509345824655611068010330200195,-0.023200000000000001870725796493388770613819360733032,0.0083999999999999908073533561037038452923297882080078,-0.044800000000000006483702463810914196074008941650391,0.042099999999999998534505607494793366640806198120117,0.0022000000000000005662137425588298356160521507263184,-0.0067000000000000045630166312093933811411261558532715,0.041700000000000000954791801177634624764323234558105,-0.014300000000000007149836278586008120328187942504883,-0.041800000000000003819167204710538499057292938232422,-0.0074000000000000037969627442180353682488203048706055,-0.0042000000000000023425705819590803002938628196716309,-0.039100000000000002808864252301646047271788120269775,0.02019999999999999573674358543939888477325439453125,0.04320000000000000228705943072782247327268123626709,-0.024900000000000001992850329202155990060418844223022,0.0051000000000000003663735981263016583397984504699707,0.011799999999999997990496325428466661833226680755615,0.0015999999999999972577491291758633451536297798156738,-0.027300000000000001348920974919565196614712476730347,-0.015600000000000002753353101070388220250606536865234,0.032699999999999992961186023876507533714175224304199,0.043599999999999999866773237044981215149164199829102,0.014700000000000004729550084903166862204670906066895,0.030999999999999999777955395074968691915273666381836,0.036400000000000001798561299892753595486283302307129,-0.01750000000000000166533453693773481063544750213623,0.0037000000000000018984813721090176841244101524353027,0.043400000000000008015810237793630221858620643615723,-0.042700000000000001842970220877759857103228569030762,0.012600000000000000088817841970012523233890533447266,0.021799999999999999933386618522490607574582099914551,0.019199999999999994848565165739273652434349060058594,0.006100000000000001254552017826426890678703784942627,-0.037900000000000003130828929442941443994641304016113,0.011299999999999997546407115578404045663774013519287,-0.041800000000000003819167204710538499057292938232422,0.0052999999999999991562305012848810292780399322509766,0.0028999999999999998001598555674718227237462997436523,0.02910000000000000086597395920762210153043270111084,0.048699999999999993294252931264054495841264724731445,-0.019300000000000004651834473179405904375016689300537,-0.025200000000000003647082635893639235291630029678345,-0.040500000000000001276756478318930021487176418304443,-0.0492000000000000006772360450213454896584153175354,0.0030999999999999985900167587260511936619877815246582,-0.015500000000000006827871601444712723605334758758545,0.041099999999999997646327187794668134301900863647461,0,-0.028800000000000002681188604469753045123070478439331,-0.0011000000000000037525538232330291066318750381469727,0.0342999999999999971578290569595992565155029296875,-0.011000000000000002831068712794149178080260753631592,-0.0075000000000000066613381477509392425417900085449219,0.034099999999999991429078249893791507929563522338867,-0.030100000000000001754152378907747333869338035583496,0.013999999999999998556710067987296497449278831481934,0.0017000000000000001221245327087672194465994834899902,-0.041300000000000003375077994860475882887840270996094,0.0072999999999999939936934367779031163081526756286621,0.0089999999999999941158179694866703357547521591186523,0.021299999999999999489297408672427991405129432678223,0.014299999999999993272048470771551365032792091369629,-0.021899999999999999328315070101780293043702840805054,0.012499999999999997224442438437108648940920829772949,0.026300000000000003930189507173054153099656105041504,0.039300000000000001598721155460225418210029602050781,0.020699999999999996180832795289461500942707061767578,-0.01839999999999999968913755310495616868138313293457,0.027399999999999993804955522591626504436135292053223,0.034900000000000000466293670342565746977925300598145,-0.019800000000000005095923683029468520544469356536865,-0.042000000000000002609024107869117869995534420013428,-0.040400000000000005351274978693254524841904640197754,0.02480000000000000259792187762286630459129810333252,-0.006100000000000001254552017826426890678703784942627,0.047799999999999995270449915096833137795329093933105,-0.0055000000000000048849813083506887778639793395996094,-0.015100000000000002309263891220325604081153869628906,-0.0023000000000000034305891460917337099090218544006348,0.015600000000000002753353101070388220250606536865234,-0.031000000000000003247402347028582880739122629165649,0.017100000000000004085620730620576068758964538574219,-0.010200000000000000732747196252603316679596900939941,0.011399999999999993471888615204079542309045791625977,0.0010999999999999968136599193258007289841771125793457,0.0095999999999999974242825828696368262171745300292969,0.010499999999999995448085599036858184263110160827637,-0.047300000000000001765254609153998899273574352264404,-0.046499999999999999666933092612453037872910499572754,-0.032200000000000006394884621840901672840118408203125,0.046799999999999994382271495396707905456423759460449,-0.040100000000000003697042672001771279610693454742432,0.031999999999999986788346006960637168958783149719238,0.010099999999999997868371792719699442386627197265625,0.022300000000000000377475828372553223744034767150879,0.008199999999999992017496452945124474354088306427002,0.034499999999999989008792056210950249806046485900879,0.028099999999999999977795539507496869191527366638184,-0.025100000000000004252154184314349549822509288787842,0.011799999999999997990496325428466661833226680755615,0.012899999999999994804156244754267390817403793334961,0.040199999999999999622524171627446776255965232849121,-0.045100000000000001199040866595169063657522201538086,-0.042400000000000000188737914186276611872017383575439,-0.049800000000000003985700658404311980120837688446045,0.033999999999999988564702846360887633636593818664551,-0.044700000000000003619327060278010321781039237976074,-0.005400000000000002020605904817784903571009635925293,0.004000000000000003552713678800500929355621337890625,0.038099999999999994981791928694292437285184860229492,-0.004700000000000002786659791809142916463315486907959,0.02289999999999998980815263394106295891106128692627,0.0051000000000000003663735981263016583397984504699707,0.034999999999999989452881266061012865975499153137207,0.019399999999999986699528164990624645724892616271973,-0.008700000000000006339373470609643845818936824798584,0.029800000000000007038813976123492466285824775695801,-0.020100000000000003280709037767337576951831579208374,0.029200000000000003730349362740525975823402404785156,0.033199999999999993405275233726570149883627891540527,-0.0024000000000000062949645496246375842019915580749512,0.025899999999999992472687893041438655927777290344238,-0.021800000000000006872280522429718985222280025482178,0.014700000000000004729550084903166862204670906066895,-0.01410000000000000142108547152020037174224853515625,-0.049600000000000005195843755245732609182596206665039,-0.027200000000000001953992523340275511145591735839844,0.0056000000000000008104628079763642745092511177062988,0.028499999999999997557509345824655611068010330200195,0.032899999999999998689936830942315282300114631652832,0.0025000000000000022204460492503130808472633361816406,-0.008700000000000006339373470609643845818936824798584,0.022999999999999992672528037473966833204030990600586,0.0073999999999999899191749364035786129534244537353516,-0.0011000000000000037525538232330291066318750381469727,0.023099999999999995536903441006870707497000694274902,0.026499999999999995781152506424405146390199661254883,0.039300000000000001598721155460225418210029602050781,0.0027999999999999969357844520345679484307765960693359,-0.019600000000000002836619827917274960782378911972046,0.027399999999999993804955522591626504436135292053223,0.048099999999999989985788317881088005378842353820801,-0.01150000000000000327515792264421179424971342086792,0.017600000000000004529709940470638684928417205810547,-0.031800000000000001876276911616514553315937519073486,-0.042200000000000001398881011027697240933775901794434,-0.041100000000000004585221091701896511949598789215088,-0.016899999999999998356869923554768320173025131225586,0.022800000000000000821565038222615839913487434387207,-0.026800000000000000904831765069502580445259809494019,0.001399999999999998467892226017283974215388298034668,-0.029700000000000000704991620636974403169006109237671,0.049000000000000001887379141862766118720173835754395,0.029499999999999998445687765524780843406915664672852,-0.02990000000000000296429547574916796293109655380249,0.020099999999999992872368181906495010480284690856934,0.029899999999999996025401571841939585283398628234863,0.028099999999999999977795539507496869191527366638184,-0.024400000000000001548761119352093373890966176986694,0.0082999999999999948818718564780283486470580101013184,0.010899999999999993027799405354016926139593124389648,0.027999999999999997113420135974592994898557662963867,-0.015300000000000008038014698286133352667093276977539,-0.016199999999999999122923810546126333065330982208252,0.020499999999999990452081988223653752356767654418945,-0.031300000000000001432187701766451937146484851837158,-0.0079000000000000042410519540680979844182729721069336,0.032099999999999989652721410493541043251752853393555,-0.042000000000000002609024107869117869995534420013428,0.044799999999999992605914655996457440778613090515137,-0.037500000000000005551115123125782702118158340454102,-0.029500000000000005384581669432009221054613590240479,-0.021999999999999998723243521681069978512823581695557,0.03609999999999999320543508929404197260737419128418,0.037999999999999992117416525161388562992215156555176,0.031399999999999997357669201392127433791756629943848,-0.021000000000000004773959005888173123821616172790527,-0.018000000000000002109423746787797426804900169372559,-0.035600000000000006639133687258436111733317375183105,-0.048199999999999999789057625321220257319509983062744,0.0051000000000000003663735981263016583397984504699707,0.015799999999999994604316100321739213541150093078613,0.0071999999999999911293180332449992420151829719543457,0.039300000000000001598721155460225418210029602050781,-0.0047999999999999987121412914348184131085872650146484,0.02730000000000000481836792687317938543856143951416,0.0092999999999999957700502761781535809859633445739746,-0.025000000000000001387778780781445675529539585113525,0.0052999999999999991562305012848810292780399322509766,-0.030000000000000002359223927328457648400217294692993,-0.03160000000000000308642000845793518237769603729248,-0.033899999999999999578115250642440514639019966125488,-0.016899999999999998356869923554768320173025131225586,0.038300000000000000710542735760100185871124267578125,0.034999999999999989452881266061012865975499153137207,-0.046400000000000003741451592986777541227638721466064,-0.043099999999999999422684027194918598979711532592773,0.012199999999999995570210131745625403709709644317627,-0.029200000000000003730349362740525975823402404785156,0,0.042200000000000001398881011027697240933775901794434,0.01839999999999999968913755310495616868138313293457,0.020399999999999987587706584690749878063797950744629,0.0052999999999999991562305012848810292780399322509766,0.0044000000000000011324274851176596712321043014526367,0.0083999999999999908073533561037038452923297882080078,-0.013400000000000002187139358511558384634554386138916,0.03339999999999999913402604079237789846956729888916,-0.024500000000000000943689570931383059360086917877197,0.0010000000000000008881784197001252323389053344726562,-0.029700000000000000704991620636974403169006109237671,0.030600000000000002198241588757809950038790702819824,0.0018999999999999989119814358673465903848409652709961,0.027399999999999993804955522591626504436135292053223,0.019799999999999998157029779122240142896771430969238,0.047000000000000000111022302462515654042363166809082,0.0045999999999999999222843882762390421703457832336426,0.014200000000000004285460875053104246035218238830566,0.0071999999999999911293180332449992420151829719543457,-0.0050000000000000044408920985006261616945266723632812,-0.030700000000000001593170040337099635507911443710327,-0.039300000000000001598721155460225418210029602050781,0.046199999999999991073806882013741414994001388549805,0.0022999999999999964916952421845053322613239288330078,0.048899999999999999023003738329862244427204132080078,0.031200000000000005506706202140776440501213073730469,0.040999999999999994781951784261764260008931159973145,-0.0090000000000000079936057773011270910501480102539062,0.028499999999999997557509345824655611068010330200195,-0.038199999998989993266196307786231045611202716827393,0.040900000010935862182481770332742598839104175567627,0.01947488334094059705958734696196188451722264289856,0.026900369820345042259912560211887466721236705780029,0.011300000009739930365015858626520639518275856971741,-0.02409992948635927834111214451695559546351432800293,-0.017221527795543853378568144307791953906416893005371,0.0047999999985164267662929304947283526416867971420288,0.012400001989981099606574765914501767838373780250549,0.0027189663507581119696043803202201161184348165988922,0.030200000000000004618527782440651208162307739257812,-0.0015000004444126514586282938878980530716944485902786,0.023199999999397032807157970069056318607181310653687,0.045899997735575764901128081874048803001642227172852,-0.049699998180087016919070919129808316938579082489014,0.035700000003982511331823701539178728125989437103271,-0.052340199347023261267075611158361425623297691345215,-0.01750002615784750428784555253969301702454686164856,0.026399199976130972855603573634653002955019474029541,0.014908135513211439801550817207953514298424124717712,-0.025199999999795854449535781327540462370961904525757,-0.029600000081418439273894804841802397277206182479858,0.034100000048325702917129120805839193053543567657471,0.020600000006310195677095009614276932552456855773926,-0.033400000013141625809787171874631894752383232116699,0.019090928849470549522049367396903107874095439910889,-0.045299999994808423653402940090018091723322868347168,-0.017099999995850372058736610370033304207026958465576,0.012582745554000540968986321388456417480483651161194,-0.0059940295562780727608997999311668536392971873283386,-0.038700000028629596982021610074298223480582237243652,0.024199999750441708590287248625827487558126449584961,-0.085967834156621861230185288604843663051724433898926,-0.097788619700058115880025866317737381905317306518555,0.0042999998923494197125561022687634249450638890266418,-0.011783926788655739795186327967257966520264744758606,-0.060997712388343852674132961055875057354569435119629,-0.026471146164405545686548748562927357852458953857422,-0.0033611878494447917052612151422863462357781827449799,-0.017734692224929446413561606732400832697749137878418,-0.038000000001262808357882505561065045185387134552002,-0.04660906572272598136219556863579782657325267791748,-0.025901347818786377152910915810934966430068016052246,-0.035512238275002647180933479376108152791857719421387,0.048699211775116886535830218463161145336925983428955,-0.025699999855389506903113883140576945152133703231812,-0.10938305211953919249268096791638527065515518188477,0.047534367571971630761495930528326425701379776000977,0.060521831974885025029475826841007801704108715057373,0.036149521121325127459567028154197032563388347625732,0.049500000010231547109551542007466196082532405853271,0.0018004615062551399679025010414079588372260332107544,-0.048300652986972052171932290320910396985709667205811,-0.031200000472354803143781865060191194061189889907837,-0.027600060286677344234540498746355297043919563293457,-0.087878974867011419580542508356302278116345405578613,0.040300000052003653872034760752285365015268325805664,-0.022999967806091984462435462432949861977249383926392,0.048128785086579785323923630357967340387403964996338,-0.028628306389270961884729871371746412478387355804443,-0.042300013313133356940287654879284673370420932769775,-0.033864210136264616402002047834685072302818298339844,-0.14527119391308979112764632191101554781198501586914,-0.054075980843002184605960991348183597438037395477295,-0.00040009400950457169867865991896849209297215566039085,0.02074992957758003617185771361164370318874716758728,-0.12646747596856444673107944254297763109207153320312,-0.023565360519404023736944608913290721829980611801147,0.062073170427323513809181321221331018023192882537842,-0.029119899123668427365352329161396482959389686584473,0.017999999998215415741853462350263725966215133666992,-0.025033024987281712187003890335290634538978338241577,0.022597276704373635280997945073977462016046047210693,-0.040335535392182875202848890694440342485904693603516,-0.0074996290319892851966576685640575306024402379989624,-0.034010001384575549998601218248950317502021789550781,-0.095090154988259165125263905338215408846735954284668,-0.012822056508124799259484838387379568303003907203674,0.02516671024623716099166692572453030152246356010437,0.043983842582516162467154430260052322410047054290771,-0.019825277266128458336647000237462634686380624771118,-0.0094982472865568507575106949047949456144124269485474,-0.019800984529506366477180634433352679479867219924927,0.016499994184971601002276386793710116762667894363403,-0.0091062073132811924974783224229213374201208353042603,-0.12224404071645597613660072511265752837061882019043,-0.030200005561544042420596412057420820929110050201416,0.03460013001581083852409292944685148540884256362915,0.017271741824024560568728858811482496093958616256714,-0.048278341444555443462416377542467671446502208709717,-0.012699805622341473268499534299280639970675110816956,-0.31159383215549169010571972648904193192720413208008,-0.22532786205334878748551830085489200428128242492676,-0.10763967746682764903276563472900306805968284606934,-0.013400135931993266066863945695786242140457034111023,0.29207032674097671565149880734679754823446273803711,-0.14104247424216534434471270742506021633744239807129,-0.01393979019959530607497555365625885315239429473877,0.17597018192203778275128911445790436118841171264648,0.0065303242945942349684251837516058003529906272888184,-0.032038414798959816143231194018881069496273994445801,-0.0065752332748809060036787599301533191464841365814209,-0.031391242291142727738328943587475805543363094329834,-0.30411412033315249336951069381029810756444931030273,0.035847844628857102045049742855553631670773029327393,0.17306810276912246160385677740123355761170387268066,-0.54826566419220856829497279250063002109527587890625,-0.080848361324621767498577185051544802263379096984863,0.034537150993602813708882592891313834115862846374512,0.084000800670949310466895099125395063310861587524414,0.00273859907883864479513635892260481341509148478508,0.024200019364324771437013694708184630144387483596802,-0.00033899824611896323166629341194777680357219651341438,-0.033199992277201349766269089514025836251676082611084,-0.24263719827152019359317591806757263839244842529297,-0.11525018525184345385969919561830465681850910186768,-0.045500042866504455951748298048187280073761940002441,-0.019300063630358806066045218585713882930576801300049,0.30289946229840386537901508745562750846147537231445,0.032297623680083299702037180622937739826738834381104,-0.044057462614716810800352675414615077897906303405762,-0.31076417200250228134450480865780264139175415039062,-0.045658013961809802705449357063116622157394886016846,-0.091878924536551692670016677766398061066865921020508,0.048129272362611899560569383993424708023667335510254,0.22508282144354330167601574430591426789760589599609,-0.066259698731092997459057869491516612470149993896484,-0.081755651457804265347384387041529407724738121032715,0.0091387140046150280164871659849268326070159673690796,-0.047599363630748257880664908725520945154130458831787,0.031019642843820291466805372238013660535216331481934,0.027985049572571456949487966880951717030256986618042,0.0096133666474605382334939207567003904841840267181396,-0.15976477297831634394320587944093858823180198669434,-0.0056484251798896087382040320790110854431986808776855,0.14642815301617193024519281152606708928942680358887,-0.23948742304352321763616373573313467204570770263672,-0.0049102134966582718783589811550882586743682622909546,0.022500068199312883709950483535067178308963775634766,0.065418542050970834855760926984657999128103256225586,0.036969382350026398775799663098950986750423908233643,0.027811203178384383272181423762958729639649391174316,-0.036914045015143809314039913260785397142171859741211,-0.015764717002084788211035970562079455703496932983398,-0.40074126368104512341261624897015281021595001220703,0.0087478187480280553828260181603582168463617563247681,0.028578582259719934738351199143835401628166437149048,0.01113381281509633752291321684424474369734525680542,0.038596358119621837490242910462256986647844314575195,-0.06096599716907803723220382607905776239931583404541,-7.4002534539305546857496098667184014630038291215897e-05,-0.11751995179647983791326737446070183068513870239258,-0.0055456472176505840904203736840827332343906164169312,-0.065332079650033736406555817666230723261833190917969,0.026445349131453261409818722427189641166478395462036,0.14264859175369973276481516677449690178036689758301,-0.11187195463910350190506193257533595897257328033447,-0.18840557002136121278468294804042670875787734985352,-0.054716676041772174809985074261931004002690315246582,-0.036590335043191271613416404306917684152722358703613,0.0082093154683643056873654231253567559178918600082397,0.16093354030192394410470058119244640693068504333496,-0.011976811715004094527348144083589431829750537872314,-0.11171005217183906099709389536656090058386325836182,-0.056507350523126283203811937028149259276688098907471,-0.024146409144858861639537650489728548564016819000244,-0.15290422031993874951716350096830865368247032165527,-0.076373147167731192386241900749155320227146148681641,0.015654928097867223252270818534270802047103643417358,0.1425395219122421452961901877642958424985408782959,-0.041595343415461998037851998333280789665877819061279,-0.016402030871425939823060602407167607452720403671265,0.037158243829748346942487557953427312895655632019043,-0.0059291480094158383051805571994918864220380783081055,-0.23651806939957209507952029525768011808395385742188,-0.090360051400741270288818896005977876484394073486328,0.034949828700524078473055311633288511075079441070557,0.018843649798435037345800679986496106721460819244385,0.038642890099548111992877608145136036910116672515869,-0.038271718508601365593690957211947534233331680297852,0.027128211518119928202796842242605634965002536773682,-0.10597049984053373561376787392873666249215602874756,-0.17067915541609440799319941106659825891256332397461,-0.064548383377152240836238661358947865664958953857422,0.0084831529650399983139008597277097578626126050949097,0.20836329639791001389070856930629815906286239624023,-0.17415559267172431301418100701994262635707855224609,-0.12684386992522239667735561852168757468461990356445,-0.13280368325054825451303486261167563498020172119141,0.015033513266586638265631670208222203655168414115906,-0.018760752500742317733228858855909493286162614822388,0.059421896067578437727885187769061303697526454925537,0.012074111957711394782499780831130919978022575378418,-0.13092995966098666671406647310504922643303871154785,-0.006866172911154501054542542703984508989378809928894,0.022111009332502151725208250354626215994358062744141,-0.15362403167186025609858290863485308364033699035645,-0.17072603225300245211037974968348862603306770324707,0.0047773688324918017755749133357312530279159545898438,0.1282449532628159860614402987266657873988151550293,0.020660202743784744638944061989604961127042770385742,-0.00022791438305268664314684468052973898011259734630585,-0.034941990536548665768901145156632992438971996307373,-0.068353633867324736783643857052084058523178100585938,-0.41050603315337752530211901103029958903789520263672,-0.12219953433862881797544730488880304619669914245605,-0.0054710541747006284640786333284268039278686046600342,0.017540886424326551651375893925433047115802764892578,-0.019168100674477633882375471330306027084589004516602,-0.059335477059785396436453197566152084618806838989258,-0.040815055605009697980989358256920240819454193115234,-0.2503356833699125760794856887514470145106315612793,-0.14533770983303326285174250642739934846758842468262,-0.0010663413737598661026884094837896554963663220405579,-0.0086182009820030824887027165459585376083850860595703,0.49724216551713279477198170752672012895345687866211,-0.14998056808030796327457778716052416712045669555664,-0.005773931957699581472842620399887891835533082485199,-0.095136753099578835746186200594820547848939895629883,-0.024913653634364370942355648708144144620746374130249,-0.024317125296244631454944951087782101240009069442749,0.12536345195875481239866644500580150634050369262695,-0.012389186629927653390814690226306993281468749046326,-0.010648423441902961014693396180064155487343668937683,0.044958897796546666569827976900342036969959735870361,-0.04288757487874688550943957920935645233839750289917,-0.28404080568342415791249777612392790615558624267578,-0.11920590037001496663826571875688387081027030944824,0.13157896552386791344524397118220804259181022644043,0.12966483248833621244600067257124464958906173706055,0.02891320418414663334649716830426768865436315536499,-0.0050592462219452068866720750861531996633857488632202,-0.025264846954686830116099116594341467134654521942139,-0.0045778353015628473268727738343386590713635087013245,-0.27753590622646268082363008034008089452981948852539,-0.18495867810648175533216885924048256129026412963867,-0.039371299528133112122230130580646800808608531951904,-0.034364010458364929734287329665676224976778030395508,-0.030409729442067316707021262800481054000556468963623,-0.087022895778566561331146544944203924387693405151367,-0.044679375221652876948308374949192511849105358123779,-0.25042606514931625705244755408784840255975723266602,0.011324795182746580368693400941992877051234245300293,-0.019946816526937770353011813995181000791490077972412,-0.050586361467494435351088810648434446193277835845947,0.33872099449583908947758459362376015633344650268555,-0.075565926394876289928781432081450475379824638366699,0.0079763421107109464675000154443296196404844522476196,-0.060429092514622813336888640378674608655273914337158,0.044922259071592286761021028951290645636618137359619,-0.027509751639791982236182832366466755047440528869629,0.059078891834082720990739545641190488822758197784424,0.041232999317417237672422913874470395967364311218262,-0.062513089606922589425153091724496334791183471679688,-0.028260868356552046321006343987392028793692588806152,0.041668389728718030484699852422636467963457107543945,-0.27810135060016077934719191944168414920568466186523,-0.0073751956521232366753570985906662826891988515853882,0.0080481547312088817097697202029848995152860879898071,0.010592552990856544253839288671770191285759210586548,-0.0055615603359384742018778347016905172495171427726746,0.031155824157151911640850627804866235237568616867065,0.000575736370244490100814283017882644344354048371315,-0.007180952476169777214110023777493552188389003276825,-0.071831227084094478874121136868780013173818588256836,-0.10621741440629808850282245202834019437432289123535,-0.028534322769692272575570157755464606452733278274536,0.03921220013867470627344502531741454731673002243042,0.012296563461341421599759549110331136034801602363586,-0.042644659191112106733090314492073957808315753936768,-0.096328274966991131456062191773526137694716453552246,-0.05489351784645592202682706783889443613588809967041,0.014211165943656628093960669900752691319212317466736,-0.035493150515232420316724670783514739014208316802979,0.043866808159250779419746635312549187801778316497803,0.22684936840606700902966963440121617168188095092773,0.041082973301230660267968630705581745132803916931152,-0.0003888008391876250071858556189852151874219998717308,0.20522336027677259839840928634657757356762886047363,-0.096246566310574988012405128756654448807239532470703,0.03261316451012799544351139502396108582615852355957,0.021275115500622190228829921920805645640939474105835,0.017606097856505985299602201621382846496999263763428,0.020340568401927543173979273660734179429709911346436,-0.017780968772185386239659266038870555348694324493408,-0.060163817770570858500800426327259629033505916595459,-0.22176427510170898527164240476849954575300216674805,0.10660163770553113260497468672838294878602027893066,-0.048598003929766840636172986478413804434239864349365,0.061029768446018275995790247634431580081582069396973,0.0052919572749248458207182999046835902845486998558044,-0.030876178230809580432802974314654420595616102218628,-0.0057298122456018460782467549563534703338518738746643,0.2190842418710296501949130743014393374323844909668,-0.192900452671690203487742110155522823333740234375,-0.12965483720937853728827349186758510768413543701172,0.45465727769213543085768947094038594514131546020508,0.15448969297210835005529361296794377267360687255859,-0.0014977896604995869032223021477534530276898294687271,-0.036079630247224291073049329270361340604722499847412,-0.26174659775936187644518327033438254147768020629883,0.05671818966762096070333143416064558550715446472168,0.15298064743828354572485750395571812987327575683594,-0.049537375388464498227047982936710468493402004241943,0.2039087892843585991808907920130877755582332611084,0.039382188065416039168820105942359077744185924530029,0.060129793358664210267683358779322588816285133361816,-0.034544993026703899041685019710712367668747901916504,0.39586875073636496047413402266101911664009094238281,-0.1662200261419510549654177111733588390052318572998,0.017677770354904878691293390602368162944912910461426,-0.02036039576306628018365074694884242489933967590332,0.024437744429481007141236048596510954666882753372192,0.12320325203524395973886385036166757345199584960938,-0.011224573263580667550898262163627805421128869056702,-0.12715753953285377497728347861993825063109397888184,-0.26303235485751569333601196376548614352941513061523,0.075961087025692278218436115366785088554024696350098,0.0067900050497794123618988670898488635430112481117249,0.0063136310831433430090786629307331168092787265777588,-0.036676893256991728586857703930945717729628086090088,-0.095689509339960746037156980037252651527523994445801,0.023381927994261763464889369856791745405644178390503,0.49960531143287700839294984689331613481044769287109,0.10742972519988593094186768439612933434545993804932,-0.0042458458940897820729776235282315610675141215324402,1.0764546179982343865333405119599774479866027832031,0.24768309744979472020176558544335421174764633178711,-0.0052681378324446288471949451093223615316674113273621,0.068964057322751376455371996598842088133096694946289,-0.72369716431053543459483989863656461238861083984375,0.048654195563209115538150228985614376142621040344238,-0.06567924118812396017119681346230208873748779296875,-0.042799340196469810859714044681822997517883777618408,-0.075272214647252574937219549155997810885310173034668,-0.085073466763224414588506760992459021508693695068359,-0.041142278195672850327202496600875747390091419219971,-0.012555138718679180812043405524036643328145146369934,0.12053263828780058641854111556313000619411468505859,-0.10445089844120888922240908414096338674426078796387,0.006726215997504038368592915730914683081209659576416,-0.0095852906015873890616107999562700570095330476760864,-0.060710528034727997970243507097620749846100807189941,0.14313255296384622128336161495099077001214027404785,0.010325195970747142945600494101654476253315806388855,-0.073951048511520650619033290240622591227293014526367,-0.20159755526103195766296494184643961489200592041016,0.31142845666126572901077906863065436482429504394531,-0.01942319594382592440329204919180483557283878326416,0.01159570562742149625601317808332169079221785068512,-0.03426080991561528815703141503945516888052225112915,-0.052427237425001917137112883438021526671946048736572,-0.030476789370906403470184997672731697093695402145386,-0.22580621420760887962941865225729998201131820678711,0.17100729538509021332437498585932189598679542541504,-0.0069613327348648475559333981266263435827568173408508,0.086792987630033610613189409832557430490851402282715,0.045745348541123838359556685873030801303684711456299,-0.044058571886744057888307679604622535407543182373047,0.14943853997953709944468414505536202341318130493164,-0.081593289732476079190170992205821676179766654968262,-0.27110116169644782324610332580050453543663024902344,-0.039300325859888650403828336266087717376649379730225,0.029771544849674220351021247665812552440911531448364,0.01731557186728506156359053136384318349882960319519,0.10790197471930010331142568702489370480179786682129,0.060993900831251939009813867187403957359492778778076,0.016040896977577896037603366607982025016099214553833,0.056217787266804805645925569024257129058241844177246,0.12804887944270840205440720183105440810322761535645,0.041848136139640647324089428593651973642408847808838,0.0084459863657475389708828572565835202112793922424316,0.00037553673386699700127711043506906207767315208911896,-0.074929717963452963092052527827036101371049880981445,0.0026841211690388664876105728751554124755784869194031,-0.038887105983448633228505286751897074282169342041016,-0.15186848339065775470579922057368094101548194885254,-0.059972963005221528731691904567924211733043193817139,0.028032570191307400186975229416930233128368854522705,0.063429904640117606984262010882957838475704193115234,-0.0083699708539465064033313623781396017875522375106812,-0.014472882181193979372890723311684268992394208908081,-0.044090011541504735281815641201319522224366664886475,-0.043906163023226620067962500115754664875566959381104,-0.059516449625576929582937424356714473105967044830322,-0.11251066959365535469217434183519799262285232543945,-0.029019183864606647171857645162162953056395053863525,-0.043881199713558562136572760437047691084444522857666,0.04902967147533722480634565954460413195192813873291,0.038204946716743667933791073210159083828330039978027,0.040222426024983694292647129486795165576040744781494,-0.50679529828118197176678449977771379053592681884766,0.017452732675284993169029235104972030967473983764648,-0.12847034131726411954055322439671726897358894348145,-0.080920095606537387200596356251480756327509880065918,0.74025101956891026233620323182549327611923217773438,0.023273188724001039884292652004660340026021003723145,-0.060576994011485918445458764836075715720653533935547,0.034792977491867986550300173576033557765185832977295,0.22635973971564615769835882019833661615848541259766,-0.017412219483542521608621100881464371923357248306274,0.03226049807097190746940640337925287894904613494873,-0.10956786892266678901108889476745389401912689208984,-0.18460258059026576904493310848920373246073722839355,0.033568601622505939152674159231537487357854843139648,-0.071030027224340278046987862126115942373871803283691,-0.33757235573937049988302305791876278817653656005859,-0.20841167000539362330613357698894105851650238037109,0.035962020877024034049007639168848982080817222595215,0.054049900596626128390642662679965724237263202667236,0.002901889772064320405925430534921360958833247423172,-0.026600117486427984209163000173248292412608861923218,0.015374577562828927942972789821851620217785239219666,0.08102565981321514787527604539718595333397388458252,-0.33950593647866034174853666627313941717147827148438,-0.095286963930617363249808704495080746710300445556641,0.042153161099660912958242420245369430631399154663086,0.017007847132162686593082057129322492983192205429077,-0.01557238123658421027895037980215420247986912727356,-0.041753354302534219366638268411406897939741611480713,0.021366328079979790555142926677945069968700408935547,-0.50769180903651300873491436504991725087165832519531,0.047590114703675988339082181255434988997876644134521,-0.091764196476770726329519334285578224807977676391602,-0.22278690442525006520924080177792347967624664306641,0.53204922813543076287601252261083573102951049804688,0.0060460862239644719631770364287604024866595864295959,-0.032807864174277952262759328050378826446831226348877,0.024188377377263967082932083485502516850829124450684,0.12677026725441858934217975729552563279867172241211,0.010963849118622068234962796395848272368311882019043,0.30019911421116074468073975367587991058826446533203,-0.0045169863259243922537500282032851828262209892272949,-0.11974893593353069798368437659519258886575698852539,-0.027909529555370269499059432405374536756426095962524,0.014500053373248996541056143882997275795787572860718,-0.79313350789160053100346203791559673845767974853516,-0.076780456001610361549403194203478051349520683288574,-0.0050388498030431196073042343641645857132971286773682,0.059956779322365080786561009063007077202200889587402,-0.034118591492032973588877098336524795740842819213867,0.039101709518037104651444479941346799023449420928955,-0.055399419086642552600974198639960377477109432220459,0.22886900054779385493830545783566776663064956665039,-0.12742963961148820462021546973119257017970085144043,-0.05157880230220517059347429267290863208472728729248,0.045691388979984731699701683282910380512475967407227,0.043916224492102667875670363173412624746561050415039,0.016713629499385374010955729318084195256233215332031,-0.061248722319581033746160869668528903275728225708008,-0.033487273057757116490051885193679481744766235351562,-0.23921553189218863755272082016745116561651229858398,0.019224667102058449336121626060958078596740961074829,-0.022845573467124204863898384587628243025392293930054,0.0032879546259684962715430511792646939284168183803558,0.049180924259546031362955176291507086716592311859131,0.034812743427597110656979140230760094709694385528564,-0.055945539159498999803865615376707864925265312194824,0.03468900217613898190327503812113718595355749130249,0.095250281756726298820758813690190436318516731262207,-0.01995678675437297100447864295347244478762149810791,0.20790175829605822555024019493430387228727340698242,0.039001679900610403128879966061504092067480087280273,-0.11643211776555047187731162239288096316158771514893,-0.037273854886076450421139583113472326658666133880615,0.0075455611170808113002950179293293331284075975418091,-0.3578252603638631401672398624214110895991325378418,-0.023262828884741060947449753371074621099978685379028,0.010570865530808160048792387897265143692493438720703,-0.0051752219241362499776992756039817322744056582450867,0.038461943330763061210664233158240676857531070709229,0.024148253685649243710509281868326070252805948257446,-0.017192768469994873514750111098692286759614944458008,0.060313058016470383337903626852494198828935623168945,0.029723937326485146831478445506036223378032445907593,-0.10892001157081278306382188247880549170076847076416,-0.045582318813024498560526609480803017504513263702393,0.043132084882492711941370799877404351718723773956299,-0.047463617974713115388318840359715977683663368225098,-0.047353890338164943141219254130191984586417675018311,-0.010999584809829826212435044396897865226492285728455,-0.059680920920712872412838834179638070054352283477783,0.036673241222254307492001146329130278900265693664551,0.037506450531166149464645798161654965952038764953613,0.069029843794835205050830495565605815500020980834961,-0.03615652788299257569537559220407274551689624786377,-0.022274293425082844488649413960956735536456108093262,-0.06322498741109779107905097816910711117088794708252,0.064624468584547456462274794830591417849063873291016,-0.0086058573407997215193310225345157959964126348495483,0.0091999999984962183702252858097381249535828828811646,0.0050886706647738392736424195561539818299934267997742,0.049899998954050762967060705932453856803476810455322,-0.069551107061975703249601110655930824577808380126953,-0.036699998503086639356496334585244767367839813232422,-0.0024438126486395748450386466998907053493894636631012,-0.031046450525739816006520754854136612266302108764648,0.016313264666887015291729667865183728281408548355103,0.025727312742875669410169692241652228403836488723755,0.030066305870071561440193264047593402210623025894165,-0.023359354224750918105346642050790251232683658599854,-0.049293485932366210011679186209221370518207550048828,0.033099999986727905720851339310684124939143657684326,0.018621433816111379599966824116563657298684120178223,-0.016513923058060694937232426582340849563479423522949,0.0068265023089242133844112281337856984464451670646667,0.027700432296662934328335126110687269829213619232178,0.032300027035726042168306548774125985801219940185547,-0.041138859312186734640270913132553687319159507751465,0.034953856098852376099728189728921279311180114746094,0.039199999999999998734345751927321543917059898376465,-0.0027000000000000079491968563161208294332027435302734,-0.0052999999999999991562305012848810292780399322509766,-0.042500000000000003053113317719180486164987087249756,-0.014300000000000007149836278586008120328187942504883,0.02019999999999999573674358543939888477325439453125,-0.032200000000000006394884621840901672840118408203125,0.048699999999999993294252931264054495841264724731445,0.040800000000000002930988785010413266718387603759766,-0.017300000000000002875477633779155439697206020355225,-0.019700000000000002231548279496564646251499652862549,0.035099999999999992317256669593916740268468856811523,0.0282000000000000028421709430404007434844970703125,0.015299999999999994160226890471676597371697425842285,0.045799999999999993494093075696582673117518424987793,0.04140000000000000623945339839337975718080997467041,-0.037000000000000005107025913275720085948705673217773,-0.034300000000000004096722960866827634163200855255127,0.042999999999999996558308623662014724686741828918457,-0.026300000000000003930189507173054153099656105041504,-0.023800000000000001709743457922741072252392768859863,-0.031100000000000002642330798607872566208243370056152,0.0094999999999999945599071793367329519242048263549805,-0.040700000000000000066613381477509392425417900085449,-0.028500000000000004496403249731883988715708255767822,-0.048199999999999999789057625321220257319509983062744,0.03859999999999999542588113854435505345463752746582,-0.015699999999999998678834600696063716895878314971924,-0.030700000000000001593170040337099635507911443710327,-0.018000000000000002109423746787797426804900169372559,0.0045000000000000039968028886505635455250740051269531,-0.041599999999999998090416397644730750471353530883789,0.029200000000000003730349362740525975823402404785156,0.049199999999999993738342141114117112010717391967773,0.0010000000000000008881784197001252323389053344726562,9.9999999999995925481499625675496645271778106689453e-05,-0.045500000000000005717648576819556183181703090667725,0.01870000000000000828226376370366779156029224395752,-0.0013000000000000025424107263916084775701165199279785,0.045299999999999993050003865846520056948065757751465,-0.048700000000000000233146835171282873488962650299072,-0.035900000000000001354472090042690979316830635070801,-0.034500000000000002886579864025407005101442337036133,0.029499999999999998445687765524780843406915664672852,0.029300000000000006594724766273429850116372108459473,-0.038699999999999998290256542077258927747607231140137,-0.04400000000000000438538094726936833467334508895874,0.042200000000000001398881011027697240933775901794434,0.012099999999999999644728632119949907064437866210938,0.048899999999999999023003738329862244427204132080078,0.0010000000000000008881784197001252323389053344726562,-0.02650000000000000272004641033163352403789758682251,0.0028999999999999998001598555674718227237462997436523,-0.039600000000000003252953462151708663441240787506104,-0.017300000000000002875477633779155439697206020355225,-0.040500000000000001276756478318930021487176418304443,-0.0027000000000000079491968563161208294332027435302734,0.0063999999999999890309965167034533806145191192626953,-0.0063000000000000000444089209850062616169452667236328,0.016500000000000000777156117237609578296542167663574,0.038300000000000000710542735760100185871124267578125,0.048199999999999992850163721413991879671812057495117,-0.039900000000000004907185768843191908672451972961426,-0.047300000000000001765254609153998899273574352264404,-0.01750000000000000166533453693773481063544750213623,0.010999999999999995892174808886920800432562828063965,0.037900000000000003130828929442941443994641304016113,-0.013100000000000000532907051820075139403343200683594,-0.020300000000000005540012892879531136713922023773193,0.021699999999999997069011214989586733281612396240234,0.017299999999999995936583729871927062049508094787598,0.016100000000000003197442310920450836420059204101562,0.035699999999999995625721282976883230730891227722168,0.032799999999999995825561427409411408007144927978516,-0.0045000000000000039968028886505635455250740051269531,0.014899999999999996580513084154517855495214462280273,-0.020800000000000005984102102729593752883374691009521,0.036699999999999996513899702677008463069796562194824,0.042200000000000001398881011027697240933775901794434,-0.023600000000000002919886554764161701314151287078857,0.035499999999999989896970475911075482144951820373535,-0.0069000000000000033528735343679727520793676376342773,-0.00020000000000000572875080706580774858593940734863281,0.02359999999999999598099265085693332366645336151123,0.03859999999999999542588113854435505345463752746582,-0.032400000000000005184741524999481043778359889984131,0.032999999999999987676524426660762401297688484191895,-0.014200000000000004285460875053104246035218238830566,-0.040900000000000005795364188543317141011357307434082,0.011899999999999993915977825054142158478498458862305,-0.012500000000000004163336342344337026588618755340576,-0.017399999999999998800959133404830936342477798461914,0.0099999999999999950039963891867955680936574935913086,-0.0025000000000000022204460492503130808472633361816406,-0.014800000000000007593925488436070736497640609741211,-0.022399999999999999772404279951842909213155508041382,-0.0064000000000000029087843245179101359099149703979492,-0.027000000000000003164135620181696140207350254058838,0.014399999999999996136423874304455239325761795043945,0.023199999999999998401278844539774581789970397949219,0.044599999999999986877163848930649692192673683166504,0.016899999999999998356869923554768320173025131225586,-0.01070000000000000117683640610266593284904956817627,-0.034600000000000005750955267558310879394412040710449,-0.00040000000000000451860771022438711952418088912963867,-0.030100000000000001754152378907747333869338035583496,0.030200000000000004618527782440651208162307739257812,-0.036100000000000000144328993201270350255072116851807,-0.043500000000000003941291737419305718503892421722412,0.022300000000000000377475828372553223744034767150879,-0.0098000000000000031530333899354445748031139373779297,-0.022800000000000000821565038222615839913487434387207,0.00050000000000000044408920985006261616945266723632812,-0.02480000000000000259792187762286630459129810333252,-0.01410000000000000142108547152020037174224853515625,-0.011000000000000002831068712794149178080260753631592,-0.0073000000000000009325873406851314939558506011962891,0.004000000000000003552713678800500929355621337890625,0.024699999999999999733546474089962430298328399658203,0.0017999999999999960476060323344427160918712615966797,-0.034200000000000001232347557333923759870231151580811,-0.037900000000000003130828929442941443994641304016113,0.0342999999999999971578290569595992565155029296875,-0.039100000000000002808864252301646047271788120269775,0.04469999999999998974153925246355356648564338684082,0.0045999999999999999222843882762390421703457832336426,-0.011599999999999999200639422269887290894985198974609,-0.011700000000000002065014825802791165187954902648926,-0.037299999999999999822364316059974953532218933105469,-0.012000000000000003719247132494274410419166088104248,-0.0034000000000000002442490654175344388931989669799805,-0.0076000000000000025868196473766147391870617866516113,-0.045200000000000004063416270128072937950491905212402,-0.02900000000000000494049245958194660488516092300415,0.0076999999999999915734072430950618581846356391906738,0.03949999999999999344968415471157641150057315826416,-0.0091000000000000039190872769268025876954197883605957,-0.012200000000000002509104035652853781357407569885254,-0.01150000000000000327515792264421179424971342086792,0.032499999999999987232435216810699785128235816955566,-0.0047999999999999987121412914348184131085872650146484,0.028600000000000000421884749357559485360980033874512,-0.0052000000000000032307490016592055326327681541442871,0.04559999999999998776534226863077492453157901763916,-0.011099999999999998756550212419824674725532531738281,-0.034200000000000001232347557333923759870231151580811,-0.015500000000000006827871601444712723605334758758545,-0.033200000000000000344169137633798527531325817108154,0.019799999999999998157029779122240142896771430969238,-0.0057000000000000036748382115092681488022208213806152,-0.046300000000000000877076189453873666934669017791748,-0.029300000000000003125277814319815661292523145675659,0.0063999999999999890309965167034533806145191192626953,0.037900000000000003130828929442941443994641304016113,0.01679999999999999549249452002186444588005542755127,0.036199999999999996069810492826945846900343894958496,0.027599999999999999533706329657434253022074699401855,-0.04490000000000000240918396343658969271928071975708,-0.02560000000000000469624339416441216599196195602417,-0.024600000000000003808064974464286933653056621551514,-0.0070000000000000062172489379008766263723373413085938,0.020999999999999990896171198073716368526220321655273,0.017700000000000007394085344003542559221386909484863,0.032899999999999998689936830942315282300114631652832,0.041900000000000006683542608243442373350262641906738,-0.024700000000000003202993426043576619122177362442017,-0.042500000000000003053113317719180486164987087249756,0.017899999999999999245048343254893552511930465698242,0.048199999999999992850163721413991879671812057495117,-0.0040999999999999994781951784261764260008931159973145,0.035599999999999992761345879443979356437921524047852,-0.0067000000000000045630166312093933811411261558532715,0.0096999999999999933497640824953123228624463081359863,0.015499999999999999888977697537484345957636833190918,-0.011200000000000001620925615952728549018502235412598,0.048500000000000001443289932012703502550721168518066,0.031299999999999994493293797859223559498786926269531,-0.041599999999999998090416397644730750471353530883789,-0.034800000000000004540812170716890250332653522491455,0.036199999999999996069810492826945846900343894958496,0.0025999999999999981459275488759885774925351142883301,-0.031200000000000002037259250187162251677364110946655,-0.00800000000000000710542735760100185871124267578125,-0.0059000000000000024646951146678475197404623031616211,-0.0082000000000000058952842607595812296494841575622559,-0.041300000000000003375077994860475882887840270996094,-0.019700000000000002231548279496564646251499652862549,0.0045000000000000039968028886505635455250740051269531,-0.036200000000000003008704396734174224548041820526123,0.0045999999999999999222843882762390421703457832336426,0.029800000000000007038813976123492466285824775695801,0.041900000000000006683542608243442373350262641906738,0.010699999999999994237942502195437555201351642608643,-0.002600000000000005084821452783216955140233039855957,-0.040000000000000000832667268468867405317723751068115,0.0025999999999999981459275488759885774925351142883301,-0.042200000000000001398881011027697240933775901794434,-0.032600000000000003974598428158060414716601371765137,0.0056000000000000008104628079763642745092511177062988,-0.04410000000000000031086244689504383131861686706543,0.013299999999999992383870051071426132693886756896973,-0.0089000000000000051292303737682232167571783065795898,0.0342999999999999971578290569595992565155029296875,-0.027100000000000002559064071760985825676470994949341,-0.0082000000000000058952842607595812296494841575622559,0.008199999999999992017496452945124474354088306427002,-0.028700000000000003286260152890463359653949737548828,0.008199999999999992017496452945124474354088306427002,0.016500000000000000777156117237609578296542167663574,0.021699999999999997069011214989586733281612396240234,-0.0057000000000000036748382115092681488022208213806152,0.0042999999999999982680520815847557969391345977783203,0.040400000000000005351274978693254524841904640197754,-0.028600000000000003891331701311173674184828996658325,0.048299999999999995714539124946895753964781761169434,0.017399999999999998800959133404830936342477798461914,-0.019900000000000004490852134608758206013590097427368,-0.021500000000000005218048215738235739991068840026855,-0.0282000000000000028421709430404007434844970703125,0.028999999999999998001598555674718227237462997436523,0.033099999999999990540899830193666275590658187866211,-0.048400000000000005517808432387028005905449390411377,-0.04400000000000000438538094726936833467334508895874,-0.0063000000000000000444089209850062616169452667236328,-0.0011000000000000037525538232330291066318750381469727,-0.034100000000000005306866057708248263224959373474121,-0.018600000000000005417888360170763917267322540283203,0.041900000000000006683542608243442373350262641906738,-0.01669999999999999956701302039618894923478364944458,0.03699999999999999122923810546126333065330982208252,-0.017100000000000004085620730620576068758964538574219,-0.018300000000000003763656053479280672036111354827881,0.01320000000000000339728245535297901369631290435791,-0.032800000000000002764455331316639785654842853546143,0.0045000000000000039968028886505635455250740051269531,-0.0098999999999999990785148895611200714483857154846191,-0.039500000000000007327471962526033166795969009399414,-0.039100000000000002808864252301646047271788120269775,0.048199999999999992850163721413991879671812057495117,0.026999999999999996225241716274467762559652328491211,-0.032300000000000002320366121466577169485390186309814,-0.0076000000000000025868196473766147391870617866516113,-0.018800000000000004207745263329343288205564022064209,-0.041900000000000006683542608243442373350262641906738,0.013799999999999992827959260921488748863339424133301,0.014600000000000001865174681370262987911701202392578,0.02539999999999999202859868319137603975832462310791,-0.021000000000000004773959005888173123821616172790527,0.043099999999999999422684027194918598979711532592773,-0.017700000000000000455191440096314181573688983917236,-0.042099999999999998534505607494793366640806198120117,-0.038699999999999998290256542077258927747607231140137,-0.016199999999999999122923810546126333065330982208252,-0.036200000000000003008704396734174224548041820526123,0.0049000000000000015765166949677222874015569686889648,-0.032100000000000003530509218307997798547148704528809,0.014899999999999996580513084154517855495214462280273,-0.028500000000000004496403249731883988715708255767822,-0.040300000000000002486899575160350650548934936523438,-0.01669999999999999956701302039618894923478364944458,-0.0064000000000000029087843245179101359099149703979492,-0.0075000000000000066613381477509392425417900085449219,0.014899999999999996580513084154517855495214462280273,-0.0081000000000000030309088572266773553565144538879395,0.044799999999999992605914655996457440778613090515137,0.0045000000000000039968028886505635455250740051269531,0.031999999999999986788346006960637168958783149719238,-0.044700000000000003619327060278010321781039237976074,0.015299999999999994160226890471676597371697425842285,0.030100000000000001754152378907747333869338035583496,-0.0326000000002998127635045477745734388008713722229,0.032999994366706308923653523379471153020858764648438,0.0073832427806287534086115975640041142469272017478943,0.032446418759594745917507196963924798183143138885498,-0.023800793081369831655225155486732546705752611160278,0.0068652909669444268925264651670659077353775501251221,-0.0018731780384974336221837187821392944897525012493134,-0.014740955010459105833930948392662685364484786987305,0.036114562489683373069926375364957493729889392852783,-0.0088768403516325377483608960460514936130493879318237,0.018227529280038280018461094300619151908904314041138,-0.019863652266233849941201583533256780356168746948242,0.0023999816412768851421610794005800926242955029010773,-0.012100000010310437911775771624434128170832991600037,0.026468847693680758875744984948141791392117738723755,-0.0074839044199112234045934144432976609095931053161621,0.0056999803985708259734810354757428285665810108184814,-0.017617991330344012074204940176969103049486875534058,0.015418195121902265182223246142712014261633157730103,0.01530000009161628163334434304942988092079758644104,-0.039674276967680999206322667305357754230499267578125,-0.042600000000000345923290012706274865195155143737793,-0.010392466114867595847193193492330465232953429222107,0.025373535885716336224504630081355571746826171875,0.034399999507409358134868426759567228145897388458252,-0.012579398940621678085194368179600132862105965614319,-0.020200022116286228679449266110168537124991416931152,0.016299999786312354549400183145735354628413915634155,-0.0071000294255209534313721952969444828340783715248108,-0.019700000003521397212713495150637754704803228378296,-0.0035999999999928931730674985800533249857835471630096,0.010200000000043755662981759257945668650791049003601,-0.0015997467792432775238187225852470874087885022163391,-0.010799985341394584270613421494999784044921398162842,-0.0061999999516971736335246845328583731316030025482178,0.024500000138526885351542006219460745342075824737549,0.045696768076781808798347839228881639428436756134033,0.041892673411853202647403549008231493644416332244873,-0.0036406523995854717795639388100426003802567720413208,-0.033674898170206017666838960167297045700252056121826,0.018299999999999285588136999081143585499376058578491,0.00030000002476487171339247783663495283690281212329865,-0.0052999999999964785349360063548829202773049473762512,-0.029399972258156097104642157091802801005542278289795,0.038100000009402744394204631817046902142465114593506,0.0072881491152121773147154470962050254456698894500732,0.01299978695016378027471404266179888509213924407959,0.028899979925709032985148283501075638923794031143188,-0.015399997558538165709496325916916248388588428497314,0.011999986049286773259758831500221276655793190002441,-0.005899955061049806832873532158600937691517174243927,-0.0049000000000000015765166949677222874015569686889648,-0.045500000000015083934101767226820811629295349121094,-0.027799999999999946281858953511800791602581739425659,-0.029500547460504095154121273480996023863554000854492,0.03890000000000000401900734914306667633354663848877,0.009800081837109375290650881140663841506466269493103,0.035400081560846057004976472626367467455565929412842,0.0051041878730677973582952056119665940059348940849304,-0.047400000038196332674544919427717104554176330566406,-0.034399999740888656529769207281788112595677375793457,-0.013400056463670990958281237226401572115719318389893,0.044202313697471552755846602167366654612123966217041,-0.013718171386316330845334121590894937980920076370239,0.025700000758183374344190141869148646946996450424194,