-0.028500000000000004496403249731883988715708255767822,-0.011900000000000000854871728961370536126196384429932,0.034199999999999994293453653426695382222533226013184,0.021899999999999988919974214240937726572155952453613,0.0034000000000000002442490654175344388931989669799805,0.03519999999999999518163207312682061456143856048584,-0.035300000000000004984901380566952866502106189727783,0.0062999999999999931055150170777778839692473411560059,0.049000000000000001887379141862766118720173835754395,0.046199999999999991073806882013741414994001388549805,0.044499999999999997890576253212202573195099830627441,-0.020800000000000005984102102729593752883374691009521,-0.0032000000000000014543921622589550679549574851989746,0.013499999999999998112620858137233881279826164245605,-0.0055000000000000048849813083506887778639793395996094,0.043400000000000008015810237793630221858620643615723,-0.011000000000000002831068712794149178080260753631592,-0.0049000000000000015765166949677222874015569686889648,-0.027700000000000002398081733190338127315044403076172,0.045099999999999987321253058780712308362126350402832,-0.0023000000000000034305891460917337099090218544006348,-0.035500000000000003774758283725532237440347671508789,0.0055000000000000048849813083506887778639793395996094,0.031200000000000005506706202140776440501213073730469,0.023399999999999990252241843791125575080513954162598,0.0027000000000000010103029524088924517855048179626465,-0.014500000000000005939693181744587491266429424285889,0.038199999999999997846167332227196311578154563903809,0.024999999999999994448884876874217297881841659545898,-0.031400000000000004296563105299355811439454555511475,0.0042000000000000023425705819590803002938628196716309,0.046399999999999996802557689079549163579940795898438,0.0065999999999999947597473237692611292004585266113281,0.02359999999999999598099265085693332366645336151123,0.018200000000000007838174553853605175390839576721191,-0.0049000000000000015765166949677222874015569686889648,0.0086999999999999924615856627951870905235409736633301,-0.031900000000000004740652315149418427608907222747803,-0.048600000000000004307665335545607376843690872192383,0.042800000000000004707345624410663731396198272705078,-0.035800000000000005428990590417015482671558856964111,0.045799999999999993494093075696582673117518424987793,-0.028100000000000003447242491461111058015376329421997,0.046099999999999988209431478480837540701031684875488,0.0091999999999999929056748726452497066929936408996582,0.016299999999999995048405310171801829710602760314941,-0.025400000000000002436939539052218606229871511459351,-0.01669999999999999956701302039618894923478364944458,-0.0034000000000000002442490654175344388931989669799805,-0.0032000000000000014543921622589550679549574851989746,-0.021700000000000004007905118896815110929310321807861,0.044199999999999989297450042613490950316190719604492,0.046499999999999999666933092612453037872910499572754,0.033699999999999993849364443576632766053080558776855,-0.039500000000000007327471962526033166795969009399414,-0.045000000000000005273559366969493567012250423431396,-0.013600000000000000976996261670137755572795867919922,-0.0040999999999999994781951784261764260008931159973145,0.043099999999999999422684027194918598979711532592773,-0.0035000000000000031086244689504383131861686706542969,0.014399999999999996136423874304455239325761795043945,-0.0027000000000000079491968563161208294332027435302734,0.028099999999999999977795539507496869191527366638184,0.006100000000000001254552017826426890678703784942627,-0.029200000000000003730349362740525975823402404785156,0.031399999999999997357669201392127433791756629943848,-0.048900000000000005961897642237090622074902057647705,-0.035400000000000000910382880192628363147377967834473,0.049399999999999999467092948179924860596656799316406,-0.047600000000000003419486915845482144504785537719727,-0.0075000000000000066613381477509392425417900085449219,-0.0012000000000000066169292267659329809248447418212891,-0.01669999999999999956701302039618894923478364944458,0.049599999999999991318055947431275853887200355529785,-0.0052000000000000032307490016592055326327681541442871,-0.022399999999999999772404279951842909213155508041382,-0.049000000000000001887379141862766118720173835754395,0.019399999999999986699528164990624645724892616271973,0.010899999999999993027799405354016926139593124389648,-0.0025000000000000022204460492503130808472633361816406,0.0012999999999999956035168224843800999224185943603516,0.039099999999999995869970348394417669624090194702148,-0.0084000000000000046851411639181606005877256393432617,-0.0023000000000000034305891460917337099090218544006348,0.022800000000000000821565038222615839913487434387207,0.0020000000000000017763568394002504646778106689453125,0.037900000000000003130828929442941443994641304016113,-0.0057000000000000036748382115092681488022208213806152,-0.017000000000000001221245327087672194465994834899902,0.03089999999999999691357999154206481762230396270752,-0.024100000000000003363975764614224317483603954315186,0.047299999999999994826360705246770521625876426696777,0.013299999999999992383870051071426132693886756896973,-0.046100000000000002087219286295294295996427536010742,0.0032999999999999973798736618846305646002292633056641,-0.03080000000000000098809849191638932097703218460083,0.035299999999999998046007476659724488854408264160156,0.0044000000000000011324274851176596712321043014526367,0.018899999999999986255438955140562029555439949035645,-0.030200000000000001149080830487037019338458776473999,0.041900000000000006683542608243442373350262641906738,-0.038600000000000002364775042451583431102335453033447,0.018500000000000002553512956637860042974352836608887,0.01039999999999999258371019550395430997014045715332,-0.0039000000000000006883382752675970550626516342163086,-0.036700000000000003452793606584236840717494487762451,0.037900000000000003130828929442941443994641304016113,-0.0030000000000000026645352591003756970167160034179688,-0.032200000000000006394884621840901672840118408203125,-0.0013000000000000025424107263916084775701165199279785,0.044499999999999997890576253212202573195099830627441,0.018999999999999989119814358673465903848409652709961,0.022999999999999992672528037473966833204030990600586,0.021199999999999996624922005139524117112159729003906,0.0018999999999999989119814358673465903848409652709961,0.03089999999999999691357999154206481762230396270752,0.0083999999999999908073533561037038452923297882080078,-0.010300000000000003597122599785507190972566604614258,0.010299999999999996658228695878278813324868679046631,0.041300000000000003375077994860475882887840270996094,0.0057000000000000036748382115092681488022208213806152,-0.028700000000000003286260152890463359653949737548828,0.03859999999999999542588113854435505345463752746582,-0.031000000000000003247402347028582880739122629165649,-0.02480000000000000259792187762286630459129810333252,0.026999999999999996225241716274467762559652328491211,-0.011900000000000000854871728961370536126196384429932,-0.0044000000000000011324274851176596712321043014526367,-0.018700000000000001343369859796439413912594318389893,-0.043000000000000003497202527569243102334439754486084,-0.049500000000000002331468351712828734889626502990723,0.0083999999999999908073533561037038452923297882080078,0.0035000000000000031086244689504383131861686706542969,0.018999999999999989119814358673465903848409652709961,-0.031300000000000001432187701766451937146484851837158,0.049500000000000002331468351712828734889626502990723,-0.032600000000000003974598428158060414716601371765137,-0.043500000000000003941291737419305718503892421722412,0.031599999999999989208632200643478427082300186157227,0.020299999999999998601118988972302759066224098205566,0.040400000000000005351274978693254524841904640197754,0.025999999999999995337063296574342530220746994018555,0.024399999999999991140420263491250807419419288635254,0.048500000000000001443289932012703502550721168518066,0.032399999999999998245847621092252666130661964416504,-0.023800000000000001709743457922741072252392768859863,0.029300000000000006594724766273429850116372108459473,-0.0093000000000000027089441800853819586336612701416016,-0.049000000000000001887379141862766118720173835754395,0.024699999999999999733546474089962430298328399658203,-0.018100000000000004973799150320701301097869873046875,0.0066999999999999906852288233949366258457303047180176,0.045899999999999996358468479229486547410488128662109,0.0056000000000000008104628079763642745092511177062988,0.025599999999999997757349490257183788344264030456543,0.0062000000000000041189274213593307649716734886169434,-0.017399999999999998800959133404830936342477798461914,-0.0012000000000000066169292267659329809248447418212891,-0.013100000000000000532907051820075139403343200683594,0.049000000000000001887379141862766118720173835754395,0.040900000000000005795364188543317141011357307434082,-0.012600000000000000088817841970012523233890533447266,0.0072999999999999939936934367779031163081526756286621,0.029499999999999998445687765524780843406915664672852,-0.043700000000000002731148640577885089442133903503418,0.025899999999999992472687893041438655927777290344238,0.028899999999999995137223152141814352944493293762207,0.0087999999999999953259610663280909648165106773376465,-0.032400000000000005184741524999481043778359889984131,0.010499999999999995448085599036858184263110160827637,-0.021000000000000004773959005888173123821616172790527,-0.0069000000000000033528735343679727520793676376342773,0.021599999999999994204635811456682858988642692565918,-0.046700000000000005395683899678260786458849906921387,-0.0085000000000000075495165674510644748806953430175781,0.0039000000000000006883382752675970550626516342163086,0.014700000000000004729550084903166862204670906066895,0.0059000000000000024646951146678475197404623031616211,-0.020300000000000005540012892879531136713922023773193,0.015600000000000002753353101070388220250606536865234,0.015700000000000005617728504603292094543576240539551,0.011599999999999999200639422269887290894985198974609,0.0073999999999999899191749364035786129534244537353516,0.011499999999999996336264018736983416602015495300293,0.0022999999999999964916952421845053322613239288330078,0.018100000000000004973799150320701301097869873046875,-0.032300000000000002320366121466577169485390186309814,0.034799999999999997601918266809661872684955596923828,-0.033100000000000004418687638008123030886054039001465,0.039699999999999999178434961777384160086512565612793,0.033799999999999996713739847109536640346050262451172,-0.0071000000000000021427304375265521230176091194152832,-0.022999999999999999611421941381195210851728916168213,0.026200000000000001065814103640150278806686401367188,-0.027600000000000003003153281611048441845923662185669,-0.016800000000000002431388423929092823527753353118896,0.037299999999999999822364316059974953532218933105469,-0.013600000000000000976996261670137755572795867919922,-0.02290000000000000021649348980190552538260817527771,-0.045200000000000004063416270128072937950491905212402,-0.018000000000000002109423746787797426804900169372559,0.0060000000000000053290705182007513940334320068359375,0.032999999999999987676524426660762401297688484191895,-0.011200000000000001620925615952728549018502235412598,0.044499999999999997890576253212202573195099830627441,0.0095999999999999974242825828696368262171745300292969,-0.022200000000000000982547376793263538274914026260376,0.0090999999999999969801933730195742100477218627929688,-0.034600000000000005750955267558310879394412040710449,0.007499999999999992783550339936482487246394157409668,0.0097999999999999962141394860282161971554160118103027,-0.033800000000000003652633751016765017993748188018799,0.0042000000000000023425705819590803002938628196716309,-0.032800000000000002764455331316639785654842853546143,0.027599999999999999533706329657434253022074699401855,-0.043599999999999999866773237044981215149164199829102,-0.029600000000000004779510121011298906523734331130981,-0.019600000000000002836619827917274960782378911972046,0.041200000000000000510702591327572008594870567321777,-0.012800000000000005817568649035820271819829940795898,-0.02990000000000000296429547574916796293109655380249,-0.039900000000000004907185768843191908672451972961426,-0.034700000000000001676436767183986376039683818817139,0.032199999999999992517096814026444917544722557067871,0.036199999999999996069810492826945846900343894958496,-0.01240000000000000129896093881143315229564905166626,-0.034600000000000005750955267558310879394412040710449,-0.04140000000000000623945339839337975718080997467041,-0.040900000000000005795364188543317141011357307434082,0.027599999999999999533706329657434253022074699401855,-0.036700000000000003452793606584236840717494487762451,-0.0089000000000000051292303737682232167571783065795898,0.018799999999999997268851359422114910557866096496582,-0.018600000000000005417888360170763917267322540283203,-0.035000000000000003330669073875469621270895004272461,0.01320000000000000339728245535297901369631290435791,0.040900000000000005795364188543317141011357307434082,-0.0073000000000000009325873406851314939558506011962891,0.0073999999999999899191749364035786129534244537353516,-0.0086000000000000034749980670767399715259671211242676,-0.049899999999999999911182158029987476766109466552734,0.0022999999999999964916952421845053322613239288330078,0.007499999999999992783550339936482487246394157409668,0.0042000000000000023425705819590803002938628196716309,-0.045400000000000002853273173286652308888733386993408,0.020299999999999998601118988972302759066224098205566,0.045799999999999993494093075696582673117518424987793,-0.025000000000000001387778780781445675529539585113525,-0.014200000000000004285460875053104246035218238830566,-0.027900000000000001187938636348917498253285884857178,0.047299999999999994826360705246770521625876426696777,0.040999999999999994781951784261764260008931159973145,-0.017899999999999999245048343254893552511930465698242,-0.037500000000000005551115123125782702118158340454102,0.023199999999999998401278844539774581789970397949219,0.0034000000000000002442490654175344388931989669799805,0.03519999999999999518163207312682061456143856048584,-0.026300000000000003930189507173054153099656105041504,0.011999999999999996780353228587046032771468162536621,0.044299999999999992161825446146394824609160423278809,-0.048800000000000003097522238704186747781932353973389,-0.039600000000000003252953462151708663441240787506104,0.020499999999999990452081988223653752356767654418945,0.019899999999999987143617374840687261894345283508301,-0.0082000000000000058952842607595812296494841575622559,0.035400000000000000910382880192628363147377967834473,0.018200000000000007838174553853605175390839576721191,0.017799999999999996380672939721989678218960762023926,-0.021999999999999998723243521681069978512823581695557,-0.024500000000000000943689570931383059360086917877197,-0.040800000000000002930988785010413266718387603759766,0.013299999999999992383870051071426132693886756896973,0.027800000000000005262457136723242001608014106750488,-0.048199999999999999789057625321220257319509983062744,0.0025999999999999981459275488759885774925351142883301,-0.03250000000000000111022302462515654042363166809082,0.02199999999999999178434961777384160086512565612793,-0.0017000000000000070610184366159955970942974090576172,-0.0076000000000000025868196473766147391870617866516113,-0.042200000000000001398881011027697240933775901794434,0.020299999999999998601118988972302759066224098205566,-0.010300000000000003597122599785507190972566604614258,0.048699999999999993294252931264054495841264724731445,-0.012500000000000004163336342344337026588618755340576,0.002099999999999997701838339025925961323082447052002,0.021799999999999999933386618522490607574582099914551,0.040900000000000005795364188543317141011357307434082,-0.012700000000000002953193245502916397526860237121582,0.045399999999999995914379269379423931241035461425781,0.037999999999999992117416525161388562992215156555176,0.016700000000000006505906924303417326882481575012207,-0.018200000000000000899280649946376797743141651153564,0.048299999999999995714539124946895753964781761169434,-0.012900000000000001743050148661495768465101718902588,-0.048400000000000005517808432387028005905449390411377,0.025200000000000000177635683940025046467781066894531,0.0075999999999999956479257434693863615393638610839844,-0.045000000000000005273559366969493567012250423431396,-0.0070000000000000062172489379008766263723373413085938,-0.029300000000000003125277814319815661292523145675659,-0.019600000000000002836619827917274960782378911972046,0.037299999999999999822364316059974953532218933105469,0.033899999999999999578115250642440514639019966125488,-0.0067000000000000045630166312093933811411261558532715,0.038999999999999993005594944861513795331120491027832,-0.013500000000000005051514762044462258927524089813232,0.010799999999999997102317905728341429494321346282959,0.046199999999999991073806882013741414994001388549805,-0.030100000000000001754152378907747333869338035583496,-0.011700000000000002065014825802791165187954902648926,-0.046100000000000002087219286295294295996427536010742,0.040199999999999999622524171627446776255965232849121,0.027899999999999994249044732441689120605587959289551,-0.01230000000000000537347943918575765565037727355957,-0.022399999999999999772404279951842909213155508041382,-0.020000000000000003885780586188047891482710838317871,-0.0052999999999999991562305012848810292780399322509766,0.0035999999999999990341059685761138098314404487609863,-0.047600000000000003419486915845482144504785537719727,0.025200000000000000177635683940025046467781066894531,-0.0085000000000000075495165674510644748806953430175781,0.018999999999999989119814358673465903848409652709961,-0.043099999999999999422684027194918598979711532592773,0.024999999999999994448884876874217297881841659545898,-0.0088000000000000022648549702353193424642086029052734,-0.0063000000000000000444089209850062616169452667236328,9.9999999999995925481499625675496645271778106689453e-05,0.048699999999999993294252931264054495841264724731445,-0.0014000000000000054067861299245123518630862236022949,-0.021800000000000006872280522429718985222280025482178,0.0045000000000000039968028886505635455250740051269531,-0.035900000000000001354472090042690979316830635070801,-0.034600000000000005750955267558310879394412040710449,-0.011599999999999999200639422269887290894985198974609,0.042599999999999998978594817344855982810258865356445,-0.010399999999999999522604099411182687617838382720947,-0.040000000000000000832667268468867405317723751068115,0.0032999999999999973798736618846305646002292633056641,-0.014300000000000007149836278586008120328187942504883,-0.020200000000000002675637489346627262420952320098877,0.041499999999999995226040994111826876178383827209473,0.024699999999999999733546474089962430298328399658203,-0.030100000000000001754152378907747333869338035583496,-0.045400000000000002853273173286652308888733386993408,-0.0025000000000000022204460492503130808472633361816406,0.032699999999999992961186023876507533714175224304199,-0.015500000000000006827871601444712723605334758758545,0.042099999999999998534505607494793366640806198120117,0.021399999999999988475885004390875110402703285217285,0.02199999999999999178434961777384160086512565612793,0.017299999999999995936583729871927062049508094787598,-0.037100000000000001032507412901395582593977451324463,0.026099999999999998201438700107246404513716697692871,-0.040700000000000000066613381477509392425417900085449,-0.027000000000000003164135620181696140207350254058838,-0.032800000000000002764455331316639785654842853546143,0.0028999999999999998001598555674718227237462997436523,0.022999999999999992672528037473966833204030990600586,0.0010000000000000008881784197001252323389053344726562,-0.013400000000000002187139358511558384634554386138916,-0.013600000004993584648560478456147393444553017616272,-0.044600000132991632351142641255137277767062187194824,0.00069999978825118110148384431568047148175537586212158,-0.001751474498605845890250587437719786976231262087822,0.012692355400914656290978221875320741673931479454041,-0.0067999999786474132554281446516597497975453734397888,-0.041036293476071634966917400788588565774261951446533,0.038800000130706766010568742331088287755846977233887,-0.018402876962544188754744567404486588202416896820068,0.047199780624324748357079073457498452626168727874756,-0.031406388686501023055352987967125955037772655487061,0.0081999981423469692903838179631748062092810869216919,0.022698552394531057441184884737594984471797943115234,0.023599999999196638600373887584282783791422843933105,0.025669066039671575851777163279621163383126258850098,-0.030700011195311564804466542000227491371333599090576,0.041399991978725569907737735775299370288848876953125,-0.025714699278895941647604672652960289269685745239258,-0.0033743631594205674741060452248575529665686190128326,0.012799996416469930707315860729522682959213852882385,-0.0458000086754584145865010214038193225860595703125,-0.001099995223134627407579611002574893063865602016449,0.051306290958384299927264038387875189073383808135986,0.043812259808914975900417942966669215820729732513428,0.012476235426776007345073260523804492549970746040344,-0.016300000776681131120504630871437257155776023864746,-0.017500000324570712251226467515152762643992900848389,-0.013643405211981530361642356297124933917075395584106,-0.0052924431454773775140854041865168255753815174102783,-0.031399925209758601518661436102775041945278644561768,0.032799999989065770078511263818654697388410568237305,0.028099999708794173164383423113577009644359350204468,-0.026000000463656896404485152629604272078722715377808,-0.024157538988326600348788275596234598197042942047119,-0.020489152829031680169702411831167410127818584442139,-0.011999999953245198830442674875484954100102186203003,-0.011679470197605134468288312632466841023415327072144,0.041300000286202745436447969495930010452866554260254,-0.023206299555915726323673808906278281938284635543823,-0.042000480357082002613733351381597458384931087493896,0.038486010979558123168420280535428901202976703643799,-0.0047000040676195469283027428275545389624312520027161,-0.046732480101630273494617284768537501804530620574951,0.045399999998240916920799747913406463339924812316895,0.032397782535142922999416015272799995727837085723877,0.013999975486128128643326107294342364184558391571045,-0.03540001756382506886700056725203467067331075668335,-0.022149427731375601752228376994935388211160898208618,0.046475101357820493286343577210573130287230014801025,0.046299992153304853070849844698386732488870620727539,-0.041900018996262382298123583268534275703132152557373,-0.014399989540312024480228636491574434330686926841736,0.19327756813301388838510774803580716252326965332031,0.033806155098831107419510288991659763269126415252686,0.010263481020699204149249084139228216372430324554443,-0.046800001700663861059492631966350018046796321868896,0.037599999289302077354335551717667840421199798583984,-0.052953663136580252090990228452938026748597621917725,0.040966546905592642058291374951295438222587108612061,-0.020699836235161073877408810517408710438758134841919,-0.012900000000000001743050148661495768465101718902588,0.017299999999999995936583729871927062049508094787598,-0.0074000000000000037969627442180353682488203048706055,0.046199999999999991073806882013741414994001388549805,-0.049399999999999999467092948179924860596656799316406,-0.042500000000000003053113317719180486164987087249756,-0.01580000000000000154321000422896759118884801864624,-0.037800000000000000266453525910037569701671600341797,0.048699999999999993294252931264054495841264724731445,0.010899999999999993027799405354016926139593124389648,0.0052999999999999991562305012848810292780399322509766,-0.027700000000000002398081733190338127315044403076172,-0.008700000000000006339373470609643845818936824798584,0.0064999999999999918953719202363572549074888229370117,-0.032300000000000002320366121466577169485390186309814,0.045199999999999990185628462313616182655096054077148,0.0056000000000000008104628079763642745092511177062988,0.017399999999999998800959133404830936342477798461914,0.025700000000000000621724893790087662637233734130859,0.0017999999999999960476060323344427160918712615966797,0.013600000000000000976996261670137755572795867919922,-0.031100000000000002642330798607872566208243370056152,-0.027500000000000003608224830031758756376802921295166,-0.006100000000000001254552017826426890678703784942627,0.022800000000000000821565038222615839913487434387207,-0.0415000000000000021649348980190552538260817527771,0.032199999999999992517096814026444917544722557067871,0.045499999999999998778754672912327805534005165100098,-0.022999999999999999611421941381195210851728916168213,0.016700000000000006505906924303417326882481575012207,0.0099999999999999950039963891867955680936574935913086,0.01410000000000000142108547152020037174224853515625,-0.016100000000000003197442310920450836420059204101562,-0.04750000000000000055511151231257827021181583404541,0.010199999999999993793853292345374939031898975372314,0.019599999999999992428278972056432394310832023620605,-0.040100000000000003697042672001771279610693454742432,-0.020500000000000004329869796038110507652163505554199,0.031699999999999992073007604176382301375269889831543,-0.0063000000000000000444089209850062616169452667236328,-0.024500000000000000943689570931383059360086917877197,0.022099999999999994648725021306745475158095359802246,0.016000000000000000333066907387546962127089500427246,-0.048100000000000003863576125695544760674238204956055,-0.021400000000000005823119764158946054521948099136353,-0.031200000000000002037259250187162251677364110946655,0.047099999999999989097609898180962773039937019348145,0.034099999999999991429078249893791507929563522338867,0.03609999999999999320543508929404197260737419128418,-0.042099999999999998534505607494793366640806198120117,0.020999999999999990896171198073716368526220321655273,0.034900000000000000466293670342565746977925300598145,-0.023200000000000001870725796493388770613819360733032,-0.021400000000000005823119764158946054521948099136353,-0.02130000000000000642819131257965636905282735824585,-0.015300000000000008038014698286133352667093276977539,-0.012900000000000001743050148661495768465101718902588,-0.004000000000000003552713678800500929355621337890625,-0.019800000000000005095923683029468520544469356536865,0.013999999999999998556710067987296497449278831481934,-0.037299999999999999822364316059974953532218933105469,0.040099999999999996758148768094542901962995529174805,0.01320000000000000339728245535297901369631290435791,0.031699999999999992073007604176382301375269889831543,0.042499999999999996114219413811952108517289161682129,0.0085999999999999965361041631695115938782691955566406,0.0012999999999999956035168224843800999224185943603516,-0.012500000000000004163336342344337026588618755340576,0.037999999999999992117416525161388562992215156555176,0.018100000000000004973799150320701301097869873046875,0.031100000000000002642330798607872566208243370056152,-0.0013000000000000025424107263916084775701165199279785,-0.0098000000000000031530333899354445748031139373779297,0.032199999999999992517096814026444917544722557067871,0.00050000000000000044408920985006261616945266723632812,-0.046100000000000002087219286295294295996427536010742,-0.049100000000000004751754545395669993013143539428711,-0.0025000000000000022204460492503130808472633361816406,0.037900000000000003130828929442941443994641304016113,-0.027800000000000001793010184769627812784165143966675,0.040599999999999997202237977944605518132448196411133,0.044099999999999986433074639080587076023221015930176,-0.0078000000000000013766765505351941101253032684326172,-0.032700000000000006838973831690964289009571075439453,0.0077999999999999944377826466279657324776053428649902,-0.04400000000000000438538094726936833467334508895874,0.037099999999999994093613508994167204946279525756836,0.044799999999999992605914655996457440778613090515137,0.0018999999999999989119814358673465903848409652709961,-0.032800000000000002764455331316639785654842853546143,0.043999999999999997446487043362139957025647163391113,0.049699999999999994182431350964179728180170059204102,-0.0076000000000000025868196473766147391870617866516113,0.0070999999999999952038365336193237453699111938476562,0.031399999999999997357669201392127433791756629943848,-0.015200000000000005173639294753229478374123573303223,-0.034400000000000000022204460492503130808472633361816,-0.017399999999999998800959133404830936342477798461914,-0.042600000000000005917488721252084360457956790924072,-0.011200000000000001620925615952728549018502235412598,-0.049399999999999999467092948179924860596656799316406,0.038499999999999992561505735011451179161667823791504,0.037400000000000002686739719592878827825188636779785,0.025899999999999992472687893041438655927777290344238,-0.044200000000000003175237850427947705611586570739746,-0.012200000000000002509104035652853781357407569885254,0.029700000000000004174438572590588591992855072021484,-0.0081000000000000030309088572266773553565144538879395,-0.029500000000000005384581669432009221054613590240479,-0.047200000000000005839773109528323402628302574157715,0.013999999999999998556710067987296497449278831481934,-0.039000000000000006883382752675970550626516342163086,0.046799999999999994382271495396707905456423759460449,-0.008700000000000006339373470609643845818936824798584,0.013399999999999995248245454604330006986856460571289,0.039699999999999999178434961777384160086512565612793,0.032399999999999998245847621092252666130661964416504,0.00039999999999999757971380631715874187648296356201172,0.034499999999999989008792056210950249806046485900879,-0.01580000000000000154321000422896759118884801864624,-0.047200000000000005839773109528323402628302574157715,0.028399999999999994693133942291751736775040626525879,-0.016100000000000003197442310920450836420059204101562,-0.0049000000000000015765166949677222874015569686889648,0.020599999999999993316457391756557626649737358093262,0.00039999999999999757971380631715874187648296356201172,-0.034900000000000000466293670342565746977925300598145,-0.028600000000000003891331701311173674184828996658325,0.032899999999999998689936830942315282300114631652832,-0.027600000000000003003153281611048441845923662185669,0.010099999999999997868371792719699442386627197265625,-0.031400000000000004296563105299355811439454555511475,-0.004000000000000003552713678800500929355621337890625,0.032599999999999990096810620343603659421205520629883,0.044499999999999997890576253212202573195099830627441,0.0017999999999999960476060323344427160918712615966797,-0.029700000000000000704991620636974403169006109237671,-0.040700000000000000066613381477509392425417900085449,0.043599999999999999866773237044981215149164199829102,0.025899999999999992472687893041438655927777290344238,-0.03800000000000000599520433297584531828761100769043,0.042700000000000001842970220877759857103228569030762,0.036799999999999999378275106209912337362766265869141,-0.006100000000000001254552017826426890678703784942627,0.019099999999999991984189762206369778141379356384277,0.035299999999999998046007476659724488854408264160156,-0.016399999999999997912780713704705704003572463989258,0.001399999999999998467892226017283974215388298034668,0.020899999999999988031795794540812494233250617980957,-0.032000000000000000666133814775093924254179000854492,-0.029300000000000003125277814319815661292523145675659,-0.041200000000000000510702591327572008594870567321777,-0.018500000000000002553512956637860042974352836608887,0.039699999999999999178434961777384160086512565612793,0.0037999999999999978239628717346931807696819305419922,-0.012800000000000005817568649035820271819829940795898,-0.010000000000000001942890293094023945741355419158936,0.018799999999999997268851359422114910557866096496582,0.0084999999999999936717287596366077195852994918823242,0.0079999999999999932276395497865451034158468246459961,-0.023600000000000002919886554764161701314151287078857,-0.031500000000000000222044604925031308084726333618164,0.026599999999999998645527909957309020683169364929199,0.022300000000000000377475828372553223744034767150879,-0.049000000000000001887379141862766118720173835754395,-0.043800000000000005595524044110788963735103607177734,0.0091999999999999929056748726452497066929936408996582,0.0064999999999999918953719202363572549074888229370117,-0.034600000000000005750955267558310879394412040710449,0.037900000000000003130828929442941443994641304016113,-0.017700000000000000455191440096314181573688983917236,0.012600000000000000088817841970012523233890533447266,-0.034300000000000004096722960866827634163200855255127,0.0042999999999999982680520815847557969391345977783203,-0.043599999999999999866773237044981215149164199829102,0.034699999999999994737542863276757998391985893249512,0.024699999999999999733546474089962430298328399658203,-0.010099999999999997868371792719699442386627197265625,0.021199999999999996624922005139524117112159729003906,-0.0045000000000000039968028886505635455250740051269531,0.042999999999999996558308623662014724686741828918457,0.041900000000000006683542608243442373350262641906738,0.0042000000000000023425705819590803002938628196716309,0.0095999999999999974242825828696368262171745300292969,0.03149999999999998634425679711057455278933048248291,-0.0068000000000000004884981308350688777863979339599609,0.046799999999999994382271495396707905456423759460449,0.0066999999999999906852288233949366258457303047180176,-0.0029000000000000067390537594747002003714442253112793,0.0052000000000000032307490016592055326327681541442871,-0.035400000000000000910382880192628363147377967834473,0.023399999999999990252241843791125575080513954162598,-0.041100000000000004585221091701896511949598789215088,-0.02370000000000000231481500634345138678327202796936,0.03089999999999999691357999154206481762230396270752,-0.0050000000000000044408920985006261616945266723632812,0.017600000000000004529709940470638684928417205810547,-0.010000000000000001942890293094023945741355419158936,-0.013400000000000002187139358511558384634554386138916,-0.031800000000000001876276911616514553315937519073486,0.013100000000000000532907051820075139403343200683594,-0.045900000000000003297362383136714925058186054229736,0.030700000000000005062616992290713824331760406494141,0.028700000000000003286260152890463359653949737548828,0.0082999999999999948818718564780283486470580101013184,-0.027800000000000001793010184769627812784165143966675,0.048599999999999990429877527731150621548295021057129,-0.017100000000000004085620730620576068758964538574219,0.012099999999999999644728632119949907064437866210938,0.019699999999999995292654375589336268603801727294922,-0.036400000000000001798561299892753595486283302307129,0.040199999999999999622524171627446776255965232849121,0.046699999999999991517896091863804031163454055786133,-0.047100000000000002975397705995419528335332870483398,-0.00020000000000000572875080706580774858593940734863281,0.0282000000000000028421709430404007434844970703125,0.031200000000000005506706202140776440501213073730469,0.031699999999999992073007604176382301375269889831543,-0.015200000000000005173639294753229478374123573303223,-0.021700000000000004007905118896815110929310321807861,0.02199999999999999178434961777384160086512565612793,0.034499999999999989008792056210950249806046485900879,-0.01320000000000000339728245535297901369631290435791,-0.034000000000000002442490654175344388931989669799805,-0.039199999999999998734345751927321543917059898376465,-0.032400000000000005184741524999481043778359889984131,0.046199999999999991073806882013741414994001388549805,0.028300000000000005706546346573304617777466773986816,0.042800000000000004707345624410663731396198272705078,-0.017300000000000002875477633779155439697206020355225,0.046399999999999996802557689079549163579940795898438,0.0057999999999999996003197111349436454474925994873047,-0.013300000000000006261657858885882887989282608032227,-0.037800000000000000266453525910037569701671600341797,0.019599999999999992428278972056432394310832023620605,-0.019900000000000004490852134608758206013590097427368,-0.015600000000000002753353101070388220250606536865234,0.018100000000000004973799150320701301097869873046875,0.048199999999999992850163721413991879671812057495117,-0.01839999999999999968913755310495616868138313293457,0.022999999999999992672528037473966833204030990600586,-0.0031000000000000055289106626332795713096857070922852,-0.028300000000000002237099394619690428953617811203003,0.019599999999999992428278972056432394310832023620605,-0.00030000000000000165423230669148324523121118545532227,-0.043400000000000001076916333886401844210922718048096,0.032899999999999998689936830942315282300114631652832,0.016100000000000003197442310920450836420059204101562,-0.026600000000000002114974861910923209507018327713013,-0.032400000000000005184741524999481043778359889984131,0.044299999999999992161825446146394824609160423278809,0.045399999999999995914379269379423931241035461425781,-0.047900000000000005073719222536965389735996723175049,-0.019000000000000002997602166487922659143805503845215,-0.0035000000000000031086244689504383131861686706542969,-0.0020000000000000017763568394002504646778106689453125,-0.0014000000000000054067861299245123518630862236022949,-0.0074000000000000037969627442180353682488203048706055,-0.023800000000000001709743457922741072252392768859863,0.026499999999999995781152506424405146390199661254883,-0.039500000000000007327471962526033166795969009399414,0.0077999999999999944377826466279657324776053428649902,0.017399999999999998800959133404830936342477798461914,-0.0029000000000000067390537594747002003714442253112793,0.019899999999999987143617374840687261894345283508301,-0.013100000000000000532907051820075139403343200683594,-0.037600000000000001476596622751458198763430118560791,-0.010599999999999998312461002569762058556079864501953,-0.0098000000000000031530333899354445748031139373779297,-0.039500000000000007327471962526033166795969009399414,0.020899999999999988031795794540812494233250617980957,-0.0017000000000000070610184366159955970942974090576172,0.0072999999999999939936934367779031163081526756286621,0.042599999999999998978594817344855982810258865356445,-0.032200000000000006394884621840901672840118408203125,-0.0079000000000000042410519540680979844182729721069336,-0.015699999999999998678834600696063716895878314971924,-0.01410000000000000142108547152020037174224853515625,-0.041900000000000006683542608243442373350262641906738,0.0076999999999999915734072430950618581846356391906738,0.03859999999999999542588113854435505345463752746582,-0.047700000000000006283862319378386018797755241394043,0.038199999999999997846167332227196311578154563903809,-0.024200000000000002758904216193514002952724695205688,0.018500000000000002553512956637860042974352836608887,-0.015400000000000003963496197911808849312365055084229,0.023699999999999998845368054389837197959423065185547,0.0022000000000000005662137425588298356160521507263184,0.027200000000000001953992523340275511145591735839844,-0.0149000000000000035194069880617462331429123878479,-0.021400000000000005823119764158946054521948099136353,0.037599999999999994537702718844229821115732192993164,0.042800000000000004707345624410663731396198272705078,0.045899999999999996358468479229486547410488128662109,0.019799999999999998157029779122240142896771430969238,0.047799999999999995270449915096833137795329093933105,0.017899999999999999245048343254893552511930465698242,0.032099999999999989652721410493541043251752853393555,-0.012800000000000005817568649035820271819829940795898,-0.0068000000000000004884981308350688777863979339599609,0.042499999999999996114219413811952108517289161682129,-0.042000000000000002609024107869117869995534420013428,0.04140000000000000623945339839337975718080997467041,-0.00030000000000000165423230669148324523121118545532227,-0.014300000000000007149836278586008120328187942504883,-0.0056000000000000008104628079763642745092511177062988,-0.022999999999999999611421941381195210851728916168213,0.019999999999999990007992778373591136187314987182617,0.030200000000000004618527782440651208162307739257812,-0.015000000000000006383782391594650107435882091522217,0.012799999999999991939780841221363516524434089660645,0.01870000000000000828226376370366779156029224395752,-0.012700000000000002953193245502916397526860237121582,0.00089999999999999802380301616722135804593563079833984,-0.020300000000000005540012892879531136713922023773193,-0.0091000000000000039190872769268025876954197883605957,0.035400000000000000910382880192628363147377967834473,-0.046700000000000005395683899678260786458849906921387,0.042999999999999996558308623662014724686741828918457,0.047699999999999992406074511563929263502359390258789,-0.011700000000000002065014825802791165187954902648926,-0.028500000000000004496403249731883988715708255767822,0.03519999999999999518163207312682061456143856048584,0.016200000000000006061817714453354710713028907775879,0.0025000000000000022204460492503130808472633361816406,0.040199999999999999622524171627446776255965232849121,0.049199999999999993738342141114117112010717391967773,0.0055000000000000048849813083506887778639793395996094,0.022199999999999997513100424839649349451065063476562,0.021499999999999991340260407923778984695672988891602,0.048699999999999993294252931264054495841264724731445,0.049899999999999999911182158029987476766109466552734,-0.035400000000000000910382880192628363147377967834473,-0.02480000000000000259792187762286630459129810333252,0.034699999999999994737542863276757998391985893249512,0.00029999999999999471533840278425486758351325988769531,0.019499999999999989563903568523528520017862319946289,-0.038400000000000003574918139293004060164093971252441,0.005400000000000002020605904817784903571009635925293,0.034799999999999997601918266809661872684955596923828,-0.0034000000000000002442490654175344388931989669799805,-0.031900000000000004740652315149418427608907222747803,0.038699999999999998290256542077258927747607231140137,-0.031000000000000003247402347028582880739122629165649,0.018899999999999986255438955140562029555439949035645,-0.031700000000000005950795411990839056670665740966797,0.0097999999999999962141394860282161971554160118103027,0.039400000000000004463096558993129292502999305725098,0.0066999999999999906852288233949366258457303047180176,0.0027000000000000010103029524088924517855048179626465,0.037099999999999994093613508994167204946279525756836,-0.019800000000000005095923683029468520544469356536865,-0.040700000000000000066613381477509392425417900085449,-0.042600000000000005917488721252084360457956790924072,-0.018500000000000002553512956637860042974352836608887,0.046899999999999997246646898929611779749393463134766,0.04750000000000000055511151231257827021181583404541,-0.01940000000000000404676292475869558984413743019104,0.0022999999999999964916952421845053322613239288330078,-0.045100000000000001199040866595169063657522201538086,-0.012800000000000005817568649035820271819829940795898,0.00089999999999999802380301616722135804593563079833984,-0.045299999999999999988897769753748434595763683319092,0.0017999999999999960476060323344427160918712615966797,0.026099999999999998201438700107246404513716697692871,0.039300000000000001598721155460225418210029602050781,-0.048000000000000000999200722162640886381268501281738,0.030700000000000005062616992290713824331760406494141,-0.013900000000000002631228568361621000804007053375244,0.042499999999999996114219413811952108517289161682129,-0.049300000000000003541611448554249363951385021209717,-0.032200000000000006394884621840901672840118408203125,-0.039500000000000007327471962526033166795969009399414,0.039300000000000001598721155460225418210029602050781,-0.013300000000000006261657858885882887989282608032227,-0.035500000000000003774758283725532237440347671508789,-0.0073000000000000009325873406851314939558506011962891,-0.01839999999999999968913755310495616868138313293457,-0.046200000000000004951594689828198170289397239685059,0.04929999999999999660271754464702098630368709564209,-0.030600000000000002198241588757809950038790702819824,-0.024000000000000000499600361081320443190634250640869,0.014600000000000001865174681370262987911701202392578,-0.021400000000000005823119764158946054521948099136353,-0.016600000000000003641531520770513452589511871337891,0.046099999999999988209431478480837540701031684875488,0.010599999999999998312461002569762058556079864501953,-0.019200000000000001787459069646502030082046985626221,-0.023400000000000000660582699651968141552060842514038,-0.037200000000000003896882816434299456886947154998779,0.020799999999999999045208198822365375235676765441895,0.013799999999999992827959260921488748863339424133301,0.048899999999999999023003738329862244427204132080078,0.02539999999999999202859868319137603975832462310791,-0.034500000000000002886579864025407005101442337036133,-0.039900000000000004907185768843191908672451972961426,0.049899999999999999911182158029987476766109466552734,0.0025999999999999981459275488759885774925351142883301,0.040700000000000000066613381477509392425417900085449,0.02109999999999999376054660160662024281919002532959,-0.0050000000000000044408920985006261616945266723632812,-0.023500000000000000055511151231257827021181583404541,0.038800000000000001154631945610162802040576934814453,0.040599999999999997202237977944605518132448196411133,0.00089999999999999802380301616722135804593563079833984,-0.024600000000000003808064974464286933653056621551514,-0.0098000000000000031530333899354445748031139373779297,0.043499999999999997002397833512077340856194496154785,0.042099999999999998534505607494793366640806198120117,-0.006100000000000001254552017826426890678703784942627,-0.021999999999999998723243521681069978512823581695557,-0.038600000000000002364775042451583431102335453033447,-0.04490000000000000240918396343658969271928071975708,0.042499999999999996114219413811952108517289161682129,0.025099999999999997313260280407121172174811363220215,-0.011599999999999999200639422269887290894985198974609,0.038499999999999992561505735011451179161667823791504,-0.014400000000000003075317778211683616973459720611572,-0.04570000000000000450750547997813555411994457244873,0.00029999999999999471533840278425486758351325988769531,-0.0017000000000000070610184366159955970942974090576172,0.025099999999999997313260280407121172174811363220215,-0.00080000000000000209832151654154586140066385269165039,0.032299999999999995381472217559348791837692260742188,0.035599999999999992761345879443979356437921524047852,0.049799999999999997046806754497083602473139762878418,0.04230000000000000426325641456060111522674560546875,-0.029400000000000002520206265899105346761643886566162,0.0022999999999999964916952421845053322613239288330078,-0.031800000000000001876276911616514553315937519073486,0.041599999999999998090416397644730750471353530883789,-0.017600000000000004529709940470638684928417205810547,-0.005400000000000002020605904817784903571009635925293,0.030300000000000007482903185973555082455277442932129,0.0080999999999999960920149533194489777088165283203125,0.045499999999999998778754672912327805534005165100098,-0.0092000000000000067834626804597064619883894920349121,0.048199999999999992850163721413991879671812057495117,-0.025900000000000002881028748902281222399324178695679,-0.017200000000000000011102230246251565404236316680908,0.027200000000000001953992523340275511145591735839844,0.037199999999999996957988912527071079239249229431152,0.029300000000000006594724766273429850116372108459473,0.032199999999999992517096814026444917544722557067871,-0.035100000000000006195044477408373495563864707946777,0.0042999999999999982680520815847557969391345977783203,0.0057000000000000036748382115092681488022208213806152,-0.01150000000000000327515792264421179424971342086792,-0.025000000000000001387778780781445675529539585113525,0.0099999999999999950039963891867955680936574935913086,0.038699999999999998290256542077258927747607231140137,-0.0415000000000000021649348980190552538260817527771,0.02019999999999999573674358543939888477325439453125,0.022999999999999992672528037473966833204030990600586,0.040700000000000000066613381477509392425417900085449,0.0057000000000000036748382115092681488022208213806152,0.022699999999999997957189634689711965620517730712891,0.032999999999999987676524426660762401297688484191895,-0.038500000000000006439293542825907934457063674926758,0.010099999999999997868371792719699442386627197265625,-0.013700000000000003841371665203041629865765571594238,-0.047000000000000000111022302462515654042363166809082,-0.022399999999999999772404279951842909213155508041382,0.030800000000000007926992395823617698624730110168457,-0.031500000000000000222044604925031308084726333618164,0.035599999999999992761345879443979356437921524047852,-0.038600000000000002364775042451583431102335453033447,0.044399999999999995026200849679298698902130126953125,-0.031100000000000002642330798607872566208243370056152,0.020699999999999996180832795289461500942707061767578,-0.022800000000000000821565038222615839913487434387207,-0.018700000000000001343369859796439413912594318389893,0.042999999999999996558308623662014724686741828918457,-0.0084000000000000046851411639181606005877256393432617,-0.036600000000000000588418203051332966424524784088135,-0.042200000000000001398881011027697240933775901794434,-0.018900000000000003602673714908632973674684762954712,-0.04570000000000000450750547997813555411994457244873,-0.0037000000000000018984813721090176841244101524353027,0.0060000000000000053290705182007513940334320068359375,0.014200000000000004285460875053104246035218238830566,0.020099999999999992872368181906495010480284690856934,0.014399999999999996136423874304455239325761795043945,-0.015699999999999998678834600696063716895878314971924,-0.0069000000000000033528735343679727520793676376342773,0.040300000000000002486899575160350650548934936523438,-0.024900000000000001992850329202155990060418844223022,0.00089999999999999802380301616722135804593563079833984,-0.041599999999999998090416397644730750471353530883789,-0.013500000000000005051514762044462258927524089813232,-0.039000000000000006883382752675970550626516342163086,-0.005400000000000002020605904817784903571009635925293,0.024699999999999999733546474089962430298328399658203,-0.01150000000000000327515792264421179424971342086792,0.010499999999999995448085599036858184263110160827637,-0.021700000000000004007905118896815110929310321807861,0.0092999999999999957700502761781535809859633445739746,-0.042900000000000000632827124036339228041470050811768,-0.02740000000000000074384942649885488208383321762085,-0.036700000000000003452793606584236840717494487762451,0.027700000000000002398081733190338127315044403076172,0.034900000000000000466293670342565746977925300598145,-0.0055000000000000048849813083506887778639793395996094,0.020599999999999993316457391756557626649737358093262,-0.023500000000000000055511151231257827021181583404541,0.043099999999999999422684027194918598979711532592773,-0.036400000000000001798561299892753595486283302307129,0.007499999999999992783550339936482487246394157409668,0.047299999999999994826360705246770521625876426696777,0.04499999999999999833466546306226518936455249786377,-0.0014000000000000054067861299245123518630862236022949,0.011399999999999993471888615204079542309045791625977,-0.049800000000000003985700658404311980120837688446045,-0.0018000000000000029864999362416710937395691871643066,-0.019200000000000001787459069646502030082046985626221,0.028399999999999994693133942291751736775040626525879,-0.011599999999999999200639422269887290894985198974609,0.040999999999999994781951784261764260008931159973145,-0.020700000000000003119726699196689878590404987335205,0.031899999999999997801758411242190049961209297180176,-0.022499999999999999167332731531132594682276248931885,0.02539999999999999202859868319137603975832462310791,0.011599999999999999200639422269887290894985198974609,-0.012700000000000002953193245502916397526860237121582,-0.036200000000000003008704396734174224548041820526123,-0.028000000000000004052314039881821372546255588531494,0.015499999999999999888977697537484345957636833190918,-0.041800000000000003819167204710538499057292938232422,-0.021000000000000004773959005888173123821616172790527,-0.026800000000000000904831765069502580445259809494019,-0.028500000000000004496403249731883988715708255767822,-0.0082000000000000058952842607595812296494841575622559,-0.041900000000000006683542608243442373350262641906738,0.01589999999999999746869150385464308783411979675293,-0.0024000000000000062949645496246375842019915580749512,0.019699999999999995292654375589336268603801727294922,0.0088999999999999912514425659537664614617824554443359,0.046299999999999993938182285546645289286971092224121,0.012299999999999998434585535278529278002679347991943,0.006100000000000001254552017826426890678703784942627,0.041200000000000000510702591327572008594870567321777,-0.039199999999999998734345751927321543917059898376465,0.0025999999999999981459275488759885774925351142883301,0.041300000000000003375077994860475882887840270996094,0.0088999999999999912514425659537664614617824554443359,0.033299999999999996269650637259474024176597595214844,-0.045100000000000001199040866595169063657522201538086,-0.017600000000000004529709940470638684928417205810547,-0.040500000000000001276756478318930021487176418304443,-0.01589999999999999746869150385464308783411979675293,-0.00060000000000000330846461338296649046242237091064453,0.022099999999999994648725021306745475158095359802246,-0.04060000000000000414113188185183389578014612197876,-0.039100000000000002808864252301646047271788120269775,-0.040700000000000000066613381477509392425417900085449,0.0082999999999999948818718564780283486470580101013184,-0.017100000000000004085620730620576068758964538574219,-0.040100000000000003697042672001771279610693454742432,0.016500000000000000777156117237609578296542167663574,0.047000000000000000111022302462515654042363166809082,-0.017000000000000001221245327087672194465994834899902,0.037900000000000003130828929442941443994641304016113,-0.011200000000000001620925615952728549018502235412598,0.026200000000000001065814103640150278806686401367188,0.03890000000000000401900734914306667633354663848877,-0.028500000000000004496403249731883988715708255767822,-0.0042000000000000023425705819590803002938628196716309,-0.0022000000000000075051076464660582132637500762939453,-0.032300000000000002320366121466577169485390186309814,-0.042000000000000002609024107869117869995534420013428,-0.010999999999999031385922165782176307402551174163818,-0.04077892698171314833643918973393738269805908203125,-0.031199999999999152022756021551685989834368228912354,0.041599999997159797793244706554105505347251892089844,-0.014800000006810547573121716879995801718905568122864,-0.037199999997864011125336958230036543682217597961426,-0.041795127392947703515169166621490148827433586120605,-0.010000000000000001942890293094023945741355419158936,0.030400000013999374515183404810159117914736270904541,-0.030600000000000002198241588757809950038790702819824,-0.040800001592382950654780415788991376757621765136719,-0.020300000000000005540012892879531136713922023773193,0.04140000000000000623945339839337975718080997467041,0.0037000136033009897208734262363805100903846323490143,-0.008596495765599026020464812347654515178874135017395,-0.014200000000000004285460875053104246035218238830566,-0.03799999999999920802240538364458188880234956741333,-0.041415568573062840063148115632429835386574268341064,-0.0025419305002474875017359767781499613192863762378693,-0.036396001328694700671650963386127841658890247344971,-0.0092999999999985698273530232427219743840396404266357,-0.036204072910093622328364659779253997839987277984619,-0.01339999999263597960097449401928315637633204460144,0.029401503467016778387010944584289973136037588119507,0.039899999999999991029397961028735153377056121826172,-0.024599999998211427576499943370436085388064384460449,-0.014000000000000008965050923848139063920825719833374,-0.014645305574958002170493642779547371901571750640869,-0.041701038106955454209945344246079912409186363220215,0.0035999999999861368588094379106223641429096460342407,0.028800000017423041387409909930283902212977409362793,0.00034612401951105884693321579348435079737100750207901,0.04750000000058321458773491485771955922245979309082,0.047158590274298778366457440824888180941343307495117,0.02365186362229134212076253618306509451940655708313,0.017980732628530705918823429101394140161573886871338,-0.14244721690180675577330760006589116528630256652832,-0.030899999999980640869035042328505369368940591812134,-0.042199999750344295568194041834431118331849575042725,-0.024200000000016368140176581391642685048282146453857,0.022819064061583266278532278192869853228330612182617,0.0022000000171710056354190676586313202278688549995422,0.040600000069144825953770805426756851375102996826172,0.014999941430328577601782669148633431177586317062378,-0.019331448545235423858157375320843129884451627731323,0.016299999996758868930912811379130289424210786819458,-0.014000000009392108910044605352140933973714709281921,-0.0024983128562725987614756562038564879912883043289185,0.048628688312462128862101451431954046711325645446777,-0.033790526791480403334677617976922192610800266265869,-0.048694488152009586523494277798818075098097324371338,0.00060808907136516315329599624561751625151373445987701,0.025421024708557997395796945738766225986182689666748,-0.0013224488970182096507499647231043127248995006084442,0.015199997650795346246233030740313552087172865867615,0.0055000009974313065000406375304464745568111538887024,0.013499999692544924559389762919181521283462643623352,-0.13294481878181810263761519763647811487317085266113,-0.03085535056905961900919344031990476651117205619812,0.021686557872214812930922178679793432820588350296021,0.0046998427496278555315356584287656005471944808959961,-0.050133016381933501182111001526209292933344841003418,-0.0026983169442948784846891818745007185498252511024475,0.031852745242144923920601939926200429908931255340576,-0.018422227590527608803716574925601889844983816146851,0.013440731352572767021147370769540430046617984771729,-0.33751779589240848977738096436951309442520141601562,0.033100163395598153348586833999434020370244979858398,0.032411382485584595836147769887247704900801181793213,0.048100000007596552253907873364369152113795280456543,-0.019304228668396459372980089597149344626814126968384,0.0059030301859552703619415936486802820581942796707153,0.0001997275084482760430185793731894250413461122661829,-0.015495648212379137600991363399316469440236687660217,0.065380357600617403091014523397461744025349617004395,0.04120694688847319209212827217925223521888256072998,-0.013688310360225447101512052938687702408060431480408,0.026263729619041002033563714235242514405399560928345,0.27340296814938980229925391540746204555034637451172,-0.00488727296322842823944609946806849620770663022995,-0.041821420412913916375696743443768355064094066619873,0.030675127117077594096627990438719280064105987548828,0.14230905056426426669169416072691092267632484436035,0.095242088395688095925351035475614480674266815185547,-0.030906647451473749643735544623268651776015758514404,0.011699407949797993935825424216545798117294907569885,0.014699968064808000001164600689662620425224304199219,-0.28209174244038626166997119071311317384243011474609,-0.0010973624604752060893858578438653239572886377573013,0.040796402575700371762046358981024241074919700622559,0.039098862497467155863173360330620198510587215423584,-0.01043117233615742898977796215831403969787061214447,0.037525843752794198204814080099822604097425937652588,0.0041404812961103980295529680688559892587363719940186,-0.038443520780172275863595388045723666436970233917236,-0.016277439551397498290752352545496250968426465988159,-0.24093523760581309067774213872326072305440902709961,0.045000697288422583652867103864991804584860801696777,0.0028422112301224582847636312976646877359598875045776,-0.026299999968262256083706418507972557563334703445435,-0.0067147976924714055171894422358036536024883389472961,0.045631051270286535070930256097199162468314170837402,-0.03530167976780575200823619752554805018007755279541,0.028423015357803709662887214904003485571593046188354,0.058170342704455008098207713373994920402765274047852,0.020671075538139016547489745789789594709873199462891,0.022691743490841586455841749625506054144352674484253,-0.056526606509147564461059687346278224140405654907227,0.11376882333098366217871699745955993421375751495361,0.033699619378834345939655037227566936053335666656494,-0.0030024313998875248529762949090127222007140517234802,-0.0075145251553288393980833959062692883890122175216675,0.15527391989252775639229753323888871818780899047852,0.13378681667303743418884209859243128448724746704102,-0.029446130329149666771115789742907509207725524902344,-0.0315040699342272745298032532446086406707763671875,-0.0098002082026081641097370322768256301060318946838379,-0.23122239535023028644822318256046855822205543518066,-0.0080263779532655666476559375155375164467841386795044,-0.014835683525128231380341148337720369454473257064819,-0.043899369438110284746823452906028251163661479949951,0.0068284812656404549058297703822972835041582584381104,0.032346662505114608110456941858501522801816463470459,-0.020350510636117567081493362479704956058412790298462,-0.022487493610959218004463622264665900729596614837646,0.015643861056106846824098610682085563894361257553101,-0.048727601605828223252370179352510604076087474822998,-0.035099759004514147209263796867162454873323440551758,0.047121794034452740840279716394434217363595962524414,0.0073000000916540828260758999590507301036268472671509,0.021018484765527846447330517776208580471575260162354,0.038927705624032506170895118202679441310465335845947,0.0027992130572739716380670227380278447526507079601288,0.038563130029763227624162169604460359551012516021729,-0.018202472062655794537988640513503924012184143066406,0.0035099744554491071543700364543383329873904585838318,0.047485301200545226851801317025092430412769317626953,-0.11078474624804131309918631131949950940907001495361,0.014166719425205679186441365402515657478943467140198,0.066871857799336895111785850076557835564017295837402,0.040928145771640181416195503061317140236496925354004,-0.011173110005945893069556618115711899008601903915405,0.081932942989390397658944209524634061381220817565918,0.058397359649742290599316874022406409494578838348389,-0.022391702435251292779838649948942475020885467529297,0.033501126751272362891409528629083069972693920135498,-0.041477347057645226613420419425892760045826435089111,0.019048131767303730366158731612813426181674003601074,0.053302748987228615318301194747618865221738815307617,-0.010926851067281907053940770424560469109565019607544,-0.023706827377326100680932086106622591614723205566406,-0.010053329169613892113410713591292733326554298400879,-0.040005363897590441590867982313284301199018955230713,0.0027791934218022945959902791912554675946012139320374,0.019985395673691019186035688903757545631378889083862,0.027025655136164176278734672109749226365238428115845,-0.12518246646124775445230170589638873934745788574219,0.032708241726517102432314487714393180795013904571533,0.043989244131295589246288813001228845678269863128662,0.00070044403191480927341194817614677958772517740726471,-0.01101392528643527386755796015904707019217312335968,-0.047983694297093877623172630819681216962635517120361,0.024682628611973799620527003639836038928478956222534,-0.021827403065062159215337089790409663692116737365723,0.085324280322794709974232318927533924579620361328125,0.027745033951436633146148125206309487111866474151611,0.033424493098980781469187206766946474090218544006348,-0.021890318212464236063974354351557849440723657608032,0.050616687062237424032939969720246153883635997772217,0.010997134577940411229168837792258273111656308174133,0.025866000536613000665431272295791131909936666488647,0.023260040940937799086585258123704988975077867507935,0.044728813553090156218683404176772455684840679168701,0.0084811827576328577965592003806705179158598184585571,0.03002913584316638934135212934961600694805383682251,0.0066053149141972475680284482280058000469580292701721,0.010277364834247508518227931517685647122561931610107,-0.0027320142918248221768073857873559973086230456829071,-0.0095837939433179985398991718170691456180065870285034,0.016597580664864601540653410438608261756598949432373,-0.014985270288507136771105621164679178036749362945557,-0.038108487032563809204788185525103472173213958740234,-0.010208983868516973217421828223905322374776005744934,0.074591369998226061954760268690733937546610832214355,0.035046885898869790942899982155722682364284992218018,-0.036985864092824505267032009214744903147220611572266,-0.1298727724275199335579600301571190357208251953125,-0.0043401021095406258978877112042482622200623154640198,-0.023369184875185581434786641352729930076748132705688,-0.049326421557412555851662716577266110107302665710449,-0.017285821212139101249460892972820147406309843063354,0.038766074994233089279216386557891382835805416107178,-0.10883854548341387324938978053978644311428070068359,-0.045373212724476849611043860477366251870989799499512,0.1308322917979875821270496771830949001014232635498,-0.02177890799672772131900799763570830691605806350708,0.033529914792232107245695260644424706697463989257812,-0.077015760414918699172659444229793734848499298095703,-0.1135584517811668858744411636507720686495304107666,0.012854391106638760056135595277737593278288841247559,0.033197223694527829007672181660382193513214588165283,-0.023755748365427015178497072156460490077733993530273,0.17021205551525994681405506980809150263667106628418,0.079702962667283286379849016611842671409249305725098,0.028828524719875587428719043714409053791314363479614,0.024828477013673574264052135163183265831321477890015,0.030831747070660209947279284392607223708182573318481,-0.2342966577254735338620150741917314007878303527832,-0.00080118148239181007606857232161701176664792001247406,-0.0024056150835929813319724601683446962852030992507935,-0.036473309132920156416801660270721185952425003051758,-0.020590937015660622233514942536203307099640369415283,0.022075677674729409644127642309285874944180250167847,0.030846296220213873656712522119960340205579996109009,-0.38880853826726896604881744679005350917577743530273,0.029768314226793879395671638121712021529674530029297,-0.53920391141074153207313202074146829545497894287109,-0.015534120252004570209014566728455974953249096870422,-0.035668135088806909860359439790045144036412239074707,-0.0087443275256994471705818128270948363933712244033813,-0.015182820531459017068809380646143836202099919319153,-0.010585992463454360623664740614913171157240867614746,-0.13456768886467049273214513505081413313746452331543,0.014666665773153564344966071075759828090667724609375,0.33312328114666694967027638085710350424051284790039,0.030728968759752766509718568954667716752737760543823,-0.037882989201886096974902784495498053729534149169922,-0.067409584233006247799835364276077598333358764648438,-0.2348722893023211244489800719748018309473991394043,-0.019545863857551061537609626839184784330427646636963,-0.0046271417067781182158592301334465446416288614273071,-0.0048104506997979461224712594002994592301547527313232,0.66331209201614715897932228472200222313404083251953,0.23429669810706083010742872829723637551069259643555,0.023046931788251980716131228632548300083726644515991,0.043735475307991759919001850676067988388240337371826,0.01079083933295367850324630865088693099096417427063,-0.45028355829108995811438376222213264554738998413086,0.073293211818257153478128884671605192124843597412109,0.046804290614492240207855644484880031086504459381104,0.036802778896646438921980148961665690876543521881104,-0.06720729439113444503295369258921709842979907989502,-0.040881636150910255489421274432970676571130752563477,0.047998072369931636671491759216223726980388164520264,-0.1200106635739054128375613572643487714231014251709,0.005201162162518930230648006585170151083730161190033,-0.84383350865886097569301682597142644226551055908203,-0.091206231938352602672814839479542570188641548156738,0.053102207468467083062435563078906852751970291137695,-0.011970911868406243494522556147785508073866367340088,0.054679898532716937620268282671531778760254383087158,0.054107060828582603795311456451599951833486557006836,-0.019040380673056189753111766549409367144107818603516,-0.014337970577394606314092229126799793448299169540405,0.093898533520070520674849490205815527588129043579102,0.060714018567323349562236955989646958187222480773926,0.014388205597591354270581298635534039931371808052063,-0.034980361779082917716987566336683812551200389862061,-0.070992656908091533729532329743960872292518615722656,0.030963638684992328409251172161020804196596145629883,-0.020159662973777327937829895176946592982858419418335,-0.027901578353453023589869630427529045846313238143921,0.29308061743641616869737731576606165617704391479492,0.022228090508041371820002751746869762428104877471924,0.038120801728698985866294890456629218533635139465332,0.028198533036861841288844843234073778148740530014038,-0.0090299336961796004830116402217754512093961238861084,-0.22680951231502452514199319466570159420371055603027,-0.0051407854636062993297640488776778511237353086471558,-0.017430380998412063620062184554626583121716976165771,-0.023301849708726687926407805662165628746151924133301,-0.074633871108933172444643844301026547327637672424316,-0.061835441216674252862262051166908349841833114624023,0.26564957793887328252324664390471298247575759887695,0.015663479753226402374499670600016543176025152206421,0.023239146364285159784834888796467566862702369689941,-0.32909431320852067237581195513484999537467956542969,0.19110932633996216556404590392048703506588935852051,0.10804207966730920709164109894118155352771282196045,-0.048101115258883830883007703960174694657325744628906,0.044991726207186992503306299795440281741321086883545,0.11342559331431016633739972121475148014724254608154,-0.03478660320599741978542240872229740489274263381958,0.016823976365847009839527004260162357240915298461914,0.022873973443897292756599171070774900726974010467529,0.21716963352988083446604150594794191420078277587891,-0.32035622326039031593225558935955632477998733520508,0.084313445303082060200416947282064938917756080627441,0.068927585484640133128841910092887701466679573059082,-0.019725949022085957629268904156560893170535564422607,0.03911803939423645626316528023380669765174388885498,0.0062479951633151072087901667373444070108234882354736,-0.07053532038311154106491329685013624839484691619873,-0.24684342521969912520596324156940681859850883483887,-0.27418094925603903044830644830653909593820571899414,0.12441243187646584822392270552882109768688678741455,-0.00086521510316977178704084261440243608376476913690567,0.32847459795557865103177164201042614877223968505859,0.047397497893694934267827534313255455344915390014648,-0.06598866431491565154310308116691885516047477722168,0.035244276162467176594095263908457127399742603302002,-0.14438005527711461617457189277047291398048400878906,-0.13848985935656996093534587544127134606242179870605,-0.024547817446357998727446414477526559494435787200928,-0.013551071182129207151612071413637750083580613136292,0.12385473358720695824519708594380063004791736602783,-0.6091343568230769278670777566730976104736328125,0.91454904556701477336133621065528132021427154541016,-0.65059737231038539118088692703167907893657684326172,0.039746253691693253506933558583114063367247581481934,0.079095529811817513743399388204124988988041877746582,0.30332225077461011375490329555759672075510025024414,-0.26903266337955150655503189227601978927850723266602,-0.022103208754810657610256896532519022002816200256348,0.51023193938568811578448958243825472891330718994141,0.079200180542174883346895342128846095874905586242676,-0.70888165435735261965533027250785380601882934570312,-0.19217200762962635685049406220059609040617942810059,0.17680393748070746817724341326538706198334693908691,0.01955655772378659881804985332109936280176043510437,0.043529088690167631880978404979032347910106182098389,0.041518187460268869692914250890680705197155475616455,0.041942777959948183974514535066191456280648708343506,0.06850445639979607648228920879773795604705810546875,-0.47894025018953345629313389508752152323722839355469,0.45856949744561026349742860475089401006698608398438,0.025460783740909469913260565476775809656828641891479,-0.27109388821761143395505655462329741567373275756836,-0.026644766960670009103839817043990478850901126861572,-0.011389440498124738312957227037713892059400677680969,0.023984194863422625410009914048714563250541687011719,-0.014575740455501298362128714813934493577107787132263,-0.033195873022747166003476593232335289940237998962402,-0.069536287542064714739531439136044355109333992004395,-0.025717681982883978247800271788037207443267107009888,0.04648671933345895068701025820701033808290958404541,-0.5465578454220434423405095003545284271240234375,-0.24857492535715294823539522894861875101923942565918,0.47727226457857685470997921584057621657848358154297,-0.044029010979187988006344767200062051415443420410156,0.022558426932570947026635010956852056551724672317505,-0.043236236629569345379930922490530065260827541351318,0.0044938166237157954607805976365852984599769115447998,-0.038089310358748976192977409027662361040711402893066,0.31260192793190133553338228011853061616420745849609,-0.01324922668117047529212637613227343535982072353363,0.13729932747061446285385954979574307799339294433594,-0.20737074362403698501999826930841663852334022521973,0.11260870527212438196862365202832734212279319763184,-0.016611764967162170880676796969055430963635444641113,-0.014986951714884538811034531136101577430963516235352,0.03956692486467432157137835702087613753974437713623,-0.070739265373942206149848743734764866530895233154297,0.029087832008476702944088643221220991108566522598267,-0.27305992156342012711078837128297891467809677124023,-0.076347945609863701599273611009266460314393043518066,0.023393748461067349897479772380393114872276782989502,-0.18140729972564903493825738678424386307597160339355,-0.057763870995152864773469758574719890020787715911865,-0.017070289492497017769245815088652307167649269104004,0.036056938994295614775431602083699544891715049743652,-0.014297435602740115462294667736387054901570081710815,0.028202655062328451512909666121231566648930311203003,-0.034881412808434472672125536973908310756087303161621,-0.018640341183977286038109255628114624414592981338501,0.082624521806873005291826927987131057307124137878418,-0.24761836408968698752808279550663428381085395812988,-0.19473594111278175189383432552858721464872360229492,0.18000603498472853014611416710977209731936454772949,0.0062158972255551411464913336146764777367934584617615,-0.026513571573713153040063872367682051844894886016846,-0.020570589574051216519290363748950767330825328826904,-0.022510557899047031749084624152601463720202445983887,0.025203351930240328049315223779558436945080757141113,0.097549709429016417949753758875885978341102600097656,0.0090666831211879336804848605879669776186347007751465,0.12604202496086264195795934028865303844213485717773,-0.021606479601292662845457570597318408545106649398804,0.037059937755516914048570242812274955213069915771484,0.038498454375789400994101185915496898815035820007324,-0.029401375743511912186356482834526104852557182312012,0.010350300005448290902032582039282715413719415664673,0.07555579882093368948581257882324280217289924621582,0.043374995940718003017977366653212811797857284545898,0.006694943587381978200578913629215094260871410369873,0.012319281154461521332610374201976810581982135772705,-0.04560952751376369518343523168368847109377384185791,-0.12633716969694039344851432815630687400698661804199,-0.03598777567549154426940205553364648949354887008667,-0.029687528546630648218496162371593527495861053466797,0.030784094927036605160441951056782272644340991973877,-0.012413691609894514367162798862409545108675956726074,0.031757789487888231361178981160264811478555202484131,-0.063981344771954135053348977635323535650968551635742,-0.21233606057564435865003815706586465239524841308594,0.068510610416452441540080542381474515423178672790527,-0.40596971716017365983120157579833175987005233764648,0.070041715473940474590008875566127244383096694946289,-0.033136556293118853144807900434898328967392444610596,-0.0076380876810443702057407122651966346893459558486938,-0.048142428838417211656164340638497378677129745483398,-0.0084003061046968151986957806798272940795868635177612,-0.0082551682032708708497414917815149237867444753646851,-0.0076726936842150868928191798090665542986243963241577,0.23613755187366250454239491318730870261788368225098,-0.010246636655227167600479276643454795703291893005371,-0.03356603085721669710306258593845996074378490447998,0.022868208046490496460068087003492109943181276321411,0.046465735356435930447638327223103260621428489685059,-0.025522652207573316013311526262441475410014390945435,-0.0067813966389382151350728733518735680263489484786987,0.005270163590828106509045269945090694818645715713501,0.61199162901935411085219129745382815599441528320312,0.079681173239377942052463765776337822899222373962402,-0.012312070082120811498338497358417953364551067352295,-0.043615422283590124519214725751226069405674934387207,-0.0070051559381695566869341362803424999583512544631958,-0.04628874665493269008331722602633817587047815322876,-0.020215202182550000981064997063185728620737791061401,0.029792214901883808109150919563035131432116031646729,0.016151678202927274852207517596980324015021324157715,-0.021658874240736290112119277750934998039156198501587,-0.027369142176605246868925647163450776133686304092407,-0.003268888318835174149751265915142539597582072019577,-0.30072715840988595292770924061187542974948883056641,0.074572442929409496481518715427228016778826713562012,-0.36388903204843409122659636523167137056589126586914,0.29345340256931673472706734173698350787162780761719,-0.068608525131912054262350864064501365646719932556152,-0.029273087327451600275773913040211482439190149307251,-0.036109457326537010291023221952855237759649753570557,-0.074875116135581606946480803799204295501112937927246,-0.051874655027298544052172246665577404201030731201172,-0.038268756626199766646134747816176968626677989959717,0.25788910416280091952856423631601501256227493286133,-0.080418482733335863721357839040138060227036476135254,-0.041980335168616107754946398245010641403496265411377,-0.0056745856382532560216458428214991727145388722419739,0.025270877694456097412034623062027094420045614242554,0.046398217920571568906318304925662232562899589538574,0.036956861328197386507010691047980799339711666107178,-0.036610877354891289969796019931891351006925106048584,0.45426562069121900755419574124971404671669006347656,0.1471262240923134900771884758796659298241138458252,0.032831076293058356063703229210659628733992576599121,0.034569484900792327164431583241821499541401863098145,0.015280892440376491261955216316437144996598362922668,-0.010519439882473535438633938099428632995113730430603,-0.011024706449937898139479486303571320604532957077026,0.018485760410515528207042734720744192600250244140625,-0.012847962641783764251024457792027533287182450294495,-0.028423837165487450540091174389090156182646751403809,-0.013203762299584857753398381419174256734549999237061,0.010503263745688520142129718237811175640672445297241,-0.249409507799345675493896123953163623809814453125,-0.0029426561879708217246698342961508387816138565540314,-0.37757721589178150356502783324685879051685333251953,0.19412954001130919290396548149146838113665580749512,0.016429094790800877895486920010625908616930246353149,0.041710583596188705035601174131443258374929428100586,-0.067856004987822821084009206060727592557668685913086,0.020374296966203783720850140070979250594973564147949,0.0024088088470036760936621167417115429998375475406647,0.021708182957529759821158066301904909778386354446411,0.25954150708256518154115610741428099572658538818359,0.014987253177302133771986447641211270820349454879761,-0.039726245936176705908504658282254240475594997406006,-0.10791569122292934967966004933259682729840278625488,0.016227360709186421094951668919748044572770595550537,0.028772210943052402981612303278780018445104360580444,0.018340989351950387487022453569807112216949462890625,0.029970973676388370371403979675051232334226369857788,0.32222742283879901581400417853728868067264556884766,0.13247144711339864375787556127761490643024444580078,0.049445450689315238734788948704590438865125179290771,0.042993513354253505565072401850557071156799793243408,0.001119214223093142153084289525111216789809986948967,-0.081017122162637122961825753009179607033729553222656,0.002055744338759968835306235490634207963012158870697,0.02069994117783835463342256844043731689453125,0.0079849509637755083923948973279038909822702407836914,0.019469303787407400002651414183674205560237169265747,-0.02268732948126540860389610543279559351503849029541,-0.036539458099328077367307088252346147783100605010986,-0.059964937253369966774219079752583638764917850494385,-0.042135839496728111353007761863409541547298431396484,-0.14834688750054864092575712675170507282018661499023,-0.023146043867931641313528956516165635548532009124756,0.043928701878717078821434682822655304335057735443115,-0.015834525173510687057198964566850918345153331756592,-0.022097412158824724509598169674973178189247846603394,0.0033322098684656891592892336007025733124464750289917,0.027005619721594757709492995445543783716857433319092,0.029988406662069456987129711933448561467230319976807,0.48513384284550126190893593047803733497858047485352,-0.012068437619798708451690494314334500813856720924377,-0.046615631662642098564930392967653460800647735595703,-0.19867554026634226538305938447592779994010925292969,0.043854100192100869959332953840203117579221725463867,0.013112225433985434316919160835368529660627245903015,0.0049722557761326261274725801797558233374729752540588,0.030336322335751227802225216123588324990123510360718,0.76894574224463141387531095460872165858745574951172,0.29580529907519209631416856609575916081666946411133,0.037827426208967555865125831360273878090083599090576,0.0032754047532544384134511883388540809391997754573822,0.013712008220753260645530247074930230155587196350098,-0.78475684312062399250464750366518273949623107910156,0.031137215718252817669986498572143318597227334976196,0.055539070959023342788363208910595858469605445861816,-0.031700000004405912146232537907053483650088310241699,0.048126951984699024855718363369305734522640705108643,-0.049599994090448115691138752936240052804350852966309,-0.049712736082936172243851302710027084685862064361572,-0.10111039888362173544411604098058887757360935211182,0.020903066909155068597847559885849477723240852355957,-0.049377603027042929473289234465482877567410469055176,0.011080442174395388130192507958327041706070303916931,0.02755644452471620389766293612865410977974534034729,0.030900000000000045485837318892663461156189441680908,0.044299998575889919238957048719385056756436824798584,-0.031801042370597464026271694592651329003274440765381,0.025961768598823074111203723646212893072515726089478,-0.0069999999999916196966043280269786919234320521354675,0.52848394272717991171361973101738840341567993164062,-0.019999999906269671362535333969390194397419691085815,0.032269550694407685142994779425862361676990985870361,-0.2836460717255874786069114179554162546992301940918,0.094278529308419248278205770930071594193577766418457,0.043899997924964427598037985944756655953824520111084,-0.010599999919748654547690946969851211179047822952271,0.04581287037238377518599818927214073482900857925415,0.48530948121855810306612966087413951754570007324219,0.03949938774340562563924805772330728359520435333252,0.027963114934416680168460800359753193333745002746582,-0.017997949867937967222131234734661120455712080001831,0.019500000000014918594137824925383029039949178695679,-0.833275791417431577201568870805203914642333984375,-0.010217078242289850606439038926964713027700781822205,-0.061754189376386256493667303857364458963274955749512,0.017599999999999872690725766233299509622156620025635,0.056138365538714617153370767255182727240025997161865,-0.020699999992015903627073925008517107926309108734131,0.017900000220309603138346687956072855740785598754883,-0.013834517985587036631445201351198193151503801345825,0.0035041050960364999132534702397379078320227563381195,-0.071087726100184156496908371991594322025775909423828,-0.022699999997184510530656709192953712772578001022339,-0.0016608538792075239545753539971428835997357964515686,0.001499999999999999814384588070481640897924080491066,-0.0067000001053374507939408566414840606739744544029236,0.027899997955778868541365511646290542557835578918457,-0.045217594803371299883032463640120113268494606018066,-0.0019999999999882845866383540567312593339011073112488,0.013918949220723699639057358012905751820653676986694,0.02330000013380331691514868452941300347447395324707,0.027999999999978226333796627045558125246316194534302,-0.066763085229596536018803476508765015751123428344727,0.132961454510219567737294710241258144378662109375,-0.031199999854341343291652677294223394710570573806763,0.017400000106559638385350652356464706826955080032349,0.038700020809383825493021902275359025225043296813965,0.039658455674572580529346765843001776374876499176025,0.020387651993310426656869083217316074296832084655762,-0.04530000061801679744899473689656588248908519744873,0.0075011473773659680108760738903583842329680919647217,-0.04140000000000000623945339839337975718080997467041,-0.12504624925845977956306853684509405866265296936035,-0.021491065753016330014402157644326507579535245895386,0.015313659870934449858115300457939156331121921539307,-0.0027000000000000079491968563161208294332027435302734,-0.018100000000000004973799150320701301097869873046875,0.03339999999999999913402604079237789846956729888916,0.026599999999999998645527909957309020683169364929199,-0.015100000000000002309263891220325604081153869628906,-0.024400000000000001548761119352093373890966176986694,0.015200000000000005173639294753229478374123573303223,0.02359999999999999598099265085693332366645336151123,0.037999999999999992117416525161388562992215156555176,-0.036400000000000001798561299892753595486283302307129,0.010199999999999993793853292345374939031898975372314,-0.018700000000000001343369859796439413912594318389893,-0.023400000000000000660582699651968141552060842514038,-0.049800000000000003985700658404311980120837688446045,0.029200000000000003730349362740525975823402404785156,-0.0027000000000000079491968563161208294332027435302734,0.023399999999999990252241843791125575080513954162598,0.04230000000000000426325641456060111522674560546875,-0.029200000000000003730349362740525975823402404785156,0.0078999999999999903632641462536412291228771209716797,-0.0037000000000000018984813721090176841244101524353027,0.038099999999999994981791928694292437285184860229492,0.031699999999999992073007604176382301375269889831543,0.045999999999999999222843882762390421703457832336426,0.014700000000000004729550084903166862204670906066895,-0.028500000000000004496403249731883988715708255767822,0.0034000000000000002442490654175344388931989669799805,-0.041599999999999998090416397644730750471353530883789,-0.019300000000000004651834473179405904375016689300537,-0.032300000000000002320366121466577169485390186309814,0.045199999999999990185628462313616182655096054077148,0.027999999999999997113420135974592994898557662963867,-0.00050000000000000044408920985006261616945266723632812,0.028499999999999997557509345824655611068010330200195,0.039699999999999999178434961777384160086512565612793,0.034400000000000000022204460492503130808472633361816,-0.01070000000000000117683640610266593284904956817627,0.0047999999999999987121412914348184131085872650146484,0.043099999999999999422684027194918598979711532592773,-0.022800000000000000821565038222615839913487434387207,0.018299999999999996824762149572052294388413429260254,0.038499999999999992561505735011451179161667823791504,0.043599999999999999866773237044981215149164199829102,-0.020000000000000003885780586188047891482710838317871,0.03859999999999999542588113854435505345463752746582,-0.042000000000000002609024107869117869995534420013428,-0.037600000000000001476596622751458198763430118560791,0.047099999999999989097609898180962773039937019348145,-0.049800000000000003985700658404311980120837688446045,-0.016899999999999998356869923554768320173025131225586,0.040099999999999996758148768094542901962995529174805,-0.0035999999999999990341059685761138098314404487609863,0.0063999999999999890309965167034533806145191192626953,0.021699999999999997069011214989586733281612396240234,0.027499999999999996669330926124530378729104995727539,0.0062000000000000041189274213593307649716734886169434,0.043099999999999999422684027194918598979711532592773,-0.019100000000000002392530618067212344612926244735718,0.014499999999999999000799277837359113618731498718262,-0.026300000000000003930189507173054153099656105041504,0.033699999999999993849364443576632766053080558776855,0.0095999999999999974242825828696368262171745300292969,-0.01320000000000000339728245535297901369631290435791,-0.016800000000000002431388423929092823527753353118896,0.023199999999999998401278844539774581789970397949219,-0.023600000000000002919886554764161701314151287078857,0.0027000000000000010103029524088924517855048179626465,-0.0024000000000000062949645496246375842019915580749512,0.031200000000000005506706202140776440501213073730469,-0.0042999999999999982680520815847557969391345977783203,-0.040000000000000000832667268468867405317723751068115,0.034599999999999991873167459743854124099016189575195,0.01929999999999999771294056927217752672731876373291,-0.011300000000000004485301019485632423311471939086914,-0.035400000000000000910382880192628363147377967834473,0.0077999999999999944377826466279657324776053428649902,-0.0034000000000000002442490654175344388931989669799805,-0.023100000000000002475797344914099085144698619842529,0.039999999999999993893773364561639027670025825500488,0.031999999999999986788346006960637168958783149719238,0.045199999999999990185628462313616182655096054077148,0.02999999999999999888977697537484345957636833190918,-0.021700000000000004007905118896815110929310321807861,0.0015000000000000013322676295501878485083580017089844,0.036799999999999999378275106209912337362766265869141,-0.0090000000000000079936057773011270910501480102539062,-0.042400000000000000188737914186276611872017383575439,0.029800000000000007038813976123492466285824775695801,0.021799999999999999933386618522490607574582099914551,-0.042800000000000004707345624410663731396198272705078,-0.011300000000000004485301019485632423311471939086914,0.040599999999999997202237977944605518132448196411133,-0.048100000000000003863576125695544760674238204956055,0.02539999999999999202859868319137603975832462310791,-0.026300000000000003930189507173054153099656105041504,-0.039800000000000002042810365310288034379482269287109,-0.048199999999999999789057625321220257319509983062744,0.026300000000000003930189507173054153099656105041504,0.0077999999999999944377826466279657324776053428649902,-0.031900000000000004740652315149418427608907222747803,0.0071999999999999911293180332449992420151829719543457,-0.047100000000000002975397705995419528335332870483398,-0.012200000000000002509104035652853781357407569885254,-0.023600000000000002919886554764161701314151287078857,-0.0085000000000000075495165674510644748806953430175781,0.0022999999999999964916952421845053322613239288330078,-0.030600000000000002198241588757809950038790702819824,-0.026700000000000001509903313490212894976139068603516,-0.035600000000000006639133687258436111733317375183105,-0.0055000000000000048849813083506887778639793395996094,-0.044800000000000006483702463810914196074008941650391,-0.040500000000000001276756478318930021487176418304443,0.0096999999999999933497640824953123228624463081359863,0.018600000000000005417888360170763917267322540283203,0.046099999999999988209431478480837540701031684875488,-0.0035999999999999990341059685761138098314404487609863,-0.040500000000000001276756478318930021487176418304443,-0.011200000000000001620925615952728549018502235412598,-0.023800000000000001709743457922741072252392768859863,-0.033600000000000004862776847858185647055506706237793,-0.0040999999999999994781951784261764260008931159973145,0.014799999999999993716137680621613981202244758605957,-0.043000000000000003497202527569243102334439754486084,-0.0023000000000000034305891460917337099090218544006348,0.025300000000000003042011087472928920760750770568848,0.015799999999999994604316100321739213541150093078613,0.0077999999999999944377826466279657324776053428649902,-0.037800000000000000266453525910037569701671600341797,0.02730000000000000481836792687317938543856143951416,0.00069999999999999923394611300864198710769414901733398,-0.019800000000000005095923683029468520544469356536865,-0.015600000000000002753353101070388220250606536865234,0.038699999999999998290256542077258927747607231140137,0.018000000000000002109423746787797426804900169372559,0.045899999999999996358468479229486547410488128662109,-0.019800000000000005095923683029468520544469356536865,0.005400000000000002020605904817784903571009635925293,0.00039999999999999757971380631715874187648296356201172,0.03859999999999999542588113854435505345463752746582,0.019699999999999995292654375589336268603801727294922,-0.019900000000000004490852134608758206013590097427368,0.043700000000000002731148640577885089442133903503418,-0.035700000000000002564615186884111608378589153289795,-0.025100000000000004252154184314349549822509288787842,0.047399999999999997690736108779674395918846130371094,-0.039699999999999999178434961777384160086512565612793,0.021199999999999996624922005139524117112159729003906,-0.043099999999999999422684027194918598979711532592773,0.034199999999999994293453653426695382222533226013184,-0.01750000000000000166533453693773481063544750213623,0.0083999999999999908073533561037038452923297882080078,-0.020000000000000003885780586188047891482710838317871,-0.017600000000000004529709940470638684928417205810547,0.015299999999999994160226890471676597371697425842285,-0.037200000000000003896882816434299456886947154998779,-0.0071000000000000021427304375265521230176091194152832,0.016299999999999995048405310171801829710602760314941,-0.044200000000000003175237850427947705611586570739746,0.0050000000000000044408920985006261616945266723632812,-0.0065000000000000057731597280508140102028846740722656,0.041599999999999998090416397644730750471353530883789,0.03519999999999999518163207312682061456143856048584,-0.037000000000000005107025913275720085948705673217773,0.030300000000000007482903185973555082455277442932129,0.038300000000000000710542735760100185871124267578125,-0.0060000000000000053290705182007513940334320068359375,-0.039600000000000003252953462151708663441240787506104,-0.0064000000000000029087843245179101359099149703979492,-0.020400000000000004934941344458820822183042764663696,-0.01589999999999999746869150385464308783411979675293,-0.0015000000000000013322676295501878485083580017089844,0.0095999999999999974242825828696368262171745300292969,-0.022300000000000000377475828372553223744034767150879,0.047899999999999998134825318629737012088298797607422,0.034400000000000000022204460492503130808472633361816,-0.025000000000000001387778780781445675529539585113525,-0.0066000000000000016986412276764895068481564521789551,0.040700000000000000066613381477509392425417900085449,0.017000000000000001221245327087672194465994834899902,-0.022499999999999999167332731531132594682276248931885,0.0083999999999999908073533561037038452923297882080078,-0.024600000000000003808064974464286933653056621551514,0.007499999999999992783550339936482487246394157409668,-0.024100000000000003363975764614224317483603954315186,-0.024200000000000002758904216193514002952724695205688,-0.044600000000000000754951656745106447488069534301758,0.01870000000000000828226376370366779156029224395752,-0.022800000000000000821565038222615839913487434387207,-0.03890000000000000401900734914306667633354663848877,-0.026300000000000003930189507173054153099656105041504,0.020599999999999993316457391756557626649737358093262,-0.047300000000000001765254609153998899273574352264404,-0.0060000000000000053290705182007513940334320068359375,0.033499999999999988120613636510825017467141151428223,0.032899999999999998689936830942315282300114631652832,-0.017800000000000003319566843629218055866658687591553,0.012700000000000002953193245502916397526860237121582,-0.021600000000000004612976667317525425460189580917358,-0.039100000000000002808864252301646047271788120269775,0.042200000000000001398881011027697240933775901794434,0.012399999999999994360067034904204774647951126098633,0.044499999999999997890576253212202573195099830627441,0.036900000000000002242650509742816211655735969543457,-0.02480000000000000259792187762286630459129810333252,0.042400000000000007127631818093504989519715309143066,-0.043599999999999999866773237044981215149164199829102,9.9999999999995925481499625675496645271778106689453e-05,-0.014300000000000007149836278586008120328187942504883,0.047000000000000000111022302462515654042363166809082,0.0022999999999999964916952421845053322613239288330078,0.013100431385489795521603895167572773061692714691162,0.040498791410040285709825980120513122528791427612305,-0.035402510861870808978046909487602533772587776184082,0.005528651006090313027585558813825628021731972694397,-0.033600000639184446349361223838059231638908386230469,-0.011499999999994976046524541857252188492566347122192,0.011099987700193176404228623255221464205533266067505,0.034589562596903718205698652354840305633842945098877,0.015700006001581980064063515101224766112864017486572,-0.042700000000000001842970220877759857103228569030762,-0.0062000000000000041189274213593307649716734886169434,0.02139999998697174332651371742031187750399112701416,-0.041570402324619004641448327674879692494869232177734,0.037699993181174354384133096118603134527802467346191,0.040099999999999559607832821939155110158026218414307,-0.022100000000000001587618925213973852805793285369873,0.0050000016043808166721351682326712762005627155303955,0.00065992454265012133636514324308564027887769043445587,-0.0088946949034915089027375501018468639813363552093506,-0.048874003904670039466484610102270380593836307525635,0.029999999889081689630199178964176098816096782684326,0.064012262423778679143460124123521381989121437072754,0.064283769330012757725612004833237733691930770874023,0.016798062508711266577199339167236757930368185043335,0.027489799883315770012703893598882132209837436676025,-0.026998500991531497461561883710601250641047954559326,-0.041544623369488872799415446479542879387736320495605,-0.030819937775864208323595150318396918009966611862183,0.043897497775331605074367047336636460386216640472412,-0.044799990495466561479798173195376875810325145721436,-0.033703247257168826578332954113648156635463237762451,0.042100314630374002788926190987695008516311645507812,-0.018463076886072210536227089505700860172510147094727,-0.021056148108494033427406932901249092537909746170044,0.032899559274807060882395148837531451135873794555664,-0.0028150318722145592151284709814262896543368697166443,-0.047399903107428698056935445492854341864585876464844,-0.007041374688383943147851340427223476581275463104248,0.017203780216212931353236825771091389469802379608154,-0.046598981460924712716398232714709592983126640319824,0.0012002931679239933499686587836663420603144913911819,-0.038899902200473318591988913794921245425939559936523,0.024292957603848787384581697779140085913240909576416,0.046200016340044947060761160173569805920124053955078,0.048700638917450425613431264082464622333645820617676,0.049999915212129909802829530462986440397799015045166,-0.025801512954736354615858928696070506703108549118042,0.0381635278332365310283158521542645758017897605896,0.03259472611674464614939239481827826239168643951416,0.030208918868965706217011302214814350008964538574219,0.039904872102438079806141502103855600580573081970215,0.038578820599214809494714728543840465135872364044189,-0.009604840688946217688859441352633439237251877784729,-0.029459758057080658727455713119525171350687742233276,0.019175922897442326808814527794311288744211196899414,-0.002198939111871865952768656526927770755719393491745,-0.0064543028353296729229815476003295771079137921333313,0.012311105958398443210866091135358146857470273971558,-0.038137205800963525081925808990490622818470001220703,0.022397445664425918998574616125551983714103698730469,-0.061817090033785777880570577735852566547691822052002,-0.020496099204833501117306582273158710449934005737305,0.049670144252740154600100908055537729524075984954834,